[[[[0.033294677734375, 0.006103515625, -0.0118255615234375, 0.032318115234375, -0.035797119140625, 0.00714111328125, 0.030731201171875, -0.03558349609375, -0.035064697265625, -0.03021240234375, -0.02337646484375, -0.0072784423828125, -0.0374755859375, 0.015289306640625, -0.017486572265625, 0.003173828125, 0.012115478515625, -0.0081634521484375, 0.011383056640625, 0.019317626953125, -0.019775390625, 0.033233642578125, -0.00323486328125, 0.018218994140625, -0.021240234375, -0.0249176025390625, -0.000152587890625, -0.036163330078125, 0.010498046875, 0.024169921875, -0.0179290771484375, 0.035797119140625], [-0.01910400390625, 0.034027099609375, -0.00103759765625, 0.011749267578125, 0.004486083984375, -0.006256103515625, -0.027557373046875, 0.003662109375, -0.028594970703125, -0.0170440673828125, -0.03131103515625, -0.020721435546875, -0.03167724609375, -0.0338134765625, -0.02813720703125, -0.019622802734375, 0.034637451171875, -0.027496337890625, 0.0172119140625, -0.0107269287109375, -0.03204345703125, 0.032318115234375, 0.031219482421875, -0.014404296875, -0.028656005859375, 0.031890869140625, 0.030120849609375, 0.00250244140625, 0.032867431640625, -0.028961181640625, -0.033966064453125, 0.019775390625], [-0.03167724609375, 0.036590576171875, -0.0216064453125, -0.004486083984375, 0.003448486328125, 0.0155029296875, -0.028076171875, -0.004119873046875, -0.0296173095703125, 0.033233642578125, -0.0224151611328125, -0.0209503173828125, -0.0269775390625, 0.022857666015625, -0.01727294921875, 0.005218505859375, -0.0076446533203125, -0.0216827392578125, -0.015655517578125, 0.024688720703125, -0.02520751953125, 0.007568359375, -0.00439453125, 0.0238037109375, -0.00616455078125, -0.03643798828125, -0.02984619140625, 0.005279541015625, 0.01580810546875, -0.014617919921875, -0.002655029296875, 0.01300048828125]], [[-0.0328369140625, 0.00653076171875, 0.034759521484375, 0.011474609375, -0.016021728515625, -0.0064697265625, 0.00689697265625, 0.035552978515625, -0.007049560546875, 0.030487060546875, -0.000152587890625, -0.031982421875, -0.0117645263671875, 0.003753662109375, 0.035736083984375, -0.004486083984375, -0.035797119140625, -0.00103759765625, -0.031982421875, 0.01983642578125, 0.033172607421875, 0.026458740234375, 0.033294677734375, 0.02374267578125, 0.029083251953125, -0.026092529296875, -0.0160980224609375, -0.03521728515625, -0.0367431640625, 0.00860595703125, -0.024261474609375, 0.026214599609375], [-0.034759521484375, 0.010498046875, -0.005218505859375, 0.0108642578125, -0.026092529296875, 0.030487060546875, 0.01226806640625, 0.01409912109375, -0.003753662109375, -0.022918701171875, -0.0285186767578125, 0.01983642578125, 0.036285400390625, -0.0117645263671875, -0.02197265625, -0.033660888671875, 0.019561767578125, 0.022857666015625, -0.03668212890625, 0.010223388671875, 0.0162353515625, 0.018218994140625, 0.011474609375, -0.028961181640625, 0.0093994140625, 0.008758544921875, 0.027923583984375, 0.0155029296875, -0.0310821533203125, -0.0170440673828125, 0.018310546875, 0.008819580078125], [0.009185791015625, -0.01116943359375, 0.01226806640625, -0.01007080078125, -0.00213623046875, -0.034393310546875, 0.024322509765625, 0.003662109375, 0.00177001953125, 0.01947021484375, -0.032623291015625, -0.037628173828125, 0.01763916015625, -0.00140380859375, 0.011688232421875, -0.0210113525390625, -0.003173828125, 0.0028076171875, 0.007720947265625, -0.034088134765625, 0.009124755859375, 0.00689697265625, -0.03204345703125, -0.015289306640625, 0.029815673828125, 0.024993896484375, 0.027862548828125, 0.029327392578125, 0.036590576171875, -0.027130126953125, 0.002197265625, -0.009552001953125]], [[-0.036224365234375, 0.027313232421875, -0.031829833984375, -0.0213165283203125, -0.0234375, 0.037200927734375, -0.00042724609375, 0.012481689453125, -0.008819580078125, 0.021820068359375, 0.030059814453125, -0.035125732421875, -0.0074920654296875, -0.035430908203125, 0.019683837890625, -0.0057373046875, 0.006683349609375, 0.00250244140625, 0.030059814453125, 0.02484130859375, 0.004852294921875, 0.022491455078125, -0.0147705078125, 0.014190673828125, 0.031036376953125, 0.022552490234375, -0.005523681640625, 0.01617431640625, 0.00860595703125, 0.01763916015625, 0.035064697265625, 0.01727294921875], [-0.022857666015625, -0.018524169921875, 0.004638671875, -0.0301361083984375, -0.03497314453125, 0.0238037109375, -0.015869140625, -0.009552001953125, 0.001617431640625, 0.0040283203125, 0.01483154296875, -0.0128631591796875, 0.003448486328125, -0.014404296875, -0.0191802978515625, 0.029571533203125, 0.02191162109375, 0.00433349609375, -0.03167724609375, 0.029022216796875, -0.0255126953125, -0.0374755859375, 0.016387939453125, 0.0245361328125, 0.006256103515625, 0.029083251953125, 0.037506103515625, 0.035003662109375, -0.0085296630859375, 0.017486572265625, -0.006011962890625, -0.029327392578125], [0.0147705078125, -0.0042724609375, -0.0088958740234375, 0.0108642578125, 0.02227783203125, 0.004638671875, -0.01654052734375, -0.022125244140625, 0.035491943359375, 0.033782958984375, 0.025115966796875, -0.036895751953125, 0.023651123046875, 0.000732421875, 0.011749267578125, -0.0042724609375, -0.024169921875, -0.028594970703125, 0.01513671875, 0.010284423828125, -0.0032958984375, 0.014923095703125, 0.026031494140625, -0.0269775390625, -0.0174102783203125, -0.03094482421875, 0.002197265625, 0.0201416015625, -0.01837158203125, 0.005279541015625, 0.004547119140625, 0.00726318359375]], [[0.037017822265625, 0.00677490234375, 0.023223876953125, -0.0112457275390625, 0.034454345703125, -0.035858154296875, -0.012786865234375, 0.02081298828125, 0.002288818359375, -0.0138092041015625, 0.036590576171875, 0.000946044921875, -0.0262451171875, -0.033660888671875, 0.022186279296875, -0.017120361328125, -0.0050048828125, -0.0010986328125, 0.014923095703125, 0.01220703125, 0.026702880859375, 0.008087158203125, -0.0107269287109375, 0.012054443359375, 0.003082275390625, 0.022857666015625, 0.017486572265625, 0.028289794921875, 0.02227783203125, -0.022125244140625, 0.005218505859375, 0.02227783203125], [-0.008453369140625, 0.00714111328125, -0.0316162109375, 0.014190673828125, -0.0003662109375, -0.026458740234375, -0.0080108642578125, 0.01409912109375, 0.022430419921875, 0.035247802734375, 0.030731201171875, -0.023956298828125, 0.0245361328125, -0.033355712890625, 0.0025634765625, 0.00079345703125, -0.0092620849609375, 0.026519775390625, 0.008453369140625, 0.02227783203125, -0.00177001953125, 0.002288818359375, 0.029571533203125, -0.0204315185546875, 0.02117919921875, -0.03350830078125, -0.018218994140625, -0.00537109375, -0.0080108642578125, 0.021087646484375, 0.020294189453125, -0.00396728515625], [-0.01763916015625, -0.000152587890625, -0.0201416015625, -0.032989501953125, 0.00537109375, -0.0064697265625, -0.00250244140625, -0.02301025390625, -0.0078582763671875, 0.034759521484375, -0.003387451171875, -0.026153564453125, -0.021820068359375, -0.004791259765625, 0.00177001953125, -0.036376953125, -0.007354736328125, 0.023895263671875, -0.003387451171875, 0.01263427734375, 0.025299072265625, 0.02197265625, 0.020721435546875, 0.01080322265625, -0.000732421875, 0.031280517578125, 0.023590087890625, -0.012420654296875, 0.019775390625, 0.018585205078125, -0.01947021484375, 0.012847900390625]], [[0.031524658203125, 0.037506103515625, 0.01409912109375, 0.019775390625, 0.018218994140625, -0.0223388671875, -0.003753662109375, 0.00360107421875, 0.031585693359375, 0.013671875, -0.0220489501953125, -0.007049560546875, 0.018218994140625, 0.024017333984375, -0.033203125, -0.0177154541015625, 0.000152587890625, 0.010223388671875, -0.021453857421875, -0.0299072265625, 0.031402587890625, 0.025115966796875, 0.028045654296875, 0.026702880859375, -0.028076171875, -0.00103759765625, 0.0147705078125, -0.0152130126953125, 0.002349853515625, -0.008087158203125, -0.009185791015625, 0.025604248046875], [-0.003814697265625, 0.01507568359375, 0.015655517578125, 0.022186279296875, -0.02447509765625, -0.02520751953125, -0.015655517578125, -0.00390625, -0.019256591796875, -0.01263427734375, -0.036956787109375, 0.030731201171875, -0.0243988037109375, 0.033233642578125, 0.0133056640625, 0.025604248046875, 0.031097412109375, 0.00787353515625, -0.03277587890625, -0.02197265625, -0.02911376953125, -0.0103607177734375, -0.033721923828125, -0.005889892578125, -0.033294677734375, 0.00714111328125, -0.006988525390625, -0.024322509765625, -0.03497314453125, 0.008453369140625, 0.033416748046875, 0.00079345703125], [-0.033660888671875, -0.0097808837890625, 0.026153564453125, 0.013092041015625, -0.01727294921875, -0.00030517578125, -0.0269775390625, -0.00250244140625, -0.033721923828125, -0.016387939453125, 0.02301025390625, 0.0072021484375, 0.02020263671875, 0.028594970703125, -0.0235137939453125, 0.019195556640625, 0.016326904296875, 0.012786865234375, -0.00079345703125, 0.021820068359375, -0.0035400390625, -0.03497314453125, -0.037109375, -0.03460693359375, 0.02337646484375, -0.0211639404296875, 0.031585693359375, -0.0162353515625, 0.022430419921875, -0.017120361328125, -0.00140380859375, -0.0150604248046875]], [[-0.0285186767578125, 0.027557373046875, 0.0166015625, -0.0068359375, -0.01617431640625, 0.012115478515625, 0.033905029296875, -0.03021240234375, -0.02703857421875, 0.025115966796875, -0.0105133056640625, -0.020355224609375, 0.017486572265625, -0.03314208984375, 0.005157470703125, 0.035064697265625, 0.00640869140625, 0.035125732421875, 0.02056884765625, -0.003387451171875, 0.030303955078125, -0.0088958740234375, -0.014923095703125, 0.004119873046875, 0.01806640625, -0.031005859375, -0.028228759765625, 0.004852294921875, 0.015289306640625, 0.013824462890625, 0.017578125, 0.0108642578125], [-0.014190673828125, 0.013824462890625, -0.00286865234375, -0.001983642578125, -0.028961181640625, -0.030059814453125, 0.00787353515625, 0.028167724609375, -0.035430908203125, 0.026763916015625, -0.0074920654296875, 0.0245361328125, -0.023223876953125, 0.033905029296875, 0.036468505859375, -0.03668212890625, -0.0227813720703125, -0.0074920654296875, -0.0116119384765625, 0.017578125, 0.01446533203125, 0.00714111328125, 0.001312255859375, 0.023162841796875, 0.016082763671875, -0.037200927734375, -0.013519287109375, 0.027313232421875, -0.035491943359375, -0.037200927734375, 0.025299072265625, 0.016387939453125], [-0.0152130126953125, 0.023590087890625, 0.025604248046875, 0.022705078125, -0.00079345703125, 0.019683837890625, -0.0189666748046875, 0.0184326171875, -0.026519775390625, -0.01220703125, -0.00067138671875, 0.026947021484375, -0.027923583984375, 0.02203369140625, 0.003082275390625, -0.0088958740234375, 0.0050048828125, 0.0040283203125, 0.011474609375, -0.02880859375, -0.0247650146484375, -0.03497314453125, -0.01873779296875, 0.008514404296875, 0.019195556640625, -0.03204345703125, -0.002716064453125, 0.00726318359375, -0.0057373046875, 0.0086669921875, 0.01904296875, -0.030792236328125]], [[0.018890380859375, 0.034149169921875, 0.015594482421875, -0.018218994140625, -0.0360107421875, 0.026947021484375, 0.030426025390625, -0.03314208984375, 0.030059814453125, -0.0088958740234375, -0.0134429931640625, -0.0269775390625, -0.0303497314453125, 0.029205322265625, -0.00537109375, -0.0307159423828125, 0.021026611328125, 0.032012939453125, -0.01080322265625, 0.012725830078125, -0.03533935546875, -0.0067596435546875, -0.004791259765625, 0.02056884765625, 0.022430419921875, 0.0208740234375, -0.010955810546875, 0.0040283203125, -0.031463623046875, 0.037139892578125, 0.004547119140625, -0.006988525390625], [-0.0316162109375, 0.0025634765625, 0.0010986328125, -0.022552490234375, -0.00543212890625, 0.004791259765625, 0.0118408203125, 0.000152587890625, 0.0003662109375, -0.0186004638671875, -0.006011962890625, -0.025787353515625, 0.035614013671875, 0.017425537109375, 0.02081298828125, 0.027069091796875, -0.02374267578125, -0.0296173095703125, 0.026092529296875, -0.037109375, -0.00250244140625, 0.01007080078125, 0.029571533203125, -0.03204345703125, -0.0374755859375, -0.006103515625, -0.024261474609375, 0.030059814453125, 0.019561767578125, 0.027984619140625, 0.022125244140625, -0.023895263671875], [-0.03643798828125, 0.033599853515625, 0.01483154296875, 0.035186767578125, 0.0223388671875, -0.0071258544921875, -0.019256591796875, -0.034332275390625, 0.0244140625, 0.018157958984375, 0.012481689453125, -0.0303497314453125, 0.012420654296875, -0.001678466796875, 0.024688720703125, -0.02447509765625, -0.0196990966796875, 0.0169677734375, 0.028289794921875, -0.0018310546875, 6.103515625e-05, 0.00787353515625, 0.004547119140625, -0.023223876953125, -0.0028076171875, 0.022552490234375, 0.0223388671875, 0.029998779296875, 0.000213623046875, 0.012725830078125, -0.025360107421875, -0.02947998046875]], [[-0.004547119140625, -0.00213623046875, 0.014617919921875, 0.023223876953125, 0.031768798828125, -0.006317138671875, 0.00390625, 0.033599853515625, 0.013214111328125, -0.0186004638671875, 0.012939453125, -0.018524169921875, 0.022918701171875, 0.00799560546875, -0.0164642333984375, 0.004852294921875, 0.015960693359375, -0.0088958740234375, 0.006011962890625, -0.0330810546875, -0.0312347412109375, 0.029998779296875, -0.026611328125, 0.004791259765625, 0.003021240234375, -0.0182952880859375, -0.009185791015625, 0.017578125, -0.000213623046875, -0.0251312255859375, -0.005279541015625, 0.030792236328125], [-0.032928466796875, 0.0025634765625, -0.0299835205078125, -0.0010986328125, 0.005645751953125, -0.0096282958984375, -0.0208740234375, -0.0081634521484375, -0.0166778564453125, 0.007049560546875, -0.008087158203125, -0.0220489501953125, 0.0234375, -0.00506591796875, -0.0018310546875, 0.00750732421875, 0.0118408203125, -0.001312255859375, 0.019195556640625, -0.03350830078125, -0.0079345703125, 0.033294677734375, -0.00433349609375, 0.020721435546875, -0.034698486328125, -0.0279998779296875, 0.026947021484375, -0.0132293701171875, -0.02264404296875, -0.0119781494140625, 0.035064697265625, 0.033538818359375], [0.023956298828125, -0.008819580078125, 0.028717041015625, 0.009765625, 0.026947021484375, 0.034393310546875, 0.010498046875, -0.014251708984375, 0.033050537109375, 0.026580810546875, 0.010498046875, 0.006317138671875, -0.010284423828125, 0.006622314453125, 0.027252197265625, 0.032562255859375, 0.016387939453125, -0.0093994140625, 0.024993896484375, -0.00103759765625, 0.027618408203125, -0.02703857421875, 0.009857177734375, 0.0003662109375, -0.0116119384765625, -0.0147705078125, -0.0193328857421875, -0.0207977294921875, 0.02020263671875, 0.00762939453125, -0.0102081298828125, -0.0360107421875]], [[-0.0210113525390625, -0.034912109375, -0.0068359375, 0.033172607421875, 0.021453857421875, -0.03204345703125, 0.002349853515625, -0.0245361328125, 0.009124755859375, -0.031829833984375, 0.033233642578125, 0.034759521484375, -0.032623291015625, 0.007354736328125, 0.0111083984375, -0.027130126953125, 0.017425537109375, 0.02264404296875, -0.034027099609375, 0.00543212890625, -0.0097808837890625, -0.0338134765625, -0.0316162109375, 0.006622314453125, 0.018951416015625, -0.003814697265625, 0.00543212890625, 0.0028076171875, -0.00067138671875, 0.01519775390625, -0.0072784423828125, 0.021392822265625], [-0.0210113525390625, -0.0245361328125, -0.033660888671875, 0.026397705078125, -0.005950927734375, -0.00067138671875, -0.01763916015625, -6.103515625e-05, -0.023223876953125, 0.030853271484375, 0.02374267578125, 0.018829345703125, -0.025787353515625, 0.029754638671875, 0.021759033203125, -0.0086669921875, 0.005279541015625, -0.0097808837890625, -0.027557373046875, 0.012054443359375, 0.01123046875, 0.033782958984375, 0.022430419921875, 0.030792236328125, -0.026611328125, -0.002197265625, -0.004791259765625, 0.017059326171875, -0.0166778564453125, -0.000579833984375, 0.011383056640625, 0.0166015625], [0.018951416015625, 0.034271240234375, -0.015655517578125, 0.003387451171875, 0.029998779296875, -0.008087158203125, -0.00469970703125, -0.003662109375, -0.027496337890625, -0.026611328125, -0.014556884765625, 0.00726318359375, 0.034820556640625, -0.03704833984375, -0.022857666015625, 0.008819580078125, -0.0103607177734375, 0.025726318359375, -0.032928466796875, -0.034698486328125, -0.0032958984375, -0.005950927734375, -0.03704833984375, -0.0210113525390625, 0.024932861328125, 0.009552001953125, -0.02410888671875, 0.00213623046875, 0.026824951171875, -0.0168304443359375, 0.034149169921875, -0.0262451171875]], [[-0.02984619140625, 0.028045654296875, -0.0306396484375, 0.009613037109375, -0.03564453125, 0.01519775390625, 0.011016845703125, -0.0116119384765625, -0.0071258544921875, -0.021392822265625, -0.032989501953125, -0.02557373046875, -0.0291748046875, -0.029541015625, 0.036529541015625, -0.010284423828125, -0.03631591796875, 0.035552978515625, -0.036956787109375, 0.036834716796875, -0.024627685546875, -0.036956787109375, -0.005279541015625, -0.00433349609375, 0.000885009765625, -0.034088134765625, 0.035491943359375, -0.02197265625, 0.022430419921875, 0.02484130859375, 0.029571533203125, -0.0243988037109375], [0.019683837890625, 0.01434326171875, -0.0068359375, -0.0223388671875, -0.0162353515625, -0.006103515625, -0.0206451416015625, -0.028289794921875, -0.02813720703125, 0.0035400390625, 0.035736083984375, -0.014404296875, 0.00213623046875, 0.00439453125, 0.006317138671875, -0.0227813720703125, 0.034515380859375, 0.00653076171875, 0.029449462890625, -0.001190185546875, 0.029266357421875, -0.005523681640625, -0.0209503173828125, -0.0223388671875, -0.020721435546875, 0.018951416015625, -0.01873779296875, 0.020660400390625, -0.02337646484375, -0.00360107421875, -0.0240325927734375, 0.009765625], [0.0172119140625, 0.009765625, -0.029693603515625, 0.028045654296875, 0.036895751953125, -0.027862548828125, -0.03387451171875, -0.026824951171875, 0.023651123046875, -0.01763916015625, -0.01080322265625, 0.00787353515625, -0.0035400390625, 0.002410888671875, -0.0190277099609375, 0.01153564453125, -0.006317138671875, 0.0179443359375, -0.004638671875, 0.02056884765625, -0.0263824462890625, -0.0211639404296875, -0.037109375, 0.036407470703125, 0.007415771484375, 0.032867431640625, -0.03497314453125, 0.02447509765625, 0.010589599609375, -0.0240325927734375, -0.014404296875, -0.034027099609375]], [[0.027252197265625, -0.0208740234375, -0.00897216796875, -0.01617431640625, 0.01080322265625, 0.020294189453125, -0.0166168212890625, -0.03631591796875, -0.01007080078125, 0.027191162109375, -0.0306396484375, 0.02264404296875, 0.01153564453125, 0.02410888671875, -0.0208740234375, -0.000152587890625, -0.02630615234375, -0.0305023193359375, -0.0072784423828125, 0.0029296875, -0.0272674560546875, 0.027801513671875, 0.0028076171875, 0.035797119140625, -0.01910400390625, -0.0223388671875, -0.023956298828125, -0.00067138671875, 0.005645751953125, 0.01446533203125, 0.029815673828125, -0.027923583984375], [-0.0207977294921875, -0.022125244140625, -0.024261474609375, 0.0072021484375, 0.032318115234375, 0.00030517578125, -0.0196990966796875, 0.026702880859375, 0.026947021484375, -0.0097808837890625, 0.028656005859375, -0.01080322265625, -0.004791259765625, -0.0113983154296875, 0.0147705078125, -0.0119781494140625, 0.0234375, -0.0256500244140625, 0.012939453125, -0.034393310546875, 0.02020263671875, -0.034698486328125, -0.0132293701171875, 0.022430419921875, 0.00067138671875, 0.035186767578125, 0.019989013671875, 0.0018310546875, 0.009490966796875, -0.019256591796875, -0.034088134765625, -0.013153076171875], [-0.0321044921875, -0.013153076171875, 0.02197265625, -0.0200653076171875, 0.035858154296875, 0.01153564453125, -0.029022216796875, -0.0291748046875, -0.036529541015625, 0.01153564453125, -0.0292510986328125, -0.0081634521484375, -0.03424072265625, -0.000152587890625, 0.00537109375, -0.03057861328125, 0.01373291015625, 0.005523681640625, 0.01080322265625, 0.034515380859375, 0.033538818359375, 0.026153564453125, -0.02880859375, 0.02020263671875, -0.031158447265625, -0.02301025390625, 0.00146484375, 0.028961181640625, -0.009552001953125, -0.035858154296875, 0.0093994140625, -0.0209503173828125]]], [[[0.026031494140625, -0.03173828125, 0.027557373046875, -0.0113983154296875, -0.0247650146484375, 0.0230712890625, -0.02703857421875, 0.02227783203125, 0.034088134765625, -0.027557373046875, 0.020294189453125, 0.027435302734375, 0.033905029296875, 0.01763916015625, 0.0238037109375, 0.027801513671875, 0.0230712890625, -0.0312347412109375, -0.0133056640625, 0.01043701171875, 0.027191162109375, 0.01904296875, 0.032928466796875, 0.025299072265625, -0.006103515625, -0.002044677734375, -0.0152130126953125, -0.0335693359375, 0.031158447265625, -0.0191802978515625, -0.005279541015625, 0.025115966796875], [0.008819580078125, -0.014404296875, -0.032989501953125, 0.027252197265625, 0.0042724609375, -0.037567138671875, -0.033660888671875, -0.0096282958984375, -0.033966064453125, -0.0234375, 0.0003662109375, -0.01727294921875, 0.022186279296875, 0.032440185546875, 0.008392333984375, 0.029205322265625, -0.020355224609375, -0.0029296875, 0.01727294921875, 0.01123046875, -0.035797119140625, -0.032470703125, 0.005645751953125, 0.031646728515625, 0.01654052734375, -0.01983642578125, 0.031463623046875, -0.033447265625, -0.029022216796875, -0.03564453125, -0.020721435546875, -0.0144805908203125], [-0.033447265625, -0.0207977294921875, 0.027069091796875, 0.002349853515625, 0.024932861328125, 0.00799560546875, -0.0206451416015625, -0.026153564453125, 0.026763916015625, 0.022796630859375, 0.00360107421875, 0.036834716796875, -0.0105133056640625, 0.026947021484375, -0.026458740234375, -0.0072784423828125, -0.010955810546875, -0.0186614990234375, -0.0080108642578125, -0.02227783203125, -0.0175628662109375, 0.031219482421875, 0.028350830078125, -0.0102081298828125, -0.0080108642578125, 0.0103759765625, -0.01617431640625, -0.0133819580078125, 0.00439453125, -0.027496337890625, -0.0079345703125, 0.030487060546875]], [[-0.028289794921875, 0.030548095703125, -0.01763916015625, -0.036224365234375, -0.016387939453125, 0.01300048828125, 0.0234375, -0.0141143798828125, 0.009613037109375, -0.03570556640625, -0.00396728515625, -0.03350830078125, 0.023651123046875, 0.006683349609375, 0.00689697265625, -0.0166778564453125, -0.03485107421875, -0.0159454345703125, 0.01080322265625, -0.0079345703125, 0.01446533203125, -0.033447265625, -0.0213165283203125, -0.026153564453125, 0.036956787109375, -0.0086669921875, 0.0177001953125, 0.036285400390625, -0.03131103515625, 0.036468505859375, 0.010009765625, -0.0146942138671875], [0.027130126953125, 0.009490966796875, 0.031097412109375, 0.0205078125, -0.0170440673828125, -0.036956787109375, -0.035125732421875, -0.0133056640625, -0.0130157470703125, 0.00750732421875, 0.023284912109375, -0.0177154541015625, -0.02703857421875, -0.021453857421875, 0.01947021484375, 0.015869140625, -0.03424072265625, 0.00860595703125, -0.0155029296875, -0.034912109375, 0.013092041015625, 0.02093505859375, 0.019927978515625, 0.032928466796875, -0.0223388671875, 0.008453369140625, 0.015716552734375, -0.029541015625, -0.0224151611328125, 0.017486572265625, -0.0216827392578125, -0.023223876953125], [-0.027862548828125, -0.03704833984375, 0.0172119140625, 0.029693603515625, -0.01763916015625, -0.01763916015625, 0.02447509765625, -0.028289794921875, -0.009918212890625, 0.035247802734375, -0.02984619140625, -0.034454345703125, 0.014251708984375, -0.03668212890625, 0.013092041015625, 0.023162841796875, -0.008453369140625, -0.00860595703125, 0.030853271484375, -0.011322021484375, -0.0118255615234375, -0.00543212890625, 0.011993408203125, 0.025054931640625, 0.007781982421875, 0.015655517578125, -0.0305023193359375, -0.0155029296875, 0.027191162109375, 0.0133056640625, -0.0169830322265625, 0.030364990234375]], [[-0.005645751953125, 0.022918701171875, 0.00860595703125, -0.022491455078125, 0.014190673828125, -0.02740478515625, 0.016387939453125, -0.0323486328125, 0.016082763671875, 0.012939453125, -0.037109375, -0.01910400390625, -0.021087646484375, 0.035186767578125, -0.031982421875, 0.029815673828125, 0.007354736328125, 0.030364990234375, 0.006256103515625, -0.0072784423828125, -0.0216064453125, -0.00616455078125, -0.035430908203125, 0.018157958984375, -0.026519775390625, 0.004119873046875, 0.029754638671875, 0.009552001953125, -0.0305023193359375, -0.0251312255859375, -0.036956787109375, -0.0175628662109375], [0.019195556640625, -0.0256500244140625, -0.01263427734375, -0.00146484375, 0.026885986328125, 0.032318115234375, -0.0003662109375, -0.02264404296875, -0.0139617919921875, 0.01116943359375, 0.035736083984375, -0.0087432861328125, 0.01263427734375, -0.034759521484375, 0.019989013671875, -0.0299835205078125, 0.024261474609375, 0.02484130859375, 0.036041259765625, -0.0125732421875, -0.0162353515625, -0.0235137939453125, -0.0118255615234375, -0.034454345703125, 0.009490966796875, 0.034454345703125, 0.027862548828125, -0.03594970703125, 0.0064697265625, -0.01226806640625, -0.031890869140625, 0.025665283203125], [0.034149169921875, -0.025421142578125, -0.0252838134765625, -0.02703857421875, -0.0042724609375, 0.0010986328125, -0.016754150390625, 0.01397705078125, -0.0155792236328125, 0.024322509765625, -0.01617431640625, 0.018218994140625, 0.026885986328125, -0.033660888671875, -0.032989501953125, -0.03350830078125, 0.025054931640625, 0.019989013671875, -0.006988525390625, 0.026519775390625, -0.004119873046875, -0.00616455078125, -0.0206451416015625, -0.022125244140625, 0.0107421875, -0.012420654296875, 0.031097412109375, 0.032684326171875, -0.0166168212890625, 0.006103515625, -0.022491455078125, 0.030426025390625]], [[0.005279541015625, -0.0153656005859375, -0.01226806640625, -0.029327392578125, 0.011383056640625, -0.025421142578125, -0.01080322265625, -0.0150604248046875, 0.034332275390625, -0.0299835205078125, -0.034088134765625, 0.013671875, 0.035186767578125, -0.00103759765625, -0.005523681640625, -0.0223388671875, 0.024688720703125, -0.031524658203125, -0.001617431640625, -0.004486083984375, 0.01434326171875, 0.0172119140625, 0.030670166015625, 0.004638671875, 0.00250244140625, 0.0003662109375, 0.029266357421875, 0.019317626953125, -0.025787353515625, 0.0179443359375, 0.012054443359375, 0.028350830078125], [0.001251220703125, 0.0118408203125, -0.02630615234375, -0.037567138671875, -0.012939453125, 0.01373291015625, 0.014190673828125, 0.0064697265625, 0.032501220703125, 0.00830078125, 0.026519775390625, 0.026580810546875, -0.0199127197265625, -0.01153564453125, -0.0374755859375, -0.01910400390625, 0.0155029296875, -0.014190673828125, 0.00799560546875, 0.034881591796875, -0.0139617919921875, 0.013824462890625, -0.003173828125, -0.0269012451171875, 0.026580810546875, -0.031524658203125, 0.00439453125, 0.015594482421875, -0.02484130859375, 0.02093505859375, -0.0269012451171875, -0.03350830078125], [0.0169677734375, -0.034027099609375, -0.000946044921875, -0.0195465087890625, -0.0098419189453125, -0.035064697265625, 0.00714111328125, 0.017578125, -0.0144805908203125, 0.00543212890625, 0.016448974609375, -0.0063934326171875, -0.01153564453125, -0.0149993896484375, -0.0211639404296875, -0.0153656005859375, 0.0025634765625, -0.0190277099609375, -0.0216827392578125, -0.0155029296875, -0.008087158203125, -0.0234375, 0.01580810546875, 0.027069091796875, 0.030364990234375, 0.031219482421875, 0.023956298828125, 0.025115966796875, -0.02484130859375, 0.003814697265625, -0.0149993896484375, -0.013671875]], [[0.020721435546875, -0.0102081298828125, -0.0249176025390625, 0.01507568359375, 0.023956298828125, -0.03021240234375, -0.014251708984375, -0.036224365234375, 0.00750732421875, 0.009552001953125, 0.021026611328125, 0.037017822265625, 0.01373291015625, 0.017486572265625, -0.02777099609375, 0.033782958984375, -0.0328369140625, 0.033721923828125, -0.0189666748046875, 0.020355224609375, 0.036102294921875, -0.02587890625, 0.01300048828125, 0.00689697265625, -0.0094757080078125, -0.0260162353515625, -0.03167724609375, 0.0208740234375, -0.0279998779296875, 0.00537109375, 0.005950927734375, -0.02703857421875], [-0.00933837890625, 0.01580810546875, 0.001678466796875, 0.012725830078125, 0.018951416015625, 0.012359619140625, 0.016387939453125, -0.0283660888671875, -0.0138092041015625, -0.0066070556640625, 0.01336669921875, 0.01300048828125, -0.029754638671875, 0.029754638671875, 0.029937744140625, 0.019927978515625, -0.01007080078125, 0.010498046875, -0.012786865234375, -0.00830078125, -0.0071258544921875, -0.0287322998046875, -0.029388427734375, 0.0169677734375, -0.0155029296875, 0.009033203125, -0.0296173095703125, 0.013824462890625, 0.031219482421875, 0.0040283203125, -0.0132293701171875, -0.0211639404296875], [0.036834716796875, -0.000518798828125, 0.007568359375, 0.033660888671875, -0.0082244873046875, 0.001190185546875, 0.00079345703125, 0.031646728515625, 0.036468505859375, -0.022918701171875, 0.018310546875, -0.0082244873046875, 0.0064697265625, 0.006683349609375, -0.00830078125, 0.019561767578125, -0.013153076171875, 0.035125732421875, 0.0194091796875, -0.015869140625, -0.0114593505859375, 0.008453369140625, 0.021820068359375, -0.032989501953125, 0.001251220703125, -0.0050048828125, 0.010498046875, -0.0267486572265625, 0.0247802734375, 0.02484130859375, 0.017791748046875, -0.026153564453125]], [[0.037322998046875, 0.0118408203125, 0.019775390625, -0.006317138671875, -0.01580810546875, 0.035552978515625, -0.0227813720703125, 0.02410888671875, 0.0003662109375, -0.032470703125, 0.02191162109375, 0.01690673828125, -0.0202789306640625, 0.004638671875, 0.037017822265625, -0.0245361328125, 0.000946044921875, 0.029754638671875, 0.013519287109375, -0.02484130859375, 0.0179443359375, 0.02020263671875, -0.028656005859375, -0.03564453125, 0.028411865234375, -0.0086669921875, 0.020660400390625, 0.037261962890625, 0.01873779296875, 0.029937744140625, 0.0238037109375, -0.0169830322265625], [-0.027923583984375, -0.0204315185546875, -0.0123443603515625, 0.002044677734375, -0.024993896484375, 0.013214111328125, -0.00140380859375, -0.0215301513671875, -0.034393310546875, 0.0035400390625, -0.014617919921875, 0.0025634765625, 0.010650634765625, -0.012420654296875, 0.037506103515625, 0.029083251953125, 0.005950927734375, 0.025115966796875, 0.033538818359375, 0.021240234375, 0.027130126953125, 0.008514404296875, 0.037506103515625, 0.022796630859375, 0.026702880859375, -0.00396728515625, 0.006011962890625, 0.026885986328125, -0.00067138671875, 0.023223876953125, -0.0328369140625, -0.0066070556640625], [-0.033966064453125, 0.016326904296875, 0.020416259765625, -0.016021728515625, -0.0299072265625, -0.030792236328125, -0.02593994140625, -0.034088134765625, -0.017120361328125, 0.0244140625, 0.020660400390625, 0.01190185546875, 0.037384033203125, -0.030426025390625, 0.022796630859375, -0.0174102783203125, -0.032623291015625, -0.0154266357421875, -0.00146484375, 0.017120361328125, -0.01580810546875, -0.028289794921875, -0.037261962890625, 0.00146484375, 0.01654052734375, -0.021820068359375, 0.029327392578125, 0.028045654296875, 0.035491943359375, -0.01190185546875, 0.01983642578125, -0.02703857421875]], [[0.004547119140625, -0.0124969482421875, 0.012054443359375, 0.004486083984375, -0.022705078125, 0.0057373046875, -0.0292510986328125, 0.001312255859375, -0.02197265625, -0.013671875, 0.009124755859375, -0.036163330078125, 0.00140380859375, -0.02484130859375, -0.021392822265625, 0.0230712890625, -0.00213623046875, 0.0111083984375, 0.006622314453125, 0.01580810546875, 0.0125732421875, -0.033447265625, 0.029327392578125, 0.003662109375, -0.0078582763671875, -0.02593994140625, -0.036956787109375, 0.029022216796875, 0.033905029296875, 0.020355224609375, -0.0112457275390625, 0.033905029296875], [-0.017791748046875, 0.007049560546875, -0.03271484375, 0.00787353515625, 0.003814697265625, 0.00286865234375, -0.023223876953125, 0.035064697265625, 0.030853271484375, 0.034881591796875, 0.031524658203125, -0.031890869140625, 0.000885009765625, -0.0272674560546875, -0.01153564453125, 0.027252197265625, -0.0321044921875, 0.004180908203125, 0.0162353515625, -0.0303497314453125, -0.002044677734375, -0.0150604248046875, -0.01513671875, 0.02410888671875, -0.0086669921875, 0.026763916015625, -0.032257080078125, -0.004913330078125, 0.011688232421875, 0.0184326171875, 0.008758544921875, 0.029083251953125], [0.022430419921875, -0.012786865234375, -0.003448486328125, 0.003082275390625, 0.00799560546875, 0.027130126953125, 0.004791259765625, -0.006103515625, 0.004638671875, -0.006683349609375, 0.013214111328125, 0.005279541015625, 0.01580810546875, 0.007049560546875, -0.004852294921875, -0.003173828125, 0.014984130859375, 0.00640869140625, -0.01763916015625, -0.03570556640625, -0.0003662109375, 0.004486083984375, 0.008148193359375, 0.036041259765625, 0.027191162109375, -0.0201416015625, -0.0196990966796875, -0.0068359375, 0.029998779296875, -0.0114593505859375, 0.00103759765625, -0.00146484375]], [[0.035552978515625, 6.103515625e-05, -0.013671875, -0.00506591796875, -0.0103607177734375, -0.01190185546875, -0.0216827392578125, 0.013885498046875, 0.00579833984375, 0.0118408203125, 0.01580810546875, 0.00579833984375, -0.03460693359375, -0.00543212890625, -0.0308685302734375, -0.0177154541015625, 0.032196044921875, 0.019775390625, -0.03131103515625, -0.03570556640625, 0.0042724609375, -0.027862548828125, 0.008819580078125, 0.033660888671875, -0.032989501953125, 0.025299072265625, 0.013458251953125, -0.02593994140625, -0.000152587890625, 0.036773681640625, -0.013671875, 0.032501220703125], [-0.02447509765625, -0.0150604248046875, -0.02520751953125, -0.012054443359375, 0.00140380859375, -0.01190185546875, 0.009246826171875, 0.004638671875, 0.033416748046875, 0.01580810546875, -0.026092529296875, -0.023895263671875, -0.029693603515625, 0.0245361328125, -0.01873779296875, 0.027923583984375, -0.0305023193359375, 0.01263427734375, -0.01116943359375, -0.0255126953125, -0.02984619140625, -0.0094757080078125, -0.0252838134765625, -0.0029296875, 0.01153564453125, 0.01300048828125, -0.00543212890625, 0.026947021484375, 0.033355712890625, 0.028961181640625, -0.006988525390625, -0.011016845703125], [-0.0288848876953125, -0.035491943359375, -0.018890380859375, 0.003387451171875, -0.03643798828125, 0.016754150390625, 0.031890869140625, -0.0202178955078125, -0.007049560546875, -0.0029296875, -0.0119781494140625, -0.006988525390625, -0.002655029296875, -0.0255126953125, 0.0205078125, -0.0119781494140625, -0.015869140625, -0.0236663818359375, 0.015960693359375, -0.033355712890625, 0.025970458984375, -0.0247650146484375, 0.037261962890625, 0.0162353515625, 0.0068359375, 0.030364990234375, 0.02117919921875, 0.0025634765625, -0.03094482421875, -0.003814697265625, -0.009552001953125, 0.030426025390625]], [[0.036773681640625, -0.03594970703125, -0.03204345703125, -0.0133056640625, -0.0097808837890625, 0.009918212890625, -0.0169830322265625, -0.02557373046875, 0.00616455078125, 0.025299072265625, 0.029815673828125, 0.00616455078125, 0.009246826171875, 0.027984619140625, -0.0159454345703125, -0.03173828125, -0.0287322998046875, 0.003021240234375, -0.003082275390625, -0.0186614990234375, 0.00970458984375, -0.0184478759765625, -0.017486572265625, -0.011322021484375, 0.017791748046875, 0.031219482421875, 0.027557373046875, -0.0292510986328125, 0.004119873046875, -0.030426025390625, -0.0204315185546875, -0.0064697265625], [0.008514404296875, 0.010955810546875, -0.0066070556640625, 0.021759033203125, -0.0213165283203125, -0.0213165283203125, 0.008514404296875, 0.037322998046875, -0.03485107421875, -0.031982421875, -0.015655517578125, 0.00250244140625, -0.0018310546875, -0.031463623046875, 0.0035400390625, 0.022705078125, -0.0179290771484375, 0.0025634765625, 0.001190185546875, -0.0303497314453125, -0.028961181640625, -0.027496337890625, -0.0170440673828125, -0.003448486328125, -0.001678466796875, 0.029693603515625, 0.01513671875, -0.004791259765625, 0.00543212890625, 0.000732421875, -0.0149993896484375, 0.020294189453125], [0.034698486328125, 0.003173828125, 0.006317138671875, 0.036529541015625, -0.0175628662109375, 0.029388427734375, -0.0345458984375, -0.00213623046875, 0.028289794921875, -0.0108795166015625, -0.0081634521484375, 0.01446533203125, -0.0121307373046875, -0.0157318115234375, 0.022430419921875, -0.03607177734375, 0.01507568359375, 0.01617431640625, -0.037322998046875, 0.020050048828125, 0.010650634765625, -0.00396728515625, 0.032257080078125, 0.015594482421875, -0.02484130859375, -0.02587890625, -0.019775390625, -0.025054931640625, 0.034027099609375, -0.0276336669921875, -0.018524169921875, -0.004852294921875]], [[-0.000732421875, 0.035797119140625, -0.002349853515625, -0.03314208984375, -0.0040283203125, 0.024627685546875, 0.0003662109375, 0.0029296875, -0.002716064453125, -0.035064697265625, 0.027191162109375, -0.0209503173828125, -0.025787353515625, -0.0186004638671875, -0.0367431640625, -0.034912109375, -0.0328369140625, -0.027130126953125, -0.0169830322265625, 0.00079345703125, -0.0040283203125, 0.001678466796875, 0.034759521484375, -0.0133819580078125, 0.016387939453125, -0.03668212890625, -0.0150604248046875, 0.0201416015625, 0.024017333984375, -0.03240966796875, 0.021392822265625, 0.004791259765625], [-0.0234375, -0.0173492431640625, 0.01434326171875, 0.00360107421875, -0.0077972412109375, -0.033355712890625, 0.036468505859375, 0.035247802734375, 0.032867431640625, -0.0323486328125, 0.031768798828125, 0.00860595703125, 0.036590576171875, -0.00213623046875, 0.00689697265625, 0.025421142578125, 0.028045654296875, -0.0352783203125, -0.0140380859375, -0.01580810546875, 0.01727294921875, 0.034149169921875, -0.0269775390625, 0.0086669921875, -0.037109375, -0.0180816650390625, -0.002410888671875, -0.0018310546875, 0.02264404296875, -0.0091094970703125, -0.0166168212890625, 0.004791259765625], [-0.02484130859375, 0.009124755859375, 0.014190673828125, -0.007354736328125, -0.0255126953125, -0.008819580078125, -0.03485107421875, -0.001678466796875, -0.025787353515625, -0.01190185546875, -0.00933837890625, -0.0312347412109375, -0.0216827392578125, -0.0018310546875, 0.008758544921875, 0.01373291015625, -0.019775390625, -0.0283660888671875, 0.02166748046875, 0.003173828125, 0.003173828125, 0.004180908203125, -0.02410888671875, 0.004180908203125, 0.024688720703125, 0.028228759765625, -0.010589599609375, 0.015350341796875, -0.0072784423828125, -0.037200927734375, -0.0352783203125, 0.01483154296875]], [[-0.0134429931640625, -0.0323486328125, 0.02056884765625, -0.03485107421875, 0.001617431640625, -0.026824951171875, -0.00970458984375, 0.002197265625, 0.024993896484375, -0.01947021484375, 0.01007080078125, 0.01300048828125, -0.006011962890625, 0.00067138671875, -0.01580810546875, 0.028228759765625, -0.029541015625, 0.0040283203125, 0.01263427734375, -0.004180908203125, -0.0092620849609375, 0.0216064453125, -0.014190673828125, 0.027923583984375, -0.0113983154296875, 0.0101318359375, 0.01470947265625, 0.0035400390625, -0.027923583984375, 0.028045654296875, 0.030303955078125, -0.024688720703125], [0.036224365234375, 0.025238037109375, -0.037567138671875, -0.005157470703125, 0.014404296875, -0.002349853515625, -0.00067138671875, -0.02227783203125, 0.007049560546875, -0.036163330078125, 0.016448974609375, 0.037384033203125, -0.0125732421875, -0.0072784423828125, 0.018218994140625, 0.002349853515625, 0.00897216796875, -0.024261474609375, 0.023223876953125, 0.00140380859375, 0.009033203125, -0.018218994140625, 0.030426025390625, -0.00897216796875, -0.02593994140625, -0.021392822265625, 0.028656005859375, 0.034149169921875, -0.036834716796875, -0.035064697265625, 0.027862548828125, 0.000946044921875], [0.026214599609375, 0.01007080078125, -0.032196044921875, 0.030548095703125, 0.0118408203125, 0.002410888671875, -0.0105133056640625, 0.029998779296875, 0.025665283203125, 0.0057373046875, 0.0018310546875, -0.0112457275390625, 0.031402587890625, -0.002655029296875, -0.024688720703125, -0.00897216796875, 0.0223388671875, -0.014617919921875, 0.028961181640625, -0.00970458984375, -0.0263824462890625, 0.033294677734375, 0.01116943359375, 0.031219482421875, 0.01513671875, -0.004547119140625, 0.01873779296875, -0.0079345703125, -0.0249176025390625, -0.0071258544921875, -0.02703857421875, 0.016693115234375]]], [[[-0.0205078125, 0.0216064453125, 0.01507568359375, -0.00042724609375, 0.028350830078125, 0.02264404296875, 0.00506591796875, 0.019317626953125, 0.028167724609375, 0.002716064453125, -0.012939453125, -0.026153564453125, 0.022430419921875, -0.0302734375, 0.012115478515625, -0.0157318115234375, -0.0083770751953125, 0.014617919921875, 0.02197265625, 0.036041259765625, -0.00067138671875, 0.01727294921875, 0.015960693359375, -0.03277587890625, -0.01617431640625, 0.017578125, -0.002716064453125, 0.035858154296875, 0.013671875, 0.019775390625, 0.019927978515625, -0.03021240234375], [0.036285400390625, 0.027191162109375, -0.021240234375, 0.037261962890625, -0.0215301513671875, -0.0103607177734375, -0.022491455078125, -0.0091094970703125, -0.0240325927734375, 0.028961181640625, -0.021453857421875, -0.014617919921875, 0.014923095703125, -0.0143280029296875, -0.031829833984375, -0.026458740234375, 0.0133056640625, 0.032196044921875, -0.0078582763671875, 0.031829833984375, 0.009490966796875, -0.03021240234375, 0.033905029296875, 0.0107421875, -0.000946044921875, -0.004119873046875, -0.005523681640625, -0.0189666748046875, 0.030303955078125, -0.0291748046875, 0.00213623046875, -0.031524658203125], [0.015289306640625, -0.0148468017578125, 0.004486083984375, -0.0133819580078125, 0.036285400390625, -0.0079345703125, 0.0035400390625, 0.036285400390625, -0.032196044921875, -0.003662109375, -0.0218963623046875, -0.0155792236328125, 0.023529052734375, 0.022918701171875, 0.031036376953125, -0.0088958740234375, 0.00677490234375, -0.03094482421875, -0.03204345703125, 0.036651611328125, -0.025421142578125, 0.036651611328125, -0.0245361328125, 0.014404296875, -0.009033203125, 0.032989501953125, -0.01910400390625, -0.0149993896484375, 0.026824951171875, 0.016693115234375, 0.026763916015625, -0.022552490234375]], [[-0.01220703125, -0.0077972412109375, -0.003387451171875, -0.00506591796875, -0.033355712890625, -0.0323486328125, -0.03424072265625, -0.0077972412109375, 0.015594482421875, -0.0114593505859375, 0.036895751953125, -0.02630615234375, 0.037139892578125, 0.01690673828125, 0.016326904296875, 0.00140380859375, 0.0179443359375, 0.026580810546875, 0.01690673828125, 0.00286865234375, -0.000885009765625, 0.029571533203125, 0.032989501953125, -0.00579833984375, 0.011993408203125, -0.0272674560546875, 0.017486572265625, 0.02191162109375, 0.029205322265625, 0.035186767578125, 0.031463623046875, 0.0186767578125], [0.032135009765625, -0.010650634765625, -0.0118255615234375, 0.003662109375, -0.0231475830078125, 0.034393310546875, 0.029754638671875, -0.0174102783203125, 0.033172607421875, 0.030426025390625, -0.0010986328125, 0.008819580078125, 0.023284912109375, 0.01373291015625, -0.0307159423828125, -0.032470703125, 0.019927978515625, 0.028594970703125, 0.017578125, 0.0186767578125, -0.005645751953125, -0.0086669921875, -0.0307159423828125, -0.0112457275390625, -0.0303497314453125, 0.015350341796875, 0.028045654296875, -0.0210113525390625, 0.005523681640625, 0.025726318359375, 0.01580810546875, -0.01617431640625], [0.035186767578125, 0.013824462890625, 0.01507568359375, 0.022125244140625, 0.012847900390625, -0.0338134765625, 0.024169921875, 0.01544189453125, 0.012054443359375, -0.036163330078125, -0.0087432861328125, -0.02197265625, 0.019989013671875, -0.01910400390625, -0.0155029296875, 0.018585205078125, 0.029449462890625, 0.035858154296875, -0.032562255859375, -0.032196044921875, 0.028350830078125, 0.016387939453125, 0.00396728515625, -0.0194091796875, -0.0204315185546875, -0.02301025390625, -0.02301025390625, -0.031524658203125, -0.02813720703125, -0.000152587890625, 0.00537109375, 0.01763916015625]], [[-0.0097808837890625, 0.0050048828125, -0.00433349609375, -0.00323486328125, 0.01300048828125, 0.00030517578125, 0.013214111328125, -0.0147705078125, 0.0115966796875, 0.021026611328125, 0.032196044921875, 0.019989013671875, 0.028228759765625, -0.014617919921875, 0.00897216796875, -0.022552490234375, 0.00079345703125, -0.0179290771484375, 0.033966064453125, 0.025054931640625, -0.0057373046875, -0.0305023193359375, 0.033538818359375, -0.03173828125, 0.036102294921875, -0.02301025390625, 0.0172119140625, -0.004913330078125, 0.013153076171875, -0.0255126953125, 0.0147705078125, -0.008087158203125], [0.0103759765625, -0.00323486328125, 0.032989501953125, -0.00042724609375, 0.01654052734375, 0.016326904296875, -0.0218963623046875, -0.031158447265625, 0.027252197265625, -0.03631591796875, 0.024627685546875, 0.01837158203125, -0.019775390625, -0.03271484375, -0.02880859375, -0.0236663818359375, -0.03424072265625, -0.0099945068359375, -0.0195465087890625, 0.026580810546875, -0.000946044921875, 0.02447509765625, -0.0170440673828125, -0.021087646484375, 0.005279541015625, -0.0057373046875, 0.027069091796875, -0.0269012451171875, 0.028167724609375, -0.0256500244140625, 0.025970458984375, 0.022430419921875], [0.00726318359375, 0.02227783203125, 0.035247802734375, 0.027557373046875, -0.0341796875, 0.02203369140625, -0.0144805908203125, 0.0042724609375, -0.037322998046875, -0.0196990966796875, 0.030914306640625, 0.031402587890625, -0.02777099609375, -0.00079345703125, 0.01947021484375, 0.020721435546875, 0.003082275390625, -0.0154266357421875, 0.033416748046875, 0.01873779296875, -0.03277587890625, 0.037139892578125, 0.004486083984375, -0.003448486328125, 0.027862548828125, -0.0080108642578125, 0.002349853515625, -0.014190673828125, -0.0018310546875, 0.035491943359375, 0.011688232421875, -0.000152587890625]], [[0.002044677734375, -0.000152587890625, -0.010284423828125, 0.012725830078125, -0.01910400390625, -0.0202178955078125, -0.012786865234375, 0.01116943359375, 0.01470947265625, 0.01983642578125, 0.00750732421875, -0.00140380859375, 0.026397705078125, 0.031280517578125, 0.001312255859375, -0.0307159423828125, 0.037567138671875, 0.009918212890625, -0.033203125, -0.031005859375, -0.01654052734375, 0.010955810546875, -0.03131103515625, -0.0093994140625, 0.0184326171875, -0.0010986328125, 0.028594970703125, -0.02520751953125, -0.022491455078125, 0.027252197265625, 0.034393310546875, -0.03204345703125], [-0.01263427734375, 0.002716064453125, 0.012786865234375, -0.0130767822265625, -0.03094482421875, -0.00830078125, 0.010589599609375, -0.02630615234375, 0.0108642578125, 0.033538818359375, -0.0230712890625, -0.02301025390625, -0.0216064453125, -0.00067138671875, -0.0306396484375, 0.01947021484375, 0.014251708984375, -0.004547119140625, -0.032928466796875, 0.004791259765625, 0.01806640625, 0.034149169921875, -0.02880859375, -0.005584716796875, 0.005523681640625, 0.026031494140625, 0.011474609375, 0.02484130859375, -0.021453857421875, 0.036895751953125, -0.0063934326171875, -0.0112457275390625], [-0.02301025390625, -0.03094482421875, -0.03497314453125, 0.016082763671875, 0.003753662109375, 0.02447509765625, 0.018585205078125, -0.03741455078125, 0.02056884765625, -0.035430908203125, -0.037109375, 0.031646728515625, -0.0133056640625, -0.009552001953125, 0.0111083984375, 0.01806640625, -0.000518798828125, -0.036895751953125, 0.030181884765625, 0.005157470703125, 0.0247802734375, -0.0341796875, -0.0093994140625, 0.027313232421875, -0.0093994140625, -0.014404296875, 0.00714111328125, 0.008392333984375, -0.0130767822265625, -0.01654052734375, -0.0196990966796875, 0.01910400390625]], [[0.032196044921875, 0.007568359375, -0.035858154296875, 0.001190185546875, -0.018157958984375, -0.025054931640625, 0.005523681640625, -0.036224365234375, -0.0202178955078125, -0.018524169921875, 0.01983642578125, 0.021453857421875, 0.028961181640625, 0.029327392578125, 0.004180908203125, 0.0115966796875, -0.013671875, 0.020355224609375, 0.014251708984375, 0.026519775390625, 0.033599853515625, 0.00067138671875, 0.0115966796875, 0.00469970703125, -0.00469970703125, -0.0079345703125, 0.02301025390625, 0.025299072265625, 0.004913330078125, -0.0076446533203125, 0.001190185546875, 0.011993408203125], [-0.0338134765625, 0.025360107421875, 0.0184326171875, -0.0140380859375, 0.032928466796875, -0.0328369140625, 0.035491943359375, -0.0316162109375, 0.029327392578125, 0.018310546875, 0.030120849609375, -0.0152130126953125, -0.007415771484375, -0.0227813720703125, 0.0247802734375, -0.0132293701171875, 0.0115966796875, 0.019927978515625, 0.02337646484375, 0.0133056640625, -0.001983642578125, -0.03558349609375, 0.005889892578125, -0.017120361328125, 0.019989013671875, -0.0083770751953125, 0.01409912109375, -0.001983642578125, -0.024322509765625, -0.00250244140625, -0.03277587890625, 0.004852294921875], [0.028411865234375, -0.00830078125, -0.029327392578125, 0.029693603515625, 0.035369873046875, 0.000213623046875, 0.035430908203125, 0.025360107421875, -0.036590576171875, 0.036590576171875, 0.0169677734375, 0.021087646484375, 0.037384033203125, -0.011016845703125, 0.004913330078125, 0.034820556640625, -0.0114593505859375, 0.025604248046875, -0.026092529296875, -0.037628173828125, -0.005889892578125, -0.0328369140625, -0.0312347412109375, -0.03741455078125, -0.017486572265625, -0.0103607177734375, -0.03314208984375, 0.017791748046875, 0.015960693359375, 0.026092529296875, 0.030914306640625, -0.033355712890625]], [[0.022857666015625, 0.01910400390625, 0.025970458984375, 0.0244140625, -0.00140380859375, -0.015655517578125, -0.0256500244140625, 0.031036376953125, 0.002197265625, -0.001922607421875, -0.002044677734375, -0.0144805908203125, -0.0302734375, 0.012115478515625, -0.028076171875, 0.013671875, 0.029754638671875, -0.0211639404296875, 0.009490966796875, -0.0077972412109375, -0.0188140869140625, -0.03668212890625, 0.037139892578125, -0.035797119140625, 0.0032958984375, -0.027862548828125, -0.0133056640625, -0.02777099609375, -0.0302734375, 0.005218505859375, 0.035186767578125, 0.0035400390625], [0.036529541015625, 0.00860595703125, 0.003021240234375, -0.0171966552734375, 0.029815673828125, 0.008880615234375, 0.0172119140625, -0.032470703125, 0.00677490234375, 0.002349853515625, -0.001983642578125, -0.007354736328125, -0.0086669921875, 0.010589599609375, 0.036529541015625, 0.030426025390625, 0.00860595703125, 0.019989013671875, -0.004119873046875, -0.00543212890625, 0.014984130859375, 0.036956787109375, 0.0179443359375, -0.0240325927734375, 0.028656005859375, 0.013824462890625, -0.025421142578125, -0.007415771484375, -0.016754150390625, -0.021453857421875, -0.0103607177734375, -0.02984619140625], [-0.032470703125, 0.016387939453125, 0.013214111328125, -0.025054931640625, -0.0128631591796875, 0.034332275390625, 0.00396728515625, -0.033447265625, 0.01470947265625, -0.0065460205078125, 0.034027099609375, -0.0096282958984375, -0.0211639404296875, -0.005950927734375, -0.017791748046875, -0.014251708984375, -0.019256591796875, 0.031890869140625, 0.036102294921875, 0.026153564453125, 0.02337646484375, 0.026153564453125, -6.103515625e-05, -0.0032958984375, 0.0194091796875, 0.033905029296875, -0.01513671875, -0.03131103515625, -0.02813720703125, 0.032501220703125, 0.033355712890625, 0.0035400390625]], [[-0.0150604248046875, -0.002349853515625, -0.0078582763671875, -0.0299072265625, 0.011688232421875, -0.0166168212890625, 0.031951904296875, -0.001556396484375, 0.033538818359375, 0.007415771484375, -0.0163116455078125, 0.025054931640625, -0.0157318115234375, 0.02191162109375, 0.023162841796875, 0.0108642578125, -0.007568359375, 0.032196044921875, -0.0103607177734375, 0.011749267578125, 0.036834716796875, -0.001251220703125, -0.0112457275390625, -0.0255126953125, -0.019622802734375, 0.000732421875, 0.026092529296875, 0.00677490234375, 0.001556396484375, 0.028167724609375, 0.0050048828125, -0.0207977294921875], [0.001190185546875, -0.0149993896484375, -0.0057373046875, 0.004119873046875, 0.02337646484375, 0.034271240234375, 0.007049560546875, 0.0068359375, 0.014556884765625, -0.0252838134765625, 0.0184326171875, 0.003753662109375, -0.0205078125, -0.033966064453125, -0.0182952880859375, -0.035430908203125, -0.01837158203125, -0.026153564453125, -0.034454345703125, -0.01190185546875, -0.0272674560546875, 0.025848388671875, 0.023162841796875, 0.036163330078125, 0.032501220703125, 0.003387451171875, 0.004180908203125, 0.0018310546875, -0.00213623046875, -0.011322021484375, -0.0215301513671875, -0.0307159423828125], [0.023895263671875, -0.000579833984375, -0.0035400390625, 0.009033203125, 0.00750732421875, 0.027923583984375, 0.0201416015625, -0.01727294921875, 0.034454345703125, -0.0230712890625, -0.0082244873046875, -0.0133056640625, 0.027252197265625, 0.00616455078125, -0.0068359375, 0.036041259765625, -0.037200927734375, -0.00970458984375, -0.0097808837890625, 0.035125732421875, -0.0285186767578125, -0.03350830078125, 0.026519775390625, -0.03564453125, 0.0093994140625, 0.006103515625, -0.033294677734375, -0.03570556640625, 0.010284423828125, -0.0130767822265625, 0.029266357421875, -0.0123443603515625]], [[0.015594482421875, -0.036163330078125, -0.0137481689453125, 0.027679443359375, -0.032928466796875, -0.00433349609375, 0.01226806640625, 0.027252197265625, 0.00537109375, 0.028228759765625, 0.01397705078125, 0.0032958984375, -0.01837158203125, -0.0154266357421875, 0.00616455078125, -0.01873779296875, -0.002655029296875, -0.0330810546875, 0.02117919921875, 0.02154541015625, -0.025421142578125, -0.0169830322265625, -0.023223876953125, -0.00079345703125, -0.029754638671875, -0.035858154296875, 0.028045654296875, -0.0262451171875, 0.008880615234375, -0.0157318115234375, -0.01727294921875, 0.007415771484375], [0.028228759765625, -0.031829833984375, -0.035064697265625, 0.035797119140625, -0.012420654296875, 0.015289306640625, 0.0103759765625, -0.0174102783203125, 0.029754638671875, -0.001312255859375, 0.0247802734375, -0.028076171875, 0.015960693359375, 0.0155029296875, 0.01409912109375, 0.007720947265625, -0.0195465087890625, -0.005279541015625, -0.0207977294921875, 0.01763916015625, -0.008453369140625, 0.011383056640625, -0.014556884765625, 0.0028076171875, 0.02484130859375, -0.0330810546875, -0.032989501953125, -0.033355712890625, 0.016021728515625, 0.035003662109375, -0.017791748046875, -0.0238037109375], [0.012481689453125, 0.0166015625, -0.03485107421875, 0.022186279296875, 0.000152587890625, -0.0067596435546875, 0.028045654296875, 0.02227783203125, -0.008087158203125, -0.022857666015625, 0.034698486328125, -0.02447509765625, -0.00396728515625, -0.03741455078125, -0.0177154541015625, 0.009552001953125, 0.0230712890625, -0.0240325927734375, -0.0174102783203125, 0.027679443359375, 0.016082763671875, -0.00030517578125, -0.00360107421875, -0.0138092041015625, -0.020355224609375, -0.008819580078125, -0.0251312255859375, -0.0206451416015625, 0.019561767578125, 0.01336669921875, 0.0057373046875, -0.02337646484375]], [[0.022491455078125, -0.017791748046875, -0.0284423828125, 0.035858154296875, 0.027984619140625, -0.0189666748046875, -0.0335693359375, -0.003662109375, -0.0255126953125, -0.028656005859375, -0.013671875, -0.014923095703125, 0.030426025390625, -0.007415771484375, -0.02301025390625, -0.0125732421875, -0.036956787109375, -0.0220489501953125, -0.022125244140625, 0.030364990234375, 0.014617919921875, 0.016754150390625, 0.037567138671875, 0.018157958984375, 0.02166748046875, -0.0166778564453125, -0.005889892578125, 0.02447509765625, 0.032989501953125, 0.00714111328125, -0.01043701171875, -0.0144805908203125], [0.011016845703125, 0.034271240234375, 0.005950927734375, -0.0193328857421875, -0.03607177734375, 0.003082275390625, -0.0121307373046875, 0.0234375, -0.0064697265625, -0.00543212890625, 0.019561767578125, -0.028228759765625, -0.002044677734375, -0.014404296875, 0.010284423828125, 0.030853271484375, -0.009918212890625, -0.010284423828125, -0.032196044921875, -0.03564453125, -0.032989501953125, -0.00396728515625, 0.008392333984375, -0.0163116455078125, 0.01806640625, -0.024688720703125, 0.037261962890625, -0.0215301513671875, -0.029754638671875, 0.029327392578125, -0.0057373046875, 0.01904296875], [-0.0184478759765625, -0.0066070556640625, 0.036956787109375, -0.0110931396484375, -0.0206451416015625, -0.0155029296875, 0.023162841796875, 0.027069091796875, -0.004791259765625, 0.022125244140625, 0.00762939453125, -0.01220703125, -0.029388427734375, -0.03485107421875, -0.00860595703125, -0.03094482421875, -0.0303497314453125, -0.037261962890625, -0.034759521484375, -0.0169830322265625, -0.025421142578125, 0.033721923828125, -0.0093994140625, 0.033050537109375, -0.0078582763671875, -0.034454345703125, 0.035797119140625, 0.017333984375, -0.0173492431640625, -0.0240325927734375, -0.0323486328125, -0.0068359375]], [[0.0162353515625, 0.017852783203125, 0.030731201171875, 0.031646728515625, -0.037109375, 0.015869140625, 0.00653076171875, -0.01263427734375, 0.025360107421875, -0.0316162109375, -0.0110931396484375, -0.0147705078125, 0.033905029296875, 0.0079345703125, -0.01873779296875, -0.02557373046875, -0.0208740234375, 0.00103759765625, -0.0215301513671875, -0.006011962890625, -0.0105133056640625, 0.01507568359375, 0.0172119140625, -0.0291748046875, -0.031829833984375, 0.016326904296875, 0.01507568359375, 0.034881591796875, -0.0213165283203125, -0.032928466796875, -0.031890869140625, -0.031463623046875], [-0.00079345703125, -0.034454345703125, -0.03424072265625, -0.0205078125, 0.01947021484375, -0.0152130126953125, 0.009613037109375, 0.0064697265625, 0.005645751953125, -0.01654052734375, 0.0244140625, 0.016082763671875, -0.005950927734375, -0.014923095703125, 0.020355224609375, 0.036468505859375, 0.036407470703125, -0.03704833984375, -0.011688232421875, -0.036224365234375, 0.014190673828125, 0.00146484375, 0.01513671875, -0.024169921875, 0.031585693359375, -0.034088134765625, 0.02410888671875, 0.006988525390625, -0.006683349609375, -0.024322509765625, -0.005889892578125, 0.027191162109375], [0.004791259765625, -0.026153564453125, -0.00860595703125, -0.001556396484375, -0.01220703125, -0.012939453125, -0.0141143798828125, 0.030303955078125, -0.029754638671875, -0.01873779296875, 0.00469970703125, 0.004913330078125, -0.0098419189453125, 0.023529052734375, 0.031585693359375, 0.006317138671875, -0.017120361328125, -0.033355712890625, 0.00897216796875, 0.032196044921875, 0.0247802734375, -0.0272674560546875, -0.020721435546875, 0.027252197265625, 0.030670166015625, 0.02337646484375, -0.02410888671875, -0.012939453125, -0.0323486328125, -0.031890869140625, 0.009490966796875, -0.015655517578125]], [[0.027313232421875, -0.019775390625, -0.026824951171875, -0.0302734375, 0.00933837890625, 0.007354736328125, 0.028900146484375, 0.009490966796875, 0.036407470703125, -0.00897216796875, -0.0296173095703125, 0.010284423828125, 0.012420654296875, 0.033416748046875, -0.011322021484375, 0.008392333984375, -0.02337646484375, 0.030364990234375, -0.026153564453125, 0.030426025390625, 0.022796630859375, -0.005523681640625, 0.001983642578125, 0.023284912109375, -0.0087432861328125, 0.00439453125, -0.001556396484375, 0.02301025390625, 0.025360107421875, 0.000518798828125, 0.032257080078125, -0.03271484375], [-0.0302734375, 0.012786865234375, 0.00390625, 0.0201416015625, -0.011322021484375, 0.018310546875, -0.036163330078125, 0.02484130859375, -0.010650634765625, -0.036834716796875, -0.022186279296875, -0.0310821533203125, -0.026458740234375, -0.031005859375, -0.03521728515625, -0.022552490234375, -0.0374755859375, -0.0252838134765625, 0.023284912109375, 0.009246826171875, 0.012725830078125, -0.005523681640625, 0.005279541015625, -0.01947021484375, 0.029632568359375, 0.0186767578125, 0.034698486328125, -0.01190185546875, -0.0025634765625, -0.0287322998046875, -0.0113983154296875, 0.010498046875], [-0.012786865234375, -0.01580810546875, 0.01580810546875, 0.003021240234375, -0.034912109375, -0.0201416015625, -0.001251220703125, -0.000579833984375, -0.0276336669921875, 0.009185791015625, 0.034698486328125, -0.01727294921875, -0.0088958740234375, 0.01361083984375, -0.0154266357421875, -0.03643798828125, 0.005218505859375, 0.01800537109375, 0.033782958984375, 0.00640869140625, 0.002044677734375, 0.000732421875, -0.0121307373046875, -0.002288818359375, -0.026458740234375, 0.026763916015625, 0.008087158203125, -0.02947998046875, -0.0107269287109375, 0.00286865234375, -0.00067138671875, -0.030059814453125]]], [[[0.0125732421875, -0.0154266357421875, 0.006256103515625, -0.031158447265625, 0.031524658203125, 0.0245361328125, 0.010284423828125, 0.0086669921875, -0.034912109375, -0.0267486572265625, -0.013885498046875, 0.025665283203125, 0.021026611328125, 0.02081298828125, -0.0316162109375, 0.020721435546875, -0.0303497314453125, 0.01837158203125, -0.02880859375, -0.02667236328125, -0.022705078125, -0.0303497314453125, -0.0116119384765625, 0.028533935546875, -0.0163116455078125, -0.02337646484375, 0.037139892578125, 0.034027099609375, 0.027923583984375, -0.02374267578125, -0.03057861328125, -0.024169921875], [0.036529541015625, 0.0025634765625, 0.018951416015625, -0.022705078125, -0.01837158203125, 0.027801513671875, -0.0245361328125, 0.00616455078125, -0.000885009765625, -0.0205078125, 0.034881591796875, -0.00103759765625, -0.03387451171875, -0.0201416015625, -0.006988525390625, -0.013519287109375, 0.007354736328125, 0.034881591796875, 0.024322509765625, -0.0171966552734375, 0.0186767578125, 0.016815185546875, 0.005645751953125, 0.030426025390625, -0.021392822265625, 0.011322021484375, -0.033447265625, -0.029388427734375, -0.005157470703125, -0.0065460205078125, -0.0098419189453125, -0.022552490234375], [0.024932861328125, -0.0170440673828125, -0.005950927734375, -0.0065460205078125, -0.002349853515625, -0.00323486328125, 0.00579833984375, -0.00213623046875, -0.0201416015625, 0.0166015625, -0.036956787109375, -0.0175628662109375, 0.033355712890625, -0.030059814453125, -0.012054443359375, -0.017791748046875, -0.023895263671875, 0.012054443359375, -0.0147705078125, -0.0193328857421875, -0.0338134765625, -0.0313720703125, 0.009490966796875, 0.0035400390625, 0.033233642578125, -0.002655029296875, -0.0164642333984375, -0.022918701171875, 0.036468505859375, -0.0099945068359375, 0.023529052734375, 0.008087158203125]], [[-0.006317138671875, 0.022186279296875, -0.021820068359375, -0.037109375, -0.00067138671875, 0.014556884765625, -0.034759521484375, 0.002288818359375, -0.032196044921875, -0.0082244873046875, 0.019561767578125, -0.0149993896484375, -0.0360107421875, -0.0042724609375, 0.010955810546875, -0.0067596435546875, 0.002349853515625, -0.02703857421875, -0.034698486328125, -0.026519775390625, 0.012847900390625, -0.0147705078125, 0.0050048828125, -0.0127105712890625, 0.005157470703125, -0.006256103515625, 0.00653076171875, -0.017120361328125, -0.027496337890625, 0.02197265625, -0.033355712890625, 0.006103515625], [0.022705078125, 0.023162841796875, 0.037139892578125, -0.0276336669921875, -0.0066070556640625, -0.037567138671875, -0.0029296875, -0.007415771484375, 0.012847900390625, 0.0040283203125, 0.0010986328125, 0.000732421875, -0.017486572265625, -0.014923095703125, 0.0238037109375, 0.025299072265625, 0.000152587890625, -0.02630615234375, -0.0302734375, -0.014556884765625, -0.03741455078125, -0.0234375, -0.037322998046875, -0.025421142578125, -0.0224151611328125, 0.033966064453125, -0.0128631591796875, -0.0035400390625, 0.035919189453125, -0.0177154541015625, 0.0057373046875, 0.0162353515625], [0.01116943359375, -0.02630615234375, 0.008758544921875, 0.0035400390625, 0.007354736328125, -0.037109375, 0.01507568359375, -0.004791259765625, 0.00677490234375, 0.028656005859375, -0.0148468017578125, -0.01226806640625, 0.035858154296875, -0.037200927734375, 0.028167724609375, -0.03741455078125, 0.013519287109375, 0.001556396484375, -0.009185791015625, -0.033203125, -0.0116119384765625, -0.010955810546875, 0.017852783203125, -0.03271484375, -0.0175628662109375, 0.012786865234375, -0.03521728515625, -0.017791748046875, -0.0125732421875, -0.0072784423828125, -0.0166778564453125, 0.00653076171875]], [[0.024932861328125, 0.016754150390625, 0.003753662109375, -0.026153564453125, 0.028045654296875, -0.0323486328125, -0.03204345703125, 0.019622802734375, -0.021240234375, 0.026947021484375, 0.011383056640625, -0.0252838134765625, 0.0234375, 0.00250244140625, -0.01617431640625, 0.0177001953125, -0.009033203125, -0.006317138671875, -0.0114593505859375, 0.025238037109375, 0.003082275390625, 0.005950927734375, -0.01513671875, -0.0173492431640625, 0.033599853515625, -0.0157318115234375, 0.025848388671875, 0.008758544921875, 0.02093505859375, 0.02166748046875, 0.036529541015625, -0.020721435546875], [-0.007354736328125, -0.0205078125, -0.0083770751953125, 0.005889892578125, 0.013671875, 0.035858154296875, -0.0171966552734375, 0.029693603515625, -0.0200653076171875, 0.0025634765625, 0.028717041015625, 0.02081298828125, -0.0218963623046875, -0.003173828125, -0.0218963623046875, -0.0035400390625, -0.0157318115234375, 0.01153564453125, -0.03643798828125, -0.023223876953125, -0.002197265625, 0.036651611328125, -0.02911376953125, -0.023223876953125, -0.0133056640625, -0.0071258544921875, -0.0029296875, -0.01690673828125, -0.001678466796875, -0.0081634521484375, -0.0042724609375, -0.0163116455078125], [0.01690673828125, 0.0042724609375, -0.0072784423828125, 0.035247802734375, 0.026580810546875, -0.028594970703125, -0.0148468017578125, -0.0218963623046875, -0.031982421875, 0.035430908203125, 0.028961181640625, -0.002655029296875, -0.033721923828125, -0.02264404296875, 0.005950927734375, 0.013824462890625, 0.031829833984375, -0.0077972412109375, -0.036590576171875, -0.000579833984375, 0.004913330078125, 0.019775390625, 0.008453369140625, 0.037261962890625, -0.007415771484375, 0.005279541015625, -0.000518798828125, 0.029998779296875, -0.022918701171875, 0.008514404296875, -0.0150604248046875, 0.034088134765625]], [[0.028961181640625, 0.015289306640625, 0.01873779296875, 0.009490966796875, 0.02447509765625, 0.033172607421875, -0.00860595703125, 0.033416748046875, -0.0335693359375, -0.024993896484375, -0.0245361328125, 0.000152587890625, -0.029754638671875, -0.00469970703125, -0.0305023193359375, -0.0164642333984375, 0.033355712890625, -0.024261474609375, 0.018310546875, 0.023651123046875, -0.0088958740234375, 0.027557373046875, 0.028961181640625, -0.033721923828125, 0.028961181640625, 0.034698486328125, -6.103515625e-05, -0.0153656005859375, -0.0182952880859375, 0.025238037109375, 0.01806640625, -0.00390625], [-0.00579833984375, -0.012786865234375, 0.017120361328125, 0.025970458984375, 0.031463623046875, -0.00506591796875, 0.021087646484375, 0.025482177734375, 0.016815185546875, -0.0154266357421875, 0.01153564453125, 0.036102294921875, 0.002349853515625, -0.0249176025390625, -0.0117645263671875, -0.0003662109375, 0.033782958984375, 0.00799560546875, -0.034088134765625, 0.01446533203125, 0.024169921875, -0.0119781494140625, 0.0205078125, 0.011993408203125, -0.0123443603515625, 0.01043701171875, -0.0216064453125, -0.017486572265625, -0.0103607177734375, -0.02484130859375, -0.01910400390625, 0.0179443359375], [0.01983642578125, 0.000732421875, 0.035614013671875, 0.025115966796875, 0.0172119140625, 0.009918212890625, 0.012420654296875, 0.036285400390625, 0.02130126953125, -0.024169921875, -0.00140380859375, -0.02777099609375, -0.03424072265625, 0.004638671875, -0.0147705078125, 0.014251708984375, 0.010955810546875, -0.0155029296875, -0.0360107421875, 0.027069091796875, -0.0139617919921875, 0.001617431640625, -0.02880859375, 0.025299072265625, 0.032135009765625, -0.00030517578125, 0.032318115234375, 0.036102294921875, 0.0029296875, -0.02593994140625, -0.0099945068359375, -0.0277099609375]], [[0.032928466796875, 0.011322021484375, -0.02880859375, -0.007415771484375, 0.02264404296875, -0.00506591796875, -0.0195465087890625, -0.031829833984375, -0.0094757080078125, -0.01153564453125, 0.0042724609375, -0.019622802734375, 0.0093994140625, 0.028900146484375, -0.0255126953125, -0.002349853515625, -0.03131103515625, -0.0118255615234375, -0.003662109375, 0.026702880859375, 0.026702880859375, 0.01043701171875, -0.000518798828125, -0.0287322998046875, 0.00543212890625, 0.003814697265625, -0.033721923828125, 0.028289794921875, 0.013214111328125, -0.0251312255859375, -0.03558349609375, -0.03173828125], [0.00396728515625, 0.0216064453125, -0.0130157470703125, -0.0306396484375, -0.036529541015625, -0.031890869140625, -0.031982421875, -0.0216064453125, -0.010284423828125, -0.032989501953125, -0.03350830078125, -0.008087158203125, -0.001251220703125, 0.0042724609375, 0.005889892578125, 0.0247802734375, 0.035003662109375, -0.002410888671875, 0.010223388671875, -0.02667236328125, -0.032623291015625, -0.01947021484375, -0.0040283203125, 0.024688720703125, 0.035736083984375, -0.0328369140625, -0.0170440673828125, -0.0202178955078125, 0.034393310546875, -0.003448486328125, -0.027862548828125, -0.032928466796875], [-0.0162353515625, -0.026458740234375, -0.024688720703125, -0.004852294921875, -0.01263427734375, -0.02197265625, -0.0215301513671875, -0.004913330078125, 0.026763916015625, -0.0211639404296875, -0.002197265625, -0.001983642578125, -0.01226806640625, 0.032928466796875, 0.0247802734375, -0.032470703125, -0.036163330078125, -0.024993896484375, -0.03277587890625, -0.02557373046875, -0.023590087890625, -0.037109375, 0.0238037109375, -0.02777099609375, -0.00323486328125, 0.022491455078125, 0.015716552734375, -0.023223876953125, -0.0205078125, -0.0279998779296875, -0.0140380859375, 0.0050048828125]], [[0.01910400390625, -0.0352783203125, 0.0166015625, 0.035919189453125, 0.037506103515625, 0.00543212890625, -0.035858154296875, 0.002044677734375, -0.007720947265625, 0.030853271484375, 0.006317138671875, -0.035125732421875, -0.000579833984375, 0.034454345703125, -0.01007080078125, -0.01153564453125, -0.0312347412109375, -0.0299072265625, -0.023590087890625, -0.023590087890625, -0.026153564453125, -0.03057861328125, -0.028594970703125, -0.0285186767578125, 0.025482177734375, 0.034820556640625, 0.035552978515625, -0.006317138671875, -0.001251220703125, -0.0121307373046875, -0.0190277099609375, 0.000213623046875], [0.004638671875, 0.037139892578125, 0.00677490234375, 0.004180908203125, 0.026947021484375, 0.000946044921875, 0.0093994140625, -0.00537109375, 0.0238037109375, 0.006683349609375, -0.0301361083984375, 0.015350341796875, -0.03558349609375, -0.0234375, 0.003021240234375, -0.0132293701171875, 0.00689697265625, 0.035491943359375, 0.01226806640625, 0.002349853515625, 0.014617919921875, 0.00213623046875, -0.024993896484375, -0.031005859375, 0.005279541015625, 0.01300048828125, -0.006683349609375, 0.034820556640625, 0.034637451171875, 0.022796630859375, 0.028167724609375, 0.02197265625], [0.006622314453125, 0.02337646484375, 0.0101318359375, 0.003814697265625, 0.003662109375, -0.00177001953125, 0.018585205078125, -0.0195465087890625, -0.024993896484375, -0.001922607421875, 0.029449462890625, -0.0170440673828125, -0.021453857421875, -0.01190185546875, -0.0205841064453125, -0.0076446533203125, 0.029815673828125, -0.001617431640625, 0.027923583984375, 0.029937744140625, -0.029541015625, -0.01220703125, 0.011383056640625, 0.032012939453125, 0.00689697265625, 0.013153076171875, -0.031829833984375, -0.0201416015625, -0.007720947265625, -0.01617431640625, -0.0099945068359375, -0.036956787109375]], [[0.024322509765625, 0.000213623046875, -0.009918212890625, 0.027618408203125, -0.01580810546875, -0.0133056640625, -0.014404296875, 0.034332275390625, 0.030181884765625, -0.0307159423828125, -0.004791259765625, 0.0032958984375, -0.00830078125, 0.033294677734375, -0.0189666748046875, -0.0147705078125, -0.003448486328125, 0.027984619140625, -0.003021240234375, -0.0283660888671875, 0.027069091796875, -0.0081634521484375, 0.034881591796875, -0.00543212890625, 0.034027099609375, -0.001251220703125, -0.0374755859375, -0.0213165283203125, -0.0146942138671875, -0.028228759765625, -0.035064697265625, 0.033172607421875], [0.003021240234375, 0.017120361328125, 0.019927978515625, 0.0179443359375, -0.03521728515625, 0.031158447265625, 0.035003662109375, -0.027191162109375, -0.01983642578125, 0.024627685546875, -0.024688720703125, -0.02813720703125, 0.016387939453125, -0.02911376953125, -0.016387939453125, 0.035430908203125, 0.015655517578125, 0.0125732421875, 0.01904296875, -0.0146942138671875, 0.021453857421875, 0.033172607421875, 0.0072021484375, 0.018585205078125, 0.01617431640625, -0.0272674560546875, -0.0121307373046875, 0.00390625, 0.025238037109375, -0.034027099609375, -0.002410888671875, 0.008880615234375], [-0.0240325927734375, -0.033660888671875, -0.0035400390625, 0.031585693359375, -0.032562255859375, -0.014190673828125, -0.01617431640625, 0.034820556640625, -0.00860595703125, 0.029754638671875, 0.011322021484375, -0.03485107421875, -0.03271484375, 0.027252197265625, 0.0172119140625, -0.00323486328125, 0.00250244140625, -0.0224151611328125, -0.029327392578125, -0.0285186767578125, 0.024169921875, -0.0308685302734375, -0.021759033203125, -0.025054931640625, 0.02203369140625, -0.00543212890625, -0.0303497314453125, -0.0078582763671875, -0.02947998046875, 0.027862548828125, -0.014251708984375, 0.00103759765625]], [[0.033050537109375, 0.00689697265625, 0.006988525390625, 0.006317138671875, 0.005157470703125, 0.0238037109375, 0.031402587890625, -0.025421142578125, 0.019989013671875, 0.0230712890625, 0.00726318359375, 0.00689697265625, -0.021087646484375, 0.026702880859375, 0.0140380859375, 0.0042724609375, 0.009490966796875, -0.0260162353515625, 0.022125244140625, -0.0189666748046875, -0.0080108642578125, -0.02337646484375, 0.028350830078125, -0.0291748046875, -0.0299072265625, 0.023590087890625, -0.027557373046875, -0.018157958984375, 0.00543212890625, 0.019775390625, 0.024993896484375, -0.03204345703125], [0.01904296875, 0.00506591796875, -0.010955810546875, -0.0283660888671875, -0.004180908203125, 0.028961181640625, -0.03350830078125, -0.0209503173828125, 0.025970458984375, -0.004180908203125, 0.02301025390625, 0.01654052734375, 0.019775390625, 0.035369873046875, 0.010650634765625, -0.02264404296875, -0.03594970703125, -0.0153656005859375, -0.0288848876953125, -0.02447509765625, 0.0223388671875, 0.004852294921875, 0.026214599609375, -0.0260162353515625, 0.0101318359375, -0.024627685546875, 0.030303955078125, -0.0195465087890625, 0.027862548828125, 0.024017333984375, 0.02203369140625, -0.009185791015625], [0.006317138671875, -0.036834716796875, 0.00390625, -0.0230712890625, 0.014984130859375, 0.0201416015625, -0.004852294921875, 0.02154541015625, -0.000732421875, -0.010955810546875, -0.005950927734375, 0.02197265625, -0.00439453125, 0.028411865234375, 0.023223876953125, 0.024993896484375, -0.002197265625, -0.001983642578125, 0.011749267578125, -0.035797119140625, 0.029327392578125, -0.02911376953125, -0.006317138671875, 0.007568359375, -0.000213623046875, -0.0071258544921875, 0.009124755859375, -0.030059814453125, -0.0296173095703125, 0.0155029296875, -0.018524169921875, 0.010650634765625]], [[-0.0206451416015625, -0.03594970703125, 0.036041259765625, -0.0263824462890625, 0.031768798828125, 0.00714111328125, -0.036163330078125, -0.036224365234375, -0.003387451171875, -0.0096282958984375, -0.0174102783203125, -0.02667236328125, 0.027191162109375, 0.0118408203125, 0.00799560546875, -0.0190277099609375, 0.01507568359375, 0.019622802734375, 0.00469970703125, -0.003082275390625, 0.02301025390625, -0.01983642578125, -0.0245361328125, 0.019195556640625, 0.003387451171875, -0.030792236328125, -0.03497314453125, -0.003387451171875, 0.01226806640625, -0.0123443603515625, 0.02166748046875, 0.021240234375], [0.034271240234375, -0.007049560546875, 0.02337646484375, -0.0063934326171875, 0.027069091796875, -0.003387451171875, 0.002288818359375, -0.00042724609375, -0.0088958740234375, 0.035003662109375, -0.03521728515625, -0.0116119384765625, 0.001556396484375, 0.013519287109375, 0.034881591796875, 0.004180908203125, 0.025421142578125, 0.01336669921875, 0.022125244140625, 0.027557373046875, 0.032135009765625, 0.033538818359375, 0.025848388671875, -0.0193328857421875, -0.0081634521484375, 0.007415771484375, -0.022186279296875, 0.025604248046875, -0.0166778564453125, -0.0180816650390625, 0.0125732421875, 0.026763916015625], [-0.02337646484375, 0.0111083984375, -0.00469970703125, -0.0184478759765625, 0.005950927734375, -0.03204345703125, 0.025238037109375, 0.029449462890625, 0.011993408203125, 0.034454345703125, 0.000518798828125, -0.022125244140625, -0.0240325927734375, 0.014617919921875, -0.029754638671875, 0.008087158203125, -0.01654052734375, 0.009552001953125, 0.01519775390625, -0.0050048828125, -0.034393310546875, 0.01190185546875, 0.0162353515625, 0.02081298828125, -0.0233001708984375, 0.029571533203125, 0.0107421875, 0.031829833984375, 0.036529541015625, 0.000213623046875, 0.016815185546875, 0.017791748046875]], [[-0.0307159423828125, 0.0064697265625, 0.005523681640625, 0.013458251953125, -0.0312347412109375, 0.035797119140625, -0.005157470703125, 0.021392822265625, 0.029449462890625, 0.025238037109375, 0.00787353515625, -0.0088958740234375, 0.017791748046875, -0.015655517578125, -0.0155029296875, 0.02020263671875, -0.032562255859375, 0.021392822265625, 0.00140380859375, -0.035858154296875, -0.022857666015625, -0.036376953125, 0.010223388671875, -0.009552001953125, -0.03173828125, 0.0115966796875, 0.003173828125, 0.011688232421875, 0.0140380859375, 0.006683349609375, -0.01007080078125, -0.02301025390625], [-0.0141143798828125, -0.02227783203125, -0.0057373046875, 0.01690673828125, 0.01763916015625, -0.01837158203125, -0.003082275390625, -0.012786865234375, -0.0205078125, -0.03387451171875, 0.008148193359375, 0.029998779296875, 0.00933837890625, 0.033294677734375, 0.012939453125, 0.002410888671875, 0.015716552734375, 0.0234375, 0.01190185546875, -0.00469970703125, 0.035919189453125, 0.026092529296875, 0.032501220703125, 0.028839111328125, -0.01873779296875, 0.014556884765625, 0.0111083984375, 0.0050048828125, 0.001617431640625, -0.01763916015625, 0.013214111328125, -0.01190185546875], [-0.028961181640625, -0.02264404296875, -0.004638671875, 0.018829345703125, -0.03204345703125, 0.034454345703125, 0.023284912109375, -0.00323486328125, -0.007568359375, -0.0308685302734375, 0.00823974609375, 0.034088134765625, -0.031463623046875, -0.0096282958984375, -0.021392822265625, 0.024932861328125, -0.0166168212890625, 0.01153564453125, -0.03631591796875, -0.02520751953125, 0.029815673828125, -0.007720947265625, -0.01007080078125, -0.037109375, 0.013214111328125, 0.01434326171875, 0.00579833984375, -0.0227813720703125, -0.015869140625, 0.035919189453125, 0.036407470703125, 0.030548095703125]], [[-0.0133056640625, 0.027679443359375, 0.00689697265625, 0.0133056640625, -0.00433349609375, -0.021759033203125, 0.013458251953125, -0.02813720703125, 0.033050537109375, 0.029571533203125, -0.0093994140625, -0.002716064453125, 0.0103759765625, -0.0081634521484375, 0.01153564453125, 0.022552490234375, -0.034759521484375, 0.00970458984375, 0.01800537109375, -0.002410888671875, -0.036529541015625, 0.032806396484375, 0.006103515625, -0.03277587890625, -0.0224151611328125, -0.025421142578125, -0.024322509765625, -0.001190185546875, -0.0175628662109375, -0.03387451171875, 0.00469970703125, 0.006988525390625], [0.013671875, 0.00042724609375, 0.026824951171875, -0.00469970703125, -0.029022216796875, -0.01263427734375, -0.0140380859375, 0.026031494140625, -0.0064697265625, 0.023162841796875, 0.00579833984375, 0.000885009765625, 0.028350830078125, 0.015960693359375, 0.034637451171875, 0.016082763671875, -0.0097808837890625, 0.036224365234375, -0.0057373046875, 0.029998779296875, 0.019927978515625, -0.032470703125, -0.0302734375, -0.021453857421875, -0.0079345703125, 0.031646728515625, 0.034088134765625, -0.031524658203125, -0.01837158203125, 0.02337646484375, 0.01983642578125, -0.0085296630859375], [0.00103759765625, -0.013519287109375, 0.005950927734375, -0.022125244140625, 0.01397705078125, 0.004119873046875, -0.02410888671875, -0.005523681640625, 0.0238037109375, -0.0149993896484375, 0.02056884765625, -0.0269012451171875, -0.031890869140625, 0.00250244140625, 0.008087158203125, 0.00140380859375, -0.026458740234375, -0.0153656005859375, -0.027557373046875, -0.00177001953125, -0.0160980224609375, -0.035430908203125, -0.0154266357421875, -0.034912109375, 0.029205322265625, 0.025665283203125, 0.012725830078125, -0.028228759765625, 0.002716064453125, -0.0125732421875, 0.01007080078125, -0.0125732421875]]], [[[0.025604248046875, 0.025238037109375, -0.021087646484375, 0.026519775390625, -0.0235137939453125, -0.035491943359375, -0.01116943359375, -0.018157958984375, -0.0130157470703125, 0.027313232421875, 0.031097412109375, 0.02166748046875, -0.014617919921875, 0.036224365234375, 0.027252197265625, -0.03167724609375, -0.0108795166015625, -0.0186004638671875, 0.029266357421875, -0.0186614990234375, -0.0171966552734375, -0.0175628662109375, 0.025848388671875, -0.0305023193359375, 0.0177001953125, 0.032806396484375, 0.009857177734375, 0.01837158203125, -0.0133056640625, -0.03167724609375, 0.007415771484375, -0.0114593505859375], [0.011688232421875, -0.0307159423828125, 0.02410888671875, 0.00860595703125, -0.004547119140625, 0.01116943359375, 0.01544189453125, -0.027862548828125, -0.037109375, 0.011322021484375, -0.02520751953125, 0.0172119140625, 0.022705078125, 0.00439453125, 0.02056884765625, 0.033538818359375, -0.0341796875, 0.000152587890625, -0.0209503173828125, 0.00146484375, -0.0102081298828125, 0.0184326171875, 0.032867431640625, -0.02911376953125, -0.01226806640625, -0.013153076171875, -0.0169830322265625, 0.00860595703125, 0.0245361328125, 0.017120361328125, -0.005645751953125, -0.021240234375], [0.01763916015625, 0.012725830078125, -0.0135955810546875, 0.000732421875, -0.029754638671875, 0.001983642578125, -0.021240234375, -0.00433349609375, -0.0173492431640625, 0.033966064453125, 0.026885986328125, -0.0068359375, -0.0101470947265625, -0.007720947265625, 0.037322998046875, 0.01397705078125, -0.009185791015625, 0.005645751953125, -0.0141143798828125, 0.0244140625, -0.021820068359375, -0.02337646484375, -0.0154266357421875, -0.035125732421875, -0.022186279296875, 0.0028076171875, 0.02227783203125, -0.0050048828125, 0.035186767578125, -0.026092529296875, -0.03521728515625, -0.0078582763671875]], [[-0.01153564453125, -0.0149993896484375, -0.024688720703125, 0.006103515625, -0.0164642333984375, 0.019256591796875, 0.005950927734375, 0.017852783203125, 0.019683837890625, -0.0296173095703125, -0.03277587890625, 0.008087158203125, 0.027862548828125, -0.01080322265625, 0.01617431640625, -0.0231475830078125, 0.029388427734375, -0.0135955810546875, -0.0243988037109375, -0.0193328857421875, 0.034088134765625, 0.005279541015625, 0.00762939453125, 0.012786865234375, -0.031890869140625, -0.0094757080078125, 0.008392333984375, -0.0208740234375, -0.03167724609375, -0.0202789306640625, -0.036895751953125, 0.004791259765625], [-0.0096282958984375, 0.033538818359375, -0.0367431640625, 0.021453857421875, 0.027130126953125, 0.009124755859375, 0.028900146484375, 0.00933837890625, -0.004486083984375, 0.006256103515625, 0.022705078125, -0.02947998046875, -0.0063934326171875, -0.00250244140625, -0.0216827392578125, -0.0230712890625, -0.02667236328125, 0.012847900390625, -0.0119781494140625, -0.009185791015625, -0.022857666015625, 0.01446533203125, 0.02374267578125, -0.032562255859375, 0.00860595703125, -0.00103759765625, -0.0195465087890625, 0.016693115234375, -0.023895263671875, 0.00897216796875, 0.01116943359375, 0.035552978515625], [-0.01837158203125, -0.0235137939453125, 0.0040283203125, 0.034332275390625, -0.020355224609375, -0.001251220703125, 0.00360107421875, 0.00616455078125, -0.032989501953125, -0.019989013671875, 0.006011962890625, -0.0227813720703125, 0.00030517578125, -0.036529541015625, -0.002288818359375, 0.005523681640625, -0.02197265625, 0.011688232421875, -0.0148468017578125, 0.035186767578125, -0.024627685546875, 0.000946044921875, 0.004119873046875, 0.02197265625, -0.0352783203125, -0.02880859375, -0.0374755859375, 0.00506591796875, 0.023284912109375, -0.0235137939453125, -0.01617431640625, 0.024017333984375]], [[0.009552001953125, 0.011322021484375, -0.0306396484375, 0.02264404296875, -0.014404296875, 0.004791259765625, -0.0186004638671875, 0.026763916015625, -0.028228759765625, 0.0068359375, 0.033172607421875, 0.02081298828125, -0.03741455078125, -0.034088134765625, -0.03460693359375, 0.001922607421875, 0.0010986328125, -0.0303497314453125, -0.015655517578125, 0.027984619140625, 0.032257080078125, -0.01007080078125, 0.0, -0.012420654296875, 0.031280517578125, -0.0230712890625, -0.0076446533203125, 0.009246826171875, 0.020355224609375, 0.0003662109375, -0.026092529296875, 0.00537109375], [0.032012939453125, -0.0302734375, -0.0299072265625, -0.002349853515625, -0.032257080078125, 0.009918212890625, -0.003173828125, -0.002349853515625, 0.020355224609375, -0.0094757080078125, 0.0230712890625, -0.0127105712890625, -0.0143280029296875, -0.00543212890625, 0.0068359375, 0.01434326171875, -0.0200653076171875, 0.035491943359375, 0.033660888671875, -0.02911376953125, -0.0135955810546875, -0.011688232421875, -0.006988525390625, -0.019989013671875, -0.00030517578125, -0.0299835205078125, 0.00177001953125, 0.000518798828125, -0.0188140869140625, -0.0301361083984375, -0.031524658203125, -0.035797119140625], [-0.024993896484375, -0.00390625, 0.01544189453125, 0.01763916015625, 0.0155029296875, 0.033905029296875, -0.032928466796875, 0.026458740234375, 0.003753662109375, -0.00933837890625, -0.0328369140625, -0.03277587890625, -0.0010986328125, 0.001922607421875, -0.033721923828125, 0.026092529296875, -0.0157318115234375, -0.017486572265625, -0.03424072265625, 0.026458740234375, -0.037109375, 0.029266357421875, 0.034515380859375, 0.0035400390625, 0.020294189453125, 0.01080322265625, 0.036773681640625, 0.00433349609375, -0.036590576171875, 0.0166015625, -0.0025634765625, 0.0040283203125]], [[0.02484130859375, -0.0269775390625, -0.0072021484375, -0.021820068359375, -0.023956298828125, 0.034088134765625, -0.035797119140625, 0.013671875, -0.0196990966796875, 0.01080322265625, -0.031463623046875, -0.028289794921875, -0.03057861328125, 0.01007080078125, 0.037017822265625, 0.01983642578125, -0.005279541015625, -0.001678466796875, 0.014190673828125, 0.028839111328125, 0.013519287109375, 0.037017822265625, 0.00360107421875, 0.006622314453125, 0.006103515625, 0.00897216796875, 0.005950927734375, -0.0160980224609375, -0.036529541015625, -0.033294677734375, 0.032012939453125, 0.01043701171875], [-0.00933837890625, -0.0154266357421875, -0.03277587890625, 0.01873779296875, 0.010650634765625, 0.033538818359375, -0.023956298828125, -0.002197265625, 0.030120849609375, -0.01153564453125, -0.023223876953125, 0.007354736328125, 0.028961181640625, 0.027923583984375, 0.00323486328125, 0.029327392578125, -0.028594970703125, 0.02081298828125, 0.001983642578125, 0.00360107421875, 0.029998779296875, -0.01617431640625, -0.0071258544921875, 0.0166015625, 0.005523681640625, -0.001312255859375, -0.0247650146484375, -0.03485107421875, 0.028961181640625, 0.032501220703125, -0.026611328125, -0.002410888671875], [0.036163330078125, 0.035614013671875, 0.001922607421875, -0.021392822265625, 0.024169921875, -0.0202178955078125, 0.024261474609375, 0.0238037109375, 0.026092529296875, 0.034088134765625, -0.037322998046875, 0.022796630859375, 0.028594970703125, 0.0028076171875, 0.02056884765625, 0.00970458984375, -0.001678466796875, 0.01446533203125, 0.037261962890625, -0.0263824462890625, 0.00140380859375, -0.02447509765625, 0.004119873046875, 0.02020263671875, 0.013458251953125, -0.034088134765625, 0.028961181640625, 0.00286865234375, -0.0108795166015625, -0.014190673828125, 0.01806640625, -0.028228759765625]], [[0.028533935546875, -0.0263824462890625, 0.019927978515625, -0.0155792236328125, -0.018524169921875, -0.036956787109375, 0.0035400390625, -0.001190185546875, 0.002197265625, -0.0086669921875, 0.036224365234375, -0.037567138671875, -0.0003662109375, 0.010284423828125, -0.03643798828125, 0.009918212890625, -0.0267486572265625, -0.012054443359375, -0.02484130859375, -0.033355712890625, -0.0323486328125, -0.0068359375, 0.022125244140625, 0.024627685546875, 0.002349853515625, -0.037322998046875, -0.03564453125, 0.025604248046875, -0.028594970703125, -0.0113983154296875, 0.02203369140625, 0.02337646484375], [-0.008453369140625, -0.02593994140625, -0.0003662109375, 0.0186767578125, -0.002655029296875, 0.014404296875, 0.007049560546875, -0.001312255859375, 0.016693115234375, -0.000885009765625, -0.0141143798828125, 0.026092529296875, 0.0072021484375, 0.02264404296875, -0.035430908203125, -0.03594970703125, -0.0189666748046875, 0.009857177734375, 0.013092041015625, 0.020294189453125, 0.0247802734375, -0.0121307373046875, -0.00323486328125, -0.035125732421875, 0.028839111328125, 0.004791259765625, -0.032989501953125, -0.03497314453125, 0.012420654296875, 0.01873779296875, -0.0191802978515625, 0.024261474609375], [0.019256591796875, 0.004119873046875, -0.03521728515625, -0.001983642578125, -0.006988525390625, -0.022125244140625, 0.034820556640625, 0.030670166015625, -0.021453857421875, 0.013214111328125, 6.103515625e-05, -0.0116119384765625, 0.00640869140625, -0.035858154296875, -0.030426025390625, 0.026580810546875, -0.0301361083984375, 0.0103759765625, -0.027496337890625, 0.028839111328125, 0.036590576171875, -0.0065460205078125, 0.021240234375, 0.021820068359375, -0.0119781494140625, 0.030426025390625, -0.025726318359375, -0.031890869140625, -0.033966064453125, 0.00323486328125, -0.007568359375, 0.037322998046875]], [[0.030426025390625, 0.01763916015625, 0.00616455078125, 0.01434326171875, -0.03668212890625, -0.0345458984375, -0.03460693359375, -0.03704833984375, 0.0, -0.007049560546875, -0.033966064453125, 0.030853271484375, -0.031005859375, -0.0338134765625, -0.02734375, -0.020721435546875, 0.025238037109375, 0.027984619140625, -0.013885498046875, -0.0360107421875, 0.001922607421875, -0.0169830322265625, 0.02154541015625, -0.0139617919921875, 0.0201416015625, 0.026153564453125, -0.0335693359375, -0.0205078125, 0.02093505859375, -0.0067596435546875, -0.0077972412109375, 0.023284912109375], [0.0147705078125, 0.021240234375, -0.0243988037109375, 0.032928466796875, 0.0125732421875, -0.0227813720703125, -0.0269775390625, 0.000152587890625, -0.030426025390625, -0.0205841064453125, -0.029754638671875, -0.019256591796875, 0.031951904296875, -0.0114593505859375, -0.010650634765625, 0.0093994140625, 0.00213623046875, 0.037139892578125, -0.036956787109375, -0.0110931396484375, -0.002349853515625, 0.019195556640625, -0.026519775390625, 0.010650634765625, 0.035247802734375, -0.03741455078125, -0.033966064453125, -0.007568359375, 0.015594482421875, -0.00543212890625, -0.032928466796875, -0.03173828125], [0.002288818359375, -0.036376953125, 0.010284423828125, 0.035247802734375, 0.012420654296875, -0.028228759765625, 0.0194091796875, -0.0321044921875, 0.015869140625, -0.015869140625, 0.02166748046875, -0.03460693359375, 0.015289306640625, 0.035919189453125, -0.02630615234375, -0.022125244140625, 0.032196044921875, -0.0313720703125, -0.005889892578125, -0.00469970703125, -0.017791748046875, 0.035125732421875, 0.034271240234375, -0.018524169921875, -0.033447265625, 0.026763916015625, -0.0279998779296875, -0.026824951171875, -0.03350830078125, -0.033355712890625, -0.034759521484375, -0.02947998046875]], [[-0.0245361328125, -0.0130157470703125, 0.0216064453125, -0.00140380859375, 0.01806640625, -0.0213165283203125, -0.00469970703125, 0.01007080078125, 0.01910400390625, -0.003753662109375, 0.015350341796875, -0.01226806640625, -0.0245361328125, 0.029022216796875, -0.0204315185546875, 0.033416748046875, -0.03607177734375, -0.0076446533203125, 0.031829833984375, -0.0292510986328125, -0.0240325927734375, 0.01226806640625, -0.031829833984375, -0.0189666748046875, 0.007354736328125, 0.009033203125, 0.00177001953125, -0.007720947265625, -0.005279541015625, 0.0166015625, 0.018524169921875, 0.027862548828125], [-0.019622802734375, -0.0276336669921875, -0.0133056640625, -0.03387451171875, 0.035614013671875, 0.033782958984375, 0.030914306640625, -0.02557373046875, -0.014617919921875, 0.027801513671875, 0.00543212890625, -0.0345458984375, 0.029998779296875, 0.031097412109375, 0.030487060546875, -0.034759521484375, -0.036834716796875, -0.0205078125, -0.016021728515625, 0.011688232421875, -0.017791748046875, 0.005218505859375, 0.0223388671875, -0.0091094970703125, 0.0079345703125, -0.026092529296875, -0.03643798828125, -0.0081634521484375, 0.010009765625, -0.037567138671875, 0.009185791015625, 0.027984619140625], [0.032989501953125, -0.0367431640625, -0.009918212890625, -0.0091094970703125, -0.00140380859375, -0.010589599609375, 0.036651611328125, 0.034698486328125, 0.02130126953125, 0.013153076171875, 0.004852294921875, -0.035858154296875, 0.01397705078125, -0.033721923828125, -0.002044677734375, 0.034149169921875, 0.032989501953125, -0.029541015625, -0.02777099609375, 0.019775390625, 0.01580810546875, -0.0121307373046875, -0.00970458984375, 0.029815673828125, 0.023223876953125, -0.0179290771484375, -0.02740478515625, -0.0182952880859375, 0.002197265625, -0.0316162109375, 0.008514404296875, -0.0180816650390625]], [[-0.026092529296875, -0.0196990966796875, -0.004180908203125, 0.02166748046875, -0.02813720703125, -0.00079345703125, -0.018524169921875, 0.0064697265625, -0.01580810546875, -0.0201416015625, 0.0111083984375, -0.034088134765625, -0.0227813720703125, -0.00140380859375, 0.018218994140625, 0.0035400390625, 0.016448974609375, 0.002349853515625, -0.00616455078125, -0.01617431640625, -0.010589599609375, 0.030364990234375, 0.036468505859375, -0.000518798828125, 0.012847900390625, -0.0121307373046875, 0.02093505859375, 0.00433349609375, 0.008148193359375, 0.026092529296875, 0.0125732421875, -0.019989013671875], [0.036834716796875, -0.025054931640625, 0.035064697265625, -0.032196044921875, -0.035797119140625, -0.0097808837890625, 0.00030517578125, 0.036651611328125, 0.0172119140625, 0.022705078125, 0.012847900390625, 0.025665283203125, 0.036529541015625, -0.0094757080078125, -0.027862548828125, 0.010009765625, 0.01910400390625, -0.00390625, -0.0153656005859375, 0.034088134765625, -0.003082275390625, 0.019927978515625, -0.021759033203125, -0.0097808837890625, -0.00042724609375, 0.01800537109375, -0.032562255859375, -0.000213623046875, 0.026153564453125, 0.02264404296875, -0.000732421875, 0.036834716796875], [-0.0345458984375, 0.029449462890625, 0.0035400390625, 0.0179443359375, -0.02227783203125, -0.026824951171875, -0.0216827392578125, -0.034454345703125, 0.01806640625, 0.003387451171875, -0.016021728515625, -0.00250244140625, 0.00860595703125, 0.01123046875, 0.015594482421875, -0.00506591796875, 0.0029296875, 0.01690673828125, -0.0307159423828125, -0.0068359375, -0.031463623046875, -0.001922607421875, -0.02264404296875, 0.01544189453125, -0.0262451171875, -0.0042724609375, 0.036773681640625, -0.03094482421875, -0.000152587890625, 0.02093505859375, 0.0172119140625, 0.017333984375]], [[-0.0263824462890625, 0.0166015625, -0.005889892578125, -0.033966064453125, -0.0211639404296875, -0.022857666015625, -0.037200927734375, 0.031036376953125, 0.0169677734375, 0.030914306640625, -0.03558349609375, 0.000732421875, 0.035797119140625, 0.015960693359375, 0.015289306640625, -0.01910400390625, -0.0088958740234375, 0.017333984375, 0.033966064453125, 0.011322021484375, -0.00286865234375, -0.0096282958984375, 0.01220703125, 0.0169677734375, 0.027618408203125, 0.031585693359375, -0.01116943359375, -0.02484130859375, -0.0269012451171875, -0.022186279296875, 0.020660400390625, -0.0085296630859375], [-0.00433349609375, -0.00323486328125, 0.031036376953125, 0.0245361328125, -0.00140380859375, -0.020355224609375, 0.027252197265625, 0.028228759765625, 0.00396728515625, -0.0086669921875, -0.03424072265625, -0.0205078125, 0.00653076171875, 0.031524658203125, 0.035491943359375, 0.027313232421875, 0.035003662109375, -0.001983642578125, -0.005889892578125, 0.031890869140625, 0.019195556640625, 0.02020263671875, 0.024993896484375, 0.019989013671875, 0.008087158203125, 0.010284423828125, -0.01947021484375, -0.0018310546875, 0.014190673828125, 0.022705078125, -0.0141143798828125, -0.03741455078125], [-0.00067138671875, 0.011322021484375, 0.0032958984375, -0.022857666015625, -0.0193328857421875, -0.0066070556640625, 0.033782958984375, 0.022430419921875, 0.009918212890625, -0.000152587890625, 0.022491455078125, -0.014251708984375, 0.019256591796875, 0.00360107421875, 0.0245361328125, -0.031524658203125, 0.012786865234375, 0.032318115234375, -0.00103759765625, -0.00433349609375, 0.01507568359375, -0.01727294921875, 0.01800537109375, -0.0076446533203125, 0.02197265625, -0.02630615234375, -0.027130126953125, -0.0057373046875, -0.0186614990234375, -0.0098419189453125, 0.0166015625, 0.028350830078125]], [[0.037261962890625, -0.03131103515625, -0.0064697265625, -0.004638671875, 0.0205078125, 0.00543212890625, -0.019622802734375, 0.005523681640625, 0.018524169921875, 0.020355224609375, 0.0184326171875, -0.0277099609375, -0.0163116455078125, 0.01947021484375, -0.031158447265625, 0.016387939453125, -0.003814697265625, 0.0125732421875, 0.004486083984375, -0.01080322265625, 6.103515625e-05, 0.012359619140625, -0.00506591796875, -0.00067138671875, 0.028717041015625, -0.023590087890625, -0.0171966552734375, -0.0269012451171875, 0.02191162109375, 0.00677490234375, -0.014251708984375, 0.012115478515625], [-0.004638671875, -0.021240234375, -0.0025634765625, -0.025787353515625, 0.002044677734375, -0.003753662109375, 0.028045654296875, -0.0069122314453125, 0.006103515625, 0.01580810546875, 0.01763916015625, 0.0133056640625, 0.026580810546875, -0.0003662109375, 0.025421142578125, -0.0103607177734375, 0.008392333984375, -0.031829833984375, 0.025665283203125, -0.000732421875, -0.0064697265625, 0.034698486328125, 0.028167724609375, -0.0135955810546875, 0.000579833984375, 0.033172607421875, -0.03668212890625, -0.0097808837890625, -0.00469970703125, -0.010284423828125, -0.024169921875, -0.0103607177734375], [-0.0277099609375, -0.0069122314453125, -0.0149993896484375, 0.017578125, -0.014617919921875, 0.01116943359375, 0.000518798828125, -0.034088134765625, 0.0179443359375, -0.0255126953125, 0.032318115234375, -0.0139617919921875, -0.0098419189453125, -0.0085296630859375, -0.009185791015625, -0.0249176025390625, -0.0133056640625, 0.010589599609375, -0.0170440673828125, -0.026824951171875, 0.027801513671875, 0.033905029296875, -0.0064697265625, 0.029022216796875, 0.0086669921875, 0.0050048828125, 0.02191162109375, -0.0173492431640625, 0.00103759765625, 0.01983642578125, -0.0206451416015625, 0.031036376953125]], [[0.005645751953125, 0.0057373046875, -0.0130767822265625, 0.027618408203125, 0.018157958984375, -0.024993896484375, 0.022705078125, -0.0307159423828125, -0.00079345703125, -0.02410888671875, 0.032684326171875, -0.025054931640625, -0.031158447265625, 0.007720947265625, 0.02337646484375, 0.00750732421875, -0.0277099609375, -0.001312255859375, -0.0255126953125, 0.003448486328125, 0.028961181640625, 0.024261474609375, -0.0330810546875, -0.012054443359375, -0.013153076171875, -0.010650634765625, -0.0003662109375, 0.029632568359375, -0.033721923828125, 0.018157958984375, 0.030059814453125, -0.0301361083984375], [-0.0108795166015625, 0.01800537109375, 0.017120361328125, 0.01080322265625, 0.019927978515625, -0.025360107421875, 0.032440185546875, 0.016448974609375, -0.0272674560546875, 0.024932861328125, -0.0032958984375, 0.028228759765625, -0.0159454345703125, 0.019775390625, 0.00042724609375, 0.026336669921875, 0.034515380859375, -0.0269012451171875, 0.035919189453125, -0.036163330078125, -0.031463623046875, 0.001251220703125, -0.0079345703125, 0.0107421875, 0.026702880859375, 0.00439453125, 0.001983642578125, 0.004852294921875, 0.027191162109375, 0.0247802734375, 0.035491943359375, 0.0125732421875], [0.012939453125, -0.005523681640625, 6.103515625e-05, 0.0, -0.0272674560546875, -0.005584716796875, 0.027496337890625, 0.00103759765625, -0.0269775390625, 0.02484130859375, -0.00897216796875, -0.0255126953125, 0.007781982421875, -0.0283660888671875, 0.013153076171875, -0.03167724609375, 0.01263427734375, 0.021453857421875, 0.029693603515625, -0.01983642578125, 0.003662109375, 