[[[[-0.016764279454946518, 0.025820523500442505, -0.015313707292079926, -0.0133106280118227, -0.02562389150261879, 0.02613278105854988, 0.006601337343454361, -0.024713944643735886, 0.019540391862392426, -0.005837485194206238, -0.022627344354987144, 0.013173360377550125, 0.003878822550177574, -0.01985430344939232, 0.01532440260052681, -0.004971105605363846, -0.02714727446436882, 0.01943649724125862, 0.017698071897029877, 0.016244221478700638, -0.01917993277311325, -0.014313461259007454, 0.019901860505342484, -0.017854861915111542, -0.0028810929507017136, -0.025244347751140594, 0.016554664820432663, -0.022641755640506744, -0.01699875295162201, -0.007227461785078049, 0.00675644725561142, 0.009026039391756058, -0.000775456428527832, -0.020815709605813026, -0.005901327356696129, 0.020109079778194427, 0.004686184227466583, 0.01864629238843918, -0.002642545849084854, 0.0042743198573589325, -0.00792950764298439, 0.016838770359754562, 0.013177882879972458, 0.011870384216308594, 0.00903337076306343, -0.008003028109669685, -0.021963585168123245, 0.012049809098243713, -0.005871614441275597, 0.016080684959888458, 0.009715147316455841, 0.02660941332578659, 0.02580387517809868, -0.004125023260712624, -0.021161329001188278, 0.022624008357524872, -0.006076453253626823, 0.017361152917146683, 0.02025017887353897, 0.016528330743312836, -0.01836499013006687, 0.005095023661851883, -0.01398065872490406, -0.014288081787526608], [0.009053293615579605, -0.009384950622916222, -0.01673591509461403, -0.01011253148317337, 0.0072830356657505035, -0.0020741932094097137, 0.01137160137295723, -0.0131876515224576, 0.01727602258324623, -0.004550019279122353, 0.014208145439624786, 0.0013431161642074585, -0.01997758448123932, -0.011870195157825947, -0.012843438424170017, 0.02663738653063774, -0.002707207575440407, 0.02719956636428833, -0.01713389717042446, 0.0207478329539299, -0.008912194520235062, -0.0210637915879488, -0.016355814412236214, 0.01010095328092575, -0.0027070771902799606, 0.00514085590839386, -0.008753200992941856, -0.0015836022794246674, 0.025243543088436127, 0.01181778684258461, -0.021841783076524734, -0.001098068431019783, 0.008090130984783173, -0.014043502509593964, -0.0012356266379356384, 0.013852480798959732, -0.022241471335291862, -0.02309742011129856, 0.0008607227355241776, 0.008076243102550507, -0.018082914873957634, -0.009930115193128586, -0.021781787276268005, -0.024773404002189636, -0.014529968611896038, -0.025102341547608376, 0.022661641240119934, -0.017969777807593346, 0.0026037469506263733, 0.00478532537817955, 0.012785959988832474, -0.001495974138379097, 0.0008364710956811905, 0.020847614854574203, 0.010168209671974182, -0.008157351985573769, -0.00559314526617527, -0.005544882267713547, 0.0035951118916273117, -0.01053367555141449, 0.015070315450429916, -0.02084452100098133, 0.015210896730422974, 0.005319073796272278], [-0.02262834832072258, -0.023607339709997177, -0.006579160690307617, -0.0010982565581798553, 0.000253407284617424, 0.02495260164141655, -0.022385094314813614, 0.016104280948638916, 0.002274485304951668, -0.020302675664424896, 0.0010834168642759323, 0.00478716567158699, 0.019480273127555847, -0.02566826157271862, -0.0053718313574790955, -0.010540181770920753, -0.007427124306559563, -0.009930789470672607, 0.01333681121468544, -0.003177197650074959, 0.01630372554063797, 0.0023627672344446182, -0.003382984548807144, -0.02041611820459366, 0.016608644276857376, 0.02702956646680832, -0.022589607164263725, 0.025050904601812363, 0.02309410646557808, 0.012534886598587036, -0.015211421065032482, 0.0007147714495658875, 0.016249965876340866, -0.009634912014007568, -0.000387461856007576, -0.02665109932422638, -0.022379722446203232, -0.020024731755256653, 0.01652361825108528, 0.007017381489276886, 0.009434826672077179, -0.024084758013486862, 0.0043574608862400055, -0.012997996993362904, -0.006145427003502846, 0.01557156816124916, 0.001047113910317421, 0.022204991430044174, -0.0019828546792268753, -0.007614573463797569, -0.0026593580842018127, 0.01764092594385147, 0.010079730302095413, 0.019517529755830765, -0.015361983329057693, 0.01999378204345703, -0.020875856280326843, 0.004495382308959961, 0.0038181710988283157, -0.013098356314003468, 0.013615593314170837, -0.005425421521067619, 0.017690621316432953, -0.018641047179698944]], [[-0.017095861956477165, -0.019680552184581757, -0.0057778507471084595, 0.020192503929138184, -0.005458304658532143, -0.005147431045770645, -0.017431434243917465, -0.01750335283577442, -0.007608957588672638, 0.00788905844092369, -0.022257329896092415, -0.007465159520506859, 0.01584334671497345, 0.008734159171581268, 0.00036371685564517975, 0.006817299872636795, -0.012688563205301762, -0.0004016086459159851, 0.024421218782663345, 0.01833687350153923, -0.016932833939790726, -0.0028440244495868683, -0.009236723184585571, -0.007454166188836098, -0.011397907510399818, 0.005332034081220627, -0.011560533195734024, 0.006799306720495224, -0.003881370648741722, 0.011561606079339981, 0.009457692503929138, 0.015055157244205475, -0.014783336780965328, 0.004358705133199692, -0.010477026924490929, -0.012479274533689022, 0.0016075484454631805, -0.018352504819631577, -0.016722124069929123, -0.025747768580913544, -0.013725130818784237, 0.0059812963008880615, 0.014052033424377441, 0.01994086056947708, -0.0257731880992651, -0.01008019782602787, -0.026074066758155823, -0.009730946272611618, -0.01056184433400631, -0.011652650311589241, 0.01957390084862709, -0.01082688756287098, 0.022689446806907654, 0.02679966390132904, -0.011213228106498718, 0.01852281764149666, -0.014548304490745068, -0.0013822466135025024, -0.013323457911610603, 0.013582240790128708, -0.001883702352643013, -0.0173700749874115, -0.009003488346934319, -0.004562182351946831], [-0.018393153324723244, 0.01946340873837471, -0.015147402882575989, 0.004972346127033234, 0.022062692791223526, -0.009002547711133957, 0.019429117441177368, -0.015560361556708813, 0.02150595188140869, -0.01206184085458517, -0.021347837522625923, 0.003812456503510475, 0.0017654858529567719, 0.00690421462059021, 0.023263931274414062, 0.0013777967542409897, -0.02707741968333721, -0.009749360382556915, 0.007569663226604462, -0.02020011842250824, 0.008929602801799774, -0.014680375345051289, -0.02443619631230831, -0.023477811366319656, -0.00806799903512001, 0.017654486000537872, -0.01300776470452547, 0.004568014293909073, -0.00840681605041027, -0.012708611786365509, -0.010616511106491089, 0.012351062148809433, 0.025743551552295685, -0.0011849645525217056, -0.025399502366781235, 0.013066742569208145, -0.0165848471224308, 0.01138419657945633, -0.015260657295584679, 0.017672337591648102, -0.02605888992547989, -0.025588741526007652, -0.018550630658864975, 0.024385441094636917, 0.013968706130981445, -0.004635624587535858, 0.01577954739332199, -0.009117377921938896, 0.0009128060191869736, 0.010397635400295258, 0.023503314703702927, -0.011133896186947823, -0.004484178498387337, 0.007808145135641098, 0.005727604031562805, 0.0041422247886657715, -0.010835818946361542, -0.0181865431368351, -0.001363346353173256, 0.008055675774812698, -0.002027103677392006, 0.011219363659620285, -0.018878847360610962, -0.01027621515095234], [0.01455475389957428, 0.00372999906539917, 0.004516955465078354, -0.023952389135956764, 0.012709047645330429, -0.014026489108800888, -0.020440837368369102, -0.0179482102394104, 0.012080084532499313, -0.019912315532565117, 0.02404269576072693, -0.015460897237062454, 0.011303182691335678, -0.00038484856486320496, -0.020220723003149033, 0.0036298129707574844, -0.01608392968773842, -0.022410402074456215, 0.017850574105978012, -0.02125510573387146, 0.004366826266050339, 0.01221778616309166, 0.004283245652914047, 0.0002472642809152603, 0.01725393533706665, -0.012944499030709267, 0.026522409170866013, -0.021835381165146828, -0.018222477287054062, 0.011555265635251999, -0.0051887743175029755, 0.025839559733867645, 0.013305284082889557, -0.02573365531861782, -0.014975708909332752, 0.006542578339576721, -0.007760467007756233, 0.014880374073982239, -0.019723037257790565, 0.011697493493556976, -0.016960522159934044, -0.014525863341987133, 0.01415669173002243, -0.01618504710495472, 0.0018478147685527802, -0.01730562373995781, -0.017364822328090668, 0.004476681351661682, -0.022466527298092842, -0.012939433567225933, -0.00033570826053619385, -0.009340571239590645, -0.014048490673303604, -0.026097001507878304, 0.02387576922774315, -0.020983804017305374, 0.02316320315003395, -0.026182521134614944, 0.006155706942081451, -0.012052636593580246, 0.008924998342990875, 0.001871306449174881, 0.00799168273806572, 0.02341679111123085]], [[0.022023659199476242, 0.019161570817232132, 0.0032457634806632996, 0.015161644667387009, 0.016788750886917114, 0.003959860652685165, -0.007840972393751144, -0.02353489026427269, 0.02379702776670456, 0.008459534496068954, -0.003326164558529854, 0.015843383967876434, 0.0015723928809165955, -0.0060186684131622314, -0.0034865550696849823, -0.0007819738239049911, 0.015598274767398834, 0.024964094161987305, -0.014212018810212612, -0.015932990238070488, 0.0088396817445755, -0.0045175254344940186, -0.010687494650483131, 0.01612531766295433, 0.019607428461313248, -0.014695066958665848, 0.006148286163806915, 0.02055169641971588, 6.99460506439209e-05, -0.013447031378746033, 0.00016855448484420776, -0.008861221373081207, 0.010071948170661926, -0.016978424042463303, 0.005869410932064056, -0.009426072239875793, -0.0031204838305711746, -0.015314887277781963, -0.019764048978686333, 0.024086132645606995, 0.01036282628774643, -0.012152283452451229, 0.006243348121643066, 0.010998204350471497, -0.00015159323811531067, -0.0063034538179636, -0.022644031792879105, -0.006304129958152771, -0.01616671122610569, -0.012117264792323112, -0.017939064651727676, -0.003691457211971283, -0.008700001984834671, 0.02710758149623871, 0.014041103422641754, -0.02446557767689228, -0.022090233862400055, -0.017377633601427078, -0.005895210430026054, -0.020980263128876686, -0.02399657852947712, -0.016135498881340027, 0.025092341005802155, 0.006027501076459885], [0.02180536836385727, -0.0045206062495708466, -0.021566927433013916, -0.0018485859036445618, 0.014919273555278778, -0.012921641580760479, -0.00680026039481163, -0.004599664360284805, 0.016591552644968033, -0.013328212313354015, 0.021039921790361404, 0.024239875376224518, -0.019986703991889954, -0.024289850145578384, -0.0009286068379878998, -0.010037383064627647, -0.02309540845453739, -0.026429902762174606, 0.009248629212379456, 0.0009948741644620895, 0.022618327289819717, 0.021632567048072815, -0.005227047950029373, 0.011384304612874985, -0.004829844459891319, -0.006500866264104843, 0.00010573677718639374, 0.02584511786699295, 0.02558949962258339, -0.0163569375872612, -0.02240622416138649, -0.0027012210339307785, -0.005797484889626503, 0.01174180954694748, 0.014683157205581665, -0.0023484788835048676, 0.02462303638458252, 0.023888293653726578, -0.008076755329966545, 0.0231805257499218, -0.006056385114789009, 0.002350093796849251, -0.012856125831604004, 0.006576903164386749, -0.015078656375408173, 0.01647869497537613, -0.02326243929564953, -0.02266203798353672, -0.020320013165473938, -0.006143882870674133, 0.006527382880449295, -0.015432513318955898, -0.019773278385400772, 0.009208068251609802, -0.023822121322155, -0.00437990203499794, -0.010090615600347519, 0.009059995412826538, 0.00822337344288826, 0.01901257038116455, 0.02271297201514244, 0.015745598822832108, 0.026000864803791046, -0.0162946879863739], [-0.02437332645058632, -0.011645171791315079, 0.01622897759079933, -0.004898499697446823, -0.003306848928332329, -0.01641785353422165, -0.01070256158709526, 0.009350813925266266, 0.02338596060872078, -0.015629108995199203, -0.011706829071044922, 0.022580955177545547, -0.004734329879283905, 0.016139235347509384, 0.004257287830114365, -0.008860072121024132, 0.022955361753702164, -0.018355267122387886, -0.00342487171292305, -0.014673500321805477, -0.022524377331137657, -0.013319495134055614, -0.01449560560286045, -0.01087389886379242, 0.022473938763141632, 0.021154161542654037, 0.015357963740825653, -0.011358380317687988, -0.004330264404416084, 0.002543848007917404, 0.0013206284493207932, 0.008280444890260696, 0.011897437274456024, -0.01313871331512928, 0.0022770725190639496, -0.008775129914283752, -0.00905616208910942, 0.02460627630352974, 0.019648082554340363, 0.009489435702562332, 0.006616208702325821, -0.02337023988366127, 0.02490336075425148, 0.013588175177574158, 0.027066178619861603, -0.016486315056681633, 0.011573605239391327, 0.022106435149908066, 0.017969824373722076, 0.02090541273355484, -0.01801486313343048, 0.0041519030928611755, 0.005241513252258301, -0.0019723810255527496, -0.009602371603250504, -0.014654372818768024, 0.01672905683517456, 0.01440655067563057, 0.011148016899824142, -0.009646568447351456, -0.018932947888970375, 0.017810743302106857, 0.02417450025677681, 0.01743531972169876]], [[-0.011286066845059395, 0.01854359358549118, -0.009984565898776054, 0.012594558298587799, -0.0007703062146902084, -0.0028701964765787125, 0.02519170194864273, 0.017235860228538513, 0.006481725722551346, 0.015398222953081131, 0.017204388976097107, -0.0033598095178604126, 0.01543617993593216, -0.024648454040288925, -0.013931642286479473, -0.0010355114936828613, 0.011077050119638443, -0.014174087904393673, -0.00015703588724136353, 0.010624676942825317, -0.020270563662052155, -0.021124832332134247, 0.021256648004055023, -0.015503458678722382, -0.0016352254897356033, 0.02290607988834381, 0.01432206854224205, -0.013007602654397488, 0.004563458263874054, 0.021851465106010437, 0.01573149859905243, 0.01723816618323326, 0.0096510611474514, -0.01699945330619812, -0.0007670298218727112, 0.0005326736718416214, -0.012882244773209095, -0.014774255454540253, 0.002873621881008148, 0.011699538677930832, 0.016614489257335663, 0.026588793843984604, -0.00852527841925621, -0.02068815380334854, 0.010925579816102982, 0.00999411940574646, 0.019678160548210144, -0.01072743535041809, 0.0025383923202753067, -0.014524903148412704, -0.015390061773359776, -0.014817804098129272, 0.01927095279097557, 0.000382792204618454, -0.012048932723701, 0.015668492764234543, 0.006143674254417419, -0.0064530447125434875, -0.009941589087247849, -0.021274343132972717, 0.008274082094430923, 0.02711760625243187, 0.006846323609352112, -0.00047699734568595886], [-0.021871333941817284, 0.024839963763952255, -0.026781735941767693, -0.019460678100585938, 0.0042958930134773254, 0.008025981485843658, 0.007121626287698746, -0.02211024984717369, 0.023995645344257355, -0.005262022837996483, 0.015393465757369995, -0.01456481870263815, 0.01743249222636223, -0.009899748489260674, -0.01371645275503397, 0.009293034672737122, -0.024885229766368866, 0.017924387007951736, -0.009897101670503616, -0.005908040329813957, -0.027115128934383392, -0.011426517739892006, -0.0009792633354663849, -0.00732463039457798, 0.005422782152891159, -0.013643580488860607, -0.009412774816155434, 0.00931776687502861, 0.020466715097427368, 0.02571484073996544, -0.0009022019803524017, 0.013364017009735107, 0.01324666291475296, -0.018407929688692093, 0.00928320363163948, -0.010362474247813225, -0.002511117607355118, 0.006903588771820068, -0.004220517352223396, 0.016823314130306244, 0.02384854108095169, -0.0023760832846164703, -0.0001549404114484787, -0.0067729465663433075, 0.005976319313049316, 0.022625990211963654, -0.0054178386926651, -0.0038750600069761276, -0.007546994835138321, 0.023800093680620193, -0.012881233356893063, 0.0034408532083034515, 0.007764823734760284, -0.010587699711322784, 0.009691353887319565, -0.005555441603064537, -0.021954193711280823, 0.01570955663919449, 0.0051963962614536285, -0.0013699810951948166, 0.012177716940641403, 0.02031835913658142, -0.016442235559225082, 0.026892032474279404], [-0.01326325349509716, -0.01744445227086544, -0.019466431811451912, 0.01903197169303894, 0.015691746026277542, 0.007534269243478775, 0.01323193684220314, -0.00028963759541511536, 0.02097664400935173, 0.020540378987789154, 0.002539774402976036, -0.010180499404668808, -0.014832384884357452, 0.009148627519607544, 0.02287086471915245, 0.023960944265127182, 0.025017373263835907, -0.019676439464092255, -0.014972238801419735, -0.019885176792740822, -0.0014519337564706802, 0.01742769405245781, 0.018978551030158997, 0.024148080497980118, -0.008992733433842659, 0.0022524185478687286, 0.0006034635007381439, 0.009572982788085938, -8.502043783664703e-05, -0.022559920325875282, -0.007704710587859154, 0.0016268771141767502, -0.01465965248644352, 0.021216440945863724, 0.009284447878599167, -0.0016695484519004822, 0.02328519895672798, 0.011875249445438385, -0.026662565767765045, 0.022889696061611176, -0.0038061514496803284, 0.0024830587208271027, -0.01505934726446867, 0.014024712145328522, 0.009433764964342117, -0.005156772211194038, 0.01583312824368477, 0.025371216237545013, -0.010635390877723694, -0.01535334438085556, -0.01663881726562977, -0.0071433428674936295, 0.012014128267765045, -0.01426564622670412, 0.0042815059423446655, 0.0019161906093358994, 0.01723776012659073, -0.014012174680829048, 0.0163736455142498, 0.017615530639886856, 0.012066606432199478, 0.017631325870752335, -0.0007879547774791718, 0.022011056542396545]], [[0.021075889468193054, 0.024554964154958725, 0.014402132481336594, -0.01839817315340042, -0.008649047464132309, -0.008899515494704247, 0.02390071377158165, -0.0020245928317308426, 0.0028468146920204163, -0.005824344232678413, -0.008309276774525642, -0.017873328179121017, 0.016591649502515793, 0.007203675806522369, 0.003238854929804802, 0.012646909803152084, 0.01860853284597397, 0.0191403366625309, 0.02367832511663437, 0.017425235360860825, 0.006464928388595581, -0.00461571104824543, -0.02089456096291542, -0.003722144290804863, 0.02414792776107788, -0.026896294206380844, -0.021814502775669098, 0.015910670161247253, 0.006419237703084946, 0.0060553401708602905, 0.005661491304636002, -0.026083769276738167, 0.00895460695028305, -0.02665901929140091, 0.0030356515198946, 0.008055508136749268, -0.013838709332048893, -0.01219771895557642, -0.007729288190603256, 0.005569141358137131, -0.018589118495583534, 0.005299557000398636, -0.016758479177951813, -0.0009315125644207001, -0.003206944093108177, 0.022886939346790314, 0.022972576320171356, -0.001657893881201744, 0.008492004126310349, 0.024802926927804947, 0.0022657420486211777, 0.0006552804261445999, -0.0034427791833877563, -0.02601625584065914, -0.009240081533789635, -0.024701446294784546, 0.003912990912795067, 0.004752010107040405, 0.012403134256601334, 0.004428263753652573, -0.01488241832703352, -0.008026663213968277, 0.01789732649922371, -0.0018416326493024826], [-0.011193076148629189, -0.017707329243421555, -0.024845022708177567, -0.0027460847049951553, -0.025186369195580482, -0.008857550099492073, -0.022984353825449944, -0.024458741769194603, -0.02657293528318405, -0.02244165912270546, 0.007168535143136978, 0.010803524404764175, 0.023159701377153397, -0.0064624156802892685, 0.00364764966070652, -0.026775626465678215, 0.021017052233219147, -0.015901513397693634, -0.00734541192650795, -0.017062516883015633, -0.007382649928331375, 0.019808635115623474, 0.0009365454316139221, -0.005989434197545052, -0.01557613629847765, -0.0005537476390600204, 0.0023656729608774185, 0.0054099299013614655, -0.014081562869250774, 0.0020142998546361923, -0.007850909605622292, 0.023745428770780563, -0.01951955445110798, -0.010295627638697624, 0.02694638818502426, 0.012796271592378616, -0.010799387469887733, -0.02147490903735161, -0.016839303076267242, 0.017363954335451126, -0.023582329973578453, 0.0003932993859052658, -0.009284824132919312, -0.015600517392158508, 0.01752844825387001, -0.0035194382071495056, 0.027012091130018234, -0.009687969461083412, -0.008760413154959679, -0.009949592873454094, 0.020224329084157944, -0.01092582754790783, -0.014962820336222649, -0.012360326014459133, 0.012376520782709122, -0.006393112242221832, 0.0007406380027532578, -0.018304482102394104, 0.005293324589729309, -0.015387661755084991, 0.01922665908932686, -0.014686142094433308, 0.008009292185306549, -0.004163239151239395], [0.004641033709049225, -0.0053221359848976135, -0.016289610415697098, 0.01945517212152481, -0.0007154271006584167, 0.006432041525840759, 0.023898683488368988, 0.005214635282754898, -0.011748502030968666, -0.0004878602921962738, -0.004921739920973778, -0.01449035108089447, -0.0041077639907598495, -0.02172824926674366, -0.014056805521249771, 0.01600804179906845, 0.026188332587480545, -0.01792895421385765, 0.001480400562286377, 0.009354867041110992, -0.005805669352412224, 0.00882314145565033, -0.025881610810756683, -0.009104553610086441, 0.007513362914323807, -0.0018679928034543991, 0.003986744210124016, 0.02270016446709633, 0.003813650459051132, 0.016242194920778275, 0.014812406152486801, 0.0051316507160663605, 0.022646725177764893, -0.024663450196385384, -0.003140868619084358, -0.011291898787021637, 0.00593770295381546, -0.014637657441198826, -0.016551027074456215, 0.011318575590848923, -0.007247433066368103, -0.0017251037061214447, -0.0002168118953704834, -0.012442712672054768, 0.01816832274198532, -0.010802669450640678, -0.0022831372916698456, 0.025349438190460205, 0.002925153821706772, 0.012704018503427505, -0.022984346374869347, -0.0012568049132823944, -0.019698577001690865, -0.02095341682434082, -0.02489341050386429, 0.026633497327566147, 0.017192944884300232, -0.010919535532593727, -0.015448586083948612, 0.012937057763338089, -0.003290075808763504, 0.005806129425764084, -0.007848555222153664, -0.023876942694187164]], [[0.002569461241364479, 0.024549558758735657, 0.011851496994495392, -0.021889468654990196, -0.020425893366336823, 0.0024426504969596863, 0.011963732540607452, 0.004071537405252457, -0.024080723524093628, -0.022045046091079712, 0.0033613648265600204, 0.011495627462863922, -0.010131042450666428, 0.00388425774872303, -0.021524585783481598, 0.005841448903083801, 0.020165495574474335, 0.024236544966697693, -0.022785326465964317, -0.00016246549785137177, 0.002903379499912262, 0.006023239344358444, 0.0013717766851186752, -0.0016672536730766296, 0.006098803132772446, -0.0034523848444223404, 0.019149508327245712, 0.021223802119493484, 0.010032933205366135, -0.013411831110715866, -0.007107410579919815, -0.01936662383377552, 0.02032538503408432, 0.019322354346513748, -0.007238378748297691, 0.016668226569890976, -0.022615786641836166, 0.014482464641332626, 0.024131231009960175, 0.0017524678260087967, -0.014453490264713764, -0.009820759296417236, 0.02456057444214821, -0.002680918201804161, 0.01371821016073227, 0.013890314847230911, -0.0120834456756711, 0.007288314402103424, -0.00477670319378376, -0.021617991849780083, -0.0024264343082904816, 0.014904476702213287, 0.0020374953746795654, -0.012194079346954823, -0.022360777482390404, 0.012843891978263855, -0.023820746690034866, 0.007531583309173584, 0.011335991322994232, 0.009813416749238968, -0.01555757224559784, 0.00805148109793663, -0.0034334976226091385, 0.019608743488788605], [-0.014531765133142471, -0.02178957685828209, -0.014095274731516838, 0.01489245891571045, -0.018238529562950134, 0.00722397118806839, -0.01806492917239666, -0.009576724842190742, 0.025876536965370178, 9.732507169246674e-05, -0.017261290922760963, 0.004731561988592148, -0.0006240308284759521, -0.006983863189816475, -0.006040241569280624, -0.024095816537737846, 0.017067309468984604, 0.018979422748088837, -0.02091074362397194, -0.023957233875989914, -0.01696351170539856, 0.018921468406915665, -0.0008825808763504028, -0.006782811135053635, -0.014013621024787426, -0.009024910628795624, -0.019257761538028717, -0.02087593264877796, -0.0035575255751609802, -0.019121577963232994, -0.019263701513409615, -0.0180177241563797, 0.025682803243398666, 0.014492921531200409, 0.009835612028837204, -0.00026335567235946655, 0.005028974264860153, -0.006430543959140778, -0.0015930980443954468, -0.012660620734095573, 0.002291109412908554, 0.007027909159660339, 0.013654004782438278, -0.00783822126686573, -0.005121156573295593, 0.011295933276414871, -0.018598251044750214, -0.003374902531504631, 0.017898358404636383, 0.0068482570350170135, 0.026004783809185028, 0.0007281973958015442, -0.024309897795319557, -0.010402694344520569, 0.0048879459500312805, 0.012080337852239609, -0.009694240987300873, -0.022173821926116943, 0.019867591559886932, 0.02027776464819908, -0.0019997525960206985, -0.0020905379205942154, -0.011899245902895927, -0.007094541564583778], [-0.025208162143826485, -0.022586701437830925, -0.010281093418598175, 0.010652527213096619, 0.0012058615684509277, -0.001182233914732933, -0.008434731513261795, -0.018455082550644875, 0.024003777652978897, 0.015031639486551285, 0.0068510472774505615, 0.007075309753417969, -0.005447635427117348, -0.006642257794737816, -0.00572781078517437, -0.020324643701314926, 0.00873548910021782, 0.004971124231815338, -0.011678075417876244, 0.008990664035081863, 0.007292855530977249, 0.025989804416894913, -0.0031111817806959152, -0.007253367453813553, 0.008566055446863174, 0.021295171231031418, -0.027052583172917366, 0.022383224219083786, -0.004542229697108269, 0.010248467326164246, 0.018140237778425217, 0.01869206130504608, -0.02341860719025135, -0.0025489646941423416, -0.01946139894425869, 0.004426963627338409, -0.005068812519311905, -0.012867774814367294, -0.0059761181473731995, -0.012890716083347797, 0.02547697350382805, -0.015058264136314392, 0.0029791630804538727, -0.00245753675699234, -0.01621687412261963, -0.010229308158159256, -0.016424179077148438, -0.0003825463354587555, -0.018793931230902672, 0.016294002532958984, 0.02489607036113739, -0.01414567232131958, 0.011771034449338913, -0.012732889503240585, -0.006416793912649155, -0.019783493131399155, -0.014888294972479343, -0.024391084909439087, -0.003611244261264801, -0.02478504553437233, 0.014283575117588043, -0.022826962172985077, -0.014257317408919334, -0.007167128846049309]], [[-0.001234550029039383, -0.0025311466306447983, 0.0026385579258203506, 0.012845359742641449, 0.019269727170467377, 0.022885460406541824, 0.023862723261117935, -0.009196814149618149, 0.017140008509159088, 0.0044435299932956696, -0.02635832130908966, -0.0188822653144598, 0.014318481087684631, -0.025208350270986557, -0.024437882006168365, -0.02401489019393921, -0.011563122272491455, 0.01876499131321907, -0.024052314460277557, -0.02335657924413681, 0.009781323373317719, 0.021758895367383957, 0.001509128138422966, 0.013390876352787018, -0.010088948532938957, -0.020281491801142693, 0.024267368018627167, -0.024441929534077644, 0.0057722777128219604, 0.007345724850893021, 0.005483686923980713, -0.024825014173984528, 0.003333253785967827, -0.005242861807346344, -0.013330663554370403, -0.004664052277803421, -0.01271058339625597, 0.02132686972618103, -0.014618374407291412, -0.00235569104552269, 0.02375323697924614, -0.01868603378534317, -0.021401135250926018, 0.020431924611330032, -0.025550058111548424, -0.01645030453801155, 0.007589973509311676, 0.02659183368086815, 0.0004917904734611511, 0.00250803679227829, -0.024665681645274162, 0.02234988659620285, -0.022703828290104866, -0.00732073187828064, -0.003362312912940979, -0.023220136761665344, -0.00552462600171566, -0.016879379749298096, 0.017326515167951584, -0.013701314106583595, -0.009529635310173035, -0.025752024725079536, 0.014108583331108093, -0.024121735244989395], [-0.003871304914355278, 0.0017335601150989532, 0.011063430458307266, -0.00974421575665474, -0.004441598430275917, 0.010130506008863449, -0.015463264659047127, 0.01260695606470108, -0.023303620517253876, -0.026075903326272964, 0.013390548527240753, 0.008169688284397125, -0.023660143837332726, -0.0065088775008916855, 0.02082650735974312, -6.76959753036499e-05, 0.023514535278081894, 0.024570569396018982, -0.003015972673892975, 0.01226307824254036, 0.008357658982276917, -0.014423142187297344, 0.022606413811445236, -0.005135217681527138, 0.023323357105255127, -0.0025789570063352585, -0.00512019544839859, 0.003555314615368843, -0.01454645674675703, 0.0256551131606102, 0.019130196422338486, -9.362772107124329e-05, -0.011088980361819267, -0.012959443032741547, 0.009070131927728653, -0.018954351544380188, -0.010755138471722603, -0.017546726390719414, 0.015294183045625687, -0.025152018293738365, 0.017280057072639465, 0.02507060393691063, -0.0037924200296401978, 0.02025911584496498, 0.02536648139357567, -0.014107391238212585, 0.015323124825954437, -0.009671144187450409, -0.009639918804168701, -0.0069878119975328445, -0.003197474405169487, -0.0213573407381773, 0.0030566398054361343, 0.012495994567871094, -0.0041376445442438126, -0.024138009175658226, -5.662441253662109e-06, -0.02130984142422676, -0.006416669115424156, 0.021277841180562973, 0.012779448181390762, 0.008157230913639069, -0.009843084961175919, -0.0030268877744674683], [-0.022331349551677704, 0.010315768420696259, -0.023815277963876724, 0.00032863952219486237, 0.0012477114796638489, -0.00286308117210865, -0.0031050723046064377, 0.004610728472471237, 0.004903733730316162, -0.018772054463624954, -0.012533239088952541, -0.00033618323504924774, 0.0224669948220253, 0.015960492193698883, 0.022985704243183136, 0.004370976239442825, -0.008615590631961823, 0.015454333275556564, -0.015003962442278862, -0.02285885438323021, 0.016440335661172867, 0.02514708787202835, 0.01689900830388069, -0.021751606836915016, 0.0013723671436309814, -0.010852975770831108, -0.006224226206541061, 0.014937549829483032, -0.0014506615698337555, 0.021435316652059555, 0.015289921313524246, 0.0044755153357982635, 0.020861580967903137, -0.0002911631017923355, 0.0024386290460824966, -0.01567370817065239, 0.015471689403057098, 0.019390825182199478, -0.0035183094441890717, -0.023268302902579308, 0.021368607878684998, 0.01365436241030693, -0.015493418090045452, -0.014188590459525585, 0.0055051036179065704, -0.02295370027422905, 0.011955644935369492, -0.01779301092028618, -0.02285553142428398, 0.02037547528743744, -0.007442750036716461, -0.02597704716026783, 0.0021482575684785843, 0.013824354857206345, 0.026276446878910065, -0.016131557524204254, -0.0018753614276647568, -0.010113231837749481, -0.025332391262054443, 0.008833155035972595, 0.005899772047996521, 0.016887307167053223, -0.0033262036740779877, 0.01501646637916565]], [[-0.011054804548621178, -0.015792228281497955, 0.0033364202827215195, 0.022403515875339508, 0.019590985029935837, 0.01792728528380394, 0.01125357300043106, -0.004142489284276962, -0.0023116376250982285, -0.0018191784620285034, 0.01853092387318611, -0.016978546977043152, 0.021266818046569824, -0.010145435109734535, 0.024697035551071167, -0.007689852267503738, -0.011478167027235031, -0.021386047825217247, -0.019284600391983986, 0.01785607635974884, -0.0019016098231077194, -0.013398307375609875, -0.01801316998898983, -0.007003366947174072, -0.026503870263695717, 0.010152019560337067, -0.01129179447889328, 0.004753910005092621, 0.022450316697359085, -0.009466299787163734, 0.006174612790346146, 0.026825401932001114, -0.016939792782068253, 0.016017738729715347, 0.004245106130838394, 0.0020855311304330826, 0.008683007210493088, 0.019690819084644318, -0.013006707653403282, -0.0019487962126731873, 0.00934455543756485, -0.01977521739900112, 0.025012027472257614, -0.016771510243415833, 0.027080170810222626, 0.01613522693514824, -0.023093514144420624, -0.0161180067807436, 0.024546127766370773, -0.003338754177093506, 0.001943431794643402, -0.007943829521536827, 0.008118364959955215, 0.024984337389469147, -0.00780106894671917, -0.018808621913194656, 0.0002514161169528961, 0.00493539497256279, -0.020147502422332764, -0.011392626911401749, 0.020929429680109024, 0.011674806475639343, -0.006262267008423805, 0.018358290195465088], [0.01196669414639473, 0.006310023367404938, -0.004287363961338997, -0.010631920769810677, -0.012138753198087215, 0.025199204683303833, 0.026358600705862045, -0.011950363405048847, 0.013358697295188904, 0.01696695014834404, 0.01083754375576973, 0.014056798070669174, 0.023016128689050674, -0.004979349672794342, 0.02601737156510353, 0.0024527888745069504, -0.009906012564897537, 0.0005861185491085052, -0.023078836500644684, 0.014321666210889816, -0.009853819385170937, 0.0005193129181861877, -0.010309996083378792, -0.0018872041255235672, 0.012499220669269562, 0.018277660012245178, 0.017048288136720657, 0.02460675686597824, 0.010827258229255676, -0.008471274748444557, -4.44948673248291e-05, -0.0012797527015209198, 0.0049864985048770905, -0.018986478447914124, -0.025948379188776016, -0.01784185692667961, 0.025994785130023956, 0.027006201446056366, -0.0235895998775959, -0.016425039619207382, -0.018114838749170303, 0.005384020507335663, 0.006879433989524841, 0.02608228474855423, 0.003458268940448761, 0.0018844939768314362, 0.0021461695432662964, 0.01461825892329216, 0.01568170264363289, 0.021127212792634964, 0.0008385144174098969, 0.015101920813322067, 0.002211581915616989, 0.026787403970956802, -0.025513315573334694, -0.0039280131459236145, 0.0041469670832157135, 0.024316642433404922, 0.0020661242306232452, -0.006669843569397926, -0.025829099118709564, -0.007342033088207245, 0.005211014300584793, -0.016543783247470856], [0.019702065736055374, 0.017040923237800598, 0.013791840523481369, 0.006187956780195236, 0.022440984845161438, 0.020082563161849976, -0.023507194593548775, 0.018730685114860535, 0.015158683061599731, 0.026330821216106415, 0.02401459589600563, -0.02016666904091835, 0.01188286766409874, 0.0036257263273000717, 0.01885538175702095, -0.01948859542608261, 0.017530135810375214, 0.01094328984618187, 0.0141359344124794, 0.027067910879850388, 0.014813899993896484, -0.020449308678507805, -0.01213383674621582, -0.008602948859333992, 0.01835988089442253, 0.014821968972682953, -0.020143862813711166, -0.0061590466648340225, -0.02618252858519554, 0.007030699402093887, 0.009313952177762985, 0.014825943857431412, -0.012466724030673504, -0.020267488434910774, 0.017312511801719666, 0.021631982177495956, 0.02397948130965233, 0.000986410304903984, -0.022366181015968323, 0.011111199855804443, -0.0024110767990350723, -0.026452980935573578, -0.026502475142478943, -0.0210452601313591, -0.015929779037833214, 0.007077425718307495, -0.005623014643788338, -0.022417660802602768, -0.01652263104915619, 0.019307482987642288, -0.003063477575778961, -0.009243462234735489, -0.010126430541276932, 0.006333697587251663, 0.026472806930541992, -0.020788416266441345, -0.025726890191435814, -0.019065719097852707, 0.023150909692049026, -0.020867565646767616, -0.0028903167694807053, 0.012697987258434296, 0.0010277274996042252, -0.016723033040761948]], [[0.019825737923383713, 0.008691836148500443, 0.017771873623132706, -0.0072301533073186874, 0.011173427104949951, -0.0182186309248209, 0.014673039317131042, -0.009153589606285095, 0.021881431341171265, 0.019673455506563187, 0.009250633418560028, -0.007600044831633568, 0.013889528810977936, 0.022366661578416824, -0.0017800536006689072, -5.487352609634399e-06, -0.018115416169166565, -0.01836526393890381, 0.015287287533283234, -0.017473440617322922, -0.021215638145804405, 0.009562648832798004, 0.019022896885871887, 0.025498032569885254, 0.010101363062858582, -0.004992075264453888, -0.011830538511276245, 0.008348707109689713, -0.010914139449596405, 0.002948276698589325, 0.0077896080911159515, 0.001429809257388115, 0.021752741187810898, -0.021039694547653198, 0.025725912302732468, 0.0002492498606443405, 0.0012032799422740936, 0.017983831465244293, -0.023668166249990463, 0.007420308887958527, -0.0002720281481742859, 0.01710626110434532, -0.026438962668180466, -0.011360567063093185, -0.00010200776159763336, 0.011220220476388931, 0.018557168543338776, -0.010687403380870819, 0.0011462345719337463, -0.0013892389833927155, 0.02415585145354271, 0.0102335624396801, 0.014976326376199722, -0.019974451512098312, 0.012526415288448334, -0.02237088233232498, -0.010727468878030777, 0.0015438683331012726, -0.0043598078191280365, 0.026838555932044983, 0.00270647369325161, 0.020535163581371307, 0.018610738217830658, 0.022478576749563217], [-0.011762297712266445, -0.012548235245049, 0.024945072829723358, -0.01516131591051817, -0.024706803262233734, 0.009159639477729797, -0.020548688247799873, -0.009876040741801262, 0.01617458462715149, -0.018100064247846603, -0.013803152367472649, -0.01028377190232277, -0.005080994218587875, 0.022244013845920563, -0.022629912942647934, -0.022115400061011314, 0.016379114240407944, 0.022610634565353394, -0.022818023338913918, 0.015274323523044586, 0.010396338999271393, -0.023398227989673615, -0.011656321585178375, 0.011693011969327927, -0.018911056220531464, -0.011535406112670898, -0.0016346145421266556, -0.01465928927063942, -0.004835415631532669, 0.0016693603247404099, -0.006151873618364334, 0.008376240730285645, 0.017876800149679184, -0.00865868479013443, 0.008505884557962418, -0.010005472227931023, 0.017974019050598145, -0.026058584451675415, 0.024010837078094482, -0.009401347488164902, -0.001698918640613556, 0.013006754219532013, 0.00905025377869606, 0.024388808757066727, -0.008889922872185707, 0.020192191004753113, 0.0019275546073913574, 0.0008687917143106461, -0.016262628138065338, -0.018014894798398018, 0.015844590961933136, 0.003976510837674141, -0.013319014571607113, 0.016843967139720917, -0.016465747728943825, 0.011586938053369522, -0.0023817773908376694, -0.005013525485992432, 0.02064940333366394, 0.025842472910881042, -0.008568249642848969, 0.014158785343170166, 0.02522123232483864, -0.01771400310099125], [-0.012830200605094433, 0.015824705362319946, -0.006913676857948303, 0.026298888027668, -0.003702465444803238, 0.01013895496726036, 0.005912471562623978, 0.025577332824468613, -0.025272633880376816, 0.025517545640468597, -0.023539066314697266, -0.01106472872197628, 0.023601703345775604, 0.0008178558200597763, 0.02350097894668579, -0.016592122614383698, 0.015416096895933151, -0.01661408506333828, 0.010512076318264008, 0.010129380971193314, -0.0015111900866031647, -0.00817405991256237, -0.013487504795193672, -0.010189710184931755, 0.018845334649086, -0.009080296382308006, -0.010188043117523193, -0.001132860779762268, 0.004753235727548599, 0.018077276647090912, -0.026729140430688858, 0.0023039504885673523, 0.026452936232089996, 0.004007196053862572, 0.0038818251341581345, -0.00495118647813797, 0.020945612341165543, 0.015833117067813873, -0.008776713162660599, -0.013426930643618107, 0.011600308120250702, -0.019431166350841522, -0.02362038381397724, 0.024731196463108063, 0.006566811352968216, -0.009693080559372902, -0.0074492041021585464, 0.01401723176240921, -0.008516781032085419, 0.008093595504760742, 0.0041860975325107574, -0.012831782922148705, 0.013067703694105148, -0.026038769632577896, -0.0008328258991241455, -0.01827172562479973, -0.024230197072029114, 0.002684829756617546, 0.01952846720814705, 0.017085418105125427, 0.00925799086689949, 0.002174176275730133, 4.99039888381958e-05, 0.00942125916481018]], [[-0.013602581806480885, -0.00811959058046341, -0.004733486101031303, 0.019117966294288635, -0.007582526654005051, -0.00830661877989769, 0.018193289637565613, 0.005955595523118973, 0.023954153060913086, 0.023164309561252594, -0.015191716141998768, -0.010410504415631294, 0.006143927574157715, 0.006425458937883377, -0.02064874954521656, -0.01789124310016632, -0.020437289029359818, -0.0026051606982946396, 0.00816996768116951, -0.012818499468266964, -0.021309830248355865, 0.011338409036397934, -0.021355919539928436, 0.010679658502340317, -0.010174823924899101, -0.01663879118859768, -0.015915878117084503, 0.008084099739789963, -0.01940402388572693, -0.017348451539874077, 0.02509482204914093, -0.014167406596243382, -0.008865637704730034, 0.0013768430799245834, -0.006082789972424507, 0.02036600559949875, 0.014070771634578705, 0.023633785545825958, -0.00573437474668026, 0.024020466953516006, 0.0015670936554670334, 0.009854499250650406, 0.002259228378534317, 0.015881750732660294, -0.022295812144875526, -0.007227430120110512, -0.012717374600470066, -0.02295490726828575, -0.003154223784804344, 0.002681080251932144, 0.007308311760425568, -0.010904761031270027, -0.02318582683801651, 0.011107567697763443, -0.006434811279177666, 0.007249262183904648, -0.01589612290263176, 0.02305150404572487, 0.01958286017179489, -0.007446395233273506, -0.018019571900367737, -0.0018139760941267014, 0.008623756468296051, -0.020793117582798004], [0.025266166776418686, 0.010813035070896149, -0.023463815450668335, -0.008551014587283134, -0.02652723342180252, -0.022962534800171852, 0.006003677845001221, 0.021188870072364807, -0.023847995325922966, -0.0017968658357858658, 0.004272937774658203, 0.02627101168036461, 0.0090160071849823, -0.023231934756040573, -0.011418759822845459, 0.025951765477657318, -0.018907275050878525, 0.020464610308408737, 0.022394225001335144, 0.02156629040837288, -0.016300000250339508, -0.02536388672888279, -0.01686355471611023, 0.016343574970960617, 0.009162962436676025, 0.00833481177687645, -0.008403325453400612, 0.00996624305844307, -0.018025245517492294, -0.0036898553371429443, 0.024152051657438278, -0.006210716441273689, -0.026627041399478912, 0.02367815375328064, 0.023891035467386246, 0.014580890536308289, -0.012809568084776402, 0.015725329518318176, 0.02553953230381012, -0.008141780272126198, 0.00892379879951477, -0.002551538869738579, -0.007818082347512245, -0.004685243591666222, 0.026484981179237366, -0.004915779456496239, 0.006344828754663467, -0.010440386831760406, -0.01602587103843689, 0.0200684554874897, 0.01367850974202156, 0.017775122076272964, -0.012017475441098213, -0.025290269404649734, -0.021936077624559402, -0.00197693333029747, -0.015284526161849499, -0.014951249584555626, -0.0019735023379325867, 0.006928134709596634, 0.005303837358951569, 0.02334655076265335, 0.0008184593170881271, 0.018234483897686005], [0.0014121346175670624, 0.016768183559179306, -0.004759430885314941, 0.026120785623788834, -0.007404163479804993, 0.021135639399290085, -0.016593776643276215, -0.026560572907328606, -0.0007702019065618515, -0.021811161190271378, -0.006772693246603012, -0.006518702954053879, -0.01646185666322708, 0.006197340786457062, -0.010722870007157326, -0.011491624638438225, -0.026259927079081535, 0.0037827305495738983, 0.022997327148914337, 0.0011563152074813843, -0.00922469049692154, 0.009850680828094482, -0.0211921576410532, -0.0197828970849514, 0.022007446736097336, -0.0018404778093099594, -0.011512218043208122, 0.013286493718624115, -0.0055155325680971146, 0.026211917400360107, -0.008977711200714111, -0.009505942463874817, -0.0047425031661987305, -0.016487982124090195, -0.016799867153167725, -0.009039582684636116, 0.014341410249471664, -0.019574102014303207, 0.01556200161576271, -0.019018974155187607, 0.0026824623346328735, 0.004000723361968994, 0.0070761144161224365, 0.01900678128004074, 0.006172481924295425, 0.0011111125349998474, -0.008907992392778397, -0.02186466008424759, 0.002196444198489189, 0.010518711060285568, 0.002331295982003212, 0.01518159732222557, -0.022763818502426147, 0.009347978979349136, -0.024568479508161545, -0.01839972287416458, -0.004701264202594757, -0.0042563546448946, -0.022414488717913628, -0.013129723258316517, -0.019201751798391342, -0.0014470294117927551, -0.0013598818331956863, 0.017683357000350952]], [[0.018367823213338852, -0.012759054079651833, 0.010689765214920044, -0.01117110624909401, -0.004559950903058052, -0.004856301471590996, 6.977096199989319e-05, 0.000833805650472641, -0.023914029821753502, 0.018364794552326202, -0.00849577970802784, 0.0002737864851951599, -0.025715993717312813, 0.01744968071579933, 0.023007262498140335, -0.014053802005946636, -0.02565019764006138, 0.01798691228032112, -0.015360653400421143, 0.02611229568719864, -0.01158032938838005, -0.015910275280475616, 0.0023177340626716614, -0.01575220189988613, -0.02340756729245186, 0.0203239843249321, -0.000987635925412178, 0.023530341684818268, -0.012673748657107353, 0.022296972572803497, -0.02432369440793991, 0.01825540140271187, 0.01990007609128952, -0.024028230458498, 0.02459251880645752, 0.021383583545684814, -5.050189793109894e-05, -0.013462546281516552, -0.014027578756213188, -0.011663203127682209, 0.01584690436720848, -0.003074685111641884, -0.024269644170999527, 0.0005154982209205627, 0.02533172443509102, 0.02704188972711563, -0.00290517695248127, -0.005746230483055115, -0.018378695473074913, -0.016365179792046547, 0.009765524417161942, -0.023264288902282715, 0.022148597985506058, -0.019653381779789925, 0.015237223356962204, -0.005289426073431969, 0.024700887501239777, 0.00010135211050510406, 0.022093724459409714, 0.013917721807956696, 0.0019247978925704956, 0.011034540832042694, -0.022254806011915207, -0.014621494337916374], [-0.00729820691049099, 0.012450851500034332, -0.00641140341758728, -0.005815541371703148, -0.022773651406168938, 0.010822031646966934, -0.00618990883231163, -0.023568565025925636, 0.005620002746582031, -0.020069239661097527, 0.00896892324090004, -0.0029816031455993652, 0.017854556441307068, -0.0202875304967165, 0.019411422312259674, 0.006892077624797821, 0.0022730715572834015, -0.01186143234372139, 0.012133155018091202, -0.007162898778915405, -0.011865291744470596, -0.007700793445110321, 0.007141124457120895, 0.025787144899368286, 0.02068805694580078, -0.012420990504324436, 0.012050606310367584, 0.004614084959030151, -0.01676785945892334, -0.0005578715354204178, -0.019187944009900093, 0.017326436936855316, 0.008410647511482239, -0.01690954715013504, 0.012810520827770233, 0.011816002428531647, -0.01642169989645481, -0.0005569569766521454, -0.027109351009130478, 0.009946286678314209, 0.009861953556537628, 0.024164460599422455, 0.013194818049669266, -0.0017356816679239273, 0.02074512094259262, -0.023528506979346275, 0.0013170018792152405, -0.018591219559311867, 0.014234084635972977, 0.002042708918452263, -0.006066165864467621, 0.016268711537122726, 0.00600004568696022, -0.0036079101264476776, -0.0026280824095010757, 0.006408479064702988, 0.016281358897686005, -0.01900460571050644, -0.026436375454068184, -0.00754144974052906, 0.024695057421922684, -0.022808773443102837, -0.020384322851896286, 0.0004527829587459564], [0.006429135799407959, -0.001123560592532158, 0.007259491831064224, 0.015252433717250824, 0.00818728655576706, 0.025129031389951706, 0.02473067119717598, 0.01920943334698677, 0.021191276609897614, 0.005884762853384018, -0.024304203689098358, -0.008860176429152489, 0.02405880019068718, 0.025188371539115906, 0.005902845412492752, -0.010915584862232208, 0.016508977860212326, 0.00797133520245552, 0.003020746633410454, -0.014854256063699722, -0.02095075137913227, -0.004102917388081551, 0.015142660588026047, -0.004407623782753944, 0.026461951434612274, -0.012810592539608479, -0.0076521411538124084, 0.0012284275144338608, 0.011390753090381622, 0.026972565799951553, -0.02191215008497238, -0.015359071083366871, 0.014006543904542923, -0.009506843984127045, 0.02191176638007164, 0.02313275635242462, 0.016024380922317505, 0.0216757170855999, 0.0012111999094486237, 0.02557024359703064, 0.012266341596841812, -0.014289320446550846, -0.0061468202620744705, 0.026529666036367416, 0.027204249054193497, -0.009760353714227676, -0.0017124414443969727, 0.020964041352272034, -0.0019075442105531693, -0.0006023738533258438, 0.0270446315407753, 0.015763450413942337, 0.020358100533485413, 0.01698269322514534, -0.015378095209598541, 0.01960602030158043, 0.021231841295957565, 0.008876360952854156, 0.01192035898566246, 0.009500391781330109, 0.02242382988333702, -0.018747102469205856, 0.024661924690008163, 0.021650411188602448]]], [[[0.022915709763765335, 0.01957860216498375, 0.021836236119270325, -0.025282038375735283, -0.011444633826613426, -0.014035440050065517, -0.02451774664223194, 0.005046151578426361, -0.012792937457561493, 0.019165143370628357, 0.019847869873046875, -0.02452714368700981, -0.008854858577251434, 0.026328731328248978, -0.022923091426491737, -0.001180306077003479, -0.021078482270240784, -0.020618168637156487, 0.010286763310432434, 0.00313478522002697, -0.010158685967326164, -0.0130529273301363, 0.024187512695789337, 0.010879691690206528, -0.022108647972345352, -0.01297984179109335, 0.005469281226396561, -0.017149275168776512, -0.004863910377025604, 0.025914717465639114, -0.01141216978430748, -0.020608840510249138, 0.018264826387166977, 0.02145872637629509, -0.011927220970392227, 0.006987139582633972, -0.014099114574491978, -0.0021960288286209106, 0.01269381120800972, 0.02217283472418785, 0.02177301049232483, 0.003971029072999954, 0.0064572542905807495, -0.021816272288560867, 0.0069253891706466675, 0.006816539913415909, 0.0021790210157632828, 0.015031371265649796, -0.010024618357419968, 0.019300583750009537, 0.003403227776288986, -0.019487544894218445, 0.0033383388072252274, 0.01394178718328476, 0.019778940826654434, 0.0013525523245334625, -0.026736637577414513, -0.005137793719768524, 0.00882314145565033, -0.022680088877677917, -0.011477673426270485, -0.005193138495087624, -0.02009456977248192, -0.017334550619125366], [-0.0254466962069273, -0.01648293063044548, -0.014508609659969807, -0.008280180394649506, 0.0058845169842243195, 0.014143005013465881, -0.017710041254758835, -0.0031284037977457047, -0.013814457692205906, 0.0035430751740932465, 0.012301996350288391, -0.014038813300430775, -0.007466625422239304, -0.00901421532034874, -0.01983298920094967, 0.0027655232697725296, 0.026126105338335037, 0.00475611537694931, -0.005472347140312195, 0.0007969308644533157, 0.0022460035979747772, 0.009743433445692062, 0.014911986887454987, 0.025874391198158264, -0.005696138367056847, 0.01734132319688797, -0.0006492622196674347, 0.025526423007249832, -0.015310295857489109, -0.017117759212851524, 0.018775399774312973, 0.013557236641645432, -0.010737542062997818, 0.016042571514844894, 0.02378065511584282, 0.0022743679583072662, -0.0038717910647392273, -0.021698283031582832, -0.007040007039904594, 0.0184469036757946, -0.021939801052212715, 0.0019948482513427734, 0.020576223731040955, 0.018458552658557892, 0.019041985273361206, 0.008546162396669388, -0.0017619580030441284, -0.013612239621579647, -0.01155182346701622, 0.007902763783931732, 0.01461012288928032, -0.008610837161540985, -0.006133778020739555, 0.024739980697631836, -0.020556770265102386, 0.027014996856451035, -0.0033962223678827286, 0.01578846573829651, 0.0002240445464849472, 0.004554886370897293, 0.013289488852024078, 0.025909435003995895, 0.0039712488651275635, 0.020355433225631714], [-0.026766927912831306, 0.01029716432094574, 0.01148594543337822, 0.024040307849645615, 0.019827041774988174, 0.02029704675078392, 0.011522822082042694, -0.015453677624464035, 0.018337607383728027, 0.0043165311217308044, 0.014050625264644623, -0.011001357808709145, 0.013481583446264267, 0.017213430255651474, 0.008256364613771439, -0.007086344063282013, 0.021165844053030014, -0.02024499513208866, -0.026721719652414322, 0.0001444462686777115, 0.018732689321041107, -0.00258774496614933, 0.013310771435499191, 0.024530485272407532, -0.0012148059904575348, -0.02690124325454235, -0.009817419573664665, -0.018847953528165817, 0.0174916572868824, -6.746873259544373e-05, -0.020418809726834297, -0.008220650255680084, 0.011403750628232956, -0.002353297546505928, 0.021391235291957855, 0.016104988753795624, -0.01451451238244772, 0.009132809937000275, 0.000623142346739769, -0.018466154113411903, 0.0001372210681438446, 0.00928536057472229, -0.0241005327552557, 0.0027378015220165253, 0.003591654822230339, -0.010326359421014786, 0.0009318031370639801, 5.809590220451355e-05, 0.010247573256492615, 0.019081726670265198, 0.02596987411379814, 0.014884747564792633, -0.012832769192755222, 0.018641650676727295, -0.024544410407543182, -0.02357012964785099, 0.0028176400810480118, 0.009439285844564438, 0.016552649438381195, 0.007625322788953781, 0.005447112023830414, 0.0036762207746505737, -0.006007032468914986, -0.02193962037563324]], [[-0.011580836027860641, 0.004055257886648178, 0.007587868720293045, 0.017763201147317886, 0.009568657726049423, -0.003124939277768135, -0.024224787950515747, 0.026655547320842743, -0.020618434995412827, -0.011305803433060646, 0.004329971969127655, -0.005833053961396217, -0.019746892154216766, 0.019402720034122467, 0.02404741570353508, -0.0014532245695590973, 0.0188860222697258, -0.004229085519909859, 0.024448130279779434, -0.012746717780828476, -0.003344651311635971, -0.025357751175761223, -0.0020460374653339386, -0.014179717749357224, -0.013184103183448315, 0.014653094112873077, -0.011226439848542213, -0.0014516673982143402, 0.007051426917314529, -0.012897299602627754, 0.02614673599600792, -0.019119124859571457, 0.014582980424165726, 0.007030054926872253, -0.006004592403769493, 0.014980535954236984, 0.012451507151126862, -0.0072746481746435165, -0.010193770751357079, -0.025988779962062836, -0.026096533983945847, -0.011038549244403839, 0.0035987067967653275, -0.0016820747405290604, 0.020053159445524216, 0.005021631717681885, -0.018895134329795837, 0.013869304209947586, -0.0032940320670604706, -0.023330193012952805, 0.022337958216667175, 0.009968362748622894, -0.017856555059552193, 0.01902758702635765, -0.010133566334843636, 0.002691386267542839, -0.010476967319846153, 0.0006271433085203171, -0.004842804744839668, 0.017595067620277405, -0.013762639835476875, -0.02343120239675045, 0.01449136808514595, -0.000154104083776474], [0.0001832917332649231, 0.0182303786277771, 0.009650323539972305, -0.026342255994677544, -0.022057102993130684, -0.01806041970849037, -0.026299472898244858, -0.019589602947235107, -0.006728114560246468, -0.01666932739317417, -0.0062837302684783936, -0.005619511008262634, -0.007617272436618805, 0.004552882164716721, 0.007762659341096878, 0.0013999268412590027, -0.0031711850315332413, 0.025320488959550858, 0.01356218010187149, -0.0058862995356321335, -0.011808686889708042, 0.01684354990720749, -0.025719963014125824, -0.00853833556175232, -0.02306782454252243, -0.003869554027915001, -0.01070304773747921, 0.019429326057434082, -0.009102744981646538, -0.026746705174446106, 0.00975450873374939, 0.019543476402759552, -0.01541875023394823, -0.012204314582049847, 0.027174003422260284, 0.010166391730308533, 0.004345368593931198, 0.014102071523666382, -0.02600044198334217, -0.014972945675253868, 0.02570837363600731, 0.012332245707511902, -0.00046094320714473724, -0.010059123858809471, -0.0072870440781116486, 0.012598931789398193, -0.01056366041302681, 0.007213599979877472, -0.020363755524158478, 0.0248245932161808, -0.024534408003091812, 0.007392901927232742, 0.002897685393691063, 0.021869082003831863, -0.005811015143990517, -0.02133096009492874, 0.01150854304432869, 0.021124139428138733, -0.024170296266674995, -0.024022283032536507, 0.01556306704878807, -0.012042492628097534, 0.026434067636728287, -0.008667051792144775], [0.007806316018104553, 0.022592313587665558, -0.00014167092740535736, 0.012900535017251968, -0.026015328243374825, -0.019424667581915855, -0.02659614197909832, 0.027132738381624222, 0.011554364114999771, 0.01154308021068573, 0.015762269496917725, -0.001526322215795517, -0.02212241105735302, 0.006638418883085251, 0.021141454577445984, -0.0077459365129470825, 0.005444210022687912, -0.014376571401953697, -0.021711619570851326, -0.0231628455221653, 0.0021767839789390564, 0.011835377663373947, 0.004337873309850693, -0.013128004968166351, 0.0066522471606731415, -0.0038798339664936066, 0.016987409442663193, 0.007005967199802399, 0.004092775285243988, -0.023020533844828606, 0.0012314897030591965, -0.026279261335730553, 0.00437159463763237, -0.025264805182814598, 0.01560845598578453, 0.005477581173181534, 0.020174790173768997, 0.009915042668581009, 0.025562595576047897, 0.006150323897600174, 0.003744468092918396, -0.023478558287024498, -0.004523018375039101, -0.02682674303650856, -0.026292726397514343, -0.01429066900163889, -0.013279293663799763, 0.0045213401317596436, -0.009335091337561607, 0.002723202109336853, -0.02202485501766205, 0.016209758818149567, -0.02504735067486763, -0.015289111994206905, -0.00774848647415638, 0.008341189473867416, -0.015911255031824112, 0.018672142177820206, -0.02418547496199608, -0.00702960230410099, -0.02085307613015175, -0.010226506739854813, -0.010558875277638435, -0.02414456568658352]], [[0.021080583333969116, 0.014383479952812195, -0.021784938871860504, 0.010630298405885696, 0.0015359744429588318, -0.00824800319969654, 0.009182769805192947, 0.009258788079023361, -0.027070427313447, -0.009748471900820732, -0.0028973929584026337, 0.01520828902721405, -0.003334946930408478, -0.015662088990211487, 0.025641027837991714, -0.011638724245131016, -0.01971738040447235, 0.012690950185060501, 0.009801231324672699, -0.017561890184879303, -0.0008969996124505997, 0.01478802040219307, 0.010870326310396194, 0.013506509363651276, 0.013419333845376968, 0.027121078222990036, 0.0038443095982074738, 0.014464743435382843, 0.00018972530961036682, 0.01994132250547409, 0.005542684346437454, 0.01735275238752365, -0.009809596464037895, -0.023147745057940483, -0.011392375454306602, 0.01867881417274475, -0.01483818981796503, -0.007325479760766029, -0.018231920897960663, 0.02045726776123047, -0.024920754134655, 0.0100141242146492, -0.02296135388314724, 0.013106245547533035, 0.010915137827396393, -0.006308397278189659, -0.009658308699727058, 0.019801348447799683, 0.004255097359418869, -0.007779106497764587, 0.026320181787014008, 0.01710047945380211, 0.013539128005504608, 0.016996540129184723, 0.004075262695550919, 0.013796821236610413, 0.015566814690828323, -0.009893696755170822, -0.017078135162591934, 0.01830129697918892, 0.007825210690498352, 0.019337370991706848, -0.014100106433033943, 0.004686214029788971], [-0.013523509725928307, -0.0181361585855484, 0.010169323533773422, -0.01914900168776512, -0.01032155379652977, -0.01683361455798149, -0.025165963917970657, 0.027124017477035522, -0.009072603657841682, -0.0074056945741176605, -0.016832135617733, 0.021385125815868378, -0.012533090077340603, 0.0159028097987175, 0.023455940186977386, 0.015501707792282104, 0.004126865416765213, 0.015547383576631546, 0.016353122889995575, -0.017122551798820496, 9.443610906600952e-06, 0.01665140688419342, -0.02155206725001335, -0.025252092629671097, 0.023513738065958023, 0.002353603020310402, 0.022562578320503235, -0.025200728327035904, -0.004883633926510811, 0.01080518588423729, 0.011722180992364883, 0.01987927407026291, -0.00035331957042217255, 0.0005894862115383148, -0.015150969848036766, -0.005527142435312271, -0.023077046498656273, 0.004764106124639511, -0.005219394341111183, -0.005606260150671005, -0.012443211860954762, -0.006698420271277428, 0.01460845023393631, -0.010850653052330017, -0.0012546516954898834, 0.02530299499630928, 0.017256230115890503, -0.014109291136264801, -0.011796525679528713, 0.011644523590803146, -0.0012710671871900558, 0.011273764073848724, -0.014650143682956696, -0.006854251027107239, -0.004808707162737846, -0.02476709894835949, -0.020267151296138763, -0.009324220940470695, 0.0010648351162672043, -0.010366976261138916, -0.009762793779373169, -0.013432573527097702, -0.01414059940725565, 0.013785362243652344], [-0.022801386192440987, -0.026549823582172394, -0.0004879068583250046, 0.008682630956172943, 0.013355966657400131, 0.0036238841712474823, 0.016901571303606033, 0.026335179805755615, -0.0034697428345680237, -0.021555744111537933, -0.0032978281378746033, -0.0031256135553121567, -0.01679454930126667, 0.007403217256069183, -0.024103177711367607, -0.01412773784250021, 0.004321247339248657, -0.02157411351799965, -0.022193927317857742, 0.02207353338599205, -0.00042043067514896393, 0.0084150992333889, 0.018615219742059708, -0.02117948979139328, 0.0055185407400131226, 0.013859327882528305, -0.015248489566147327, -0.010072940960526466, -0.022294670343399048, 0.0033821016550064087, 0.014501448720693588, 0.017136525362730026, -0.022966880351305008, -0.010416211560368538, 0.0001506078988313675, 0.02700665593147278, -0.020587384700775146, -0.01923493668437004, 0.015817791223526, 0.014240384101867676, -0.005674118176102638, 0.00928797572851181, 0.022515375167131424, 0.0207846537232399, -0.021232372149825096, 0.022531770169734955, -0.013195499777793884, 0.010097593069076538, -0.009834880009293556, 0.0023573320358991623, -0.002776406705379486, 0.023391395807266235, 0.009051509201526642, -0.0015684757381677628, -0.009587440639734268, 0.02024722471833229, 0.00044339150190353394, -0.005672425031661987, -0.005318094044923782, 0.008302804082632065, -0.01647081971168518, 0.024607405066490173, -0.023140396922826767, -0.004725327715277672]], [[-0.00758294016122818, -0.02617884986102581, -0.0035308096557855606, 0.005612999200820923, 0.017279665917158127, -0.02375585213303566, 0.004090849310159683, -0.026457734405994415, 0.0008829962462186813, -0.008331479504704475, -0.007729170843958855, 0.018781892955303192, 0.009605970233678818, -0.005719974637031555, 0.025396954268217087, 0.01670175790786743, 0.0021612364798784256, -0.0007443614304065704, -0.004474164918065071, -0.0017490759491920471, -0.003918731585144997, 0.01239016279578209, -5.744770169258118e-05, 0.01346399262547493, 0.023646384477615356, -0.003231169655919075, -0.014798942022025585, -0.0024801138788461685, 0.0006410703063011169, -0.015469581820070744, 0.013506535440683365, -0.02024935372173786, 0.005077756941318512, -0.02461250126361847, -0.02460504323244095, 0.01713952049612999, 0.027150407433509827, 0.0018594041466712952, -0.017583534121513367, 0.024830959737300873, 0.005052369087934494, 0.025897454470396042, -0.010701628401875496, 0.018022846430540085, -0.01975119300186634, -0.023531561717391014, -0.017080996185541153, 0.012174610048532486, 0.016712460666894913, -0.0093174297362566, 0.015249844640493393, -0.015433265827596188, -0.01746036857366562, 0.02068151906132698, 0.01716112717986107, -0.011138422414660454, -0.02016494981944561, 0.013586092740297318, -0.014063635841012001, 0.016216110438108444, 0.013333220034837723, -0.009913880378007889, 0.02593763917684555, 0.004258003085851669], [-0.010030325502157211, -0.016475029289722443, -0.024445444345474243, 0.018162790685892105, 0.00895712524652481, 0.017108414322137833, -0.013544167391955853, 0.012342255562543869, -0.005652448162436485, -0.019983883947134018, 0.020087387412786484, -0.026339219883084297, 0.009928572922945023, -0.022943543270230293, -0.023017751052975655, -0.010381272062659264, -0.00664839893579483, 0.013824045658111572, -0.009794192388653755, 0.007651127874851227, -0.010519802570343018, 0.0028629768639802933, -0.0003596358001232147, 0.009663987904787064, -0.024118855595588684, 0.008206479251384735, 0.026720330119132996, -0.013276783749461174, 0.010810431092977524, 0.022033005952835083, 0.0057576969265937805, 0.011857837438583374, 0.0021699219942092896, -0.003520023077726364, -0.0008214749395847321, 0.011954359710216522, 0.012712813913822174, -0.022187305614352226, 0.01045859232544899, 0.00783640518784523, 0.005363725125789642, -0.01905614510178566, -0.003435896709561348, 0.005841750651597977, -0.019976826384663582, -0.003000132739543915, -0.019330404698848724, 0.0011905487626791, 0.01739131286740303, -0.011649309657514095, -0.0267612524330616, -0.024861667305231094, -0.0058503467589616776, 0.009360115975141525, 0.013318073004484177, -0.005011307075619698, -0.001845724880695343, 0.00015291757881641388, -0.0069880131632089615, -0.017453636974096298, 0.01858121156692505, -0.025469359010457993, 0.027126897126436234, -0.024351492524147034], [-0.011637258343398571, 0.011570524424314499, -0.0002521611750125885, 0.0007503610104322433, 0.02288985624909401, 0.004720345139503479, 0.006393644958734512, 0.014301571995019913, 0.004954084753990173, -0.006831204518675804, -0.02315443940460682, 0.017940334975719452, -0.024357382208108902, -0.0029774773865938187, 0.007616065442562103, -0.0033036135137081146, 0.013278547674417496, -0.00039565376937389374, -0.01590561866760254, -0.016825435683131218, -0.008439149707555771, -0.0055880676954984665, -0.001054009422659874, -0.01578398421406746, 0.01463739201426506, 0.016604892909526825, 0.003779591992497444, 0.026972714811563492, 0.011342283338308334, 0.01712895929813385, 0.011485416442155838, -0.026991043239831924, -0.011731632053852081, -0.0008453633636236191, -0.001301545649766922, 0.014404695481061935, 0.02005491778254509, -0.0018304120749235153, -0.014758915640413761, -0.004903001710772514, -0.024266518652439117, -0.006706912070512772, 0.026374317705631256, 0.009797811508178711, -0.0026338230818510056, -0.007724391296505928, -0.024632666260004044, 0.00921633467078209, 0.011415965855121613, -0.005066491663455963, -0.01842920295894146, -0.012753126211464405, -0.012349001131951809, -0.008372010663151741, -0.006067600101232529, 0.003110462799668312, 0.007161382585763931, 0.012734867632389069, -0.0022238995879888535, 0.000639110803604126, -0.022304750978946686, 0.026658032089471817, 0.024412430822849274, -0.014232113026082516]], [[0.006939340382814407, -0.01654960587620735, 0.018684186041355133, 0.007485151290893555, -0.02181251160800457, -0.026180315762758255, 0.019972238689661026, 0.0050574056804180145, -0.024527085945010185, -0.0053458549082279205, 0.0015430115163326263, 0.014992538839578629, 0.024886175990104675, -3.7185847759246826e-05, 0.0020004715770483017, 0.013764016330242157, 0.021964479237794876, 0.006895560771226883, -0.00986834242939949, -0.010016471147537231, 0.0023358818143606186, -0.004850354045629501, 0.025624047964811325, 0.008958064019680023, -0.009206937626004219, 0.0254465714097023, 0.009706467390060425, -0.015682443976402283, -0.011988852173089981, -0.005714636296033859, 0.01858614757657051, 0.009692426770925522, 0.02071341499686241, -0.02316688559949398, 0.00631355494260788, 0.019435513764619827, -0.005758302286267281, -0.016693884506821632, -0.005543649196624756, 0.00209091417491436, 0.013545375317335129, -0.01516038179397583, 0.027023877948522568, 0.02012547478079796, -0.02224688045680523, 0.022883038967847824, -0.018327131867408752, 0.015395089983940125, 0.018068134784698486, -0.01587812416255474, -0.014664608053863049, 0.017268847674131393, -0.02269461192190647, -0.01397137064486742, -0.015796774998307228, -0.0025485698133707047, 0.00037021562457084656, 0.009631745517253876, 0.017959386110305786, 0.009173743426799774, -0.01911439746618271, -0.015735149383544922, 0.00958692654967308, 0.014497403055429459], [-0.009263614192605019, -0.005616223439574242, 0.02117399126291275, -0.023974545300006866, 0.009970836341381073, 0.0020011328160762787, -0.025651898235082626, 0.00842086598277092, 0.009640146046876907, 0.015334539115428925, -0.02079811319708824, -0.018408816307783127, -0.0006368868052959442, -0.0167835745960474, 0.005754359066486359, -0.006162997335195541, 0.018431629985570908, -0.00939146801829338, 0.023831021040678024, -0.02125857025384903, -0.020814314484596252, 0.017255045473575592, -0.00736326165497303, -0.008203022181987762, 0.0025132261216640472, -0.01845727488398552, -0.014240174554288387, -0.002618657425045967, -0.026206741109490395, 0.02014577016234398, -0.008082600310444832, 0.014561537653207779, 0.02021574229001999, -0.01725713349878788, 0.01915433257818222, 0.026965171098709106, 0.019971929490566254, 0.0009279325604438782, -0.020233657211065292, 0.0011512357741594315, -0.004477653652429581, -0.013415898196399212, -0.0006219875067472458, -0.0033188816159963608, 0.02719782665371895, -0.01556435041129589, -0.01822342351078987, 0.015317048877477646, 0.02507426217198372, -0.011227866634726524, -0.019472328945994377, -0.0038959458470344543, -0.010538138449192047, -0.00751386396586895, -0.01094084233045578, -0.01226001139730215, 4.700571298599243e-05, -0.02028592862188816, -0.01642715558409691, -0.011424131691455841, 0.005919281393289566, -0.020907960832118988, -0.00012568756937980652, 0.024887356907129288], [0.0044067613780498505, 0.001348564401268959, -0.02489979937672615, -0.014789770357310772, 0.022035881876945496, -0.024977819994091988, -0.0033765044063329697, -0.009580221027135849, -0.007288873195648193, -0.023450324311852455, -0.012640506960451603, 0.0058362409472465515, -0.006147507578134537, 0.003170141950249672, -0.016300493851304054, -0.002909211441874504, -0.009331835433840752, 0.014273274689912796, 0.01434192806482315, -0.02258198708295822, -0.012076855637133121, -0.01726522110402584, 0.006613243371248245, -0.005551354959607124, -0.023519134148955345, -0.006342604756355286, 0.009237546473741531, 0.01561880111694336, -0.016701389104127884, -0.020707949995994568, -0.001139586791396141, 0.021465368568897247, -0.006352456286549568, 0.019906476140022278, 0.008550554513931274, -0.015804290771484375, -0.022075088694691658, -0.02065381035208702, 0.020206421613693237, -0.0127329733222723, 0.025916986167430878, 0.0018082354217767715, -0.005601940676569939, 0.012178167700767517, -0.014297337271273136, 0.024560119956731796, 0.02554382011294365, 0.014130979776382446, -0.017193801701068878, 0.018863078206777573, -0.01908441260457039, 0.012273561209440231, -0.020942721515893936, 0.01614047959446907, -0.014822999015450478, 0.006434988230466843, 0.023876644670963287, -0.020145827904343605, 0.008854709565639496, 0.019602123647928238, -0.015820294618606567, 0.007532302290201187, 0.018508203327655792, -0.006526947021484375]], [[-0.007008003070950508, -0.016463439911603928, 0.00451737642288208, 0.00829625129699707, -0.006996309384703636, 0.003949197009205818, -0.009325854480266571, -0.019622351974248886, 0.0014212336391210556, 0.01387060061097145, -0.013455573469400406, -0.024450868368148804, -0.007447678595781326, 0.018457185477018356, -0.010212762281298637, 0.00845242664217949, 0.004285216331481934, -0.01904267445206642, -0.020362738519906998, 0.02667282149195671, 0.005365259945392609, -0.013446804136037827, 0.005542755126953125, 0.025363758206367493, -0.02058037929236889, -0.0019489787518978119, -0.011234736070036888, -0.013968990184366703, 0.0031139198690652847, 0.01193203404545784, -0.014120933599770069, 0.016080226749181747, -0.002848682925105095, 0.008147291839122772, 0.008378971368074417, -0.02336074411869049, 0.014740470796823502, -0.007945295423269272, -0.012685702182352543, -0.021400999277830124, 0.016029037535190582, 0.02359173446893692, 0.023393772542476654, -0.016046004369854927, 0.001953674480319023, -0.02314607799053192, -0.016106143593788147, -0.013514727354049683, -0.025278666988015175, -0.015461013652384281, -0.0007252208888530731, -0.003210492432117462, -0.022338561713695526, -0.000893808901309967, -0.009653385728597641, -0.0005695931613445282, 0.005578402429819107, -0.015616538003087044, 0.02488655224442482, -0.023948049172759056, -0.01165325939655304, -0.015587512403726578, -0.015267175622284412, 0.011242169886827469], [0.020013928413391113, 0.015118654817342758, -0.015357760712504387, 0.01808255910873413, -0.010427381843328476, -0.01981757953763008, -0.016328968107700348, -0.023840781301259995, -0.005000390112400055, -0.005269454792141914, 0.012991096824407578, 0.024722564965486526, 0.006504856050014496, -0.018081091344356537, -0.022918881848454475, 0.021380048245191574, -0.019788773730397224, -0.010887637734413147, -0.01776714436709881, 0.015718378126621246, -0.018301289528608322, -0.0016504209488630295, -0.00955529510974884, -0.00744897685945034, 0.024243544787168503, -0.007745295763015747, -0.01253567822277546, 0.007864609360694885, -0.006207706406712532, -0.021170474588871002, 0.019390668720006943, 0.02201158180832863, -0.01677274890244007, 0.01738354191184044, -0.012768303044140339, 0.02514641359448433, 0.01584014669060707, 0.011967364698648453, 0.001306021586060524, -0.0017493478953838348, -0.02225642278790474, -0.014471516013145447, 0.024888906627893448, -0.014613010920584202, 0.02082056924700737, 0.007311131805181503, -0.02325904183089733, 0.014743298292160034, -0.002828763797879219, -0.019282836467027664, -0.012784681282937527, -0.025516817346215248, -0.024912063032388687, -0.0033933166414499283, 0.013591412454843521, 0.01249905675649643, 0.0009383745491504669, -0.0009485185146331787, 0.02217027172446251, 0.019340593367815018, 0.00918474793434143, -0.023145437240600586, -0.011124387383460999, 0.021839413791894913], [0.012247376143932343, -0.003868618980050087, -0.00932672992348671, -0.012266082689166069, -0.025356682017445564, -0.02705954946577549, 0.023758862167596817, 0.01617664098739624, -0.020998118445277214, 0.011830553412437439, -0.001262180507183075, -0.01637544110417366, -0.002490343526005745, -0.004069877788424492, 0.011725477874279022, -0.022832371294498444, 0.012769501656293869, 0.02281433343887329, -0.026495302096009254, 0.011611662805080414, 0.01758580654859543, -0.014082444831728935, 0.01726584881544113, -0.016319531947374344, 0.0012833010405302048, 0.00197693333029747, 0.025969795882701874, -0.010234283283352852, 0.022731095552444458, -0.0074692778289318085, 0.019642245024442673, 0.004962753504514694, -0.012069267220795155, -0.011209536343812943, -0.02129080519080162, 0.017178431153297424, 8.945725858211517e-05, 0.008909683674573898, 0.013201083987951279, -0.00728956051170826, -0.001990996301174164, 0.005544044077396393, 0.007804170250892639, 0.021507907658815384, -0.01940106600522995, 0.026136137545108795, 0.02264414355158806, -0.02306520938873291, -0.025443511083722115, -0.02542041428387165, 0.0032830648124217987, -0.01261115726083517, -0.0026430971920490265, -0.014744237996637821, 0.02022843062877655, -0.023010194301605225, -0.025431830435991287, 0.005688466131687164, -0.023304197937250137, 0.02236422896385193, 0.017036106437444687, 0.016520589590072632, 0.004727713763713837, -0.01845351979136467]], [[-0.020341061055660248, 0.017785370349884033, -0.022753402590751648, 0.01998521387577057, 0.026245001703500748, -0.022218847647309303, -0.015402073971927166, 0.016129806637763977, 0.007107201963663101, -0.02655130997300148, 0.022600438445806503, 0.008782453835010529, 0.023279640823602676, -0.01726572774350643, 0.0102127306163311, -0.0046863853931427, 0.01300816610455513, 0.026335660368204117, -0.018291249871253967, 0.013370916247367859, -0.024550266563892365, -0.016655609011650085, -0.0039281826466321945, 0.012362584471702576, 0.01021885871887207, 0.0133129321038723, -0.0008993856608867645, -0.017705220729112625, 0.007207244634628296, -0.02140125073492527, 0.009046502411365509, 0.020852461457252502, -0.004617365077137947, 0.014066047966480255, -0.014519013464450836, 0.026368815451860428, -0.011846228502690792, 0.016172781586647034, 0.005741573870182037, -0.006506295874714851, 0.010936852544546127, -0.010058645159006119, -0.02587302215397358, -0.007362367585301399, 0.0037809591740369797, 0.016307614743709564, -0.007074732333421707, 0.01793176308274269, 0.016435138881206512, 0.007751975208520889, 0.010507971048355103, -0.02204873040318489, -0.002889161929488182, -0.013142864219844341, -0.0227680541574955, -0.02123274840414524, 0.016937926411628723, -0.005008239299058914, -0.004062594845890999, 0.014654815196990967, -0.01577441766858101, -0.003159737214446068, -0.02503574825823307, 0.0004431121051311493], [-0.002074575051665306, 0.014778997749090195, 0.0008476004004478455, -0.021502505987882614, 0.013998236507177353, -0.007970111444592476, -0.01615484058856964, 0.01845381036400795, 0.005895189940929413, -0.006762141361832619, -0.017060765996575356, -0.005636647343635559, -0.004423592239618301, 0.020888488739728928, 0.001095060259103775, -0.0057517774403095245, 0.018721099942922592, -0.008405057713389397, -0.023157436400651932, 0.02254929021000862, -0.004168752580881119, -0.010710863396525383, 0.011906996369361877, 0.02534553036093712, -0.006042264401912689, 0.005278035998344421, 0.024774115532636642, 0.007002204656600952, 0.020040512084960938, 0.007182460278272629, 0.026708513498306274, 0.013426970690488815, 0.016443967819213867, -0.01286036055535078, -0.019689276814460754, 0.010607961565256119, 0.008394386619329453, -0.008647153154015541, -0.011994592845439911, 0.01600513979792595, 0.01285332441329956, -0.012786399573087692, 0.009820900857448578, 0.022536706179380417, -0.004630584269762039, -0.015279233455657959, 0.02156781032681465, 0.0005893614143133163, -0.00707763247191906, -0.015578893013298512, -0.007536130025982857, 0.009901821613311768, 0.0024477746337652206, 0.024830881506204605, -0.005862722173333168, 0.004704181104898453, -0.00013983435928821564, 0.019880831241607666, 0.01905427873134613, -0.011944499798119068, 0.017107795923948288, 0.009403377771377563, -0.009750254452228546, 0.026927337050437927], [-0.01883346401154995, 0.014852568507194519, 0.0038880333304405212, -0.02567998878657818, -0.0199739970266819, -0.004835383966565132, 0.02073749154806137, 0.016995657235383987, -0.025409964844584465, 0.000687653198838234, 0.004462502896785736, 0.013116065412759781, -0.00497996062040329, -0.005682336166501045, 0.024257231503725052, -0.012284315191209316, -0.0005958285182714462, 0.009661510586738586, 0.013270415365695953, -0.010559186339378357, 0.015684407204389572, -0.01556845661252737, -0.025656510144472122, -0.017194341868162155, 0.019734926521778107, 0.008397921919822693, -0.01581769809126854, -0.01688161864876747, 0.019822292029857635, 0.012734927237033844, 0.021940801292657852, -0.020873285830020905, 0.005185414105653763, 0.010364901274442673, 0.013977020978927612, -0.015429101884365082, -0.004331424832344055, -0.020621981471776962, -0.026797639206051826, -0.015367730520665646, 0.002371620386838913, -0.023133574053645134, -0.006562860682606697, -0.001949600875377655, 0.017621032893657684, 0.026967018842697144, -0.0250556543469429, -0.023381227627396584, 0.0005241893231868744, 0.0013243518769741058, -0.023638064041733742, -0.005921214818954468, 0.01089630275964737, 0.02246098220348358, 0.013161465525627136, -0.019241318106651306, -0.02121787518262863, -0.013472418300807476, -0.011334272101521492, 0.01686284691095352, -0.0021506454795598984, -0.0034098103642463684, 0.020571637898683548, 0.01890888437628746]], [[-0.023831533268094063, -0.02301579713821411, -0.0005529355257749557, -0.007806595414876938, -0.009638408198952675, 0.0007368437945842743, 0.01827414706349373, -0.015987174585461617, 0.0035072248429059982, -0.012724567204713821, 0.020046096295118332, -0.012503169476985931, -0.0014870688319206238, -0.006366576999425888, -0.024407975375652313, -0.01838262565433979, 0.021107256412506104, 0.024589113891124725, 0.024353764951229095, -0.0046770572662353516, 0.0038414951413869858, -0.0028767865151166916, 0.01718820631504059, 0.014359910041093826, -0.02310093492269516, 0.006395790725946426, 0.018281538039445877, 0.019754670560359955, -0.0024291910231113434, -0.02059730887413025, -0.016313977539539337, 0.0258462093770504, -0.02340952679514885, -0.0216168574988842, -0.007759427651762962, 0.013116516172885895, -0.013782273977994919, 0.017125427722930908, -0.0010442212224006653, 0.009662743657827377, -0.023533722385764122, 0.01903734728693962, 0.010790616273880005, -0.014565597288310528, -0.018181711435317993, -0.026546141132712364, 0.005654450505971909, -0.018978968262672424, -0.020762594416737556, 0.025940246880054474, -0.018098585307598114, 0.019644390791654587, 0.00979546457529068, 0.019648700952529907, -0.02079697698354721, -0.006185777485370636, 0.009240970015525818, -0.022929882630705833, 0.017821356654167175, -0.004288824275135994, -0.0163164883852005, 3.433786332607269e-05, -0.024128014221787453, -0.019707949832081795], [-0.00862262211740017, 0.023203182965517044, -0.018059220165014267, -0.012235292233526707, 0.02349023148417473, -0.011432977393269539, 0.021922346204519272, 0.01423325389623642, 0.016450289636850357, -0.01918032392859459, -0.006379568949341774, 0.01631976291537285, 0.025777112692594528, 0.016229640692472458, -0.014045383781194687, -0.011113788932561874, 0.008658546954393387, -0.018316123634576797, 0.02270844578742981, 0.006561160087585449, -0.020109273493289948, 0.016182880848646164, 0.0052411556243896484, -0.015336998738348484, -0.006655566394329071, -0.01454888191074133, -0.01706988550722599, -0.02404344081878662, 0.0006943270564079285, 0.005779393017292023, 0.025394029915332794, 0.0060914047062397, -0.014114233665168285, -0.008304568007588387, 0.0025645121932029724, 0.008218567818403244, 0.013541299849748611, 0.013339601457118988, -0.004182737320661545, -0.02063555084168911, 0.01937660574913025, -0.002216057851910591, 0.018653862178325653, -0.020840369164943695, 0.026538129895925522, 0.018802154809236526, -0.01892140880227089, 0.004214011132717133, 0.0028631724417209625, 0.001682652160525322, 0.009407781064510345, -0.018983222544193268, -0.013536948710680008, 0.0011001378297805786, -0.021888088434934616, -0.026925060898065567, 0.020971953868865967, -0.004313509911298752, 0.01707640290260315, -0.023107634857296944, -0.009646043181419373, -0.026997802779078484, -0.015209533274173737, -0.01999128982424736], [-4.28222119808197e-05, 0.022886216640472412, -0.015207542106509209, -0.0122202904894948, -0.009477747604250908, 0.02072955295443535, 0.014346782118082047, 0.01191679760813713, 0.01783563941717148, -0.0016401149332523346, -0.01497688889503479, -0.00936896726489067, 0.026855994015932083, 0.01821550354361534, -0.01484057679772377, 0.01307656243443489, 0.01775328814983368, 0.022811036556959152, -0.017370719462633133, -0.02009047009050846, -0.01841726154088974, -0.0075368378311395645, -0.001750471070408821, 0.023451045155525208, -0.008866967633366585, 0.019859395921230316, 0.012534886598587036, -0.0024692118167877197, 0.019513312727212906, -0.0012456420809030533, 0.00690833106637001, -0.02397647127509117, -0.0040230415761470795, 0.01247427985072136, 0.0007317401468753815, 0.021409403532743454, -0.013766239397227764, 0.022118564695119858, -0.021630913019180298, -0.021450117230415344, 0.016995400190353394, 0.02661513164639473, 0.021236952394247055, -0.026059266179800034, 0.026436589658260345, -0.008920349180698395, 0.02698448672890663, -0.008613957092165947, 0.022077463567256927, 0.018060162663459778, -0.00972980447113514, 0.018750857561826706, -0.014026236720383167, 0.0006376579403877258, 0.002356618642807007, 0.0005388539284467697, -0.003716370090842247, 0.015440840274095535, -6.17094337940216e-05, 0.018850691616535187, -0.020534925162792206, 0.021274525672197342, -0.02039487659931183, -0.010975128039717674]], [[0.003146577626466751, -0.007690994068980217, -0.02138179913163185, 0.018019046634435654, -0.016425177454948425, 0.004573356360197067, -0.018882472068071365, -0.005927622318267822, -0.0012061670422554016, -0.0040255263447761536, 0.0021093282848596573, 0.013808514922857285, -0.010211814194917679, -0.010381408035755157, -0.02602677047252655, -0.02578115276992321, -0.016603928059339523, 0.024674955755472183, 0.00025362707674503326, 0.01695774495601654, 0.011318635195493698, 0.021134819835424423, 0.0019402019679546356, -0.010672563686966896, -0.016950935125350952, 0.005798041820526123, 0.01904185116291046, 0.02720092236995697, 0.007209561765193939, -0.020580679178237915, -0.0032395552843809128, 0.00530349463224411, -0.016587479040026665, 0.005964286625385284, 0.0190725177526474, 0.002979215234518051, 0.005598094314336777, 0.015179909765720367, 0.016635209321975708, -0.015412763692438602, 0.013474985957145691, -0.008550724014639854, -0.026274288073182106, -0.01475339662283659, -0.0028225816786289215, -0.013149506412446499, 0.006897773593664169, -0.01808346062898636, 0.004985276609659195, 0.007989894598722458, -0.005813810974359512, -0.0037822965532541275, 0.018687985837459564, 0.017816808074712753, -0.022713830694556236, -0.016231968998908997, -0.023826979100704193, -0.0023732949048280716, 0.01102147251367569, 0.01880268007516861, 0.01967937871813774, 0.01995064690709114, 0.012445889413356781, 0.023151922971010208], [-0.020359843969345093, 0.008440464735031128, -0.013345795683562756, -0.01881919428706169, 0.009295519441366196, 0.004340257495641708, -0.017177365720272064, -0.001021241769194603, -0.010585907846689224, -0.021649105474352837, -0.011803193017840385, 0.003176594153046608, 0.016207411885261536, 0.021720945835113525, 0.009021066129207611, -0.015505949966609478, 0.0023637916892766953, 0.012111175805330276, 0.024852748960256577, 0.008062459528446198, 0.0011763107031583786, -0.02707636170089245, -0.0033032894134521484, -0.0016078073531389236, -0.004100700840353966, 0.004979189485311508, -0.01245285663753748, -0.0225739236921072, -0.008718039840459824, -0.016496330499649048, 0.017543423920869827, 0.012307308614253998, 0.025270864367485046, -0.003111662343144417, -0.022420261055231094, -0.019806720316410065, -0.0024223290383815765, 0.0159623846411705, -0.01567259058356285, -0.020961802452802658, -0.007612153887748718, 0.008880693465471268, -0.008139943704009056, -0.022153422236442566, 0.025394178926944733, 0.024162475019693375, -0.006965598091483116, -0.0073106009513139725, -0.013313787057995796, -0.017508625984191895, -0.023462414741516113, -0.01698225736618042, -0.016034230589866638, 0.025779414921998978, 0.01503678783774376, -0.02342277765274048, -0.004330769181251526, -0.011580083519220352, 0.0176871195435524, 0.021288398653268814, 0.007673300802707672, -0.010440073907375336, -0.002164999023079872, 0.0035596080124378204], [0.011719714850187302, 0.013647083193063736, -0.023912033066153526, -0.015948694199323654, -0.0005643386393785477, 0.0032406263053417206, 0.01573418453335762, 0.019441459327936172, 0.004863366484642029, 0.013189461082220078, 0.0018475614488124847, -0.00901208259165287, 0.015533287078142166, 0.010129492729902267, -0.0006290953606367111, -0.027005741372704506, -0.018632180988788605, 0.02442631870508194, 0.02651241421699524, 0.013019945472478867, 0.015354406088590622, 0.022050369530916214, -0.02347479574382305, 0.004873398691415787, 0.0026548244059085846, 0.010727416723966599, -0.002528274431824684, 0.02062644436955452, -0.025080520659685135, -0.0020652804523706436, 0.008504606783390045, -0.013412323780357838, -0.025815464556217194, 0.02464141696691513, 0.009514063596725464, -0.01613345742225647, -0.020456288009881973, 0.019562162458896637, -0.014889014884829521, 5.2887946367263794e-05, 2.2487714886665344e-05, 0.016198650002479553, -0.014826812781393528, 0.007518760859966278, -0.012811591848731041, -0.001375766471028328, 0.014530450105667114, -0.004812266677618027, -0.025361482053995132, 0.018598373979330063, -0.01613883301615715, -0.01649077795445919, 0.013846959918737411, -0.02378367818892002, 0.013617083430290222, -0.013760694302618504, 0.003744598478078842, -0.009076494723558426, 0.0017208680510520935, -0.015021117404103279, 0.024615220725536346, -0.021400732919573784, 0.024483725428581238, 0.014900963753461838]], [[0.0033736303448677063, 0.01245729997754097, 0.007243495434522629, 0.012802623212337494, 0.022227227687835693, 0.007151994854211807, -0.002491224557161331, 0.007459815591573715, 0.026386301964521408, 0.011236637830734253, -0.007561042904853821, 0.01180640235543251, 0.025645438581705093, -0.0055800750851631165, 0.025562193244695663, -0.010244594886898994, 0.009980138391256332, 0.0037204306572675705, -0.014347650110721588, 0.02462942898273468, -0.017066804692149162, 0.0024587232619524, 0.011628970503807068, 0.006430003792047501, 0.011324945837259293, 0.006972648203372955, -0.009111657738685608, 0.02356017380952835, 0.0018302947282791138, 0.017599184066057205, 0.009702548384666443, 0.01150408387184143, -0.009585754945874214, -0.015239155851304531, 0.0011713113635778427, -0.014205986633896828, -0.007263174280524254, -0.0052809938788414, -0.014598306268453598, -0.011694732122123241, -0.00593215599656105, -0.021350426599383354, 0.02664559707045555, -0.011472245678305626, 0.021006427705287933, 0.014472275972366333, -0.0020679794251918793, 0.002332594245672226, -0.023405542597174644, 0.015165187418460846, 0.005360700190067291, 0.023320510983467102, -0.004491204395890236, 0.01132136955857277, -0.017050497233867645, -0.010134357959032059, -0.0220531914383173, 0.02532631903886795, 0.0036058463156223297, 0.022689975798130035, -0.008734825998544693, 0.006414774805307388, 0.009476467967033386, -0.010398544371128082], [-0.020705243572592735, 0.008481647819280624, 0.011068899184465408, -0.02084067463874817, 0.00687890499830246, 0.01026003435254097, -0.019882647320628166, -0.01140538603067398, -0.011712874285876751, -0.017950423061847687, -0.02037423849105835, 0.02569573000073433, 0.007627714425325394, -0.0025911107659339905, 0.014975979924201965, 0.02468644455075264, 0.01539216935634613, 0.020984582602977753, 0.021297961473464966, -0.005519170314073563, 0.013362564146518707, -0.02702471986413002, 0.021555393934249878, -0.00045429542660713196, 0.025640636682510376, -0.01164702046662569, -0.014076484367251396, -0.015195763669908047, -0.009171614423394203, 0.0022496171295642853, -0.013607355765998363, 0.006572999060153961, 0.02318137139081955, -0.013422922231256962, 0.01835114136338234, 0.01947474107146263, 0.024208832532167435, 0.0028333552181720734, 0.0022649820894002914, 0.02157267928123474, 0.01856684684753418, -0.015486199408769608, 0.020624563097953796, 0.0035875365138053894, 0.011250283569097519, 0.020912740379571915, 0.011188812553882599, -0.011408966034650803, 0.01619071140885353, 0.015281185507774353, 0.009873446077108383, 0.0133264921605587, 0.018688727170228958, 0.017190538346767426, -0.0024231020361185074, 0.0102134570479393, 0.015219975262880325, -0.0015402939170598984, -0.005040889605879784, -0.021343713626265526, -0.0035555996000766754, -0.006021877750754356, 0.023072194308042526, -0.007367199286818504], [0.027098234742879868, -0.014888210222125053, -0.020816650241613388, -0.025023534893989563, 0.008553698658943176, -0.004267653450369835, -0.007295813411474228, 0.003191344439983368, -0.023628978058695793, -0.016372263431549072, 0.024820610880851746, 0.0077200643718242645, -0.015146481804549694, 0.0005757082253694534, 0.011755742132663727, 0.01162683591246605, 0.022879913449287415, -0.022086115553975105, 0.009888265281915665, 0.012180168181657791, 0.022508565336465836, 0.018849056214094162, 0.007909342646598816, 0.021926186978816986, -0.009820615872740746, -0.024670299142599106, -0.02626030333340168, -0.02016555890440941, -0.016270553693175316, -0.012830226682126522, -0.019283348694443703, -0.005839100107550621, -0.0052059106528759, 0.02228088676929474, 0.01921098306775093, 0.02400514855980873, -0.008969221264123917, -0.008660409599542618, 0.019233547151088715, 0.0007564444094896317, -0.022850045934319496, -0.0014880411326885223, -0.01861359179019928, 0.023473478853702545, -0.0035056695342063904, 0.02436007931828499, 0.008395925164222717, -0.012542320415377617, -0.016317032277584076, -0.022212646901607513, 0.023177891969680786, 0.012250352650880814, 0.01634574681520462, -0.008590113371610641, 0.026983734220266342, -0.003162980079650879, 0.003866789862513542, -0.025398945435881615, -0.017868807539343834, -0.01847134903073311, -0.02592967264354229, 0.01110842451453209, 0.014649968594312668, 0.018940653651952744]], [[0.002889791503548622, 0.007230166345834732, -0.0017363429069519043, -0.0100046806037426, 0.020145133137702942, -0.018603835254907608, 0.021701619029045105, 0.017599329352378845, 0.0238499715924263, -8.079782128334045e-05, 0.019185524433851242, -0.010511428117752075, 0.00835362821817398, -0.01941867545247078, -0.0158785842359066, -0.008609306067228317, -0.010480308905243874, -0.02361302077770233, -0.00420745462179184, -0.02052963897585869, 0.001987200230360031, 0.016511619091033936, 0.013865653425455093, 0.007859721779823303, 0.009411945939064026, 0.01346062496304512, -0.015172906219959259, 0.010159660130739212, -0.027107255533337593, 0.024864155799150467, 0.019954390823841095, 0.011710777878761292, -0.01627032831311226, -0.010087534785270691, 0.005455728620290756, -0.016055051237344742, 0.018183477222919464, -0.01563309133052826, -0.01831502839922905, -0.021816110238432884, 0.01707093045115471, -0.02618827484548092, 0.02085264027118683, 0.002828730270266533, 0.025096852332353592, -0.01675763726234436, 0.02598053216934204, 0.0009732376784086227, -0.01847941242158413, 0.0012606903910636902, -0.003907646983861923, 0.010317616164684296, 0.02646741271018982, -0.018159691244363785, -0.02652779035270214, 0.005027063190937042, -0.01168789528310299, -0.007646745070815086, 0.010651100426912308, 0.014177355915307999, -0.021582376211881638, -0.019877133890986443, -0.016971945762634277, 0.024862516671419144], [0.0229216068983078, 0.01359708234667778, 0.007222544401884079, -0.024337204173207283, 0.004005497321486473, -0.01096588559448719, 0.02446047216653824, -0.026424674317240715, -0.017671167850494385, -0.01348889246582985, 0.01255040243268013, -0.017508089542388916, -0.023225819692015648, 0.014315541833639145, 0.018219880759716034, 0.018409937620162964, -0.0147562175989151, -0.011213656514883041, -0.02556416019797325, -2.5471672415733337e-05, -0.02014525793492794, 0.018818851560354233, 0.011432964354753494, -0.025404827669262886, -0.02652949094772339, -0.007766317576169968, 0.026737067848443985, 0.022483792155981064, 0.0005664732307195663, 0.0016005244106054306, -0.018876098096370697, 0.020688574761152267, -0.02562190592288971, -0.00027983076870441437, 0.024080444127321243, 0.014138240367174149, 0.02633766457438469, -0.01745324209332466, -0.0029577333480119705, 0.009033679962158203, 0.005060646682977676, -0.003932656720280647, 0.023487884551286697, 0.010404136031866074, 0.0024284906685352325, -0.004739642143249512, 0.007071211934089661, -0.00515536405146122, -0.0019192267209291458, 0.020195238292217255, -0.024928396567702293, 0.026922311633825302, -0.02272813208401203, -0.0037198346108198166, -0.0014374107122421265, 0.007817823439836502, -0.0009417925029993057, -0.02597499080002308, 0.020178955048322678, 0.004752103239297867, 0.0051558054983615875, 0.020204678177833557, 0.020281143486499786, -0.01869272068142891], [0.025515668094158173, -0.02544800564646721, 0.007816441357135773, -0.008093444630503654, -0.012791342101991177, 0.026084542274475098, 0.016779262572526932, -0.02577119693160057, -0.014130993746221066, 0.01384022831916809, 0.021350570023059845, 0.008551392704248428, 0.02272076904773712, 0.023098256438970566, 0.0009096600115299225, -0.01836646907031536, -0.001239558681845665, -0.004675948992371559, 0.01844044402241707, 0.004595447331666946, -0.005414627492427826, 0.0025575459003448486, -0.006707565858960152, 0.015383828431367874, 0.01210397481918335, 0.01760687679052353, 0.008175741881132126, -0.003307076171040535, -0.015314284712076187, -0.01685149595141411, -0.01180404331535101, -0.025980141013860703, 0.01486775279045105, -0.012889600358903408, -0.012422955594956875, 0.019860342144966125, 0.02383532002568245, -0.010311026126146317, 0.020232107490301132, -0.011905907653272152, 0.010944463312625885, -0.025157129392027855, -0.018651671707630157, 0.0032155774533748627, -0.007557859644293785, -0.005436090752482414, 0.00857195258140564, 0.02678316831588745, -0.0134154437109828, -0.017479244619607925, 0.010395299643278122, -0.02091185376048088, -0.005377955734729767, -0.013808101415634155, -0.01183372363448143, 0.013516295701265335, 0.02420196309685707, -0.006483450531959534, -0.013910121284425259, -0.024587102234363556, 0.022818133234977722, -0.003650777041912079, -0.014787072315812111, 0.019250139594078064]]], [[[0.007231853902339935, -0.006656177341938019, 0.02039177715778351, -0.018790623173117638, -0.0256759412586689, 0.020941775292158127, -0.019145965576171875, -0.025994274765253067, -0.02065381594002247, 0.010566189885139465, 0.008494280278682709, 0.002402922138571739, -0.013972310349345207, -0.004476694390177727, -0.002146214246749878, -0.022050241008400917, 0.007394682615995407, 0.008914969861507416, 0.019532784819602966, -0.02232140675187111, 0.020697642117738724, -0.011654582805931568, -0.008994031697511673, -0.022548271343111992, 0.013613924384117126, -0.015037456527352333, 0.01737913116812706, -0.004398569464683533, 0.02718702331185341, -0.00682724267244339, -0.011997750960290432, 0.008643288165330887, 0.012823019176721573, 0.017169654369354248, -0.003003286197781563, 0.01712663099169731, -0.016302693635225296, -0.0032036807388067245, 0.0001707281917333603, 0.009027063846588135, -0.024873483926057816, -0.004525385797023773, -0.01717459037899971, 0.004813499748706818, -0.014573419466614723, 0.0041880421340465546, -0.0039201658219099045, -0.00013984180986881256, -0.01043395884335041, 0.007276102900505066, 0.02239096909761429, 0.024312429130077362, -0.018714163452386856, 0.02278631180524826, 0.014465413987636566, -0.009191494435071945, 0.0013305973261594772, 0.02299606055021286, 0.013830043375492096, -0.0037153270095586777, 0.01969841495156288, -0.012030104175209999, 0.021455824375152588, -0.02156446874141693], [-0.003694603219628334, 0.016177218407392502, -0.003232434391975403, -0.008763786405324936, -0.02020365186035633, 0.02554120495915413, 0.015769071877002716, 0.0063192881643772125, 0.017622478306293488, 0.01951991766691208, 0.009423762559890747, 0.011725489050149918, 0.018313858658075333, 0.019463103264570236, -0.02462116628885269, 0.0022361967712640762, 0.018712453544139862, -0.0029318537563085556, 0.01167171448469162, -0.006603114306926727, 0.018299546092748642, -0.00461479090154171, 0.023733098059892654, -0.02258189022541046, 0.012793462723493576, -0.003749048337340355, 0.027190160006284714, 0.0064454227685928345, 0.022947195917367935, -0.0014801025390625, 0.02667367085814476, 0.020964138209819794, 0.02578575909137726, -0.007629426196217537, 0.0023324117064476013, 0.0023484136909246445, 0.020611364394426346, 0.008054878562688828, -0.008212056010961533, 0.02471902221441269, -0.0042191240936517715, 0.0025511570274829865, -0.00019882619380950928, -0.01688605546951294, 0.01150272786617279, 0.02235865592956543, -0.022869601845741272, 0.021062415093183517, 0.0027157682925462723, -0.00046944618225097656, -0.009649364277720451, -0.016908399760723114, 0.00976312905550003, -0.02522839978337288, 0.008817661553621292, -0.013783921487629414, 0.01750164106488228, 0.0006932318210601807, 0.017405569553375244, 0.020225752145051956, 0.00554642453789711, 0.004305414855480194, -0.014957262203097343, 0.02550160139799118], [0.017576664686203003, -0.0038260389119386673, 0.023571815341711044, -0.016592636704444885, -0.017947062849998474, 0.006586145609617233, -0.0007048025727272034, -0.01938326098024845, -0.013539698906242847, 0.022625833749771118, 0.01415899395942688, 0.0030227378010749817, -0.02329002507030964, -0.01510698813945055, 0.01837925985455513, 0.01867801696062088, -0.026586147025227547, -0.017363842576742172, 0.004698015749454498, -0.021191462874412537, 0.005268249660730362, 0.01078423485159874, -0.018817435950040817, -0.009643441066145897, 0.017817378044128418, 0.025514371693134308, 0.013896234333515167, 0.019093316048383713, 0.009186819195747375, 0.0007546357810497284, -0.007188759744167328, -0.0128454165533185, -0.024825338274240494, -0.011694959364831448, 0.003364427015185356, 0.0036526955664157867, -0.019080359488725662, -0.011600008234381676, -0.026470564305782318, -0.007707260549068451, -0.015282366424798965, 0.005447831004858017, -0.021110419183969498, -0.0029609315097332, -0.018939059227705002, -0.023379027843475342, -0.01745816320180893, 0.006021276116371155, -0.025861775502562523, -0.022916488349437714, 0.021302253007888794, 0.012957930564880371, 0.009113691747188568, 0.01543894037604332, -0.01811513677239418, 0.02290617674589157, -0.020509662106633186, 0.0011232420802116394, -0.015296045690774918, 8.347071707248688e-05, 0.01566673442721367, -0.025576313957571983, -0.004541095346212387, -0.0013362020254135132]], [[0.026631128042936325, 0.010518282651901245, -0.0268853772431612, 0.007935624569654465, -0.010219676420092583, -0.027134640142321587, -0.015918707475066185, -0.008263355121016502, -0.025324340909719467, 0.001192806288599968, 0.013170287013053894, -0.016957992687821388, 0.006342936307191849, -0.02329247072339058, -0.00479511171579361, -0.008484726771712303, 0.017982762306928635, 0.004882361739873886, -0.017220240086317062, -0.013955265283584595, 0.013535507023334503, 0.02376013994216919, 0.012888405472040176, -0.010272635146975517, -0.008249670267105103, 0.02486152946949005, 0.00579429417848587, 0.010219220072031021, 0.009708784520626068, -0.02481704205274582, -0.0178787000477314, -0.00922166183590889, -0.020802602171897888, 0.00897371768951416, -0.019473068416118622, -0.0005747228860855103, 0.012639813125133514, 0.009814132004976273, 0.003675956279039383, 0.007495060563087463, -0.021275199949741364, 