[[[[0.01458740234375, -0.02197265625, 0.0015716552734375, -0.0144805908203125, 0.0012969970703125, 0.013519287109375, 0.01708984375, -0.0033111572265625, -0.0027618408203125, -0.00531005859375, -0.02728271484375, 0.009552001953125, -0.025604248046875, -0.0242462158203125, -0.0247344970703125, -0.01611328125, -0.00299072265625, 0.014007568359375, 0.007049560546875, 0.0213623046875, 0.005859375, -0.0126953125, 0.0069580078125, -0.0035247802734375, 0.007659912109375, 0.007659912109375, -0.0239715576171875, 0.0011444091796875, -0.0011444091796875, -0.0095977783203125, -0.007537841796875, 0.014923095703125, -0.0078125, -0.027008056640625, 0.019195556640625, 0.017730712890625, 0.02593994140625, -0.0245208740234375, -0.00537109375, -0.017791748046875, -0.0049285888671875, 0.024688720703125, -0.0001068115234375, -0.013397216796875, 0.019317626953125, 0.00885009765625, 0.01513671875, -0.011444091796875, 0.010040283203125, -0.02490234375, 0.00732421875, 0.00579833984375, 0.019744873046875, -0.01274871826171875, 0.011016845703125, 0.00299072265625, -0.01800537109375, 0.025604248046875, -0.01519012451171875, 0.01617431640625, 0.009002685546875, 0.004119873046875, 0.01019287109375, 0.01422119140625], [0.024017333984375, -0.010406494140625, 0.00640869140625, -0.015777587890625, -0.0108489990234375, -0.0259857177734375, 0.009918212890625, 0.02520751953125, -0.007049560546875, -0.02734375, -0.011444091796875, 0.0111083984375, 0.013671875, 0.0026092529296875, -0.00927734375, 0.02349853515625, 0.01507568359375, -0.0030975341796875, 0.01214599609375, 0.02178955078125, 0.01470947265625, 0.0081787109375, 0.002166748046875, 0.0030975341796875, 0.007537841796875, -0.0066680908203125, 0.011444091796875, 0.02618408203125, -0.01372528076171875, -0.0227813720703125, 0.018646240234375, -6.103515625e-05, -0.0060272216796875, 0.01605224609375, -0.01404571533203125, -0.01953125, 0.01861572265625, 0.01263427734375, -0.009979248046875, -0.009490966796875, 0.01275634765625, 0.025543212890625, 0.02301025390625, 0.02581787109375, 0.018218994140625, -0.0277099609375, -0.01383209228515625, 0.016265869140625, -0.0052032470703125, -0.0045623779296875, -0.00286865234375, -0.0269622802734375, 0.01708984375, 0.02252197265625, -0.01345062255859375, -0.018218994140625, 0.021484375, 0.011505126953125, 0.02618408203125, -0.0266876220703125, 0.02130126953125, -0.0263671875, 0.0040283203125, -0.0128021240234375], [-0.0132904052734375, -0.019805908203125, -0.0181732177734375, 0.01654052734375, -0.01551055908203125, -0.0047149658203125, 0.0263671875, 0.007904052734375, -0.0079803466796875, 0.02740478515625, -0.0052642822265625, 0.02081298828125, -0.0257568359375, -0.021148681640625, -0.0027618408203125, -0.015350341796875, 0.014434814453125, 0.021209716796875, 0.009765625, 0.0252685546875, 0.022064208984375, 0.023040771484375, -0.001190185546875, -0.0171966552734375, 0.00439453125, 0.017791748046875, 0.01617431640625, 0.00103759765625, -0.023651123046875, 0.0026092529296875, 0.00933837890625, -0.018218994140625, -0.01068115234375, 0.02740478515625, 0.00335693359375, -0.0001678466796875, 0.018280029296875, -0.0159454345703125, 0.00823974609375, -0.0060272216796875, 0.01220703125, -0.0205535888671875, 0.0035400390625, 0.019256591796875, -0.0028228759765625, 0.02740478515625, 0.010467529296875, -0.017791748046875, 0.02349853515625, -0.02337646484375, -0.019317626953125, -0.0008697509765625, -0.01068115234375, 0.00390625, -0.0169219970703125, 0.0017852783203125, -0.023162841796875, -0.0257568359375, -0.01334381103515625, -0.0271759033203125, -0.0269012451171875, -0.0047149658203125, -0.0052032470703125, -0.01898193359375], [0.01513671875, 0.010101318359375, -0.017730712890625, 0.01605224609375, -0.022125244140625, 0.014007568359375, -0.017730712890625, 0.01568603515625, -0.022735595703125, 0.00677490234375, 0.001739501953125, -0.0198974609375, -0.005096435546875, 0.0169677734375, 0.026580810546875, 0.02545166015625, 0.01312255859375, 0.024566650390625, -0.02587890625, 0.00140380859375, 0.00726318359375, -0.0005950927734375, -0.0264129638671875, -0.024627685546875, -0.0186614990234375, -0.0220794677734375, 0.01220703125, 0.0164794921875, 0.013458251953125, 0.0035400390625, 0.015228271484375, 0.015960693359375, 0.010040283203125, 0.01361083984375, -0.008575439453125, -0.0215911865234375, 0.006988525390625, 0.0076904296875, 0.0001068115234375, -0.02777099609375, -0.016876220703125, -0.00152587890625, 0.021209716796875, 0.007476806640625, 0.00628662109375, 0.02001953125, -0.00732421875, 0.009368896484375, -0.0259857177734375, 0.022064208984375, -0.0224609375, -0.0052642822265625, -0.01702880859375, 0.003143310546875, -0.0032501220703125, -0.0107879638671875, -0.004119873046875, -0.00439453125, 0.011077880859375, 0.003692626953125, 0.013031005859375, -0.0277099609375, -0.01702880859375, 0.013275146484375], [-0.01513671875, -0.0274505615234375, -0.0238037109375, -0.0181732177734375, -0.00628662109375, 0.02667236328125, 0.02276611328125, -0.007537841796875, 0.01995849609375, 0.009552001953125, 0.019134521484375, -0.0135040283203125, -0.0086212158203125, -0.0232696533203125, -0.002166748046875, -0.0169219970703125, 0.02618408203125, -0.024566650390625, 0.005035400390625, -0.0023345947265625, -0.027496337890625, -0.0244140625, -0.0037384033203125, 0.018890380859375, 0.021759033203125, 0.023101806640625, -0.01116943359375, 0.020599365234375, 0.005645751953125, -0.011505126953125, 0.00439453125, 0.00238037109375, 0.02227783203125, 0.005584716796875, 0.004608154296875, -0.01116943359375, 0.008880615234375, 0.01068115234375, -0.00189208984375, 0.003570556640625, 0.0033111572265625, 0.00042724609375, 0.00738525390625, -0.009552001953125, 0.026519775390625, 0.018341064453125, 0.02130126953125, 0.015899658203125, 0.025543212890625, -0.0116119384765625, 0.0272216796875, 0.012542724609375, 0.021636962890625, 0.015228271484375, -0.0069427490234375, -0.016265869140625, 0.023590087890625, -0.0079803466796875, 0.005645751953125, 0.011383056640625, 0.014984130859375, -0.0093841552734375, 0.0179443359375, 0.02496337890625], [0.00445556640625, 0.010040283203125, 0.008575439453125, -0.0179443359375, 0.0145263671875, -0.01519012451171875, -0.02197265625, 0.0008697509765625, 0.012298583984375, 0.02386474609375, -0.0048828125, -0.01258087158203125, 0.015625, -0.0116119384765625, 0.0050048828125, -0.01432037353515625, 0.01019287109375, -0.01171875, -0.02197265625, -0.027069091796875, 0.025054931640625, -0.0106353759765625, -0.022247314453125, 0.01861572265625, -0.02728271484375, -0.0142669677734375, -0.005096435546875, 0.00054931640625, -0.0167083740234375, -0.02490234375, -0.0234832763671875, 0.009765625, 0.003631591796875, -0.0086822509765625, 0.00335693359375, 0.01763916015625, -0.0205535888671875, 0.0033111572265625, 0.005859375, -0.0162200927734375, -0.0035247802734375, 0.006988525390625, -0.01404571533203125, 0.0189208984375, -0.0167083740234375, -0.0066680908203125, 0.010345458984375, 0.00390625, 0.022186279296875, 0.02325439453125, 0.019378662109375, -0.0142669677734375, -0.00091552734375, 0.00823974609375, -0.0029296875, -0.0276641845703125, -0.01247406005859375, -0.01285552978515625, 0.02667236328125, -0.02337646484375, 0.016448974609375, -0.0126953125, -0.0013580322265625, -0.01666259765625], [-0.0238037109375, 0.021484375, 0.020294189453125, 0.02764892578125, -0.01409912109375, 0.0257568359375, -0.01372528076171875, 0.0140380859375, -0.0020599365234375, -0.0245208740234375, -0.001739501953125, -0.0203399658203125, -0.0144805908203125, -0.0142669677734375, 0.01568603515625, -0.0229949951171875, -0.01361083984375, 0.0032501220703125, 0.021270751953125, 0.019317626953125, -0.0218505859375, 0.00201416015625, -0.011505126953125, -0.00042724609375, 0.0048828125, 0.014434814453125, -0.01812744140625, -0.003143310546875, 0.0048828125, -0.026580810546875, -0.0252227783203125, 0.007537841796875, 0.006195068359375, -0.0071563720703125, -0.01361083984375, 0.018890380859375, 0.02520751953125, -0.016876220703125, -0.014373779296875, -0.0169677734375, -0.0079193115234375, 0.004241943359375, 0.01019287109375, -0.015777587890625, 0.02490234375, -0.00048828125, 0.0028228759765625, 0.01226806640625, 0.02520751953125, 0.0159912109375, -0.0263671875, 0.0228271484375, 0.0169677734375, -0.01361083984375, -0.02239990234375, -0.023651123046875, -0.0040740966796875, -0.001953125, -0.022125244140625, 0.00347900390625, -0.027069091796875, 0.02593994140625, 0.026519775390625, 0.024627685546875], [0.013031005859375, 0.016265869140625, 0.01214599609375, -0.0107421875, 0.017181396484375, -0.0049285888671875, -0.01263427734375, -0.0083465576171875, 0.00689697265625, 0.0001068115234375, -0.007049560546875, 0.004608154296875, 0.0194091796875, 0.016204833984375, 0.016876220703125, -0.0242919921875, -0.01383209228515625, -0.000701904296875, 0.00244140625, -0.0115509033203125, -0.01323699951171875, -0.0012969970703125, -0.00335693359375, 0.000274658203125, -0.02685546875, -0.0208282470703125, 0.02581787109375, 0.017181396484375, 0.021087646484375, 0.012298583984375, 0.018157958984375, -0.0050506591796875, 0.00286865234375, -0.00628662109375, -0.025604248046875, 0.00579833984375, -0.0183868408203125, -0.0264739990234375, -0.023590087890625, -0.0205078125, 0.016815185546875, -0.0074920654296875, 0.025482177734375, 0.013275146484375, 0.005218505859375, 0.018402099609375, -0.0228271484375, -0.0266265869140625, 0.0130615234375, -0.0174560546875, 0.009765625, 0.00140380859375, -0.016265869140625, -0.0111236572265625, -0.0006561279296875, -0.006561279296875, -0.0001678466796875, 0.008148193359375, -0.020782470703125, -0.0228271484375, 0.000762939453125, -0.0234832763671875, -0.0084075927734375, 0.00982666015625], [-0.022247314453125, 0.00970458984375, 0.0238037109375, -0.0273895263671875, -0.01470184326171875, -0.007537841796875, -0.0042877197265625, 0.013519287109375, -0.017791748046875, -0.02294921875, 0.01513671875, -0.0093231201171875, 0.006500244140625, -0.0189208984375, -0.01432037353515625, -0.0052032470703125, 0.017669677734375, -0.0084686279296875, -0.018829345703125, 0.0185546875, -0.0186614990234375, -0.00439453125, -0.0079803466796875, -0.0137786865234375, 0.021087646484375, 0.01171875, -0.00433349609375, 0.004058837890625, -0.012908935546875, -0.0189208984375, -0.0266876220703125, -0.0040130615234375, 0.02252197265625, -0.0169677734375, 0.0001068115234375, 0.017364501953125, 0.011566162109375, 0.004119873046875, -0.019683837890625, -0.01617431640625, 0.024993896484375, -0.008087158203125, -0.01274871826171875, -0.02191162109375, -0.01611328125, -0.00482177734375, 0.021636962890625, -0.016387939453125, 0.0037841796875, -0.001678466796875, -0.0067291259765625, 0.001190185546875, 0.003692626953125, -0.0247344970703125, -0.01214599609375, -0.0009765625, -0.0048828125, -0.005096435546875, -0.00244140625, 0.0218505859375, -0.011444091796875, -0.008026123046875, 0.02423095703125, 0.010345458984375], [-0.019805908203125, 0.008575439453125, 0.025543212890625, -0.0106353759765625, -0.0276641845703125, 0.0125732421875, -0.027557373046875, -0.015838623046875, -0.0086212158203125, -0.0259246826171875, 0.027435302734375, 0.022186279296875, 0.02734375, 0.004730224609375, 0.0011444091796875, 0.02386474609375, 0.0087890625, 6.103515625e-05, -0.026092529296875, -0.0062408447265625, -0.01513671875, -0.0012969970703125, -0.0215301513671875, 0.006988525390625, -0.0276031494140625, 0.0023345947265625, 0.024505615234375, 0.0010833740234375, 0.027130126953125, 0.022186279296875, -0.0142669677734375, -0.0027618408203125, -0.0091094970703125, -0.0249481201171875, 0.006134033203125, -0.017242431640625, 0.00677490234375, 0.020111083984375, -0.01947021484375, 0.002227783203125, 0.02392578125, 0.008880615234375, -0.0125274658203125, 0.027496337890625, -0.02191162109375, 0.01666259765625, 0.02520751953125, 0.025482177734375, 0.0107421875, 0.010833740234375, 0.00189208984375, -0.0071563720703125, 0.008575439453125, 0.0233154296875, 0.013031005859375, -0.01568603515625, -0.0271148681640625, 0.01123046875, 0.020599365234375, 0.01556396484375, -0.0023345947265625, 0.0008697509765625, -0.0218505859375, 0.01910400390625], [-0.021148681640625, 0.0059814453125, 0.006072998046875, -0.014862060546875, 0.0159912109375, 0.024139404296875, 0.008392333984375, -0.002655029296875, -0.015899658203125, -0.0025482177734375, -0.0010833740234375, -0.0052642822265625, 0.027496337890625, -0.025543212890625, 0.01263427734375, -0.0244598388671875, 0.0135498046875, -0.0100860595703125, 0.0001678466796875, 0.0126953125, 0.022674560546875, -0.0074920654296875, 0.02471923828125, -0.027496337890625, -0.0277099609375, 0.020233154296875, -0.001251220703125, -0.0054779052734375, -0.01519012451171875, -0.00103759765625, -0.0225067138671875, -0.01171875, 0.00738525390625, -0.01318359375, 0.024627685546875, 0.02154541015625, 0.01910400390625, -0.018280029296875, -0.01513671875, 0.017242431640625, -0.0257110595703125, -0.012420654296875, 0.0263671875, 0.00927734375, -0.010040283203125, -0.0174102783203125, -0.0089569091796875, 0.021575927734375, 0.02716064453125, 0.012908935546875, -0.0125274658203125, -0.006134033203125, -0.0230560302734375, 0.01995849609375, 0.0008087158203125, 0.01849365234375, -0.018829345703125, 0.016326904296875, -0.02392578125, 0.025054931640625, 0.024505615234375, -0.005645751953125, 0.001953125, 0.024566650390625], [0.026519775390625, 0.009552001953125, 0.0030364990234375, -0.00140380859375, -0.0130157470703125, -0.0259246826171875, -0.0267333984375, 0.01751708984375, -0.0242919921875, -0.0252227783203125, -0.01480865478515625, 0.02587890625, -0.020233154296875, -0.0012969970703125, -0.0269012451171875, -0.004669189453125, -0.02392578125, 0.0198974609375, -0.01806640625, 0.00726318359375, -0.0200653076171875, -0.0096588134765625, -0.0042266845703125, -0.026092529296875, 0.007415771484375, -0.0062408447265625, 0.00189208984375, -0.026092529296875, 0.019256591796875, -0.0184326171875, 0.026092529296875, -0.01800537109375, -0.0277099609375, 0.001953125, -0.01432037353515625, -0.00775146484375, 0.018218994140625, 0.01409912109375, -0.01372528076171875, -0.01383209228515625, -0.01898193359375, 0.010406494140625, 0.008087158203125, 0.0107421875, 0.0028228759765625, -0.01605224609375, 0.01904296875, 0.026092529296875, -0.0271759033203125, 0.018707275390625, -0.0188751220703125, -0.009063720703125, -0.0120391845703125, 0.02398681640625, -0.005859375, 0.013946533203125, -0.015838623046875, -0.022186279296875, 0.020355224609375, -0.0189208984375, 0.012481689453125, -0.0276031494140625, 0.016937255859375, -0.0220794677734375], [0.00885009765625, -0.016754150390625, 0.014251708984375, -0.0117645263671875, -0.000213623046875, 0.012542724609375, -0.00384521484375, 0.0011444091796875, -0.001190185546875, -0.0106353759765625, 0.0145263671875, -0.025390625, -0.022613525390625, -0.017852783203125, 0.0228271484375, 0.012298583984375, 0.0115966796875, -0.0009765625, -0.02630615234375, -0.023651123046875, 0.016876220703125, -0.017730712890625, 0.022247314453125, 0.004119873046875, 0.02496337890625, -0.002716064453125, 0.0150146484375, 0.018280029296875, -0.0107879638671875, 0.01025390625, -0.016265869140625, -0.0259857177734375, 0.00390625, -0.0259246826171875, 0.01214599609375, 0.021484375, -0.027069091796875, -0.0074310302734375, 0.020721435546875, 0.027435302734375, -0.0110626220703125, -0.0186614990234375, 0.021148681640625, -0.0035247802734375, 0.01947021484375, -0.0188751220703125, -0.01306915283203125, -0.01334381103515625, 0.01708984375, 0.01708984375, -0.001953125, -0.0060272216796875, -0.02532958984375, -0.007598876953125, 0.0120849609375, -0.0247802734375, -0.0023345947265625, -0.0188751220703125, -0.01345062255859375, 0.003753662109375, -0.0250091552734375, -0.02337646484375, -0.02386474609375, -0.01393890380859375], [0.005706787109375, -0.01355743408203125, -0.0234832763671875, 0.012847900390625, 0.022674560546875, -0.0062408447265625, -0.010406494140625, -0.01480865478515625, 0.0028228759765625, -0.0089569091796875, 0.0091552734375, -0.0132904052734375, 0.0021209716796875, 0.0091552734375, 0.012481689453125, -0.0205078125, -0.007537841796875, 0.00787353515625, -0.0074310302734375, 0.02105712890625, 0.022186279296875, -0.018341064453125, 0.0189208984375, 0.022125244140625, 0.0205078125, -0.02728271484375, 0.000213623046875, 0.00628662109375, 0.017364501953125, 0.001678466796875, -0.019683837890625, 0.012786865234375, -0.003204345703125, -0.0094451904296875, 0.000762939453125, -0.018707275390625, -0.0164337158203125, 6.103515625e-05, -0.0190887451171875, 0.016448974609375, 0.0013580322265625, 0.01806640625, 0.02496337890625, 0.02349853515625, 0.01068115234375, -0.01068115234375, 0.0035400390625, -0.01507568359375, -0.01432037353515625, -0.01953125, -0.00775146484375, -0.0250091552734375, -0.015777587890625, -0.01432037353515625, 0.00640869140625, 0.010894775390625, 0.007415771484375, 0.01373291015625, 0.02593994140625, 0.0029296875, 0.012908935546875, -0.0029296875, 0.0267333984375, -0.0035247802734375], [0.0189208984375, 0.004180908203125, 0.01715087890625, 0.002716064453125, -0.0087890625, -0.0196380615234375, 0.012054443359375, -0.0273895263671875, -0.0215911865234375, -0.025115966796875, -0.018218994140625, -0.0099334716796875, -0.0183868408203125, -0.01306915283203125, 0.02423095703125, -0.01556396484375, -0.00189208984375, 0.0025482177734375, -0.0054779052734375, -0.0142669677734375, 0.022613525390625, 0.010101318359375, -0.0101470947265625, -0.01220703125, 0.005523681640625, -0.019256591796875, 0.01416015625, 0.005035400390625, 0.02447509765625, 0.00396728515625, 0.011322021484375, -0.0144805908203125, -0.00732421875, -0.01568603515625, -0.00823974609375, -0.0025482177734375, -0.0088348388671875, 0.02294921875, -0.026580810546875, 0.010589599609375, 0.011993408203125, -0.01214599609375, -0.0273895263671875, -0.0106353759765625, 0.017364501953125, 0.015716552734375, -0.0225677490234375, -0.001739501953125, 0.013946533203125, 0.010345458984375, 0.002655029296875, -0.01568603515625, -0.009765625, -0.0132904052734375, 0.010589599609375, 0.02520751953125, 0.01751708984375, -0.0218048095703125, -0.013885498046875, 0.027130126953125, 0.00543212890625, -0.013671875, -0.0040130615234375, 0.0042724609375], [0.021575927734375, 0.0001678466796875, -0.01345062255859375, -0.0220184326171875, 0.026031494140625, 0.02398681640625, -0.027008056640625, 0.00872802734375, -0.013885498046875, -0.01334381103515625, -0.0060272216796875, -0.019744873046875, 0.026947021484375, -0.000762939453125, -0.00927734375, -0.0016326904296875, -0.011444091796875, -0.0103607177734375, -0.0167083740234375, 0.0011444091796875, 0.009552001953125, 0.024505615234375, 0.021148681640625, -0.01947021484375, -0.02685546875, -0.0257110595703125, -0.018218994140625, -0.021209716796875, -0.01654052734375, -0.004180908203125, -0.01383209228515625, -0.0074920654296875, 0.019195556640625, 0.0164794921875, -0.00189208984375, -0.0105743408203125, -0.0106353759765625, 0.011871337890625, -0.00341796875, -0.025543212890625, 0.011444091796875, -0.0256500244140625, -0.0128021240234375, -0.00830078125, -0.00775146484375, -0.01236724853515625, -0.00103759765625, 0.025970458984375, 0.02008056640625, -0.027069091796875, -0.0146484375, -0.0111236572265625, 0.021697998046875, -0.0061798095703125, 0.02447509765625, -0.0068817138671875, 0.017730712890625, -0.018218994140625, -0.00286865234375, 0.00640869140625, 0.02056884765625, -0.0071563720703125, 0.006195068359375, -0.0112762451171875], [0.012420654296875, -0.0135040283203125, 0.003570556640625, -0.0079193115234375, -0.02239990234375, -0.0083465576171875, 0.023223876953125, -0.0162200927734375, 0.02490234375, -0.021484375, 0.02056884765625, -0.0194091796875, -0.0220794677734375, -0.0206146240234375, -0.0166015625, 0.01617431640625, 0.004547119140625, 0.0035400390625, 0.0078125, -0.021209716796875, -0.01611328125, -0.020172119140625, -0.02294921875, -0.0087890625, 0.0244140625, 0.0, 0.02484130859375, 0.014739990234375, -0.0057525634765625, 0.00537109375, -0.021697998046875, -0.0095977783203125, 0.012420654296875, 0.00396728515625, -0.000701904296875, -0.0079803466796875, -0.0088958740234375, -0.0067291259765625, -0.0215911865234375, 0.01568603515625, -0.0084075927734375, -0.0077056884765625, 0.02630615234375, -0.0267333984375, 0.0166015625, -0.0276641845703125, -0.0033111572265625, -0.0079803466796875, -0.0269012451171875, -0.00189208984375, -0.024566650390625, 0.007904052734375, 0.004180908203125, -0.0049285888671875, 0.005523681640625, -0.0105743408203125, 0.02667236328125, 0.005523681640625, 0.015716552734375, 0.019805908203125, 0.0029296875, 0.005157470703125, 0.018402099609375, 0.02008056640625], [0.010101318359375, -0.01296234130859375, -0.0162200927734375, 0.01959228515625, 0.00384521484375, -0.008087158203125, 0.0087890625, -0.01323699951171875, -0.022735595703125, 0.02569580078125, -0.018829345703125, -0.0276641845703125, 0.018402099609375, 0.011566162109375, 0.0096435546875, 0.0048828125, -0.0091705322265625, 0.007537841796875, 0.015411376953125, -0.0086822509765625, -0.02142333984375, 0.00921630859375, 0.00531005859375, 0.019622802734375, -0.0272216796875, -0.020660400390625, 0.02197265625, -0.0021209716796875, -0.01345062255859375, -0.0277099609375, -0.01995849609375, 0.01275634765625, -0.0259246826171875, 0.0064697265625, -0.00433349609375, 0.003143310546875, -0.0045623779296875, 0.01373291015625, 0.015472412109375, -0.0056915283203125, -0.0203857421875, -0.001678466796875, -0.00921630859375, 0.0012969970703125, 0.020599365234375, 0.015777587890625, -0.0271148681640625, -0.009490966796875, 0.009490966796875, 0.009063720703125, -0.01334381103515625, 0.009979248046875, -0.019805908203125, 0.0003204345703125, 0.01507568359375, 0.01654052734375, 0.0010833740234375, 0.0076904296875, -0.0096588134765625, -0.02099609375, -0.020294189453125, -0.0078125, -0.027008056640625, 0.01373291015625], [-0.0224609375, -0.0205078125, 0.00640869140625, 0.0069580078125, -0.0247344970703125, -0.01393890380859375, -0.0244140625, -0.0203399658203125, -0.0052642822265625, -0.0069427490234375, -0.0261993408203125, 0.02532958984375, -0.008026123046875, 0.014739990234375, 0.02520751953125, 0.026947021484375, 0.00299072265625, -0.004608154296875, -0.02386474609375, -0.0030975341796875, 0.00482177734375, 0.00048828125, 0.0205078125, -0.01611328125, 0.01513671875, 0.00286865234375, 0.013824462890625, 0.019622802734375, -0.022247314453125, 0.016387939453125, 0.011383056640625, -0.0023345947265625, -0.0110626220703125, -0.018218994140625, 0.003692626953125, 0.017913818359375, -0.01654052734375, -0.0198974609375, 0.019866943359375, -0.0049285888671875, 0.00140380859375, 0.005706787109375, -0.0052032470703125, 0.020782470703125, -0.01861572265625, -0.017791748046875, 0.02374267578125, -0.02679443359375, -0.0057525634765625, 0.01422119140625, -0.007110595703125, 0.01165771484375, -0.0003204345703125, 0.02764892578125, 0.01409912109375, 0.0023345947265625, 0.0164794921875, 0.00677490234375, -0.0164337158203125, -0.00634765625, -0.0100860595703125, 0.02008056640625, 0.018890380859375, 0.017913818359375], [0.0006561279296875, 0.0081787109375, -0.025054931640625, -0.016326904296875, 0.0145263671875, -0.0159454345703125, -0.0086822509765625, -0.021697998046875, 0.0086669921875, 0.0169677734375, 0.009979248046875, 0.0126953125, 0.0213623046875, 0.0223388671875, -0.0084075927734375, -0.027496337890625, -0.0154571533203125, 0.0003204345703125, -0.0050506591796875, -0.0094451904296875, -0.0162200927734375, 0.01214599609375, 0.0189208984375, 0.0023345947265625, -0.0190887451171875, 0.013946533203125, -0.00726318359375, -0.0162200927734375, 6.103515625e-05, -0.0171966552734375, -0.012420654296875, 0.010589599609375, 0.024627685546875, -0.0013580322265625, 0.022674560546875, 0.018890380859375, 0.01177978515625, -0.0083465576171875, 0.0062255859375, -0.0108489990234375, -0.011993408203125, 0.0028228759765625, -0.01904296875, 0.0006561279296875, -0.0091094970703125, -0.0060272216796875, 0.013824462890625, 0.0001068115234375, -0.0028228759765625, -0.01806640625, -0.02197265625, 0.01318359375, -0.0017852783203125, -0.0259246826171875, 0.004241943359375, -0.0054168701171875, -0.0225677490234375, 0.020172119140625, 0.021484375, 0.01019287109375, -0.0215911865234375, 0.017242431640625, -0.0006561279296875, -0.0208282470703125], [-0.009063720703125, -0.026580810546875, 0.00677490234375, -0.026580810546875, -0.0205535888671875, 0.022247314453125, -0.0118255615234375, 0.003143310546875, 0.00384521484375, -0.02001953125, -0.004180908203125, 0.000762939453125, 0.020599365234375, -0.0001678466796875, -0.0012969970703125, 0.01708984375, 0.01806640625, -0.01666259765625, -0.014373779296875, 0.016204833984375, -0.0005950927734375, -0.0121002197265625, 0.018280029296875, -0.009979248046875, -0.0218048095703125, 0.016326904296875, -0.0068817138671875, -0.017730712890625, 0.02093505859375, -0.027069091796875, -0.00390625, -0.0125274658203125, 0.027557373046875, -0.004180908203125, -0.01116943359375, 0.002655029296875, -0.0054168701171875, 0.013763427734375, 0.02349853515625, -0.0050506591796875, 0.018646240234375, 0.015625, 0.0277099609375, 0.0257568359375, -0.00732421875, 0.007476806640625, 0.001678466796875, -0.0233154296875, -0.0222930908203125, 0.011505126953125, -0.0061798095703125, -0.005157470703125, -0.00201416015625, 0.0091552734375, -0.0123138427734375, -0.008026123046875, 0.010467529296875, 0.014739990234375, 0.02423095703125, 0.02227783203125, 0.0087890625, -0.014373779296875, 0.003692626953125, 0.022613525390625], [-0.0045013427734375, 0.019134521484375, 0.0021209716796875, -0.011871337890625, -0.021148681640625, 0.025482177734375, -0.0107879638671875, -0.0025482177734375, -0.0057525634765625, -0.025543212890625, -0.0029296875, -0.0274505615234375, 0.025390625, -0.0006561279296875, -0.0049285888671875, -0.0063934326171875, 0.02081298828125, -0.01432037353515625, -0.01263427734375, 0.02294921875, 0.0003204345703125, -0.026580810546875, -0.02386474609375, 0.0057373046875, -0.0072174072265625, 0.026031494140625, 0.02471923828125, 0.026580810546875, -0.018280029296875, 0.00982666015625, -0.0035247802734375, -0.01800537109375, 0.016204833984375, -0.0094451904296875, 0.0009765625, 0.018646240234375, 0.0017852783203125, -0.0188751220703125, -0.0164794921875, 0.0126953125, -0.0139923095703125, -0.02435302734375, -0.013397216796875, 0.0003814697265625, 0.0145263671875, -0.0062408447265625, -0.0235443115234375, -0.0130157470703125, -0.0228271484375, -0.0084075927734375, 0.015960693359375, -0.02337646484375, 0.0238037109375, 0.00982666015625, -0.01502227783203125, -0.020721435546875, 0.006622314453125, -0.003204345703125, -0.0010833740234375, 0.0057373046875, -0.0055389404296875, 0.004547119140625, 0.010955810546875, 0.007415771484375], [-0.0157318115234375, -0.0068817138671875, -0.01470184326171875, -0.0146484375, -0.0074310302734375, 0.01361083984375, -0.0100860595703125, 0.021270751953125, -0.01285552978515625, 0.009979248046875, -0.0012969970703125, 0.004119873046875, 0.012054443359375, -0.024566650390625, 0.003570556640625, -0.0078582763671875, 0.012969970703125, 0.008453369140625, 0.0032501220703125, 0.02191162109375, -0.020721435546875, 0.00927734375, 0.00146484375, -0.02630615234375, -0.0218505859375, -0.0239715576171875, -0.0088348388671875, 0.025543212890625, 0.018890380859375, 0.019317626953125, -0.021148681640625, 0.02081298828125, 0.016326904296875, -6.103515625e-05, 0.01519775390625, 0.011993408203125, 0.00146484375, -0.0009765625, -0.017303466796875, 0.0087890625, -0.023162841796875, 0.017425537109375, -0.01904296875, -0.0227813720703125, 0.000213623046875, 0.00494384765625, 0.011993408203125, 0.013671875, -0.019195556640625, 0.025390625, 0.01409912109375, -0.02679443359375, -0.01540374755859375, -0.00054931640625, 0.0008697509765625, 0.0023345947265625, 0.01275634765625, -0.01529693603515625, 0.007965087890625, -0.0171966552734375, 0.02044677734375, -0.0071563720703125, -0.01904296875, 0.012969970703125], [-0.016265869140625, -0.0142669677734375, 0.02093505859375, 0.0218505859375, 0.003753662109375, 0.0068359375, -0.004119873046875, 0.013397216796875, -0.010528564453125, -0.0234375, 0.010528564453125, -0.023651123046875, 0.01995849609375, -0.0247344970703125, 0.016815185546875, 0.0001678466796875, 0.0238037109375, -0.01502227783203125, 0.01898193359375, -0.013397216796875, 0.0179443359375, 0.022186279296875, 0.0078125, 0.0146484375, 0.01263427734375, 0.02667236328125, -0.0044403076171875, -0.02484130859375, -0.0174560546875, -0.0063934326171875, -0.0057525634765625, 0.011871337890625, -0.005645751953125, -0.020233154296875, -0.0250091552734375, -0.022735595703125, -0.01491546630859375, -0.014373779296875, -0.0251617431640625, -0.0269622802734375, -0.0016326904296875, -0.00482177734375, 0.021636962890625, 0.01025390625, -0.01296234130859375, 0.019378662109375, -0.011932373046875, -0.01123046875, -0.005584716796875, -0.0244598388671875, -0.0121002197265625, 0.00152587890625, -0.021484375, -0.00482177734375, -0.00970458984375, 0.02130126953125, -0.00201416015625, 0.0062255859375, 0.009765625, 0.020660400390625, 0.004119873046875, -0.007049560546875, 0.02252197265625, 0.00640869140625], [0.027069091796875, 0.014801025390625, -0.027069091796875, 0.010589599609375, -0.0035247802734375, 0.01220703125, 0.0238037109375, -0.0048828125, 0.011871337890625, 0.01513671875, 0.005859375, -0.027069091796875, -0.01019287109375, -0.024139404296875, -0.02386474609375, -0.01513671875, 0.018829345703125, 0.01812744140625, 0.010955810546875, -0.02728271484375, -0.015838623046875, 0.015625, 0.02734375, 0.025665283203125, -0.022674560546875, 0.000213623046875, -0.0094451904296875, -0.017730712890625, -0.0186614990234375, 0.018829345703125, 0.01116943359375, 0.02349853515625, 0.009124755859375, -0.0147552490234375, 0.025177001953125, 0.015289306640625, 0.025115966796875, 0.017242431640625, -0.0020599365234375, 0.00628662109375, -0.012420654296875, -0.01540374755859375, -0.01556396484375, 0.025177001953125, 0.027130126953125, 0.01507568359375, -0.0269622802734375, 0.015289306640625, -0.023162841796875, 0.02716064453125, 0.011322021484375, 0.02001953125, -0.0009765625, 0.015411376953125, 0.020782470703125, -0.00823974609375, 0.017913818359375, 0.02734375, 0.017242431640625, 0.02093505859375, 0.026153564453125, -0.0242462158203125, -0.0077056884765625, 0.02288818359375], [0.00982666015625, 0.021636962890625, 0.01416015625, -0.0011444091796875, 0.010894775390625, -0.0234375, -0.0037384033203125, 0.01519775390625, -0.020721435546875, 0.015716552734375, 0.018157958984375, 0.015899658203125, -0.007110595703125, 0.008514404296875, 0.00628662109375, 0.012298583984375, 0.0033111572265625, -0.0205535888671875, -0.02093505859375, 0.011810302734375, 0.0205078125, 0.01611328125, -0.011505126953125, 0.02154541015625, 0.013275146484375, 0.0005950927734375, -0.0040130615234375, 0.0059814453125, 0.0023345947265625, -0.0022735595703125, 0.02392578125, 0.019195556640625, 0.01947021484375, 0.01617431640625, -0.0254364013671875, 0.012969970703125, -0.0077056884765625, -0.0013580322265625, 0.024078369140625, -0.0030975341796875, 0.020294189453125, 0.0022735595703125, 0.01995849609375, 0.00537109375, 0.019744873046875, 0.0069580078125, 0.00482177734375, -0.020233154296875, 0.01080322265625, 0.0040283203125, -0.0061798095703125, 0.017364501953125, -0.0271759033203125, -0.0252685546875, 0.019744873046875, -0.02587890625, -0.00048828125, -0.0154571533203125, -0.0130157470703125, 0.01910400390625, -0.01123046875, 0.00244140625, 0.013763427734375, -0.004669189453125], [-0.019805908203125, -0.00823974609375, 0.0086669921875, -0.0266265869140625, 0.0107421875, 0.0050048828125, 0.02484130859375, -0.01617431640625, 0.026641845703125, -0.00830078125, -0.00677490234375, -0.02728271484375, -0.0241851806640625, 0.013519287109375, 0.01324462890625, 0.012298583984375, -0.01296234130859375, -0.02734375, -0.0220794677734375, 0.01318359375, 0.0086669921875, -0.010406494140625, -0.024078369140625, 0.010955810546875, -0.0252685546875, -0.013397216796875, 0.009857177734375, 0.00103759765625, -0.009002685546875, -0.01312255859375, -0.0261383056640625, -0.00677490234375, 0.0018463134765625, 0.0068359375, 0.00152587890625, -0.0022735595703125, -0.0056915283203125, 0.02520751953125, -0.010406494140625, -0.021270751953125, 0.004730224609375, 0.0126953125, -0.010528564453125, 0.011077880859375, -0.0269622802734375, 0.0023345947265625, 0.022552490234375, 0.0035400390625, 0.0059814453125, -0.01551055908203125, 0.023529052734375, -0.0264129638671875, -0.003204345703125, -0.0159454345703125, -0.005859375, -0.011871337890625, -0.0252227783203125, 0.008636474609375, -0.0084686279296875, 0.0155029296875, -0.023162841796875, -0.0078125, -0.016876220703125, -0.023162841796875], [0.003753662109375, -0.0174102783203125, -0.01323699951171875, -0.01171875, 0.02484130859375, 0.025543212890625, -0.00390625, -0.0063934326171875, -0.019805908203125, -0.006622314453125, -0.0088958740234375, -0.0234832763671875, 0.011077880859375, 0.007110595703125, -0.018768310546875, 0.011566162109375, 0.014434814453125, -0.0087890625, -0.0047149658203125, -0.0277099609375, -0.0196380615234375, -0.004180908203125, -0.015350341796875, -0.0108489990234375, -0.0042266845703125, -0.00201416015625, -0.0117645263671875, -0.0040740966796875, 0.011566162109375, 0.0048828125, -0.0021209716796875, -0.0101470947265625, -0.0257568359375, 0.0184326171875, -0.01263427734375, 0.018707275390625, 0.00830078125, 0.02325439453125, 0.014923095703125, 0.017303466796875, -0.0040130615234375, -0.0229949951171875, 0.0140380859375, 0.00445556640625, 0.00384521484375, -0.0210418701171875, -0.0012969970703125, 0.003570556640625, 0.00439453125, -0.018341064453125, 0.008636474609375, -0.0266265869140625, -0.003692626953125, -0.00299072265625, 0.00384521484375, 0.006011962890625, -0.015350341796875, -0.0234832763671875, -0.006561279296875, -0.0081939697265625, -0.003692626953125, 0.0069580078125, 0.02423095703125, 0.012420654296875], [-0.020660400390625, 0.02178955078125, 0.0006561279296875, -0.0264739990234375, 0.01513671875, -0.01334381103515625, -0.024566650390625, 0.016387939453125, 0.023529052734375, 0.02691650390625, -0.00970458984375, -0.01763916015625, 0.018280029296875, -0.016754150390625, -0.01529693603515625, 0.004730224609375, -0.0235443115234375, -0.02386474609375, -0.00140380859375, -0.0252685546875, 0.0159912109375, 0.02276611328125, 0.016937255859375, 0.018402099609375, 0.0028228759765625, -0.00341796875, -0.0106353759765625, -0.0252685546875, -0.01611328125, -0.0105743408203125, -0.0198516845703125, -0.02392578125, 0.022735595703125, 0.011444091796875, 0.020660400390625, 0.018768310546875, 0.01617431640625, 0.01995849609375, 0.005096435546875, -0.013671875, -0.019744873046875, 0.016815185546875, 0.021148681640625, 0.008575439453125, 0.022064208984375, 0.01312255859375, 0.0017852783203125, 0.00823974609375, -0.026519775390625, -0.006561279296875, 0.018707275390625, 0.014739990234375, 0.0150146484375, -0.017578125, -0.027496337890625, -0.008087158203125, 0.006561279296875, -0.0112762451171875, 0.02386474609375, -0.0240325927734375, 0.0242919921875, -0.0266876220703125, -0.0068817138671875, 0.0125732421875], [0.010101318359375, -0.0257110595703125, -0.00103759765625, -0.01617431640625, -0.02679443359375, -0.0052642822265625, 0.01263427734375, 0.008575439453125, -0.0244598388671875, 0.0011444091796875, 0.012420654296875, -0.020172119140625, -0.020782470703125, -0.0018463134765625, 0.005645751953125, -0.01432037353515625, -0.006561279296875, 0.026153564453125, -0.01318359375, 0.0125732421875, 0.00738525390625, 0.02593994140625, -0.0276641845703125, -0.0037384033203125, -0.0083465576171875, 0.018218994140625, -0.0261993408203125, 0.02764892578125, 0.02154541015625, -0.017730712890625, -0.0185546875, -0.0272216796875, -0.001739501953125, 0.009857177734375, 0.017730712890625, 0.0052490234375, 0.008148193359375, 0.018768310546875, 0.01080322265625, 0.0223388671875, 0.008453369140625, 0.014434814453125, -0.02093505859375, -0.0069427490234375, -0.0235443115234375, 0.01025390625, 0.01019287109375, -0.012908935546875, 0.012908935546875, -0.015899658203125, -0.021697998046875, 0.026458740234375, -0.0205078125, 0.026458740234375, 0.016693115234375, 0.02386474609375, -0.01165771484375, -0.0045013427734375, 0.026092529296875, -0.021759033203125, 0.025665283203125, 0.02227783203125, -0.0154571533203125, -0.0179443359375], [0.015411376953125, -0.0271759033203125, -0.026519775390625, 0.01507568359375, 0.014251708984375, 0.00146484375, 0.023712158203125, -0.0257110595703125, 0.01959228515625, -0.0001068115234375, 0.01275634765625, 0.009613037109375, -0.00335693359375, -0.024139404296875, 0.02386474609375, 0.001739501953125, -0.01702880859375, -0.0240325927734375, 0.01898193359375, -0.0166015625, -0.0206146240234375, 0.000274658203125, -0.015899658203125, -0.0073699951171875, 0.00927734375, -0.0110626220703125, 0.014923095703125, 0.02239990234375, 0.02423095703125, -0.0263671875, 0.0012969970703125, -0.027069091796875, 0.01763916015625, 0.02386474609375, -0.0189208984375, -0.0220794677734375, -0.021209716796875, 0.020294189453125, 0.001678466796875, 0.02667236328125, -0.005096435546875, -0.0238037109375, 0.026580810546875, -0.0125274658203125, 0.000213623046875, 0.02630615234375, -0.0215911865234375, 0.02105712890625, -0.02532958984375, -0.01666259765625, 0.009063720703125, 0.0064697265625, 0.01019287109375, -0.0188751220703125, 0.020660400390625, -0.004669189453125, -0.00439453125, -0.01519012451171875, 0.015899658203125, 0.00628662109375, 0.0022735595703125, -0.01654052734375, 0.01123046875, 0.013519287109375], [0.014923095703125, -0.0130157470703125, 0.0020599365234375, -0.0040130615234375, -0.025390625, -0.016754150390625, 0.02227783203125, -0.0230560302734375, -0.0037384033203125, 0.017669677734375, 0.022674560546875, 0.02276611328125, -0.0037994384765625, 0.015289306640625, 0.0224609375, 0.00201416015625, 0.017364501953125, -0.0020599365234375, -0.0193634033203125, 0.023040771484375, -0.0005950927734375, -0.02191162109375, 0.025604248046875, -0.0266265869140625, -0.01220703125, -0.01318359375, -0.01502227783203125, -0.018829345703125, -0.0018463134765625, -0.00433349609375, 0.01129150390625, -0.023162841796875, 0.016693115234375, 0.0054931640625, -0.0259857177734375, -0.00628662109375, -0.00970458984375, -0.00634765625, 0.00823974609375, -0.010040283203125, 0.0242919921875, -0.00482177734375, 0.01116943359375, 0.014251708984375, -0.0247344970703125, -0.0251617431640625, -0.01458740234375, 0.00482177734375, -0.003204345703125, 0.009552001953125, -0.010528564453125, -0.01236724853515625, 0.0159912109375, -0.0045623779296875, -0.0230560302734375, -0.0276031494140625, 0.0081787109375, -0.0157318115234375, -0.01849365234375, 0.017242431640625, 0.00830078125, 0.006622314453125, 0.02728271484375, -0.020721435546875]], [[0.0045166015625, 0.026153564453125, 0.01806640625, 0.021484375, 0.017303466796875, 0.020721435546875, -0.026092529296875, -0.0005950927734375, 0.021575927734375, -0.01491546630859375, 0.003570556640625, 0.0096435546875, -0.01404571533203125, 0.01568603515625, -0.0174560546875, 0.00970458984375, -0.0238037109375, 0.003692626953125, 0.00341796875, -0.00091552734375, -0.0045623779296875, 0.0087890625, -0.017364501953125, -0.02044677734375, 0.01171875, -0.0078582763671875, 0.008514404296875, 0.017303466796875, -0.004119873046875, -0.0273895263671875, 0.015350341796875, 0.01806640625, -0.0159912109375, 0.02001953125, 0.00927734375, -0.01383209228515625, -0.00390625, 0.00830078125, -0.01763916015625, -0.0008697509765625, 0.0068359375, -0.022613525390625, -0.010467529296875, -0.00628662109375, 0.0223388671875, -0.02484130859375, -0.003692626953125, -0.0016326904296875, -0.007110595703125, -0.0091705322265625, 0.02276611328125, -0.003204345703125, 0.0267333984375, 0.0155029296875, -0.011383056640625, -0.023651123046875, -0.01491546630859375, 0.025970458984375, 0.01568603515625, -0.0251617431640625, -0.004608154296875, -0.026580810546875, -0.000274658203125, 0.003631591796875], [-0.0147552490234375, 0.007659912109375, -0.00732421875, -0.02386474609375, 0.022186279296875, 0.00628662109375, -0.0272216796875, 0.027008056640625, -0.01995849609375, 0.02392578125, 0.01751708984375, -0.02679443359375, 0.018280029296875, -0.020721435546875, 0.018341064453125, -0.0213623046875, -0.0135040283203125, 0.013885498046875, 0.0252685546875, 0.003631591796875, -0.007049560546875, 0.013763427734375, -0.0259246826171875, -0.0169219970703125, -0.00830078125, 0.008636474609375, 0.0277099609375, -0.00054931640625, 0.00933837890625, -0.018341064453125, -0.01715087890625, 0.02252197265625, -0.00433349609375, -0.0086212158203125, -0.0215301513671875, -0.027008056640625, 0.025970458984375, 0.0244140625, -0.01383209228515625, 0.0263671875, 0.00543212890625, 0.011810302734375, -0.023223876953125, -0.02435302734375, -0.0106353759765625, 0.0247802734375, 0.027557373046875, 0.010101318359375, -0.0121002197265625, 0.0025482177734375, 0.00244140625, 0.020599365234375, 0.01812744140625, -0.018768310546875, -0.018280029296875, 0.013397216796875, -0.0029296875, 0.025543212890625, -0.0249481201171875, -0.0045623779296875, 0.01025390625, 0.012908935546875, -0.0067291259765625, 0.010040283203125], [0.02093505859375, -0.0220184326171875, -0.0042266845703125, -0.0269012451171875, 0.0025482177734375, 0.024200439453125, 0.0048828125, 0.02447509765625, -0.009979248046875, -0.01617431640625, 0.003631591796875, 0.017791748046875, 0.00152587890625, 0.012969970703125, 0.016387939453125, -0.00390625, 0.000213623046875, 0.02294921875, -0.0121002197265625, -0.0065155029296875, 0.01617431640625, 0.014251708984375, 0.02545166015625, 0.010528564453125, 0.009918212890625, -0.013885498046875, -0.01226043701171875, 0.02679443359375, -0.018218994140625, 0.010406494140625, 0.02294921875, 0.015625, 0.003204345703125, 0.001739501953125, -0.013885498046875, -0.0266265869140625, -0.01116943359375, -0.0003814697265625, 0.0001678466796875, 0.0135498046875, 0.010589599609375, 0.026458740234375, -0.0052642822265625, -0.01995849609375, -0.0188751220703125, -0.0244598388671875, -0.01171875, 0.02337646484375, -0.024627685546875, 0.0233154296875, 0.0120849609375, -0.0230560302734375, -0.0254364013671875, 0.006134033203125, 0.025970458984375, -0.0118255615234375, 0.003143310546875, -0.004119873046875, -0.011993408203125, -0.00579833984375, -0.0048828125, -0.0128021240234375, -0.0067291259765625, -0.0225067138671875], [-0.0008087158203125, -0.0121002197265625, -0.00677490234375, 0.010467529296875, 0.01470947265625, 0.016815185546875, -0.01432037353515625, -0.0267333984375, 0.01507568359375, 0.004119873046875, 0.015625, 0.015289306640625, -0.0056915283203125, 0.01812744140625, -0.0224609375, -0.01165771484375, 0.0081787109375, 0.019744873046875, 0.022125244140625, 0.022125244140625, -0.0050506591796875, 0.0037841796875, 0.00091552734375, -0.0049896240234375, 0.00885009765625, 0.0064697265625, -0.010894775390625, -0.021209716796875, -0.01702880859375, -0.0066680908203125, -0.0223388671875, -0.0095977783203125, 0.0032501220703125, -0.01666259765625, 0.01263427734375, 0.010040283203125, 0.015625, -0.0273895263671875, -0.01702880859375, -0.0050506591796875, 0.009979248046875, 0.02716064453125, -0.02777099609375, -0.017242431640625, 0.013671875, 0.016387939453125, 0.021484375, 0.024627685546875, 0.016754150390625, 0.003143310546875, -0.0087890625, -0.010894775390625, 0.010833740234375, 0.0106201171875, 0.003204345703125, 0.026641845703125, 0.00439453125, 0.02581787109375, 0.00091552734375, 0.004180908203125, 0.0028228759765625, 0.004730224609375, 0.017852783203125, 0.00634765625], [0.0145263671875, 0.02593994140625, 0.0011444091796875, 0.00823974609375, 0.007476806640625, -0.0088958740234375, 0.00885009765625, 0.017425537109375, -0.0264739990234375, 0.014801025390625, -0.0093841552734375, -0.0203857421875, 0.01763916015625, -0.0094451904296875, 0.00823974609375, -0.0200653076171875, -0.0098114013671875, 0.0076904296875, -0.02777099609375, 0.026031494140625, 0.0179443359375, -0.01551055908203125, -0.01453399658203125, -0.006561279296875, 0.0155029296875, -0.01551055908203125, -0.024078369140625, -0.021209716796875, -0.0254974365234375, 0.002716064453125, -0.01953125, 0.012908935546875, -0.024139404296875, -0.0086212158203125, 0.00445556640625, 0.027496337890625, -0.0191497802734375, 0.0164794921875, -0.000213623046875, 0.006622314453125, 0.0263671875, 0.023223876953125, 0.004119873046875, -0.022613525390625, -0.0074920654296875, 0.0238037109375, 0.006988525390625, 0.013458251953125, 0.006500244140625, 0.011932373046875, 0.017913818359375, -0.0016326904296875, -0.022613525390625, -0.0271759033203125, -0.027008056640625, -0.0249481201171875, 0.00091552734375, 0.00677490234375, -0.01068115234375, 0.020599365234375, -0.00335693359375, -0.004119873046875, 0.00640869140625, 0.00103759765625], [0.014984130859375, -0.0095977783203125, -0.0106353759765625, 0.021087646484375, 0.02105712890625, 0.024078369140625, -0.02728271484375, -0.0052032470703125, -0.0215911865234375, 0.014373779296875, 0.013397216796875, 0.009490966796875, 0.002655029296875, 0.02386474609375, 0.015411376953125, 0.014862060546875, -0.008514404296875, -0.0201263427734375, -0.007110595703125, -0.0078125, 0.0017852783203125, -0.001251220703125, 0.0198974609375, -0.00579833984375, 0.007049560546875, -0.017364501953125, 0.012847900390625, 0.02435302734375, -0.0229949951171875, 0.0135498046875, -0.0011444091796875, 0.014801025390625, 0.008087158203125, 0.0179443359375, 0.025482177734375, -0.0023345947265625, 0.025177001953125, -0.0264129638671875, -0.0229949951171875, -0.0045623779296875, 0.013336181640625, 0.01605224609375, -0.015625, -0.0266876220703125, 0.005218505859375, 0.02197265625, 0.006988525390625, -0.01947021484375, -0.018707275390625, 0.001739501953125, 0.001953125, 0.0087890625, 0.013275146484375, 0.015777587890625, 0.001251220703125, -0.0128021240234375, 0.017669677734375, -0.005157470703125, -0.0074920654296875, 0.018218994140625, -0.0229949951171875, 0.01409912109375, 0.010833740234375, 0.004608154296875], [0.0166015625, -0.00140380859375, -0.022613525390625, 0.02545166015625, 0.0021209716796875, -0.020172119140625, 0.00103759765625, -0.0037384033203125, 0.00299072265625, 0.00140380859375, 0.00640869140625, 0.02716064453125, -0.00726318359375, 0.004730224609375, -0.00201416015625, -0.0174102783203125, -0.0162200927734375, -0.01605224609375, -0.0266876220703125, -0.016754150390625, -0.0227813720703125, -0.008087158203125, -0.00634765625, -0.001251220703125, -0.026580810546875, 0.0111083984375, -0.011505126953125, 0.0072021484375, 0.018341064453125, -0.006622314453125, 0.0126953125, -0.0135040283203125, -0.0030364990234375, 0.0208740234375, -0.0048828125, 0.0015716552734375, -0.0247802734375, -0.01702880859375, 0.0067138671875, -0.0065155029296875, 0.01806640625, -0.01263427734375, -0.01611328125, -0.0234375, 0.02130126953125, 0.002655029296875, 0.01263427734375, 0.0021209716796875, 0.003631591796875, -0.025390625, 0.018341064453125, -0.020172119140625, 0.013397216796875, -0.0176849365234375, -0.00970458984375, 0.01409912109375, 0.00286865234375, 0.00189208984375, 0.010589599609375, -0.0074310302734375, -0.0010833740234375, 0.00152587890625, -0.01800537109375, 0.012542724609375], [-0.0218505859375, 0.02520751953125, -0.0118255615234375, -0.023162841796875, -0.018218994140625, 0.021697998046875, -0.01458740234375, 0.02001953125, -0.0254364013671875, -0.001190185546875, 0.015777587890625, 0.014739990234375, -0.00390625, 0.008636474609375, -0.0225677490234375, -0.00091552734375, -0.0100860595703125, 0.012420654296875, -0.00201416015625, 0.00543212890625, -0.0190887451171875, 0.027008056640625, -0.0266876220703125, -0.0176849365234375, -0.0054168701171875, -0.0021209716796875, 0.01312255859375, 0.0223388671875, -0.014862060546875, -0.016876220703125, 0.008148193359375, 0.02081298828125, -0.0102996826171875, -0.020660400390625, 0.00830078125, -0.00830078125, 0.026947021484375, 0.007537841796875, -0.011871337890625, 0.00836181640625, 0.00537109375, 0.02423095703125, -0.009552001953125, -0.010894775390625, 0.016326904296875, -0.0166015625, 0.0001068115234375, 0.00335693359375, 0.02349853515625, 0.020721435546875, 0.010955810546875, 0.017364501953125, 0.009368896484375, -0.003143310546875, 0.019378662109375, -0.019683837890625, 0.027435302734375, -0.02099609375, 0.0185546875, 0.006622314453125, -0.021209716796875, 0.0011444091796875, -0.016326904296875, 0.0184326171875], [-0.00830078125, 0.01458740234375, 0.003570556640625, 0.011810302734375, -0.005584716796875, -0.004180908203125, -0.0088958740234375, 0.01025390625, 0.026153564453125, 0.012542724609375, 0.011810302734375, 0.001190185546875, 0.015777587890625, 0.026031494140625, 0.002655029296875, 0.022064208984375, -0.0083465576171875, 0.011932373046875, -0.0220184326171875, -0.0139923095703125, -0.01861572265625, 0.0125732421875, -0.0027618408203125, -0.0142669677734375, -0.0218505859375, 0.011993408203125, -0.012420654296875, 0.018890380859375, -0.0035858154296875, -0.00726318359375, -0.005096435546875, 0.027496337890625, -0.017578125, 0.005645751953125, 0.0048828125, 0.026519775390625, 0.003631591796875, 0.002716064453125, -0.02044677734375, 0.00787353515625, 0.021484375, 0.011810302734375, 0.0247802734375, -0.0100860595703125, 0.0125732421875, 0.013946533203125, -0.00970458984375, -0.0128021240234375, 0.002166748046875, -0.01715087890625, 0.01123046875, 0.004547119140625, -0.01345062255859375, 0.02679443359375, 0.02325439453125, 0.023101806640625, 0.022186279296875, 6.103515625e-05, 0.00048828125, 0.01171875, -0.020172119140625, -0.01513671875, -0.023101806640625, -0.0246734619140625], [0.02197265625, 0.009063720703125, -0.006561279296875, -0.0084075927734375, 0.016693115234375, -0.0269012451171875, -0.0037384033203125, 0.02593994140625, 0.0086669921875, -0.015838623046875, 0.01165771484375, 0.016754150390625, 0.01129150390625, -0.0189208984375, 0.00335693359375, -0.003692626953125, -0.0040740966796875, -0.027496337890625, -0.019744873046875, -0.0169219970703125, 6.103515625e-05, -0.005645751953125, 0.0028228759765625, -0.023101806640625, 0.0272216796875, 0.01177978515625, -0.019744873046875, 0.0155029296875, -0.0162200927734375, 0.018402099609375, -0.01904296875, 0.02227783203125, -0.01171875, 0.008636474609375, -0.0065155029296875, 0.007537841796875, 0.02239990234375, 0.01751708984375, -0.0045623779296875, 0.018157958984375, 0.011566162109375, 0.00592041015625, 0.00726318359375, -0.015350341796875, -0.01763916015625, 0.02520751953125, 0.017669677734375, -0.009979248046875, -0.016754150390625, 0.013763427734375, -0.0084075927734375, -0.00677490234375, 0.00885009765625, -0.0269622802734375, 0.018157958984375, 0.008880615234375, 0.006683349609375, -0.0250091552734375, 0.00775146484375, -0.018218994140625, -0.0012969970703125, -0.0100860595703125, 0.016693115234375, -0.013671875], [0.027435302734375, -0.0254974365234375, -0.0229949951171875, 0.014923095703125, 0.019378662109375, -0.023651123046875, 0.008148193359375, -0.0249481201171875, -0.0088348388671875, 0.0106201171875, 0.01123046875, 0.0262451171875, -0.0056915283203125, -0.02197265625, -0.0025482177734375, 0.0233154296875, 0.0048828125, -0.021270751953125, -0.0044403076171875, 0.026580810546875, -0.021270751953125, -0.0256500244140625, 0.01763916015625, 0.016448974609375, 0.0005950927734375, -0.022247314453125, 0.008392333984375, 0.015289306640625, -0.0121002197265625, -0.008575439453125, -0.015350341796875, -0.0223388671875, -0.0070037841796875, 0.00836181640625, 0.01019287109375, 0.011322021484375, -0.013397216796875, -0.0257110595703125, -0.016876220703125, -0.01715087890625, 0.02618408203125, 0.020111083984375, -0.0259246826171875, 0.011322021484375, 0.0130615234375, -0.0242462158203125, -0.0205078125, -0.01372528076171875, -0.0186614990234375, 0.020111083984375, 0.009002685546875, 0.019805908203125, 0.011566162109375, 0.02239990234375, 0.02105712890625, -0.004119873046875, 0.0016326904296875, -0.0181732177734375, -0.0045013427734375, 0.02374267578125, 0.02056884765625, -0.0271759033203125, -0.0088958740234375, -0.0200653076171875], [-0.0262451171875, 0.00439453125, 0.019195556640625, -0.0116119384765625, -0.00042724609375, 0.023590087890625, -0.015777587890625, -0.0130157470703125, -0.019683837890625, 0.0120849609375, -0.00677490234375, -0.0257568359375, -0.010040283203125, -0.0120391845703125, 0.01165771484375, -0.0079803466796875, -0.0184326171875, 0.02435302734375, -0.00347900390625, 0.01953125, -0.015777587890625, -0.02197265625, -0.022613525390625, -0.0027618408203125, -0.00531005859375, 0.01763916015625, -0.0110626220703125, -0.0072174072265625, 0.0068359375, -0.0040130615234375, 0.008087158203125, 0.005645751953125, -0.0028228759765625, -0.01540374755859375, -0.0254364013671875, 0.01666259765625, -0.0078582763671875, 0.0164794921875, -0.02734375, 0.00042724609375, 0.027435302734375, 0.013458251953125, -0.0174102783203125, -0.01165771484375, -0.0169219970703125, 0.02484130859375, 0.022552490234375, -0.012908935546875, 0.009490966796875, -0.0047760009765625, 0.005645751953125, 0.012542724609375, -0.0102996826171875, 0.0086669921875, -0.008575439453125, -0.01861572265625, 0.00396728515625, 0.0145263671875, -0.01393890380859375, 0.0, -0.020172119140625, -0.0081939697265625, -0.0272216796875, -0.0010833740234375], [-0.01236724853515625, 0.005157470703125, -0.01556396484375, 0.01177978515625, 0.00885009765625, 0.00677490234375, -0.022186279296875, -0.01220703125, -0.0030975341796875, 0.003692626953125, -0.02679443359375, -0.0023345947265625, -0.026519775390625, 0.0242919921875, -0.0271759033203125, -0.0211029052734375, -0.02734375, 0.016265869140625, -0.004180908203125, 0.027496337890625, -0.0142669677734375, 0.0037841796875, -0.02435302734375, 0.017303466796875, -0.01171875, 0.009979248046875, -0.0233154296875, 0.00238037109375, 0.01409912109375, 0.010894775390625, -0.020172119140625, 0.025482177734375, -0.0091094970703125, 0.00439453125, 0.01702880859375, -0.0142669677734375, 0.00054931640625, -0.0001068115234375, -0.0067291259765625, 0.0228271484375, -0.000274658203125, -0.008087158203125, -0.017242431640625, 0.0, -0.0128021240234375, 0.02484130859375, 0.0020599365234375, 0.0164794921875, 0.01361083984375, 0.000701904296875, -0.0264739990234375, -0.00286865234375, 0.0228271484375, -0.0105743408203125, 0.02545166015625, 0.002227783203125, -0.013885498046875, -0.02435302734375, 0.02239990234375, 0.006561279296875, -0.00537109375, -0.01953125, 0.006072998046875, 0.023590087890625], [0.0267333984375, -0.00347900390625, -0.008575439453125, -0.018341064453125, 0.02294921875, -0.024566650390625, -0.011016845703125, -0.02630615234375, -0.0061798095703125, -0.0093841552734375, 0.013519287109375, -0.01285552978515625, 0.01470947265625, 0.00341796875, 0.016204833984375, -0.01898193359375, 0.021697998046875, -0.019317626953125, 0.012054443359375, -0.01953125, 0.006134033203125, 0.019134521484375, -0.017578125, -0.0240325927734375, -0.0022735595703125, -0.01312255859375, 0.00970458984375, 0.01947021484375, 0.026153564453125, 0.022125244140625, 0.02398681640625, -0.024078369140625, 0.0184326171875, -0.0247344970703125, 0.009765625, 0.021697998046875, 0.01416015625, 0.00579833984375, -0.026031494140625, 0.01080322265625, 0.004730224609375, 0.0029296875, -6.103515625e-05, 0.0081787109375, 0.011383056640625, -0.0213165283203125, -0.01355743408203125, 0.02545166015625, 0.02490234375, -0.01372528076171875, -0.0266265869140625, 0.00592041015625, 0.018829345703125, -0.0147552490234375, -0.0010833740234375, -0.01551055908203125, -0.0176849365234375, 0.016754150390625, 0.00836181640625, 0.02337646484375, -0.01470184326171875, 0.005157470703125, -0.021697998046875, 0.00933837890625], [0.014984130859375, -0.0103607177734375, -0.008087158203125, 0.0062255859375, -0.01421356201171875, -0.0026092529296875, 0.02288818359375, 0.019866943359375, 0.006988525390625, -0.0088958740234375, -0.0088958740234375, -0.0234375, -0.02435302734375, 0.020599365234375, -0.02777099609375, -0.01491546630859375, -0.022613525390625, 0.025970458984375, -0.01312255859375, -0.0078582763671875, -0.0099334716796875, -0.0230560302734375, -0.0232696533203125, -0.0132904052734375, -0.025390625, 0.004547119140625, -0.02734375, -0.0211029052734375, -0.001739501953125, 0.0011444091796875, -0.01491546630859375, -0.022247314453125, 0.00433349609375, 0.013458251953125, 0.001739501953125, 0.026580810546875, 0.020782470703125, -0.024627685546875, -0.004119873046875, -0.00286865234375, -0.01019287109375, 0.01129150390625, -0.018829345703125, -0.0152435302734375, 0.004669189453125, -0.00439453125, 0.02630615234375, -0.0166015625, 0.00054931640625, -0.0188751220703125, 0.00054931640625, 0.00091552734375, 0.01806640625, 0.0224609375, 0.0059814453125, -0.0040130615234375, 0.0140380859375, 0.006195068359375, 0.02325439453125, -0.001190185546875, -0.0274505615234375, -0.0261993408203125, -0.00091552734375, 0.020233154296875], [-0.0154571533203125, -0.0003204345703125, -0.0200653076171875, 0.0008087158203125, -0.0190887451171875, 0.006500244140625, 0.0262451171875, -0.0098724365234375, -0.0235443115234375, 0.0047607421875, -0.0032501220703125, 0.007415771484375, 0.012786865234375, 0.011993408203125, -0.0030364990234375, 0.0037841796875, -0.011444091796875, 0.001190185546875, -0.027069091796875, 0.007476806640625, 0.026031494140625, -0.020233154296875, -0.0068359375, 0.01763916015625, 0.00494384765625, 0.00677490234375, -0.0225677490234375, 0.0262451171875, -0.019683837890625, 0.012359619140625, 0.026092529296875, -0.00152587890625, -0.025543212890625, 0.0006561279296875, -0.0094451904296875, -0.014373779296875, 0.015472412109375, -0.01953125, -0.0237579345703125, 0.0155029296875, -0.02093505859375, -0.0005950927734375, 0.02716064453125, -0.02685546875, 0.02294921875, -0.02001953125, 0.02471923828125, 0.012908935546875, 0.00189208984375, -0.019683837890625, -0.027496337890625, -0.0037994384765625, 0.00634765625, -0.0120391845703125, -0.0064544677734375, 0.021759033203125, 0.025177001953125, 0.02294921875, -0.0095977783203125, -0.02093505859375, 0.014801025390625, -0.01702880859375, 0.020782470703125, 0.019622802734375], [-0.0223388671875, 0.0244140625, -0.0045013427734375, 0.02191162109375, -0.01214599609375, -0.0084075927734375, 0.014984130859375, -0.001678466796875, -0.019744873046875, -0.01318359375, -0.0006561279296875, -0.0081329345703125, 0.0023345947265625, -0.0110626220703125, 0.014495849609375, 0.011871337890625, 0.00146484375, -0.007049560546875, 0.001739501953125, -0.002227783203125, 0.006988525390625, -0.01605224609375, 0.02496337890625, -0.023223876953125, 0.01617431640625, -0.0003204345703125, -0.0242919921875, 0.02545166015625, -0.0049285888671875, -0.0269622802734375, -0.007537841796875, 0.016448974609375, -0.0088348388671875, 0.021484375, 0.02685546875, 0.026519775390625, 0.01214599609375, -0.020233154296875, 0.0146484375, 0.0125732421875, -0.0008697509765625, -0.0162200927734375, 0.01422119140625, 0.023712158203125, -0.01274871826171875, 0.022247314453125, 0.01458740234375, -0.00732421875, -0.0081329345703125, -0.00482177734375, -0.020721435546875, -0.0091094970703125, -0.0093231201171875, -0.0052032470703125, 0.01324462890625, 0.023040771484375, -0.003631591796875, 0.0140380859375, -0.0044403076171875, 0.008514404296875, -0.0047149658203125, -0.0200653076171875, -0.0047149658203125, 0.0185546875], [-0.010955810546875, 0.01910400390625, -0.0276031494140625, -0.0157318115234375, -0.01806640625, 0.0267333984375, -0.0123138427734375, 0.011505126953125, 0.02093505859375, -0.011932373046875, 0.00775146484375, 0.00238037109375, 0.0234375, 0.0033111572265625, -0.01025390625, -0.001739501953125, -0.01068115234375, 0.009490966796875, 0.013031005859375, 0.006622314453125, 0.01263427734375, 0.0244140625, -0.0254974365234375, 0.01171875, -0.003692626953125, 0.005523681640625, 0.0067138671875, -0.0037384033203125, 0.004608154296875, 0.00396728515625, -0.0069427490234375, 0.005859375, -0.0264739990234375, -0.0159454345703125, -0.0005950927734375, 0.02728271484375, 0.005706787109375, 0.0022735595703125, -0.0079193115234375, -0.0039520263671875, 0.00531005859375, 0.0238037109375, -0.0042266845703125, -0.015625, 0.026458740234375, 0.0244140625, -0.0076446533203125, -0.02587890625, 0.016815185546875, -0.026031494140625, 0.0107421875, 0.017181396484375, 0.014923095703125, 0.008148193359375, -0.0027618408203125, -0.01258087158203125, 0.026153564453125, 0.000762939453125, -0.0049285888671875, 0.004730224609375, -0.019744873046875, -0.0032501220703125, -0.0198974609375, 0.00048828125], [0.0016326904296875, -0.01355743408203125, -0.01323699951171875, -0.0230560302734375, -0.007598876953125, -0.0240325927734375, 0.02105712890625, -0.0047149658203125, -0.0017852783203125, -0.0252685546875, 0.020782470703125, 0.02325439453125, 0.024627685546875, -0.005584716796875, -0.00531005859375, -0.0020599365234375, -0.01393890380859375, -0.00634765625, 0.0020599365234375, 0.002227783203125, -0.019317626953125, -0.026519775390625, -0.021636962890625, 0.02734375, 0.02197265625, -0.01274871826171875, -0.02630615234375, 0.01568603515625, -0.0171966552734375, 0.0267333984375, 0.00439453125, 0.001953125, -0.01220703125, 0.016754150390625, 0.009429931640625, -0.0269622802734375, -0.0061798095703125, -0.0152435302734375, 0.015716552734375, -0.0001678466796875, 0.0166015625, 0.017425537109375, 0.0022735595703125, -0.01214599609375, 0.0234375, 0.02667236328125, 0.020782470703125, 0.01654052734375, -0.0247802734375, 0.025390625, 6.103515625e-05, -0.0223388671875, 0.018280029296875, -0.00823974609375, -0.0144805908203125, 0.003753662109375, -0.0071563720703125, -0.0220184326171875, -0.006622314453125, -0.0073699951171875, 0.00445556640625, -0.01323699951171875, -0.0044403076171875, -0.02728271484375], [-0.013397216796875, -0.00341796875, -0.019195556640625, 0.01904296875, -0.02294921875, -0.0228271484375, 0.016387939453125, 0.00494384765625, -0.0084686279296875, -0.0174102783203125, -0.0215911865234375, -0.00732421875, 0.0263671875, -0.0252685546875, 0.00787353515625, -0.0273895263671875, 0.027130126953125, 0.0045166015625, -0.0271759033203125, -0.024139404296875, 0.019866943359375, 0.0072021484375, 0.00823974609375, 0.0106201171875, -0.0132904052734375, 0.011077880859375, -0.0142669677734375, 0.0238037109375, 0.019378662109375, 0.025482177734375, 0.0155029296875, 0.017852783203125, 0.01129150390625, 0.0003204345703125, 0.02447509765625, 0.009613037109375, 0.01947021484375, 0.003631591796875, -0.01345062255859375, -0.015899658203125, 0.013397216796875, 0.00396728515625, 0.0078125, 0.01605224609375, 0.01019287109375, -0.005859375, 0.02685546875, 0.006561279296875, -0.0079193115234375, 0.0062255859375, 0.02252197265625, 0.013458251953125, 0.01409912109375, 0.020172119140625, -0.02337646484375, -0.010955810546875, -0.01551055908203125, -0.02630615234375, 0.02496337890625, -0.0107421875, 0.006011962890625, -0.0198516845703125, 0.020660400390625, 0.024993896484375], [-0.0193634033203125, -0.01258087158203125, 0.0022735595703125, -0.0003204345703125, -0.0072174072265625, 0.02252197265625, -0.0273895263671875, 0.02093505859375, -0.0218505859375, 0.02374267578125, 0.02490234375, 0.0003204345703125, -0.0130157470703125, -0.0244598388671875, -0.023162841796875, 0.025177001953125, 0.024627685546875, 0.009857177734375, -0.0225677490234375, 0.02056884765625, -0.01708984375, 0.02587890625, 0.02337646484375, -0.0215301513671875, 0.00634765625, -0.01861572265625, -0.0166015625, 0.004547119140625, 0.02001953125, -0.02490234375, -0.0064544677734375, -0.0088348388671875, -0.027008056640625, -0.0035858154296875, -0.011505126953125, 0.000274658203125, -0.0220794677734375, 0.021270751953125, -0.0047149658203125, 0.024627685546875, -0.005157470703125, -0.023162841796875, 0.006134033203125, 0.02581787109375, -0.00250244140625, -0.02392578125, 0.0030975341796875, -0.0052032470703125, 0.000274658203125, -0.009490966796875, 0.0012969970703125, -0.024078369140625, -0.020660400390625, 0.019378662109375, -0.0198974609375, 0.023529052734375, 0.009429931640625, -0.0169219970703125, -0.0087890625, 0.00146484375, 0.0174560546875, 0.025390625, 0.009552001953125, 0.01214599609375], [0.008941650390625, 0.024200439453125, -0.01068115234375, 0.01324462890625, 0.0025482177734375, 0.024993896484375, 0.024627685546875, 0.01025390625, -0.02142333984375, 0.0047607421875, -0.0048828125, 0.00579833984375, -0.0235443115234375, 0.0021209716796875, -0.0164794921875, -0.0025482177734375, -0.00091552734375, 0.0054931640625, 0.004669189453125, 0.017181396484375, -0.0186614990234375, 0.021484375, -0.0070037841796875, -0.0220184326171875, -0.0232696533203125, -0.0244598388671875, 0.01910400390625, -0.0276641845703125, 0.00091552734375, -0.0115509033203125, -0.02239990234375, 0.012542724609375, -0.0225067138671875, 0.009002685546875, -0.00189208984375, 0.01019287109375, -0.0022735595703125, 0.02294921875, 0.00482177734375, 0.009368896484375, -0.011505126953125, 0.0072021484375, 0.00238037109375, 0.01800537109375, -0.0086822509765625, 0.0015716552734375, -0.022186279296875, -0.0169219970703125, 0.0234375, 0.0091552734375, -0.0224609375, 0.02337646484375, 0.007965087890625, -0.0144805908203125, -0.007598876953125, -0.010467529296875, -0.027496337890625, 0.007049560546875, 0.02447509765625, 0.0023345947265625, 0.005035400390625, 0.021484375, 0.026580810546875, -0.011383056640625], [-0.022186279296875, 0.01220703125, 6.103515625e-05, -0.0039520263671875, 0.02728271484375, -0.005645751953125, 0.02734375, 0.008880615234375, 0.002655029296875, -0.0218048095703125, -0.0010833740234375, 0.002655029296875, 0.00286865234375, -0.0147552490234375, 0.02685546875, -0.007110595703125, 0.0067138671875, 0.007537841796875, -0.02197265625, -0.01861572265625, 0.0159912109375, -0.0164794921875, 0.000762939453125, 0.0018463134765625, -0.004669189453125, -0.022735595703125, 0.007049560546875, 0.0224609375, -0.0001068115234375, 0.00982666015625, 0.01220703125, -0.0015716552734375, 0.004241943359375, 0.024688720703125, -0.010894775390625, -0.013397216796875, -0.02044677734375, 0.025482177734375, 0.010955810546875, 0.00970458984375, -0.020782470703125, 0.02716064453125, 0.01416015625, -0.009765625, 0.01751708984375, 0.0012969970703125, -0.0128021240234375, -0.0066680908203125, 0.018218994140625, -0.024566650390625, -0.0108489990234375, -0.0076446533203125, -0.02734375, 0.00823974609375, 0.012420654296875, -0.016754150390625, 0.0111083984375, -0.02484130859375, 0.0047607421875, -0.015350341796875, -0.00537109375, -0.00286865234375, 0.0244140625, -0.0244598388671875], [-0.01904296875, 0.00531005859375, -0.0169677734375, -0.0068817138671875, -0.01898193359375, -0.01355743408203125, -0.0091094970703125, -0.0009765625, -0.0120391845703125, 0.011566162109375, -0.002655029296875, 0.002655029296875, 0.018402099609375, 0.014801025390625, 0.02099609375, 0.024017333984375, 0.00537109375, 0.01025390625, 0.02197265625, 0.0068359375, 0.023101806640625, -0.022247314453125, -0.00634765625, -0.0054779052734375, 0.027069091796875, 0.019195556640625, -0.01491546630859375, 0.0033111572265625, -0.01812744140625, 0.022613525390625, -0.0193634033203125, -0.00927734375, 0.01263427734375, 0.00201416015625, -0.00439453125, 0.0018463134765625, -0.012908935546875, 0.008392333984375, 0.014251708984375, 0.016937255859375, 0.027069091796875, 0.021484375, -0.0068359375, 0.026153564453125, 0.022613525390625, 0.00091552734375, -0.014373779296875, 0.018890380859375, 0.027618408203125, -0.009765625, -0.011505126953125, 0.0205078125, 0.017303466796875, 0.02386474609375, 0.01702880859375, -0.000274658203125, 0.02423095703125, -0.0050506591796875, -0.020782470703125, 0.0203857421875, -0.0254974365234375, -0.0269622802734375, 0.017913818359375, 0.021209716796875], [-0.0040740966796875, -0.0094451904296875, -0.027496337890625, -0.0012969970703125, -0.01763916015625, 0.02716064453125, 0.02337646484375, -0.01285552978515625, -0.0057525634765625, 0.0028228759765625, -0.022247314453125, -0.02294921875, -0.0083465576171875, 0.022735595703125, -0.0256500244140625, 0.010345458984375, -0.010528564453125, -0.017730712890625, -0.00286865234375, 0.0050048828125, -0.0178985595703125, 0.0107421875, 0.023590087890625, -0.020172119140625, 0.00921630859375, 0.007110595703125, 0.007537841796875, 0.01177978515625, -0.01502227783203125, -0.01654052734375, 0.0198974609375, -0.00390625, -0.02685546875, -0.0074920654296875, 0.001953125, 0.017669677734375, -0.020782470703125, 0.0054931640625, -0.0098114013671875, -0.0251617431640625, -0.0052032470703125, -0.01453399658203125, -0.0126953125, 0.018157958984375, 0.0145263671875, -0.00921630859375, -0.023101806640625, 0.0029296875, 0.009918212890625, 0.014923095703125, -0.00103759765625, -0.0137786865234375, 0.01947021484375, 0.027130126953125, 0.00146484375, 0.0203857421875, -0.0224609375, 0.018157958984375, 0.018218994140625, -0.01383209228515625, -0.0277099609375, 0.0166015625, 0.0015716552734375, 0.019195556640625], [-0.027069091796875, -0.0045013427734375, 0.0198974609375, 0.009613037109375, -0.0205078125, -0.016265869140625, -0.0049285888671875, 0.02337646484375, 0.02142333984375, 0.003143310546875, 0.02716064453125, 0.013824462890625, -0.0008697509765625, 0.022552490234375, -0.022125244140625, 0.00140380859375, 0.01068115234375, 0.01715087890625, -0.017303466796875, -0.012908935546875, 0.009979248046875, -0.0194091796875, 0.020721435546875, 0.00579833984375, -0.004180908203125, -0.01442718505859375, -0.023590087890625, -0.0174560546875, 0.026031494140625, 0.024200439453125, -0.006561279296875, 0.020111083984375, -0.02734375, -0.011871337890625, -0.017578125, -0.0101470947265625, 0.018402099609375, -0.0220184326171875, 0.004608154296875, -0.0040130615234375, 0.00933837890625, 0.003631591796875, -0.01519012451171875, 0.02520751953125, 0.0059814453125, 0.00628662109375, -0.01285552978515625, -0.004608154296875, 0.016448974609375, 0.0018463134765625, -0.0164794921875, 0.009368896484375, 0.00830078125, 0.016204833984375, 0.01165771484375, 0.00048828125, 0.012298583984375, -0.0269622802734375, 0.02532958984375, -0.0039520263671875, -0.0086212158203125, 0.0263671875, 0.0016326904296875, -0.0250091552734375], [0.021697998046875, -0.024139404296875, 0.0015716552734375, -0.0225677490234375, 0.022064208984375, 0.00885009765625, 0.007904052734375, 0.0022735595703125, -0.0049285888671875, -0.0166015625, 0.027435302734375, 0.026031494140625, -0.001678466796875, 0.02337646484375, 0.011505126953125, -0.005157470703125, -0.01220703125, 0.02581787109375, -0.021209716796875, 0.018890380859375, -0.02044677734375, 0.012359619140625, 0.02667236328125, 0.0205078125, -0.01220703125, 0.01995849609375, 0.0203857421875, -0.0194091796875, -0.0215911865234375, -0.0220184326171875, 0.0008697509765625, 0.0064697265625, 0.02203369140625, 0.006561279296875, -0.005859375, -0.0211029052734375, -0.0025482177734375, 0.005157470703125, 0.00872802734375, 0.01910400390625, 0.0037841796875, 0.0130615234375, 0.002166748046875, 0.00384521484375, -0.00439453125, -0.008514404296875, -0.02099609375, -0.023590087890625, -0.0008087158203125, -0.0118255615234375, 0.013397216796875, 0.02093505859375, 0.013671875, -0.01617431640625, 0.00152587890625, -0.01116943359375, 0.022247314453125, -0.01171875, -0.01556396484375, -0.0062408447265625, -0.002227783203125, 0.024078369140625, 0.014373779296875, 0.02392578125], [-0.016265869140625, -0.0152435302734375, 0.014984130859375, -0.019744873046875, -0.02392578125, 0.01812744140625, -0.000274658203125, 0.010101318359375, -0.0083465576171875, -0.00433349609375, 0.004730224609375, 0.017242431640625, 0.02001953125, 0.005157470703125, 0.01763916015625, 0.021636962890625, -0.0025482177734375, -0.014373779296875, -0.01258087158203125, 0.003143310546875, 0.006622314453125, 0.019805908203125, -0.005096435546875, -0.0010833740234375, -0.026031494140625, 0.009429931640625, 0.0145263671875, -0.007598876953125, -0.0018463134765625, -0.0252227783203125, 0.009765625, -0.00384521484375, 0.0159912109375, -0.014373779296875, -0.0042266845703125, -0.0044403076171875, 0.001739501953125, 0.024505615234375, 0.02471923828125, -0.0244140625, 0.00579833984375, 0.003631591796875, 0.006622314453125, -0.0271759033203125, 0.019378662109375, -0.0005950927734375, -0.0066680908203125, -0.00042724609375, -0.0218048095703125, 0.02593994140625, -0.01715087890625, 0.02252197265625, -0.00927734375, 0.010101318359375, 0.008148193359375, 0.024505615234375, -0.02142333984375, 0.00640869140625, 0.00482177734375, -0.008026123046875, -0.0039520263671875, 0.0106201171875, 0.018218994140625, 0.01416015625], [0.019866943359375, -0.00341796875, 0.02685546875, 0.00579833984375, -0.021209716796875, -0.01361083984375, 0.017364501953125, -0.0113372802734375, -0.008514404296875, 0.00592041015625, 0.00823974609375, 0.0252685546875, -0.01513671875, -0.00439453125, -0.0099334716796875, 0.019805908203125, 0.001251220703125, -0.023101806640625, -0.014862060546875, 0.016693115234375, -0.01812744140625, -0.00677490234375, 0.008514404296875, -0.01355743408203125, -0.0252227783203125, -0.0185546875, -0.001251220703125, -0.0054168701171875, -0.01904296875, -0.01806640625, -0.009002685546875, 0.003570556640625, -0.026031494140625, 0.024017333984375, -0.0252685546875, -0.017364501953125, -0.01345062255859375, -0.0179443359375, 0.00445556640625, 0.00439453125, -0.01470184326171875, 0.02325439453125, 0.018646240234375, 0.02630615234375, -0.00341796875, 0.02587890625, 0.01800537109375, -0.014373779296875, 0.00982666015625, -0.0099334716796875, 0.02764892578125, 0.0242919921875, 0.014251708984375, -0.0099334716796875, -0.0107879638671875, 0.00299072265625, 0.026092529296875, -0.01226043701171875, 0.0029296875, -0.02532958984375, -0.0026092529296875, 0.003204345703125, -0.0048828125, -0.01715087890625], [-0.0069427490234375, 0.026153564453125, 0.0052490234375, -0.018829345703125, 0.00152587890625, 0.0194091796875, -0.0249481201171875, -0.0066680908203125, 0.0030364990234375, 0.0020599365234375, -0.011871337890625, 0.023101806640625, -0.01800537109375, -0.0030364990234375, 0.012847900390625, -0.01453399658203125, 0.000213623046875, 0.02728271484375, -0.0276641845703125, -0.01800537109375, 0.0047607421875, 0.024688720703125, 0.00482177734375, 0.022186279296875, -0.0269012451171875, -0.0101470947265625, -0.0239715576171875, -0.01751708984375, 0.003753662109375, 0.00341796875, 0.00982666015625, -0.025390625, -0.017852783203125, -0.0132904052734375, -0.01214599609375, -0.01708984375, 0.017730712890625, 0.0052490234375, 0.022247314453125, 0.00579833984375, -0.010406494140625, -0.004180908203125, 0.00091552734375, 0.014495849609375, -0.0247802734375, -0.02734375, -0.00439453125, -0.02532958984375, -0.0233154296875, 0.02386474609375, -0.0008697509765625, 0.018890380859375, 0.018218994140625, 0.021697998046875, 0.01715087890625, -0.01605224609375, -0.021270751953125, -0.003143310546875, -0.0126953125, -0.0229949951171875, 0.006195068359375, 0.020233154296875, -0.0006561279296875, 0.006561279296875], [0.009063720703125, 0.0150146484375, 0.00787353515625, -0.021697998046875, 0.027130126953125, -0.011016845703125, 0.0003204345703125, -0.011993408203125, 0.02203369140625, -0.026580810546875, -0.015350341796875, -0.0144805908203125, 0.02203369140625, -0.0101470947265625, -0.02392578125, -0.0052032470703125, -0.022247314453125, 0.01751708984375, -0.0078125, -0.011993408203125, 0.02691650390625, -0.00921630859375, 0.004730224609375, 0.01751708984375, -0.0006561279296875, -0.00244140625, -0.0169677734375, 0.009857177734375, -0.010406494140625, 0.001190185546875, 0.009918212890625, -0.023651123046875, 0.0040283203125, -0.01708984375, 0.010467529296875, -0.00537109375, 0.014007568359375, 0.022125244140625, -0.027496337890625, 0.0078125, -0.0074920654296875, 0.012481689453125, -0.009765625, -0.026519775390625, 0.01116943359375, 0.02386474609375, 0.022735595703125, 0.018829345703125, 0.0179443359375, -0.0065155029296875, 0.009613037109375, -0.011383056640625, -0.0106353759765625, 0.015350341796875, 0.02423095703125, -0.0269012451171875, 0.014923095703125, -0.025604248046875, 0.0218505859375, -0.01263427734375, 0.0001678466796875, 0.026580810546875, 0.01220703125, -0.023651123046875], [0.01995849609375, 0.02337646484375, -0.017303466796875, -0.0099334716796875, -0.01605224609375, 0.015838623046875, -0.0196380615234375, 0.00726318359375, 0.010528564453125, 0.020233154296875, -0.0252227783203125, 0.0076904296875, 0.00933837890625, 0.016387939453125, -0.0234832763671875, 0.00885009765625, 0.027435302734375, -0.0113372802734375, 0.005706787109375, 0.018707275390625, -0.0250091552734375, 0.0030364990234375, -0.00054931640625, -0.023101806640625, 0.0106201171875, -0.01421356201171875, 0.0011444091796875, 0.023712158203125, 0.015960693359375, 0.01708984375, 0.005584716796875, 0.017242431640625, 0.006195068359375, 0.015960693359375, 0.021484375, -0.0225677490234375, 0.0040283203125, 0.011810302734375, 0.022552490234375, 0.024505615234375, -0.009063720703125, -0.01507568359375, 0.02227783203125, -0.0009765625, 0.021697998046875, 0.00726318359375, 0.02386474609375, -0.024566650390625, 0.0125732421875, -0.0049285888671875, 0.0026092529296875, -0.01763916015625, -0.0086212158203125, 0.0107421875, -0.02532958984375, 0.00836181640625, 0.02593994140625, 0.018707275390625, -0.011016845703125, 0.008148193359375, -0.0266876220703125, -0.0071563720703125, -0.0047149658203125, 0.006500244140625]], [[0.00537109375, 0.004119873046875, 0.0184326171875, 0.00982666015625, 0.001953125, -0.01409912109375, 0.023529052734375, 0.02398681640625, -0.0147552490234375, 0.009429931640625, 0.001190185546875, 0.0069580078125, -0.0074310302734375, -0.000701904296875, 0.0081787109375, 0.010101318359375, -0.0048828125, 0.0247802734375, -0.0242462158203125, 0.016387939453125, 0.00152587890625, 0.009979248046875, -0.017730712890625, 0.013458251953125, 0.01068115234375, 0.00592041015625, -0.0110626220703125, 0.000762939453125, -0.004608154296875, 0.011383056640625, 0.01129150390625, 0.00341796875, 0.027435302734375, 0.0135498046875, 0.0184326171875, 0.025665283203125, -0.003143310546875, 0.017578125, -0.027008056640625, 0.013885498046875, -0.0084686279296875, -0.0264739990234375, 0.02398681640625, -0.01334381103515625, -0.0013580322265625, -0.009552001953125, 0.00726318359375, -0.019805908203125, 0.0234375, 0.023590087890625, 0.025115966796875, 0.00299072265625, 0.01849365234375, 0.014984130859375, 0.024688720703125, -0.018218994140625, 0.00335693359375, -0.019256591796875, -0.0176849365234375, 0.0016326904296875, 0.005584716796875, 0.0059814453125, 0.0001068115234375, 0.0233154296875], [-0.025543212890625, 0.02490234375, -0.0237579345703125, -0.022613525390625, 0.013946533203125, -0.0261993408203125, -0.01513671875, -0.0093231201171875, 0.00042724609375, 0.027008056640625, -0.0107421875, -0.0068359375, -0.025054931640625, -0.01611328125, 0.02490234375, -0.013397216796875, 0.0001068115234375, -0.0198974609375, 0.023223876953125, 0.017364501953125, 0.014984130859375, -0.0179443359375, -0.0083465576171875, 0.0033111572265625, 0.004547119140625, -0.0045623779296875, 0.026641845703125, 0.009979248046875, 0.00579833984375, 0.00592041015625, 0.021087646484375, -0.0183868408203125, -0.0167083740234375, 0.006195068359375, -0.01323699951171875, -0.0262451171875, -0.025604248046875, -0.017730712890625, 0.02630615234375, -0.00244140625, -0.0003814697265625, 0.02398681640625, 0.002227783203125, 0.017425537109375, 0.025177001953125, -0.00531005859375, -0.01171875, -0.0186614990234375, 0.020599365234375, -0.00433349609375, 0.0001678466796875, 0.014801025390625, 0.026580810546875, -0.023712158203125, 0.012786865234375, -0.0059051513671875, 0.022735595703125, -0.0215301513671875, 0.015411376953125, -0.0169677734375, 0.01513671875, 0.010101318359375, -0.019805908203125, -0.023590087890625], [-0.0074310302734375, 0.009429931640625, 0.01702880859375, 0.00244140625, -0.0205535888671875, 0.026947021484375, 0.020660400390625, 0.0001068115234375, -0.0089569091796875, -0.003692626953125, 0.0086669921875, 0.01556396484375, -0.00872802734375, -0.0079803466796875, -0.016326904296875, -0.0105743408203125, 0.00579833984375, 0.002166748046875, 0.01214599609375, 0.01959228515625, -0.0213623046875, 0.023651123046875, 0.0076904296875, 0.025604248046875, 0.01031494140625, -0.0098114013671875, -0.0011444091796875, 0.00775146484375, -0.01393890380859375, 0.002227783203125, -0.00775146484375, 0.01605224609375, 0.013275146484375, 0.026580810546875, -0.0011444091796875, -0.027069091796875, -0.006622314453125, -0.007110595703125, 0.001678466796875, 0.0006561279296875, 0.014434814453125, -0.0060272216796875, -0.0224609375, -0.00103759765625, 0.01513671875, -0.020233154296875, -0.019683837890625, 0.025665283203125, 0.0107421875, -0.0137786865234375, 0.0203857421875, -0.02386474609375, 0.004180908203125, 0.01416015625, 0.017303466796875, 0.0135498046875, -0.027496337890625, -0.0093231201171875, 0.026580810546875, 0.022735595703125, -0.01898193359375, -0.0229949951171875, 0.01123046875, 0.022125244140625], [0.0018463134765625, 0.009918212890625, 0.00592041015625, -0.0184326171875, -0.0054779052734375, -0.0062408447265625, -0.01323699951171875, -0.0017852783203125, -0.0135040283203125, 0.02044677734375, 0.024505615234375, 0.007904052734375, 0.020660400390625, -0.007537841796875, -0.0205078125, 0.003204345703125, 0.014434814453125, 0.02288818359375, -0.0098724365234375, -0.01611328125, 0.01715087890625, 0.011383056640625, -0.02630615234375, -0.0234375, -0.0272216796875, 0.024993896484375, -0.014373779296875, 0.004608154296875, 0.0047607421875, -0.0142669677734375, -0.000701904296875, -0.0118255615234375, 0.00335693359375, -0.0144805908203125, 0.02191162109375, 0.02734375, 0.022064208984375, 0.005035400390625, 0.019622802734375, -0.0030364990234375, -0.0257110595703125, 0.023651123046875, 0.022613525390625, 0.01654052734375, 0.015289306640625, 0.01470947265625, -0.02587890625, -0.00927734375, 0.013031005859375, -0.00048828125, -0.0006561279296875, -0.020172119140625, -0.01806640625, -0.01568603515625, 0.02001953125, 0.0016326904296875, 0.00537109375, -0.01226043701171875, 0.026153564453125, -0.01019287109375, 0.018402099609375, -0.0208740234375, 0.011383056640625, 0.0006561279296875], [-0.013885498046875, -0.00921630859375, 0.01373291015625, -0.0234832763671875, 0.02618408203125, -0.0069427490234375, 0.0040283203125, 0.007537841796875, -0.0110626220703125, 0.0016326904296875, 0.007659912109375, 0.024200439453125, 0.009613037109375, 0.019256591796875, -0.0091705322265625, 0.0091552734375, -0.010406494140625, -0.0144805908203125, -0.01323699951171875, 0.027130126953125, 0.00775146484375, 0.001251220703125, 0.017242431640625, 0.0194091796875, 0.018829345703125, 0.02618408203125, 0.0263671875, 0.000274658203125, -0.02679443359375, 0.0267333984375, -0.0093231201171875, -0.01861572265625, 0.014434814453125, -0.023651123046875, -0.0062408447265625, -0.0107421875, 0.0008087158203125, 0.014801025390625, -0.02001953125, 0.0035400390625, 0.025177001953125, 0.0008087158203125, 0.00982666015625, 0.01995849609375, 0.018341064453125, -0.002716064453125, -0.01171875, 0.01129150390625, 0.0012969970703125, 0.017669677734375, 0.013519287109375, 6.103515625e-05, -0.01800537109375, -0.003692626953125, 0.0198974609375, 0.000213623046875, -0.0001678466796875, -0.0242462158203125, 0.013671875, -0.0266265869140625, 0.007171630859375, 0.011444091796875, 0.024688720703125, 0.002166748046875], [-0.017242431640625, 0.0021209716796875, -0.01480865478515625, -0.0068817138671875, -0.0115509033203125, -0.0096588134765625, -0.0146484375, 0.02301025390625, 0.018890380859375, -0.021759033203125, 0.00628662109375, -0.01861572265625, 0.0244140625, -0.0088958740234375, -0.0164794921875, 0.010833740234375, 0.0145263671875, 0.004241943359375, -0.017730712890625, 0.02532958984375, -0.0149688720703125, 0.014923095703125, 0.0076904296875, -0.02001953125, -0.0093231201171875, 0.0252685546875, 0.0223388671875, 0.014801025390625, 0.0262451171875, -0.00244140625, 0.000274658203125, 0.000213623046875, 0.0081787109375, 0.0146484375, -0.0078125, 0.02496337890625, -0.00250244140625, 0.00335693359375, 0.02001953125, -0.0142669677734375, 0.014984130859375, -0.0074920654296875, -0.01318359375, 0.00146484375, -0.0244598388671875, -0.017791748046875, -0.01507568359375, -0.0060272216796875, 0.01312255859375, -0.0112762451171875, 0.018890380859375, 0.012420654296875, -0.024566650390625, 0.00775146484375, 0.025543212890625, 0.013763427734375, -0.0262451171875, -0.0008087158203125, 0.0244140625, 0.01519775390625, -0.0261993408203125, -0.0261993408203125, -0.012420654296875, 0.01214599609375], [0.02490234375, 0.010040283203125, -0.0074920654296875, -0.007598876953125, 0.0011444091796875, 0.022125244140625, 0.02081298828125, -0.01393890380859375, 0.02545166015625, 0.015716552734375, -0.013885498046875, -0.008514404296875, -0.0271148681640625, 0.015960693359375, -0.016754150390625, -0.0144805908203125, -0.0118255615234375, -0.0276641845703125, -0.00054931640625, 0.00982666015625, 0.020599365234375, 0.021209716796875, 0.02569580078125, -0.0083465576171875, 0.025665283203125, 0.01849365234375, 0.014434814453125, -0.0030975341796875, -0.0093231201171875, -0.0035858154296875, 0.0030975341796875, 0.025970458984375, -0.01165771484375, -0.01263427734375, 0.00982666015625, 0.0272216796875, -0.0174102783203125, -0.0262451171875, 0.004547119140625, -0.005584716796875, -0.0185546875, -0.007110595703125, 0.0012969970703125, -0.0242919921875, -0.0206146240234375, 0.024078369140625, 0.0198974609375, 0.017913818359375, -0.01312255859375, 0.0135498046875, 0.0184326171875, -0.0089569091796875, -0.0234375, -0.01355743408203125, -0.0081329345703125, 0.0233154296875, 0.012420654296875, -0.0203399658203125, -0.0200653076171875, -0.01617431640625, -0.0089569091796875, -0.0073699951171875, -0.007598876953125, 0.0101318359375], [0.01556396484375, 0.0107421875, 0.00689697265625, -0.02490234375, -0.0032501220703125, 0.00634765625, 0.02496337890625, -0.0067291259765625, -0.00634765625, -0.01751708984375, 0.0228271484375, 0.02081298828125, -0.0026092529296875, -0.01480865478515625, -0.0032501220703125, -0.0230560302734375, -0.0167083740234375, -0.0272216796875, 0.00152587890625, 0.027618408203125, -0.017242431640625, 0.000213623046875, 0.00537109375, 0.00238037109375, -0.00048828125, 0.027496337890625, -0.00384521484375, -0.001953125, 0.021697998046875, -0.019805908203125, -0.021148681640625, 0.008636474609375, -0.0169219970703125, 0.0087890625, 0.01556396484375, 0.002655029296875, -0.026519775390625, -0.01617431640625, -0.01540374755859375, 0.021209716796875, 0.00152587890625, 0.0069580078125, -0.0045013427734375, 0.02337646484375, 0.01898193359375, -0.023162841796875, 0.021697998046875, 0.0021209716796875, -0.01383209228515625, -0.016265869140625, 0.007171630859375, -0.0256500244140625, -0.0276031494140625, 0.011932373046875, -0.00482177734375, -0.012908935546875, -0.003631591796875, 0.01654052734375, 0.006683349609375, -0.005645751953125, -0.01806640625, 0.027008056640625, -0.00634765625, -0.0118255615234375], [-0.01654052734375, -0.0009765625, 0.011444091796875, -0.0050506591796875, 0.0130615234375, -0.018829345703125, 0.009063720703125, 0.021636962890625, -0.020172119140625, 0.02667236328125, 0.002227783203125, 0.003753662109375, -0.0042877197265625, -0.0093841552734375, -0.0066680908203125, 0.0010833740234375, -0.0232696533203125, -0.0108489990234375, 0.02294921875, 0.0234375, 0.018646240234375, -0.016326904296875, 0.003631591796875, -0.01171875, -0.0013580322265625, -0.01165771484375, 0.02203369140625, 0.01373291015625, 0.0263671875, 0.026092529296875, 0.005218505859375, 0.020172119140625, -0.0205078125, -0.0234375, 0.015625, 0.0067138671875, -0.022613525390625, -0.002166748046875, -0.01995849609375, -0.01751708984375, 0.015472412109375, -0.023712158203125, -0.0273895263671875, 0.016204833984375, 0.023223876953125, -0.024566650390625, -0.004119873046875, -0.0259857177734375, 0.016448974609375, -0.01763916015625, -0.0061798095703125, -0.01617431640625, -0.013885498046875, 0.017913818359375, 0.02154541015625, -0.020721435546875, -0.0211029052734375, -0.0174560546875, -0.011383056640625, -0.0088348388671875, -0.025390625, 0.02325439453125, -0.0166015625, 0.001739501953125], [-0.0035247802734375, 0.024200439453125, -0.002716064453125, -0.025390625, -0.0064544677734375, -0.0006561279296875, 0.0263671875, 0.0208740234375, -0.01470184326171875, -0.012908935546875, 0.00335693359375, -0.0003204345703125, 0.014251708984375, -0.009490966796875, -0.0118255615234375, 0.01324462890625, -0.01263427734375, -0.006622314453125, -0.0220184326171875, 0.02276611328125, 0.0126953125, 0.018646240234375, -0.00384521484375, -0.023162841796875, 0.026947021484375, 0.01220703125, 0.0267333984375, -0.00872802734375, 0.019317626953125, -0.007049560546875, 0.00445556640625, -0.00201416015625, 0.002166748046875, 0.013031005859375, 0.004730224609375, 0.014434814453125, -0.0189208984375, 0.0033111572265625, -0.0074310302734375, 0.0068359375, 0.005859375, -0.0065155029296875, 0.02325439453125, 0.016876220703125, -0.016815185546875, 0.008941650390625, 0.015228271484375, -0.01258087158203125, 0.0238037109375, 0.0062255859375, -0.01666259765625, -0.0196380615234375, 0.0045166015625, -0.0264129638671875, 0.0111083984375, 0.026947021484375, -0.023223876953125, -0.0088348388671875, -0.009490966796875, 0.00091552734375, -0.0198516845703125, -0.0107879638671875, 0.00054931640625, -0.0237579345703125], [-0.01355743408203125, -0.006561279296875, 0.01605224609375, 0.006072998046875, 0.00189208984375, -0.026580810546875, -0.00537109375, -0.00390625, 0.0033111572265625, -0.0078125, 0.025482177734375, -0.000701904296875, -0.018829345703125, 0.000274658203125, 0.024688720703125, 0.010345458984375, -0.000701904296875, 0.023223876953125, 0.0030364990234375, -0.0234832763671875, -0.0147552490234375, -0.001953125, 0.0030364990234375, 0.01904296875, -0.01165771484375, -0.017242431640625, -0.02734375, -0.0083465576171875, -0.0113372802734375, 0.009918212890625, -0.0059661865234375, 0.00982666015625, 0.021209716796875, -0.006134033203125, -0.0115509033203125, 0.02764892578125, -0.0201263427734375, -0.0128021240234375, -0.00634765625, -0.011016845703125, 0.01953125, 0.01513671875, -0.003204345703125, 0.02716064453125, -0.0003204345703125, 0.006561279296875, 0.0174560546875, -0.01306915283203125, -0.012908935546875, -0.008575439453125, -0.00286865234375, -0.00921630859375, 0.013275146484375, 0.018707275390625, 0.008636474609375, -0.025604248046875, 0.015228271484375, -0.0045623779296875, -0.0060272216796875, -0.00189208984375, 0.01177978515625, 0.00775146484375, -0.0194091796875, -0.0205078125], [-0.026031494140625, -0.004180908203125, -0.01702880859375, -0.01849365234375, 0.01849365234375, 0.0101318359375, 0.025970458984375, -0.0045623779296875, 0.01422119140625, 0.009124755859375, 0.02325439453125, 0.013519287109375, -0.0086212158203125, -0.0102996826171875, 0.026519775390625, -0.0234832763671875, 0.0115966796875, -0.019256591796875, 0.00152587890625, 0.0006561279296875, 0.009857177734375, -0.00433349609375, -0.0201263427734375, 0.025543212890625, 0.00341796875, -0.0237579345703125, -0.0107421875, -0.0028228759765625, -0.0193634033203125, -0.0247802734375, 0.0086669921875, 0.011505126953125, -0.02484130859375, 0.02130126953125, 0.0213623046875, 0.01959228515625, 0.01605224609375, 0.02154541015625, 0.007659912109375, 0.003753662109375, 0.0208740234375, 0.0042724609375, 0.02349853515625, -0.015838623046875, -0.0079193115234375, 0.018768310546875, 0.022064208984375, 0.01556396484375, 0.013397216796875, 0.018280029296875, -0.001953125, 0.02593994140625, 0.000274658203125, -0.01898193359375, 0.018402099609375, 0.016693115234375, -0.0005950927734375, -0.0276641845703125, 0.0032501220703125, 0.022186279296875, 0.014312744140625, -0.01416015625, 0.0238037109375, -0.0244140625], [-0.0273895263671875, -0.0081939697265625, -0.021759033203125, -0.01171875, -0.015838623046875, 0.00347900390625, -0.0091094970703125, -0.0240325927734375, -0.0049285888671875, -0.027008056640625, -0.0230560302734375, 0.00634765625, 0.022247314453125, 0.017791748046875, 0.0087890625, 6.103515625e-05, 0.009063720703125, -0.0196380615234375, 0.0130615234375, -0.01702880859375, 0.02252197265625, -0.0030364990234375, 0.018280029296875, 0.0068359375, -0.0186614990234375, -0.01409912109375, -0.0215301513671875, -0.01258087158203125, 0.02691650390625, -0.004608154296875, 0.01226806640625, 0.009765625, 0.01116943359375, 0.0223388671875, -0.0006561279296875, -0.01383209228515625, -0.0098114013671875, -0.00341796875, -0.0025482177734375, -0.011444091796875, -0.01318359375, 0.01019287109375, 0.021636962890625, 0.02447509765625, -0.009063720703125, -0.0087890625, -0.0008697509765625, 0.023040771484375, -0.0229949951171875, -0.01171875, 0.027557373046875, -0.002166748046875, -0.0113372802734375, -0.0154571533203125, -0.027557373046875, -0.00823974609375, -0.0132904052734375, -0.0235443115234375, 0.0059814453125, 0.01904296875, 0.023040771484375, -0.007598876953125, 0.0091552734375, 0.016265869140625], [0.0179443359375, 0.011444091796875, 0.006134033203125, -0.008026123046875, 0.0057373046875, 0.023162841796875, 0.026458740234375, 0.02044677734375, 0.022613525390625, 0.01708984375, -0.025054931640625, -0.0185546875, 0.0145263671875, -0.010955810546875, 0.006988525390625, -0.0101470947265625, 0.0064697265625, -0.0125274658203125, 0.0166015625, 0.02740478515625, 0.01416015625, 0.004608154296875, -0.01480865478515625, -0.0251617431640625, 0.01165771484375, 0.021575927734375, 0.0252685546875, 0.01025390625, 0.0272216796875, 0.02227783203125, -0.019744873046875, 0.0263671875, -0.0179443359375, -0.00189208984375, -0.0048828125, 0.01806640625, -0.006134033203125, -0.0242462158203125, 0.004119873046875, -0.0096588134765625, 0.005035400390625, 0.026641845703125, -0.0220184326171875, -0.022125244140625, 0.01019287109375, -0.0250091552734375, 6.103515625e-05, -0.0047760009765625, -0.0215301513671875, -0.000213623046875, -0.027496337890625, -0.0081329345703125, -0.0259246826171875, 0.006134033203125, -0.01763916015625, -0.0042266845703125, -0.027496337890625, 0.0159912109375, -0.0171966552734375, -0.01953125, -0.009490966796875, -0.005859375, 0.01416015625, 0.0184326171875], [-0.0264739990234375, -0.0252227783203125, 0.02105712890625, 0.01220703125, -0.0223388671875, 0.024078369140625, -0.010406494140625, -0.02392578125, 0.0130615234375, 0.021087646484375, -0.0049285888671875, -0.01306915283203125, 0.0017852783203125, -0.005157470703125, 0.027008056640625, 0.018768310546875, -0.0083465576171875, -0.019256591796875, -0.01442718505859375, 0.025054931640625, 0.01318359375, -0.017242431640625, 0.009979248046875, -0.00732421875, 0.0050048828125, 0.0145263671875, 0.001678466796875, -0.0190887451171875, 0.017242431640625, 0.010101318359375, -0.0117645263671875, -0.0123138427734375, -0.0257568359375, 0.02667236328125, 0.012908935546875, -0.0060272216796875, 0.008087158203125, 0.02392578125, 0.0242919921875, -0.0037994384765625, 0.02093505859375, -0.019805908203125, -0.0052032470703125, -0.009979248046875, 0.0028228759765625, 0.010345458984375, -0.002227783203125, 0.0057373046875, -0.0091094970703125, 0.018829345703125, 0.005523681640625, -0.0233154296875, -0.01442718505859375, 0.01556396484375, -0.00146484375, -0.02490234375, 0.01507568359375, 0.025604248046875, 0.020355224609375, -0.0242919921875, 0.024505615234375, 0.0140380859375, 0.02008056640625, -0.02728271484375], [-0.009063720703125, 0.0218505859375, 0.01849365234375, 0.01708984375, -0.02435302734375, 0.011322021484375, -0.0169677734375, -0.00140380859375, 0.024017333984375, 0.0022735595703125, -0.016876220703125, -0.011444091796875, 0.0023345947265625, 0.02142333984375, -0.0020599365234375, 0.00677490234375, -0.005584716796875, 0.007049560546875, 0.0257568359375, 0.0032501220703125, 0.02288818359375, -0.01318359375, 0.0032501220703125, -0.01812744140625, 0.027069091796875, 0.0252685546875, -0.0035858154296875, -0.020660400390625, -0.0137786865234375, -0.015350341796875, 0.010101318359375, -0.00677490234375, 0.0010833740234375, 0.01763916015625, 0.010833740234375, 0.009063720703125, -0.0244598388671875, 0.0126953125, -0.02001953125, 0.015899658203125, -0.021148681640625, 0.017303466796875, -0.0078125, 0.0057373046875, -0.017578125, 0.014495849609375, 0.00579833984375, -0.0068817138671875, -0.0166015625, 0.023529052734375, -0.0050506591796875, -0.01258087158203125, 0.02728271484375, -0.0225677490234375, -0.0179443359375, 0.0135498046875, 0.008575439453125, -0.0247344970703125, -0.0115509033203125, -0.02294921875, -0.0073699951171875, 0.024017333984375, 0.01165771484375, -0.0107421875], [0.02239990234375, -0.01220703125, 0.0115966796875, -0.018768310546875, -0.001190185546875, 0.0252685546875, -0.0098114013671875, 0.02081298828125, 0.006561279296875, 0.007904052734375, 0.014373779296875, -0.0106353759765625, 0.0174560546875, 0.0146484375, -0.010040283203125, 0.0020599365234375, -0.0233154296875, -0.008514404296875, 0.016387939453125, 0.0062255859375, 0.0021209716796875, 0.0126953125, -0.003631591796875, 0.0018463134765625, 0.00933837890625, 0.026519775390625, -0.011993408203125, 0.01416015625, -0.022735595703125, -0.011444091796875, -0.0003204345703125, -0.024078369140625, 0.00787353515625, 0.00836181640625, -0.009552001953125, -0.01540374755859375, 0.0223388671875, 0.002655029296875, -0.001953125, 0.027008056640625, -0.009002685546875, -0.01861572265625, 0.009765625, -0.0135040283203125, 0.022613525390625, 0.027435302734375, 0.02252197265625, 0.00775146484375, 0.0169677734375, -0.0091094970703125, 0.013458251953125, 0.0107421875, 0.013519287109375, -0.0084075927734375, -0.0218505859375, 0.004241943359375, 0.01513671875, -0.0020599365234375, 0.016754150390625, -0.02484130859375, 0.013671875, -0.0081939697265625, 0.02227783203125, 0.01116943359375], [0.021270751953125, -0.0220794677734375, -0.0208282470703125, 0.00146484375, -0.0245208740234375, 0.02630615234375, 0.00628662109375, 0.01165771484375, -0.0023345947265625, -0.0071563720703125, 0.022186279296875, -0.0049285888671875, -0.015777587890625, 0.0001678466796875, 0.012420654296875, -0.0016326904296875, 0.01800537109375, 0.021270751953125, -0.008575439453125, -0.0008087158203125, 0.01959228515625, 0.01361083984375, -0.020233154296875, -0.01345062255859375, 0.012359619140625, -0.0205535888671875, 0.007659912109375, 0.00250244140625, 0.0218505859375, -0.0068359375, 0.0062255859375, -0.021148681640625, -0.0089569091796875, -0.003143310546875, 0.002227783203125, -0.0028228759765625, 0.0042724609375, 0.0001068115234375, 0.009124755859375, 0.005157470703125, -0.008026123046875, -0.0196380615234375, -0.00384521484375, 0.020599365234375, 0.0026092529296875, 0.024993896484375, 0.000274658203125, 0.02435302734375, -0.0135040283203125, 0.025054931640625, 0.006500244140625, -0.01214599609375, -0.0262451171875, -0.0240325927734375, -0.00927734375, -0.0107879638671875, -0.0252685546875, 0.01263427734375, -0.010955810546875, -0.003692626953125, -0.012420654296875, -0.0091705322265625, 0.0003204345703125, -0.01345062255859375], [0.017669677734375, 0.008453369140625, -0.0074310302734375, -0.00146484375, 0.004730224609375, 0.0145263671875, -0.0257110595703125, -0.004180908203125, -0.020294189453125, 0.0008697509765625, -0.0032501220703125, 0.016937255859375, -0.018341064453125, -0.013671875, -0.01355743408203125, 0.020172119140625, -0.006134033203125, 0.014007568359375, 0.0125732421875, 0.021484375, 0.004241943359375, -0.0049285888671875, 0.011077880859375, -0.0208740234375, -0.001190185546875, 0.00152587890625, -0.01323699951171875, 0.0198974609375, -0.02392578125, 0.02618408203125, 0.019683837890625, -0.01025390625, 0.004058837890625, -0.01806640625, 0.019805908203125, 0.01519775390625, 0.02294921875, -0.0112762451171875, -0.0125274658203125, -0.01345062255859375, 0.0277099609375, 0.00299072265625, 0.025177001953125, -0.0194091796875, -0.025543212890625, -0.0267333984375, -0.0083465576171875, -0.0121002197265625, -0.0083465576171875, 0.01812744140625, 0.00927734375, 