[[[[0.0765380859375, -0.100830078125, 0.02490234375, -0.0885009765625, -0.02349853515625, -0.01214599609375, -0.057403564453125, -0.046630859375, -0.095458984375, -0.05419921875, 0.0947265625, -0.01715087890625, -0.02789306640625, -0.05340576171875, 0.01953125, -0.04205322265625, 0.01654052734375, 0.0458984375, 0.057373046875, 0.0438232421875, 0.0986328125, 0.048583984375, -0.053009033203125, -0.06494140625, -0.093505859375, 0.00042724609375, 0.0673828125, -0.07354736328125, 0.0484619140625, -0.060394287109375, -0.09466552734375, 0.0885009765625, -0.07415771484375, 0.01873779296875, -0.06597900390625, 0.01971435546875, 0.0377197265625, 0.06640625, 0.0450439453125, 0.0576171875, -0.047637939453125, 0.00457763671875, -0.031494140625, 0.00042724609375, -0.08392333984375, -0.0205078125, -0.095703125, 0.047607421875, -0.0047607421875, 0.094482421875, -0.060394287109375, -0.07037353515625, 0.029541015625, -0.065185546875, 0.0201416015625, 0.0882568359375, -0.01318359375, 0.0869140625, 0.093505859375, -0.0135498046875, -0.0753173828125, -0.02471923828125, -0.0157470703125, 0.1004638671875, -0.00299072265625, -0.0711669921875, -0.0087890625, -0.00079345703125, -0.0233154296875, 0.030517578125, -0.08172607421875, -0.06396484375, -0.00677490234375, -0.05322265625, 0.064208984375, 0.04248046875, 0.021728515625, 0.0604248046875, 0.0701904296875, 0.00457763671875, -0.04742431640625, 0.00537109375, -0.059783935546875, 0.10107421875, -0.031494140625, -0.00299072265625, 0.095703125, 0.0599365234375, -0.00518798828125, -0.03485107421875, 0.0284423828125, 0.0709228515625, -0.0982666015625, 0.006591796875, 0.0897216796875, -0.095458984375, -0.09088134765625, -0.02093505859375, -0.02093505859375, -0.0396728515625, -0.00933837890625, -0.0791015625, 0.0941162109375, -0.06817626953125, 0.0755615234375, -0.087890625, -0.06915283203125, 0.0966796875, 0.096923828125, 0.0595703125, -0.002197265625, 0.092529296875, -0.006591796875, -0.0299072265625, 0.060791015625, 0.0938720703125, -0.00421142578125, 0.0548095703125, 0.0491943359375, 0.0283203125, 0.062744140625, -0.01055908203125, -0.056793212890625, -0.0478515625, 0.026123046875, -0.0894775390625, -0.0504150390625, 0.01934814453125, -0.0916748046875, -0.06439208984375, 0.046630859375, 0.095703125, 0.0321044921875, -0.08770751953125, -0.00079345703125, 0.00799560546875, 0.00555419921875, -0.099853515625, 0.094482421875, 0.0611572265625, -0.09130859375, 0.07373046875, 0.00555419921875, 0.080078125, -0.06640625, 0.048095703125, 0.0484619140625, 0.0958251953125, 0.0950927734375, 0.0494384765625, -0.04345703125, -0.050628662109375, 0.082275390625, 0.0775146484375, 0.02252197265625, -0.05780029296875, -0.0623779296875, -0.03509521484375, 0.03466796875, -0.00677490234375, 0.0751953125, 0.00457763671875, -0.02471923828125, -0.09027099609375, -0.00634765625, -0.10107421875, 0.0992431640625, 0.06201171875, 0.031494140625, -0.02911376953125, 0.0252685546875, -0.0775146484375, -0.02349853515625, -0.0601806640625, 0.0491943359375, 0.0452880859375, -0.0777587890625, 0.024658203125, -0.00518798828125, -0.041046142578125, -0.06158447265625, 0.028076171875, 0.082275390625, -0.01971435546875, -0.0504150390625, -0.0157470703125, -0.050628662109375, 0.060791015625, 0.0321044921875, -0.100830078125, 0.001220703125, -0.06439208984375, -0.0223388671875, -0.0677490234375, 0.02587890625, -0.012939453125, 0.0264892578125, -0.00738525390625, 0.028076171875, 0.0426025390625, -0.06378173828125, -0.099853515625, -0.048248291015625, 0.0220947265625, 0.06201171875, -0.0828857421875, -0.03509521484375, 0.0361328125, -0.07415771484375, -0.0289306640625, 0.05615234375, 0.0147705078125, 0.097900390625, -0.09149169921875, 0.070556640625, -0.0771484375, 0.00439453125, 0.095458984375, -0.06915283203125, 0.100830078125, -0.0635986328125, 0.0887451171875, 0.04345703125, 0.012939453125, 0.046630859375, 0.08447265625, 0.07470703125, -0.08013916015625, 0.0655517578125, 0.095458984375, 0.039306640625, 0.012939453125, 0.03369140625, -0.0362548828125, 0.072998046875, 0.01177978515625, -0.090087890625, 0.0380859375, 0.0205078125, -0.08392333984375, -0.08050537109375, 0.0714111328125, -0.022705078125, 0.077392578125, 0.1016845703125, -0.03704833984375, 0.001220703125, 0.04541015625, -0.02410888671875, 0.02392578125, -0.10064697265625, 0.062744140625, 0.06591796875, 0.0740966796875, 0.0050048828125, -0.045654296875, -0.03887939453125, 0.0306396484375, 0.0687255859375, 0.00677490234375, 0.08056640625, 0.046875, 0.0343017578125, 0.05126953125, -0.078369140625, 0.01177978515625, 0.09521484375, 0.0491943359375, 0.0330810546875, -0.0970458984375, -0.08154296875, 0.0645751953125, -0.10205078125, -0.07257080078125, -0.06695556640625, 0.0418701171875, 0.073974609375, -0.0047607421875, 0.057861328125, 0.039306640625, -0.03826904296875, -0.00897216796875, 0.00537109375, -0.0633544921875, 0.0518798828125, 0.04541015625, -0.051239013671875, -0.049224853515625, -0.0872802734375, 0.0894775390625, -0.0494384765625, 0.029541015625, 0.1007080078125, 0.0765380859375, -0.03106689453125, -0.0340576171875, 0.0860595703125, 0.0806884765625, -0.04345703125, 0.0687255859375, -0.0743408203125, -0.0504150390625, -0.08251953125, 0.01556396484375, -0.00897216796875, -0.01556396484375, 0.0167236328125, -0.0006103515625, 0.076171875, 0.097412109375, -0.09405517578125, -0.02490234375, -0.01873779296875, 0.060791015625, 0.087646484375, -0.0189208984375, -0.0677490234375, -0.052032470703125, 0.0909423828125, 0.077392578125], [-0.0302734375, -0.0081787109375, -0.0321044921875, -0.03509521484375, -0.0516357421875, 0.0819091796875, -0.08172607421875, -0.03350830078125, -0.08831787109375, 0.0982666015625, -0.027099609375, 0.0894775390625, -0.00634765625, 0.0777587890625, 0.0601806640625, -0.055206298828125, -0.051239013671875, 0.03125, -0.0592041015625, 0.01434326171875, -0.08428955078125, 0.0711669921875, -0.045440673828125, -0.05999755859375, 0.05517578125, 0.062744140625, -0.0418701171875, 0.0733642578125, 0.0518798828125, -0.07135009765625, 0.0333251953125, -0.02349853515625, -0.00537109375, 0.0185546875, 0.01556396484375, -0.09210205078125, 0.0283203125, 0.0504150390625, 0.00360107421875, 0.047607421875, 0.08251953125, -0.0205078125, -0.05322265625, -0.0318603515625, -0.00439453125, -0.0623779296875, -0.07794189453125, 0.083740234375, 0.0970458984375, -0.01177978515625, 0.0328369140625, 0.0980224609375, -0.040252685546875, -0.073974609375, 0.03173828125, -0.0330810546875, -0.086669921875, -0.040069580078125, -0.01495361328125, 0.0230712890625, -0.0699462890625, -0.0504150390625, -0.0850830078125, -0.09466552734375, 0.0859375, 0.0872802734375, -0.046051025390625, -0.0665283203125, 0.087890625, 0.0787353515625, 0.0791015625, 0.0460205078125, 0.012939453125, -0.08551025390625, -0.073974609375, 0.045654296875, -0.03668212890625, -0.047027587890625, 0.0404052734375, -0.0302734375, -0.093505859375, 0.01177978515625, -0.06817626953125, 0.082763671875, 0.01776123046875, -0.06976318359375, -0.073974609375, 0.0006103515625, 0.08447265625, -0.00439453125, -0.0255126953125, 0.0513916015625, -0.007568359375, 0.041015625, 0.0087890625, 0.0665283203125, 0.0047607421875, -0.008544921875, -0.0526123046875, -0.09466552734375, 0.016357421875, -0.0711669921875, 0.067626953125, 0.0340576171875, -0.093505859375, 0.035888671875, -0.02471923828125, -0.0107421875, 0.0594482421875, -0.052215576171875, 0.0167236328125, -0.03369140625, 0.042236328125, 0.06591796875, 0.0091552734375, -0.0960693359375, 0.082275390625, -0.01531982421875, -0.08612060546875, 0.05078125, 0.04345703125, 0.0235595703125, -0.0384521484375, 0.0548095703125, -0.0657958984375, -0.0125732421875, -0.05419921875, 0.048583984375, -0.00933837890625, 0.00018310546875, -0.0343017578125, 0.044189453125, 0.03369140625, 0.070556640625, 0.0831298828125, 0.09912109375, -0.0655517578125, -0.09307861328125, -0.02490234375, -0.00933837890625, -0.009765625, 0.062744140625, 0.095703125, -0.062744140625, -0.03948974609375, 0.0654296875, -0.0701904296875, 0.10107421875, -0.0072021484375, -0.0318603515625, 0.0416259765625, -0.0107421875, 0.080322265625, -0.00537109375, -0.08929443359375, 0.00579833984375, 0.070556640625, 0.04638671875, -0.03765869140625, -0.060394287109375, 0.092041015625, -0.047637939453125, 0.0703125, -0.075927734375, -0.03704833984375, -0.046234130859375, -0.06158447265625, -0.06817626953125, 0.0220947265625, -0.0777587890625, 0.00897216796875, 0.00457763671875, -0.053009033203125, 0.0806884765625, 0.056640625, 0.0406494140625, 0.0535888671875, 0.033935546875, 0.093505859375, -0.0614013671875, -0.0189208984375, -0.055816650390625, -0.02789306640625, -0.01019287109375, -0.0648193359375, -0.0050048828125, 0.073974609375, 0.0081787109375, -0.06378173828125, 0.01556396484375, -0.084716796875, 0.062744140625, 0.01397705078125, 0.00079345703125, 0.0274658203125, -0.0831298828125, 0.00933837890625, -0.00042724609375, 0.01055908203125, 0.00341796875, 0.09423828125, 0.09228515625, 0.01513671875, 0.0377197265625, -0.091064453125, -0.04644775390625, -0.0966796875, -0.06158447265625, 0.00799560546875, -0.0494384765625, -0.08050537109375, 0.033935546875, 0.0791015625, -0.03350830078125, 0.10107421875, 0.054443359375, -0.053619384765625, -0.056396484375, 0.0504150390625, 0.018310546875, -0.0806884765625, 0.00775146484375, -0.0665283203125, -0.0267333984375, -0.0841064453125, 0.01654052734375, -0.02490234375, -0.0771484375, 0.0687255859375, -0.0362548828125, 0.09765625, -0.05419921875, 0.0576171875, -0.03607177734375, 0.0599365234375, -0.044036865234375, -0.098876953125, -0.043853759765625, 0.063232421875, -0.006591796875, -0.071533203125, 0.07080078125, -0.05780029296875, 0.029052734375, 0.00042724609375, -0.059600830078125, -0.07794189453125, -0.02911376953125, 0.0006103515625, -0.044647216796875, -0.0809326171875, 0.01873779296875, 0.0865478515625, -0.03387451171875, -0.0853271484375, 0.098876953125, -0.07635498046875, 0.041259765625, 0.04541015625, 0.049072265625, 0.0654296875, 0.02032470703125, -0.0673828125, -0.0050048828125, -0.0645751953125, 0.01434326171875, 0.0125732421875, 0.09912109375, -0.040069580078125, -0.052032470703125, -0.07196044921875, 0.094482421875, 0.0006103515625, -0.0380859375, -0.0576171875, 0.01153564453125, -0.083740234375, -0.0753173828125, -0.010986328125, 0.046630859375, 0.0914306640625, 0.0579833984375, 0.0765380859375, -0.08770751953125, 0.0284423828125, -0.03448486328125, -0.03466796875, -0.03607177734375, -0.03106689453125, 0.0843505859375, 0.0501708984375, 0.0831298828125, -0.10064697265625, 0.06640625, 0.068115234375, -0.07470703125, -0.01953125, -0.01751708984375, -0.08392333984375, -0.0972900390625, -0.0205078125, -0.08172607421875, -0.05462646484375, -0.01812744140625, -0.09405517578125, -0.04864501953125, 0.02093505859375, -0.06494140625, 0.083740234375, -0.04425048828125, -0.0364990234375, 0.0494384765625, -0.0179443359375, 0.0938720703125, 0.0787353515625, -0.017333984375, -0.042266845703125, 0.042236328125, -0.008544921875, 0.0308837890625], [0.00079345703125, 0.0621337890625, 0.03369140625, 0.0418701171875, 0.00799560546875, 0.086669921875, -0.0677490234375, 0.00958251953125, 0.0289306640625, 0.010986328125, 0.0286865234375, -0.0709228515625, -0.02374267578125, 0.0513916015625, -0.050628662109375, -0.02508544921875, -0.0478515625, -0.01751708984375, 0.003173828125, -0.061004638671875, -0.064208984375, 0.01397705078125, -0.06597900390625, -0.0665283203125, -0.0679931640625, -0.0340576171875, -0.05322265625, 0.068359375, 0.0665283203125, -0.03704833984375, -0.08489990234375, -0.00457763671875, 0.00201416015625, 0.0679931640625, -0.053009033203125, -0.03546142578125, -0.055419921875, -0.0450439453125, -0.07794189453125, -0.0352783203125, 0.037109375, 0.0169677734375, -0.03704833984375, 0.030517578125, 0.053955078125, 0.041015625, 0.06298828125, -0.10205078125, -0.061981201171875, -0.00579833984375, 0.01434326171875, 0.099853515625, -0.0576171875, -0.04803466796875, -0.052215576171875, -0.0623779296875, 0.00555419921875, -0.0821533203125, -0.042266845703125, 0.0277099609375, 0.085693359375, 0.10009765625, -0.01513671875, 0.064208984375, 0.0960693359375, -0.0362548828125, 0.08154296875, -0.0799560546875, -0.08233642578125, -0.03704833984375, 0.0362548828125, -0.055419921875, -0.06396484375, -0.02130126953125, 0.078369140625, -0.1004638671875, -0.08868408203125, -0.01751708984375, 0.1002197265625, 0.0025634765625, -0.059783935546875, -0.055999755859375, 0.097412109375, -0.0025634765625, -0.04443359375, -0.08831787109375, -0.0374755859375, -0.03448486328125, 0.0550537109375, -0.09429931640625, -0.0709228515625, 0.0513916015625, 0.03466796875, 0.083740234375, -0.01556396484375, -0.01873779296875, -0.07794189453125, -0.09429931640625, -0.046844482421875, -0.06597900390625, 0.0888671875, 0.0047607421875, -0.03509521484375, -0.095458984375, 0.02685546875, -0.0948486328125, -0.0211181640625, 0.0936279296875, 0.09228515625, 0.0418701171875, 0.0377197265625, -0.10205078125, 0.0667724609375, 0.029541015625, 0.01055908203125, 0.072509765625, -0.0755615234375, -0.0970458984375, -0.00994873046875, -0.00079345703125, -0.08709716796875, 0.0635986328125, -0.042266845703125, -0.09466552734375, -0.02789306640625, -0.01214599609375, -0.0992431640625, 0.0263671875, 0.0428466796875, 0.0875244140625, 0.0667724609375, -0.0859375, -0.050628662109375, 0.1016845703125, 0.101806640625, -0.076904296875, -0.03985595703125, -0.0308837890625, -0.09149169921875, 0.07373046875, 0.022705078125, 0.0897216796875, -0.00616455078125, -0.0570068359375, 0.064208984375, -0.040863037109375, 0.0948486328125, 0.00299072265625, -0.0677490234375, 0.0450439453125, 0.03466796875, -0.0494384765625, -0.03271484375, -0.1014404296875, 0.06591796875, 0.0635986328125, -0.012939453125, -0.06817626953125, -0.0821533203125, -0.02093505859375, 0.0460205078125, 0.096923828125, 0.0897216796875, -0.09326171875, 0.0087890625, 0.0343017578125, -0.048828125, 0.04345703125, -0.03466796875, 0.060546875, -0.09326171875, -0.03607177734375, -0.03607177734375, 0.0626220703125, -0.07891845703125, 0.094482421875, -0.0255126953125, 0.024169921875, -0.07733154296875, 0.060546875, -0.0145263671875, -0.046234130859375, 0.0887451171875, -0.062744140625, -0.04364013671875, 0.0950927734375, -0.07354736328125, 0.0789794921875, 0.033935546875, -0.0938720703125, -0.095703125, -0.055999755859375, -0.0450439453125, 0.060791015625, -0.035888671875, 0.09326171875, -0.055419921875, -0.0220947265625, -0.012939453125, 0.0894775390625, 0.02032470703125, -0.0047607421875, 0.064208984375, -0.0386962890625, 0.0970458984375, -0.0472412109375, -0.06536865234375, 0.01116943359375, 0.0657958984375, 0.095703125, -0.05841064453125, 0.0753173828125, 0.0377197265625, 0.0321044921875, -0.061187744140625, -0.07952880859375, 0.0885009765625, -0.0308837890625, 0.031494140625, -0.0919189453125, -0.01715087890625, -0.07672119140625, 0.05224609375, -0.07794189453125, 0.0450439453125, 0.0362548828125, -0.06915283203125, -0.041259765625, 0.0301513671875, -0.01153564453125, -0.007568359375, 0.0538330078125, -0.01116943359375, 0.022705078125, 0.0677490234375, -0.09130859375, -0.0972900390625, 0.0875244140625, 0.01715087890625, 0.03125, 0.01995849609375, 0.0394287109375, 0.034912109375, 0.0318603515625, -0.0308837890625, -0.1014404296875, -0.0548095703125, -0.10186767578125, -0.07470703125, 0.016357421875, -0.055419921875, 0.01177978515625, 0.069580078125, -0.08831787109375, -0.0592041015625, 0.0657958984375, -0.008544921875, 0.093505859375, 0.07275390625, -0.0087890625, 0.01275634765625, -0.027099609375, 0.0296630859375, -0.055023193359375, -0.08709716796875, -0.0853271484375, -0.01434326171875, 0.0059814453125, 0.0496826171875, -0.07293701171875, -0.02532958984375, 0.0535888671875, -0.053802490234375, -0.09765625, 0.0386962890625, -0.01995849609375, -0.0601806640625, -0.0169677734375, 0.0794677734375, 0.022705078125, -0.09686279296875, -0.0970458984375, 0.0025634765625, 0.08447265625, 0.0252685546875, -0.08770751953125, 0.0557861328125, 0.0928955078125, 0.0377197265625, -0.050018310546875, 0.011962890625, -0.048431396484375, 0.0028076171875, -0.0201416015625, -0.0982666015625, -0.03485107421875, 0.054443359375, 0.0787353515625, -0.08489990234375, 0.0657958984375, 0.00958251953125, 0.0513916015625, -0.07354736328125, -0.0906982421875, -0.0771484375, -0.09326171875, 0.0321044921875, -0.01593017578125, -0.0948486328125, 0.0426025390625, -0.085693359375, 0.00018310546875, -0.0928955078125, -0.09149169921875, -0.011962890625, -0.0771484375, 0.094482421875, -0.050811767578125, 0.0828857421875, -0.045654296875], [0.02392578125, 0.100830078125, -0.0633544921875, 0.0145263671875, 0.022705078125, -0.02471923828125, 0.041259765625, 0.0771484375, 0.0452880859375, -0.0267333984375, 0.094482421875, 0.00897216796875, -0.044036865234375, -0.074951171875, -0.05242919921875, -0.0072021484375, 0.0377197265625, -0.0699462890625, -0.052032470703125, -0.0223388671875, -0.0787353515625, -0.00555419921875, 0.09033203125, -0.03326416015625, -0.09027099609375, -0.0677490234375, -0.0645751953125, 0.0699462890625, 0.0806884765625, 0.037841796875, 0.00518798828125, -0.011962890625, -0.02093505859375, 0.0816650390625, -0.09808349609375, -0.065185546875, -0.0711669921875, 0.0296630859375, -0.0220947265625, -0.007568359375, 0.028076171875, 0.0894775390625, 0.0821533203125, -0.00616455078125, -0.083740234375, 0.03369140625, 0.048828125, 0.017333984375, 0.01934814453125, 0.00836181640625, -0.0645751953125, -0.0107421875, -0.079345703125, -0.06695556640625, 0.0850830078125, -0.0245361328125, 0.02392578125, 0.0941162109375, -0.09649658203125, -0.0689697265625, -0.02392578125, 0.02130126953125, -0.05718994140625, -0.07037353515625, -0.051239013671875, 0.0289306640625, -0.0478515625, -0.00201416015625, 0.06494140625, 0.0535888671875, 0.0723876953125, 0.071533203125, 0.00933837890625, -0.00836181640625, -0.0428466796875, 0.0697021484375, 0.0396728515625, 0.0296630859375, -0.058807373046875, 0.06396484375, -0.0994873046875, 0.04248046875, -0.0472412109375, 0.01995849609375, -0.00799560546875, -0.00933837890625, 0.0157470703125, -0.028076171875, 0.0850830078125, 0.01336669921875, -0.09228515625, 0.028076171875, 0.01531982421875, 0.08349609375, -0.0699462890625, 0.09423828125, -0.00360107421875, -0.076171875, -0.0775146484375, -0.0299072265625, 0.027099609375, -0.00537109375, 0.041015625, -0.0948486328125, 0.0, 0.03466796875, -0.02313232421875, -0.04425048828125, -0.0135498046875, 0.0936279296875, 0.044677734375, 0.0400390625, -0.0919189453125, 0.01556396484375, -0.04266357421875, -0.09326171875, 0.0821533203125, -0.05560302734375, -0.05322265625, -0.08447265625, 0.08544921875, -0.0321044921875, -0.093505859375, -0.031494140625, 0.044677734375, 0.00341796875, -0.00140380859375, 0.00799560546875, 0.0986328125, 0.0838623046875, -0.08551025390625, 0.09228515625, -0.05718994140625, 0.0087890625, 0.0390625, 0.0982666015625, -0.0233154296875, 0.098876953125, -0.02410888671875, 0.04248046875, -0.03924560546875, 0.0491943359375, 0.0595703125, 0.09033203125, 0.0321044921875, 0.01153564453125, -0.00836181640625, 0.006591796875, 0.0703125, -0.08990478515625, -0.00836181640625, -0.0157470703125, -0.06219482421875, 0.0362548828125, -0.0614013671875, -0.054412841796875, -0.0364990234375, 0.008544921875, 0.0718994140625, 0.008544921875, -0.08111572265625, 0.01995849609375, -0.01513671875, 0.096923828125, 0.0430908203125, -0.10064697265625, -0.080322265625, 0.0416259765625, 0.028076171875, -0.00439453125, 0.0906982421875, 0.0072021484375, 0.0145263671875, -0.06640625, 0.0811767578125, 0.0047607421875, -0.0157470703125, -0.0396728515625, 0.0556640625, 0.0882568359375, 0.1014404296875, 0.101806640625, -0.016357421875, -0.0205078125, -0.04266357421875, 0.034912109375, -0.048248291015625, 0.0091552734375, 0.081298828125, 0.0185546875, -0.065185546875, -0.03948974609375, 0.0721435546875, 0.0828857421875, -0.028076171875, 0.0123291015625, -0.022705078125, 0.00994873046875, 0.01513671875, 0.09130859375, -0.06695556640625, -0.04583740234375, 0.09326171875, -0.03466796875, 0.0718994140625, 0.01751708984375, -0.02947998046875, -0.031494140625, -0.08489990234375, -0.00579833984375, -0.04864501953125, 0.0355224609375, -0.0157470703125, 0.041259765625, 0.068359375, -0.07513427734375, -0.0157470703125, 0.0157470703125, 0.0255126953125, -0.043060302734375, -0.05938720703125, -0.03167724609375, -0.06640625, 0.093505859375, 0.058837890625, 0.00396728515625, -0.086669921875, 0.0703125, 0.1011962890625, 0.0841064453125, -0.06640625, 0.0692138671875, 0.0860595703125, 0.0875244140625, -0.053802490234375, 0.0799560546875, -0.06536865234375, 0.0408935546875, -0.09747314453125, -0.022705078125, -0.0374755859375, 0.0709228515625, 0.00616455078125, 0.0394287109375, -0.01513671875, -0.076171875, -0.00555419921875, 0.093505859375, 0.094482421875, -0.02191162109375, -0.0799560546875, 0.0816650390625, -0.08392333984375, 0.0919189453125, -0.095703125, 0.043212890625, 0.02093505859375, 0.026123046875, 0.032470703125, -0.021728515625, 0.0692138671875, 0.0611572265625, 0.01513671875, -0.0645751953125, 0.085693359375, 0.0721435546875, -0.10003662109375, 0.01434326171875, 0.056396484375, 0.0474853515625, 0.0797119140625, 0.060546875, 0.01177978515625, 0.0594482421875, 0.027099609375, -0.0009765625, -0.07855224609375, -0.05999755859375, 0.087890625, 0.08984375, -0.02252197265625, -0.079345703125, 0.0179443359375, -0.045440673828125, 0.01177978515625, 0.068115234375, 0.09521484375, -0.0362548828125, -0.01416015625, -0.0711669921875, -0.041046142578125, 0.01873779296875, -0.09228515625, -0.02093505859375, 0.0869140625, 0.00299072265625, -0.09307861328125, 0.0677490234375, 0.0643310546875, 0.0958251953125, -0.07574462890625, 0.0966796875, 0.0645751953125, 0.064208984375, -0.0667724609375, 0.023681640625, 0.072509765625, -0.0928955078125, -0.01336669921875, -0.00457763671875, -0.0948486328125, -0.02728271484375, 0.02294921875, 0.0107421875, 0.0579833984375, -0.0191650390625, 0.0263671875, 0.078369140625, 0.029541015625, 0.0679931640625], [0.048583984375, -0.046051025390625, -0.03326416015625, -0.03729248046875, -0.00634765625, 0.044189453125, 0.003173828125, 0.0677490234375, 0.00616455078125, 0.0361328125, 0.097900390625, 0.055419921875, 0.06103515625, -0.011962890625, 0.0731201171875, 0.063232421875, 0.04248046875, 0.0797119140625, -0.0330810546875, -0.00299072265625, 0.0811767578125, -0.0787353515625, 0.028076171875, 0.097900390625, 0.0421142578125, -0.0648193359375, 0.0283203125, 0.0205078125, 0.04443359375, -0.0428466796875, -0.01214599609375, -0.06640625, -0.002197265625, 0.00836181640625, 0.082275390625, -0.00799560546875, 0.01055908203125, 0.0775146484375, -0.09466552734375, -0.065185546875, 0.061767578125, -0.05718994140625, 0.0516357421875, -0.09051513671875, -0.06976318359375, 0.095703125, 0.0384521484375, 0.02252197265625, -0.0157470703125, 0.0491943359375, -0.07891845703125, -0.06817626953125, 0.0380859375, -0.0888671875, 0.0528564453125, 0.0428466796875, -0.0665283203125, -0.0283203125, 0.0860595703125, 0.03271484375, -0.0504150390625, -0.0308837890625, -0.011962890625, 0.0718994140625, 0.04443359375, -0.061798095703125, -0.056396484375, -0.053619384765625, -0.00396728515625, -0.0926513671875, -0.05322265625, -0.04583740234375, -0.0380859375, -0.016357421875, -0.01934814453125, -0.03985595703125, 0.0909423828125, 0.066162109375, -0.09368896484375, -0.0167236328125, 0.041015625, 0.0394287109375, -0.04364013671875, -0.0267333984375, 0.0103759765625, -0.056396484375, -0.01873779296875, 0.0570068359375, -0.07293701171875, -0.0374755859375, 0.0667724609375, -0.06298828125, -0.07891845703125, -0.03509521484375, 0.0570068359375, -0.049041748046875, 0.09130859375, 0.068359375, 0.0853271484375, -0.03570556640625, -0.08154296875, -0.0362548828125, 0.0311279296875, 0.0006103515625, 0.07177734375, 0.027099609375, 0.029052734375, -0.03466796875, -0.0721435546875, 0.0399169921875, 0.0721435546875, 0.0394287109375, -0.0623779296875, 0.068603515625, 0.0560302734375, -0.053802490234375, -0.00579833984375, 0.0091552734375, -0.0635986328125, -0.0711669921875, -0.0875244140625, -0.037841796875, 0.00994873046875, -0.08709716796875, -0.07794189453125, -0.03326416015625, -0.0791015625, 0.054443359375, 0.03271484375, 0.0406494140625, 0.1016845703125, 0.02191162109375, 0.053955078125, -0.0069580078125, -0.095703125, 0.0894775390625, 0.06103515625, -0.0386962890625, -0.021728515625, 0.0806884765625, 0.0430908203125, -0.01776123046875, -0.02130126953125, 0.0330810546875, -0.05999755859375, -0.0576171875, 0.02392578125, 0.0670166015625, -0.100830078125, -0.05419921875, -0.04962158203125, -0.06817626953125, 0.0352783203125, -0.07794189453125, 0.041259765625, 0.092529296875, -0.09429931640625, 0.0833740234375, 0.0372314453125, -0.00518798828125, 0.035888671875, 0.0091552734375, 0.0201416015625, -0.06317138671875, 0.0242919921875, 0.053955078125, -0.031494140625, -0.01513671875, 0.0721435546875, 0.0191650390625, 0.04248046875, -0.02191162109375, 0.053466796875, 0.0306396484375, 0.0245361328125, 0.0689697265625, 0.084716796875, 0.033447265625, -0.083740234375, -0.07794189453125, -0.09625244140625, 0.02685546875, -0.093505859375, -0.0948486328125, -0.0723876953125, 0.0167236328125, -0.00518798828125, 0.028076171875, -0.08990478515625, -0.056793212890625, -0.04205322265625, -0.0689697265625, 0.0384521484375, -0.10064697265625, 0.0751953125, -0.040252685546875, 0.076904296875, -0.07257080078125, -0.086669921875, -0.01873779296875, 0.0767822265625, 0.01214599609375, -0.049835205078125, 0.0374755859375, -0.03924560546875, -0.0233154296875, 0.008544921875, -0.06060791015625, 0.0947265625, -0.0255126953125, -0.040863037109375, 0.037109375, 0.01153564453125, -0.0960693359375, 0.00238037109375, -0.0201416015625, -0.02691650390625, -0.060394287109375, -0.01953125, 0.00018310546875, -0.0777587890625, -0.036865234375, -0.09149169921875, -0.030517578125, -0.058197021484375, 0.0894775390625, 0.063232421875, -0.06597900390625, 0.0914306640625, -0.0872802734375, 0.048828125, -0.052032470703125, 0.0263671875, 0.09033203125, -0.04864501953125, 0.0501708984375, -0.0220947265625, -0.0869140625, 0.0789794921875, 0.09521484375, 0.092041015625, -0.01397705078125, -0.076904296875, -0.0775146484375, 0.1004638671875, -0.06317138671875, -0.0986328125, -0.04046630859375, 0.00579833984375, 0.08056640625, 0.0567626953125, -0.076904296875, 0.05078125, -0.03009033203125, -0.0135498046875, -0.09246826171875, 0.0753173828125, -0.10107421875, -0.10205078125, 0.0296630859375, -0.07293701171875, 0.030517578125, 0.05224609375, 0.0015869140625, -0.0516357421875, 0.0506591796875, -0.10107421875, -0.07373046875, 0.0570068359375, 0.078125, 0.06103515625, -0.001220703125, -0.06060791015625, 0.04248046875, -0.044036865234375, 0.024658203125, 0.087890625, 0.08056640625, -0.078125, -0.03289794921875, 0.0390625, -0.0633544921875, 0.00042724609375, 0.048583984375, -0.0428466796875, 0.0693359375, 0.044677734375, -0.0091552734375, 0.0595703125, 0.01617431640625, 0.0909423828125, 0.0523681640625, 0.0740966796875, 0.061767578125, -0.0028076171875, -0.09808349609375, -0.048431396484375, -0.047637939453125, 0.040283203125, -0.08154296875, -0.068359375, -0.01153564453125, -0.10162353515625, 0.075927734375, 0.0179443359375, 0.00634765625, 0.0960693359375, 0.087646484375, 0.08251953125, 0.01397705078125, -0.029296875, -0.01513671875, -0.06695556640625, -0.05560302734375, -0.08270263671875, 0.0125732421875, -0.07293701171875, 0.053466796875, -0.00201416015625, 0.05322265625], [0.024169921875, 0.084716796875, 0.02032470703125, -0.0665283203125, -0.0723876953125, 0.0050048828125, -0.05859375, 0.01019287109375, 0.0361328125, -0.0362548828125, -0.05560302734375, 0.01019287109375, -0.0113525390625, -0.08990478515625, 0.0513916015625, -0.03106689453125, 0.00933837890625, 0.0751953125, -0.068359375, 0.1007080078125, -0.0828857421875, -0.0081787109375, -0.065185546875, 0.0545654296875, -0.03369140625, 0.0789794921875, -0.0362548828125, 0.0372314453125, 0.01495361328125, -0.0299072265625, 0.03466796875, 0.0986328125, -0.055999755859375, -0.02191162109375, 0.02490234375, -0.00360107421875, 0.0538330078125, -0.01318359375, 0.0733642578125, -0.0025634765625, 0.010986328125, 0.079345703125, 0.0333251953125, -0.05859375, -0.03509521484375, 0.0711669921875, 0.0753173828125, -0.09527587890625, -0.01397705078125, 0.0635986328125, -0.0821533203125, 0.041015625, 0.0938720703125, 0.0753173828125, -0.0340576171875, -0.02569580078125, 0.0496826171875, 0.06201171875, -0.093505859375, -0.044036865234375, 0.0733642578125, 0.04345703125, 0.0926513671875, 0.02294921875, 0.0863037109375, 0.092041015625, -0.00299072265625, -0.062744140625, 0.0438232421875, 0.0909423828125, 0.0947265625, 0.0386962890625, 0.0648193359375, -0.0330810546875, -0.02490234375, -0.08990478515625, -0.09686279296875, 0.0888671875, 0.0201416015625, -0.058990478515625, 0.0299072265625, -0.048248291015625, -0.10107421875, 0.01373291015625, 0.034423828125, -0.068359375, -0.049224853515625, 0.009765625, 0.03125, -0.0765380859375, -0.02972412109375, 0.053466796875, 0.0849609375, -0.095703125, -0.06976318359375, 0.049072265625, -0.079345703125, 0.0797119140625, 0.0689697265625, -0.05419921875, -0.017333984375, 0.086669921875, 0.00958251953125, 0.043701171875, -0.011962890625, -0.0233154296875, -0.050811767578125, -0.0299072265625, 0.043701171875, -0.058197021484375, -0.0633544921875, -0.07855224609375, 0.0223388671875, -0.06378173828125, 0.0377197265625, -0.058990478515625, 0.0286865234375, -0.01373291015625, -0.02508544921875, -0.0897216796875, -0.00396728515625, 0.059814453125, -0.0472412109375, -0.0223388671875, 0.01275634765625, 0.00201416015625, 0.06494140625, 0.09228515625, 0.008544921875, 0.063232421875, -0.06060791015625, -0.0386962890625, -0.00360107421875, 0.091064453125, 0.03564453125, 0.0841064453125, -0.020751953125, -0.055419921875, -0.098876953125, 0.081298828125, 0.01373291015625, -0.02349853515625, -0.0428466796875, 0.0211181640625, -0.02789306640625, -0.00616455078125, -0.09808349609375, -0.06817626953125, -0.0687255859375, -0.05401611328125, 0.0751953125, -0.09228515625, 0.047607421875, -0.0242919921875, 0.085693359375, 0.0838623046875, 0.00360107421875, 0.100830078125, 0.0185546875, -0.0841064453125, -0.031494140625, 0.0885009765625, 0.0025634765625, 0.0059814453125, 0.0872802734375, -0.0916748046875, 0.0740966796875, 0.0535888671875, 0.00360107421875, 0.10107421875, 0.00238037109375, 0.02587890625, 0.012939453125, -0.04803466796875, -0.04644775390625, 0.051025390625, -0.00396728515625, 0.0838623046875, 0.0693359375, -0.051239013671875, 0.1014404296875, -0.02789306640625, -0.06158447265625, -0.02294921875, 0.029052734375, -0.0081787109375, -0.0157470703125, 0.0081787109375, -0.0721435546875, -0.03369140625, -0.06756591796875, -0.0087890625, 0.0799560546875, -0.0125732421875, 0.0504150390625, -0.07891845703125, 0.09130859375, -0.0223388671875, 0.00738525390625, -0.08251953125, -0.007568359375, 0.040283203125, -0.0450439453125, -0.041046142578125, -0.03509521484375, -0.049224853515625, -0.0396728515625, -0.047027587890625, -0.05462646484375, 0.0274658203125, -0.00677490234375, -0.053802490234375, 0.0784912109375, 0.043212890625, 0.0809326171875, 0.080078125, 0.05517578125, 0.01531982421875, 0.0185546875, 0.0113525390625, 0.0771484375, -0.0673828125, -0.080322265625, -0.02532958984375, 0.0604248046875, -0.02130126953125, -0.05999755859375, 0.070556640625, 0.0302734375, 0.05615234375, 0.02032470703125, 0.060791015625, 0.044677734375, 0.0592041015625, 0.05615234375, 0.0677490234375, 0.059814453125, -0.00439453125, 0.0733642578125, 0.0709228515625, -0.0693359375, -0.00555419921875, -0.08990478515625, 0.01715087890625, 0.05322265625, -0.067138671875, -0.09625244140625, -0.05242919921875, -0.0986328125, 0.022705078125, -0.02850341796875, 0.01934814453125, 0.044189453125, -0.095458984375, 0.094482421875, 0.096923828125, 0.01116943359375, -0.020751953125, -0.01654052734375, 0.0103759765625, 0.01995849609375, -0.07037353515625, -0.02313232421875, 0.076904296875, -0.066162109375, -0.0938720703125, 0.0872802734375, 0.00775146484375, -0.056610107421875, 0.01336669921875, -0.04583740234375, -0.00555419921875, -0.056396484375, -0.07415771484375, 0.0643310546875, -0.02947998046875, -0.043060302734375, 0.066162109375, 0.0538330078125, 0.02032470703125, 0.0191650390625, 0.0059814453125, -0.07452392578125, -0.042266845703125, 0.0614013671875, 0.0635986328125, 0.0762939453125, -0.061981201171875, 0.05419921875, -0.07415771484375, -0.02093505859375, -0.07293701171875, 0.1014404296875, -0.018310546875, 0.01019287109375, -0.066162109375, -0.068603515625, -0.0960693359375, 0.0264892578125, -0.07891845703125, 0.1007080078125, -0.04962158203125, 0.0794677734375, -0.0916748046875, -0.0777587890625, 0.07470703125, 0.0277099609375, 0.0421142578125, -0.051422119140625, 0.083740234375, 0.0252685546875, -0.030517578125, 0.00677490234375, -0.0731201171875, 0.0850830078125, -0.0665283203125, 0.0364990234375, -0.036865234375, 0.0113525390625, 0.094482421875], [0.0709228515625, 0.0230712890625, 0.0050048828125, 0.0516357421875, 0.063720703125, -0.0277099609375, -0.0614013671875, -0.0504150390625, -0.03826904296875, 0.101806640625, -0.027099609375, -0.07470703125, -0.0677490234375, -0.08709716796875, -0.083740234375, -0.02410888671875, 0.05322265625, -0.07574462890625, 0.049072265625, 0.070556640625, -0.040863037109375, -0.07080078125, 0.0535888671875, -0.05340576171875, -0.05859375, -0.02374267578125, -0.00579833984375, -0.09765625, -0.03070068359375, 0.00299072265625, 0.0299072265625, -0.0205078125, -0.03466796875, -0.042266845703125, -0.0006103515625, -0.059600830078125, -0.0986328125, -0.0791015625, -0.0777587890625, -0.0308837890625, 0.01055908203125, -0.053802490234375, 0.0516357421875, 0.028076171875, -0.080322265625, -0.075927734375, 0.094482421875, -0.058990478515625, -0.03106689453125, -0.090087890625, 0.0538330078125, 0.0113525390625, 0.055419921875, -0.0330810546875, -0.0853271484375, 0.0343017578125, 0.0516357421875, -0.03271484375, -0.06976318359375, 0.0189208984375, 0.029052734375, -0.0853271484375, -0.0191650390625, -0.08331298828125, -0.042449951171875, -0.098876953125, 0.08349609375, 0.0859375, 0.0550537109375, -0.080322265625, 0.0914306640625, -0.0733642578125, -0.10064697265625, 0.02490234375, 0.025146484375, -0.03765869140625, 0.0621337890625, -0.03607177734375, 0.036865234375, 0.01275634765625, -0.07080078125, -0.0753173828125, 0.0697021484375, 0.082275390625, -0.07415771484375, -0.093505859375, -0.040863037109375, -0.0343017578125, 0.066162109375, -0.0863037109375, 0.0308837890625, 0.072509765625, -0.04266357421875, -0.0689697265625, -0.074951171875, 0.0361328125, -0.01776123046875, -0.0283203125, 0.00799560546875, -0.00140380859375, 0.0028076171875, -0.05841064453125, 0.0579833984375, 0.0426025390625, -0.0386962890625, -0.10107421875, -0.02972412109375, -0.0673828125, 0.04638671875, -0.07275390625, -0.04266357421875, -0.08331298828125, 0.01513671875, 0.0570068359375, 0.0501708984375, 0.073974609375, 0.0296630859375, -0.0655517578125, 0.00958251953125, 0.0274658203125, 0.0869140625, -0.0623779296875, 0.068359375, -0.07672119140625, -0.06597900390625, 0.0799560546875, 0.082763671875, -0.03607177734375, -0.1004638671875, 0.0784912109375, -0.01055908203125, -0.07952880859375, -0.05841064453125, -0.032470703125, 0.0909423828125, 0.038330078125, 0.05078125, 0.041259765625, 0.0972900390625, 0.0526123046875, -0.08349609375, -0.10205078125, -0.041656494140625, 0.01715087890625, -0.03948974609375, 0.00079345703125, -0.06976318359375, 0.058837890625, 0.0235595703125, 0.1002197265625, -0.09625244140625, -0.07037353515625, -0.02093505859375, -0.0897216796875, 0.0081787109375, 0.00958251953125, 0.02685546875, -0.0478515625, -0.03509521484375, 0.0462646484375, 0.0047607421875, -0.07177734375, 0.047607421875, -0.029296875, -0.06597900390625, 0.0919189453125, -0.01531982421875, -0.042266845703125, -0.0894775390625, 0.0838623046875, -0.02850341796875, -0.02392578125, -0.0081787109375, 0.0657958984375, 0.01617431640625, -0.0787353515625, -0.0169677734375, 0.0498046875, 0.01953125, -0.09210205078125, -0.0853271484375, 0.0482177734375, -0.08392333984375, 0.0838623046875, 0.012939453125, -0.0069580078125, 0.0703125, -0.0189208984375, 0.0223388671875, -0.054412841796875, -0.065185546875, 0.00421142578125, 0.00634765625, 0.0897216796875, -0.06756591796875, -0.0267333984375, 0.0635986328125, -0.02850341796875, 0.0191650390625, 0.0869140625, 0.0545654296875, 0.046875, 0.077392578125, -0.10107421875, 0.0784912109375, 0.00396728515625, -0.0576171875, -0.04644775390625, -0.0028076171875, 0.0201416015625, 0.06201171875, 0.081298828125, -0.08392333984375, 0.1014404296875, 0.0374755859375, -0.078369140625, 0.036865234375, 0.0872802734375, 0.070556640625, -0.006591796875, -0.032470703125, 0.0501708984375, 0.0970458984375, -0.0966796875, -0.058197021484375, -0.06695556640625, 0.0931396484375, -0.01336669921875, -0.03167724609375, 0.0123291015625, -0.06817626953125, -0.051025390625, -0.08233642578125, 0.0745849609375, -0.0633544921875, 0.01812744140625, -0.0797119140625, 0.0626220703125, -0.0516357421875, -0.049224853515625, -0.01416015625, -0.01055908203125, 0.0430908203125, -0.03466796875, -0.002197265625, 0.011962890625, 0.0592041015625, 0.0513916015625, 0.0318603515625, -0.04205322265625, 0.0230712890625, -0.01953125, 0.0535888671875, 0.0765380859375, 0.048095703125, 0.06591796875, 0.035888671875, -0.03167724609375, -0.065185546875, -0.0960693359375, 0.099609375, 0.00042724609375, 0.0025634765625, -0.0185546875, 0.069580078125, 0.075927734375, -0.081298828125, -0.029296875, 0.036865234375, 0.0621337890625, 0.08935546875, 0.05126953125, -0.06640625, 0.01336669921875, 0.04638671875, -0.051239013671875, -0.073974609375, -0.07415771484375, -0.00677490234375, 0.0960693359375, -0.0330810546875, 0.0938720703125, 0.09228515625, 0.01873779296875, -0.0242919921875, 0.091064453125, 0.00421142578125, -0.0308837890625, 0.05419921875, 0.082763671875, 0.0888671875, -0.07037353515625, 0.0513916015625, -0.059783935546875, -0.0699462890625, 0.026123046875, 0.00018310546875, -0.01971435546875, 0.052001953125, 0.09521484375, 0.01556396484375, -0.099853515625, 0.0897216796875, 0.0751953125, -0.0926513671875, 0.024658203125, -0.0831298828125, 0.0361328125, -0.059600830078125, -0.081298828125, 0.0528564453125, -0.055816650390625, 0.0806884765625, -0.0123291015625, -0.0302734375, -0.074951171875, 0.0926513671875, 0.01934814453125, 0.071533203125, 0.101806640625], [0.087158203125, 0.0677490234375, -0.046630859375, -0.09906005859375, 0.08447265625, 0.06494140625, 0.0123291015625, -0.00933837890625, -0.0819091796875, -0.0289306640625, -0.05621337890625, -0.0986328125, 0.0897216796875, 0.0037841796875, -0.04364013671875, -0.048828125, 0.0496826171875, -0.02294921875, 0.00238037109375, 0.0667724609375, 0.0396728515625, -0.0343017578125, 0.003173828125, 0.02154541015625, 0.0784912109375, -0.0689697265625, -0.079345703125, -0.0289306640625, -0.043853759765625, 0.08056640625, 0.0277099609375, 0.09521484375, 0.04150390625, 0.00238037109375, -0.087890625, -0.05780029296875, 0.08984375, -0.03570556640625, 0.05078125, 0.035888671875, -0.085693359375, -0.0318603515625, 0.051025390625, 0.1016845703125, 0.0928955078125, 0.0594482421875, 0.0806884765625, -0.09027099609375, 0.023681640625, 0.047607421875, -0.060791015625, -0.10028076171875, 0.1004638671875, -0.044036865234375, 0.0718994140625, -0.03887939453125, 0.09912109375, 0.02734375, -0.029296875, -0.056793212890625, 0.08154296875, 0.0255126953125, -0.0006103515625, 0.0015869140625, 0.0377197265625, 0.0528564453125, 0.0263671875, -0.03289794921875, -0.043243408203125, 0.04541015625, -0.01318359375, 0.0697021484375, 0.0047607421875, -0.09088134765625, 0.0179443359375, 0.0645751953125, 0.09228515625, 0.0350341796875, 0.0601806640625, -0.08447265625, 0.0462646484375, 0.0938720703125, 0.101806640625, 0.077880859375, -0.0364990234375, -0.07275390625, 0.0736083984375, -0.070556640625, -0.079345703125, 0.009765625, 0.0081787109375, -0.0245361328125, -0.05621337890625, 0.01873779296875, -0.0277099609375, -0.08013916015625, -0.0211181640625, -0.09765625, 0.0355224609375, 0.033447265625, 0.02294921875, -0.049835205078125, 0.0679931640625, 0.10107421875, -0.0343017578125, 0.00775146484375, -0.01776123046875, 0.00579833984375, -0.080322265625, -0.0321044921875, -0.10125732421875, -0.04266357421875, -0.006591796875, -0.0699462890625, 0.055419921875, -0.08154296875, -0.0753173828125, -0.09844970703125, 0.0328369140625, 0.07568359375, -0.0897216796875, 0.02130126953125, -0.02252197265625, -0.04046630859375, -0.02691650390625, 0.039306640625, 0.01318359375, 0.087646484375, 0.0557861328125, 0.0985107421875, 0.0006103515625, 0.0863037109375, 0.072509765625, 0.05419921875, -0.0673828125, -0.0028076171875, 0.084716796875, 0.0548095703125, 0.099853515625, 0.06640625, -0.020751953125, 0.01934814453125, -0.01873779296875, -0.069580078125, 0.0557861328125, 0.0384521484375, 0.0513916015625, 0.0311279296875, -0.03704833984375, -0.0928955078125, 0.090087890625, 0.0833740234375, 0.056640625, 0.049072265625, -0.04644775390625, -0.06378173828125, -0.07177734375, -0.06976318359375, -0.07373046875, 0.045654296875, 0.0372314453125, -0.020751953125, -0.06695556640625, -0.00775146484375, 0.039306640625, 0.045654296875, 0.0777587890625, -0.071533203125, -0.0872802734375, -0.0819091796875, -0.07196044921875, -0.06317138671875, 0.00360107421875, -0.0072021484375, -0.061187744140625, 0.0914306640625, -0.06536865234375, -0.01556396484375, -0.0364990234375, -0.093505859375, -0.0859375, 0.01318359375, 0.0982666015625, 0.00042724609375, -0.0859375, 0.064208984375, -0.017333984375, 0.0849609375, 0.0850830078125, 0.028076171875, 0.0286865234375, -0.0897216796875, -0.03485107421875, -0.0245361328125, 0.0025634765625, -0.091064453125, -0.04266357421875, 0.01153564453125, -0.056610107421875, 0.082763671875, -0.0771484375, -0.0025634765625, -0.04144287109375, 0.046875, 0.0743408203125, 0.0579833984375, 0.05126953125, -0.09228515625, -0.09326171875, -0.03948974609375, -0.02294921875, 0.0235595703125, -0.041259765625, 0.0579833984375, 0.00775146484375, -0.01715087890625, -0.0982666015625, 0.05224609375, -0.01416015625, -0.046051025390625, -0.0340576171875, 0.00933837890625, 0.0869140625, 0.08984375, 0.0504150390625, -0.0384521484375, -0.060791015625, 0.0767822265625, 0.0103759765625, 0.0377197265625, 0.0657958984375, 0.0986328125, -0.0755615234375, -0.08172607421875, 0.09033203125, -0.044647216796875, 0.0135498046875, 0.0352783203125, -0.06597900390625, 0.0797119140625, 0.0430908203125, 0.037109375, -0.00360107421875, -0.012939453125, 0.05224609375, 0.00738525390625, 0.0087890625, 0.0438232421875, -0.07080078125, 0.0985107421875, -0.00677490234375, -0.09527587890625, 0.0372314453125, -0.0994873046875, 0.0257568359375, -0.0267333984375, 0.0450439453125, -0.049835205078125, -0.0888671875, 0.087646484375, -0.079345703125, -0.01214599609375, -0.0626220703125, 0.05126953125, 0.00341796875, 0.0123291015625, -0.051422119140625, -0.09405517578125, 0.023681640625, 0.069580078125, -0.0665283203125, 0.038330078125, -0.0157470703125, -0.0986328125, 0.0494384765625, 0.0833740234375, -0.10107421875, -0.0709228515625, -0.078125, 0.0528564453125, 0.0528564453125, 0.0736083984375, -0.075927734375, 0.070556640625, -0.058807373046875, 0.0484619140625, -0.066162109375, -0.07257080078125, -0.01495361328125, -0.01177978515625, 0.01953125, -0.03570556640625, 0.0372314453125, 0.048583984375, 0.00341796875, -0.07891845703125, 0.058837890625, 0.0147705078125, 0.00018310546875, 0.0377197265625, -0.0859375, 0.0611572265625, -0.00958251953125, -0.012939453125, -0.00933837890625, 0.0469970703125, 0.01934814453125, -0.0916748046875, -0.08807373046875, 0.0677490234375, -0.05560302734375, 0.00341796875, 0.002197265625, 0.0438232421875, 0.0567626953125, 0.05224609375, -0.05938720703125, -0.01751708984375, -0.03546142578125, -0.08392333984375], [0.0421142578125, 0.0091552734375, 0.0169677734375, 0.01715087890625, -0.0179443359375, -0.076904296875, -0.0592041015625, 0.0882568359375, 0.0980224609375, -0.09405517578125, 0.0753173828125, -0.0753173828125, 0.095703125, -0.062744140625, -0.049041748046875, -0.05023193359375, 0.048095703125, -0.062744140625, -0.0966796875, -0.017333984375, 0.0767822265625, 0.0699462890625, -0.00579833984375, 0.048583984375, -0.03289794921875, 0.02294921875, 0.0655517578125, 0.01373291015625, 0.0494384765625, 0.065185546875, -0.055816650390625, -0.0123291015625, 0.099609375, 0.01318359375, -0.00616455078125, -0.041259765625, -0.051025390625, 0.0323486328125, 0.0657958984375, 0.01055908203125, 0.0252685546875, -0.0245361328125, 0.0284423828125, 0.011962890625, -0.06494140625, -0.057403564453125, -0.02374267578125, -0.09130859375, 0.0703125, -0.0777587890625, -0.054412841796875, -0.045654296875, -0.03546142578125, -0.08392333984375, 0.06640625, 0.0567626953125, -0.03369140625, -0.03509521484375, -0.0828857421875, 0.0377197265625, 0.00634765625, 0.0482177734375, -0.09844970703125, -0.080322265625, 0.0751953125, 0.0233154296875, 0.0301513671875, 0.082275390625, 0.0390625, 0.00616455078125, -0.06756591796875, 0.0113525390625, -0.0721435546875, 0.1007080078125, -0.07293701171875, -0.047637939453125, 0.0484619140625, 0.071533203125, 0.0872802734375, 0.02490234375, -0.07275390625, -0.0791015625, 0.00518798828125, -0.094482421875, -0.08648681640625, 0.0538330078125, 0.0677490234375, -0.017333984375, -0.054412841796875, 0.0831298828125, 0.00201416015625, 0.10107421875, 0.071533203125, 0.082763671875, -0.043243408203125, 0.001220703125, -0.0928955078125, 0.0985107421875, 0.0809326171875, -0.07373046875, -0.0701904296875, 0.0718994140625, 0.0025634765625, -0.06756591796875, 0.057861328125, -0.041046142578125, -0.06536865234375, 0.0103759765625, -0.0626220703125, -0.0069580078125, 0.0440673828125, -0.02532958984375, -0.045257568359375, -0.0665283203125, 0.0408935546875, -0.0677490234375, 0.0469970703125, 0.070556640625, -0.00439453125, 0.0794677734375, -0.07952880859375, -0.0289306640625, 0.0406494140625, 0.0538330078125, 0.0147705078125, 0.047607421875, 0.0648193359375, -0.00140380859375, -0.075927734375, 0.0888671875, 0.0831298828125, 0.00518798828125, -0.056793212890625, 0.09130859375, 0.0762939453125, 0.0438232421875, -0.0147705078125, -0.071533203125, 0.029296875, -0.055206298828125, 0.037841796875, 0.0374755859375, -0.0576171875, -0.09844970703125, 0.01593017578125, -0.0570068359375, -0.0233154296875, 0.076171875, 0.0589599609375, 0.0985107421875, 0.0167236328125, 0.07568359375, -0.045257568359375, 0.0740966796875, -0.01495361328125, -0.05242919921875, -0.0689697265625, 0.0950927734375, 0.0518798828125, -0.053802490234375, 0.0941162109375, -0.00634765625, -0.01513671875, 0.068603515625, -0.0103759765625, -0.00079345703125, -0.0302734375, 0.07275390625, -0.0665283203125, -0.05718994140625, 0.0916748046875, -0.01873779296875, -0.08233642578125, -0.061981201171875, -0.0775146484375, 0.024658203125, 0.0377197265625, -0.10186767578125, -0.03387451171875, 0.0941162109375, -0.055816650390625, -0.0179443359375, -0.0982666015625, -0.0753173828125, 0.0037841796875, -0.03826904296875, -0.073974609375, -0.02130126953125, 0.0960693359375, -0.060394287109375, 0.0703125, -0.09625244140625, 0.0205078125, 0.068115234375, 0.0909423828125, -0.0888671875, -0.055816650390625, 0.079345703125, -0.0169677734375, 0.0220947265625, 0.0504150390625, 0.0849609375, 0.012939453125, 0.0985107421875, 0.0384521484375, 0.06591796875, 0.01934814453125, -0.047027587890625, 0.01995849609375, 0.0648193359375, -0.08428955078125, 0.01934814453125, 0.031494140625, 0.0767822265625, 0.092529296875, 0.0223388671875, -0.051422119140625, -0.01434326171875, -0.0321044921875, 0.021728515625, -0.0986328125, 0.099609375, 0.06640625, -0.09149169921875, 0.058349609375, -0.05419921875, 0.037841796875, -0.0179443359375, -0.031494140625, 0.05859375, -0.0179443359375, 0.059814453125, 0.01953125, -0.00799560546875, -0.0450439453125, -0.061004638671875, -0.079345703125, 0.068115234375, -0.067138671875, 0.046630859375, 0.048095703125, -0.01373291015625, -0.0050048828125, 0.061767578125, 0.01776123046875, -0.0894775390625, -0.018310546875, -0.027099609375, 0.0579833984375, 0.0069580078125, -0.0799560546875, 0.001220703125, -0.03369140625, -0.047027587890625, -0.0081787109375, -0.07513427734375, 0.045654296875, 0.01434326171875, 0.01873779296875, 0.059814453125, -0.08172607421875, -0.09246826171875, -0.00341796875, 0.0380859375, 0.0028076171875, 0.00518798828125, 0.0235595703125, -0.0689697265625, 0.01995849609375, 0.0731201171875, 0.0950927734375, 0.0472412109375, 0.0283203125, 0.0731201171875, -0.0059814453125, 0.0831298828125, -0.0167236328125, 0.0811767578125, -0.02191162109375, 0.0418701171875, 0.074951171875, -0.0592041015625, 0.051025390625, -0.047637939453125, -0.0223388671875, -0.076904296875, -0.091064453125, -0.0614013671875, -0.02728271484375, 0.0567626953125, -0.03485107421875, -0.03668212890625, 0.0516357421875, 0.0655517578125, -0.03228759765625, -0.001220703125, -0.08349609375, -0.01153564453125, -0.05859375, 0.0904541015625, -0.0343017578125, 0.0494384765625, -0.05462646484375, 0.02392578125, -0.0743408203125, -0.01873779296875, 0.0113525390625, 0.0936279296875, 0.057373046875, 0.046875, 0.0179443359375, 0.1016845703125, -0.05938720703125, 0.080322265625, -0.0299072265625, -0.061981201171875, 0.0343017578125, -0.060394287109375, 0.0582275390625, -0.07470703125], [-0.01513671875, 0.0257568359375, 0.057373046875, 0.0947265625, -0.008544921875, -0.100830078125, -0.03485107421875, 0.025146484375, -0.01531982421875, 0.0771484375, -0.0242919921875, -0.0916748046875, 0.0421142578125, 0.06201171875, -0.0362548828125, 0.076904296875, -0.01214599609375, -0.053619384765625, 0.0308837890625, -0.10064697265625, 0.036865234375, 0.00201416015625, 0.08349609375, -0.0755615234375, -0.00738525390625, -0.09088134765625, 0.0469970703125, 0.0286865234375, -0.006591796875, -0.01153564453125, -0.03668212890625, -0.04425048828125, -0.01513671875, -0.06317138671875, 0.0809326171875, 0.0966796875, 0.0535888671875, -0.028076171875, 0.033935546875, 0.0853271484375, 0.0545654296875, -0.01751708984375, 0.01873779296875, 0.09423828125, -0.0157470703125, 0.02252197265625, 0.0843505859375, 0.0721435546875, -0.06158447265625, -0.06640625, 0.0469970703125, 0.075927734375, -0.0009765625, 0.0721435546875, -0.03765869140625, 0.0897216796875, -0.099853515625, -0.051025390625, 0.048583984375, 0.0963134765625, 0.0472412109375, -0.01751708984375, -0.06640625, 0.0299072265625, 0.0626220703125, -0.099853515625, -0.03106689453125, 0.0928955078125, -0.0938720703125, -0.0906982421875, -0.02252197265625, 0.0711669921875, -0.01055908203125, 0.00677490234375, 0.0679931640625, -0.0791015625, -0.053802490234375, 0.080078125, -0.09027099609375, -0.049835205078125, 0.0302734375, 0.0091552734375, -0.06060791015625, -0.083740234375, -0.02093505859375, 0.0513916015625, 0.00457763671875, 0.0919189453125, 0.09130859375, -0.0028076171875, 0.01776123046875, -0.0025634765625, 0.0657958984375, -0.09844970703125, 0.0372314453125, 0.0980224609375, -0.0396728515625, 0.0283203125, 0.0859375, -0.02789306640625, 0.0205078125, 0.0526123046875, 0.0679931640625, 0.0721435546875, -0.06695556640625, 0.0135498046875, 0.087890625, -0.007568359375, 0.0135498046875, 0.0751953125, 0.0633544921875, -0.0362548828125, 0.0919189453125, 0.036865234375, 0.056396484375, 0.00360107421875, 0.0482177734375, -0.02947998046875, -0.01177978515625, -0.00616455078125, -0.09405517578125, 0.088134765625, -0.056793212890625, 0.0501708984375, 0.0469970703125, 0.05126953125, -0.0693359375, -0.045257568359375, 0.0992431640625, 0.0352783203125, 0.035888671875, -0.02972412109375, 0.0396728515625, -0.09588623046875, -0.03887939453125, -0.0245361328125, 0.0751953125, 0.0103759765625, -0.00421142578125, 0.027099609375, -0.0743408203125, 0.04248046875, 0.0614013671875, 0.0548095703125, 0.00360107421875, -0.073974609375, 0.0601806640625, -0.08331298828125, 0.0980224609375, 0.0948486328125, 0.067626953125, -0.09368896484375, -0.10125732421875, -0.0428466796875, 0.064208984375, 0.0484619140625, 0.0570068359375, -0.0205078125, 0.0828857421875, 0.087158203125, 0.040283203125, -0.053802490234375, 0.0535888671875, -0.068359375, -0.06494140625, 0.0621337890625, 0.0399169921875, 0.0721435546875, 0.0296630859375, -0.0374755859375, -0.06640625, 0.0484619140625, 0.061767578125, -0.0169677734375, -0.02508544921875, 0.067626953125, 0.0364990234375, -0.062744140625, 0.01513671875, 0.060546875, 0.0028076171875, 0.0948486328125, -0.0025634765625, 0.031494140625, -0.05181884765625, -0.0721435546875, -0.040863037109375, 0.068603515625, 0.0047607421875, 0.09130859375, 0.0679931640625, -0.01214599609375, 0.092529296875, -0.012939453125, -0.0380859375, -0.01812744140625, -0.08111572265625, 0.0579833984375, 0.0301513671875, 0.0992431640625, -0.079345703125, -0.00677490234375, -0.049835205078125, -0.089111328125, 0.0616455078125, -0.0283203125, 0.01953125, 0.00738525390625, 0.0340576171875, -0.03326416015625, 0.0390625, -0.0286865234375, -0.07470703125, -0.07952880859375, -0.03668212890625, -0.047637939453125, -0.0655517578125, -0.03131103515625, 0.097900390625, 0.096923828125, 0.01177978515625, -0.02911376953125, -0.02532958984375, -0.056793212890625, -0.02374267578125, -0.0081787109375, -0.0853271484375, 0.00518798828125, 0.077392578125, 0.028076171875, 0.092529296875, 0.0286865234375, -0.02850341796875, 0.0703125, -0.0948486328125, 0.0860595703125, -0.00140380859375, -0.0679931640625, 0.0731201171875, -0.032470703125, 0.055419921875, -0.0167236328125, -0.10107421875, 0.0699462890625, -0.0220947265625, -0.02532958984375, -0.041259765625, 0.00042724609375, -0.0906982421875, 0.0958251953125, 0.03662109375, -0.06317138671875, -0.069580078125, 0.0928955078125, 0.06396484375, 0.0233154296875, -0.0406494140625, -0.09228515625, -0.0428466796875, 0.0421142578125, -0.051422119140625, -0.044036865234375, 0.02587890625, 0.066162109375, -0.05462646484375, 0.07080078125, -0.09466552734375, 0.0787353515625, 0.03125, -0.0753173828125, 0.0841064453125, -0.0831298828125, 0.0189208984375, 0.08447265625, 0.1002197265625, 0.034912109375, -0.090087890625, -0.05841064453125, -0.04486083984375, 0.0762939453125, 0.018310546875, -0.00396728515625, 0.0919189453125, 0.0169677734375, 0.0714111328125, -0.01593017578125, 0.0882568359375, -0.0374755859375, -0.00799560546875, -0.05401611328125, 0.00518798828125, -0.02313232421875, -0.052032470703125, 0.077392578125, -0.0972900390625, 0.01275634765625, 0.0147705078125, -0.03485107421875, -0.00421142578125, -0.0733642578125, -0.100830078125, 0.046630859375, -0.0223388671875, 0.0377197265625, 0.0941162109375, 0.01177978515625, 0.095703125, 0.028076171875, 0.0535888671875, -0.0289306640625, -0.098876953125, -0.043243408203125, -0.032470703125, 0.04443359375, 0.0648193359375, -0.0906982421875, -0.0992431640625, -0.04425048828125, -0.00299072265625, 0.0948486328125], [-0.0765380859375, -0.0233154296875, -0.0655517578125, -0.00396728515625, 0.082275390625, 0.0621337890625, 0.0621337890625, 0.0751953125, 0.0897216796875, 0.0560302734375, -0.0872802734375, 0.049072265625, -0.10064697265625, 0.07470703125, -0.0689697265625, 0.07275390625, 0.067626953125, -0.041656494140625, -0.08929443359375, -0.00457763671875, -0.02349853515625, 0.0621337890625, 0.07080078125, 0.0438232421875, -0.07037353515625, 0.098876953125, -0.0592041015625, -0.09527587890625, 0.092041015625, -0.06536865234375, -0.0179443359375, 0.01177978515625, 0.0604248046875, -0.04364013671875, -0.0799560546875, -0.0633544921875, -0.01995849609375, -0.08929443359375, -0.0087890625, 0.068359375, 0.0167236328125, 0.0201416015625, -0.07257080078125, -0.08831787109375, -0.0223388671875, -0.083740234375, 0.01556396484375, -0.0223388671875, -0.098876953125, -0.09844970703125, 0.047607421875, 0.04345703125, -0.08013916015625, 0.044677734375, -0.050811767578125, -0.07952880859375, 0.0185546875, -0.0245361328125, 0.088134765625, 0.0692138671875, -0.0283203125, -0.08770751953125, 0.0506591796875, -0.08270263671875, 0.05419921875, 0.080078125, -0.0201416015625, 0.09423828125, 0.098876953125, 0.0771484375, -0.049835205078125, -0.0107421875, -0.0809326171875, -0.03466796875, 0.01336669921875, -0.0721435546875, -0.042449951171875, -0.0380859375, -0.058013916015625, -0.04486083984375, 0.076171875, 0.023681640625, 0.00079345703125, -0.062744140625, -0.0679931640625, -0.044647216796875, -0.00994873046875, 0.02587890625, -0.01495361328125, -0.02154541015625, 0.016357421875, -0.073974609375, -0.0125732421875, 0.09130859375, 0.02032470703125, -0.0677490234375, 0.0623779296875, 0.0966796875, 0.0364990234375, 0.0751953125, -0.065185546875, 0.08447265625, 0.072509765625, 0.03271484375, 0.0364990234375, 0.0460205078125, -0.0386962890625, 0.040283203125, -0.0526123046875, 0.00341796875, -0.07635498046875, -0.018310546875, 0.024658203125, 0.04541015625, 0.027099609375, 0.0986328125, 0.096923828125, -0.06158447265625, -0.00537109375, 0.0059814453125, 0.0430908203125, -0.002197265625, -0.09051513671875, -0.046234130859375, -0.05322265625, 0.06298828125, 0.0267333984375, 0.0491943359375, -0.016357421875, 0.043701171875, 0.00140380859375, 0.00439453125, -0.076904296875, 0.00457763671875, 0.041015625, 0.029296875, 0.0689697265625, -0.079345703125, -0.01934814453125, 0.0838623046875, -0.01153564453125, 0.0299072265625, -0.008544921875, -0.090087890625, -0.02972412109375, 0.0909423828125, 0.01531982421875, -0.0123291015625, 0.0135498046875, 0.00360107421875, 0.1002197265625, -0.0390625, 0.080322265625, -0.02374267578125, -0.02972412109375, -0.09906005859375, 0.0963134765625, -0.0450439453125, -0.0819091796875, -0.00396728515625, -0.078125, -0.08807373046875, -0.0928955078125, 0.093505859375, 0.0572509765625, 0.0107421875, 0.00555419921875, 0.05419921875, -0.0091552734375, 0.0380859375, -0.09210205078125, -0.0006103515625, -0.053619384765625, 0.0811767578125, -0.09149169921875, 0.044189453125, 0.007568359375, 0.096923828125, 0.003173828125, -0.04345703125, -0.057403564453125, -0.00836181640625, -0.03106689453125, 0.01531982421875, -0.01275634765625, 0.0673828125, -0.10064697265625, -0.043243408203125, -0.01715087890625, -0.02313232421875, 0.031494140625, -0.0948486328125, 0.038330078125, 0.05224609375, 0.0643310546875, -0.0972900390625, 0.00555419921875, -0.068603515625, 0.09423828125, -0.06915283203125, -0.00677490234375, 0.0838623046875, -0.01373291015625, -0.0245361328125, 0.0462646484375, -0.052825927734375, 0.071533203125, -0.0418701171875, 0.0072021484375, 0.002197265625, -0.02532958984375, 0.018310546875, -0.009765625, -0.04864501953125, -0.09051513671875, 0.0582275390625, -0.0087890625, -0.01318359375, 0.0189208984375, -0.0125732421875, -0.05181884765625, -0.056793212890625, -0.0384521484375, 0.0340576171875, 0.0982666015625, -0.043060302734375, -0.09130859375, 0.0550537109375, 0.0472412109375, -0.01776123046875, 0.0113525390625, 0.049072265625, -0.02410888671875, -0.0926513671875, 0.076904296875, 0.0755615234375, -0.0283203125, 0.01116943359375, -0.100830078125, 0.0306396484375, -0.03607177734375, 0.06298828125, -0.043853759765625, 0.0296630859375, -0.01214599609375, -0.01275634765625, -0.0648193359375, -0.049041748046875, -0.06915283203125, 0.055419921875, -0.030517578125, 0.0462646484375, -0.0047607421875, 0.0693359375, -0.01593017578125, -0.0015869140625, -0.02191162109375, -0.062744140625, 0.0103759765625, 0.0545654296875, 0.02490234375, -0.02410888671875, -0.02593994140625, -0.0970458984375, 0.0849609375, -0.02032470703125, -0.045654296875, 0.0377197265625, -0.0693359375, -0.0267333984375, 0.0386962890625, 0.092529296875, -0.0050048828125, 0.0654296875, -0.058013916015625, -0.0380859375, 0.0958251953125, -0.06396484375, -0.0277099609375, -0.032470703125, 0.0689697265625, 0.0938720703125, -0.052032470703125, 0.0635986328125, -0.00579833984375, 0.0406494140625, 0.0950927734375, 0.0589599609375, -0.0308837890625, 0.085693359375, -0.043243408203125, 0.02587890625, -0.02593994140625, -0.0635986328125, -0.065185546875, 0.0037841796875, -0.06298828125, 0.0654296875, -0.08251953125, 0.0284423828125, 0.09912109375, -0.0994873046875, -0.043060302734375, -0.02532958984375, -0.00421142578125, -0.05322265625, -0.0025634765625, 0.04345703125, 0.00634765625, 0.10009765625, -0.03448486328125, -0.00201416015625, -0.06396484375, -0.04266357421875, 0.0941162109375, -0.07354736328125, 0.037841796875, -0.02191162109375, 0.0526123046875, -0.041259765625], [-0.009765625, 0.037109375, -0.09307861328125, -0.03826904296875, 0.058837890625, -0.02752685546875, 0.0025634765625, 0.0400390625, 0.10009765625, 0.04638671875, 0.0377197265625, -0.055023193359375, 0.068359375, -0.011962890625, -0.061004638671875, 0.0753173828125, -0.02392578125, 0.041015625, 0.0677490234375, 0.0860595703125, 0.03369140625, -0.051422119140625, -0.0255126953125, 0.0274658203125, 0.02032470703125, 0.06396484375, 0.00799560546875, 0.0504150390625, -0.0028076171875, 0.071533203125, 0.0958251953125, -0.07373046875, 0.067626953125, 0.00616455078125, -0.035888671875, 0.02587890625, 0.080078125, -0.0687255859375, -0.08990478515625, 0.0103759765625, 0.01318359375, -0.03607177734375, 0.00439453125, -0.03106689453125, -0.0791015625, 0.020751953125, 0.00457763671875, 0.076904296875, 0.0220947265625, -0.05181884765625, -0.05718994140625, 0.090087890625, -0.08331298828125, -0.002197265625, -0.0321044921875, -0.04364013671875, -0.06060791015625, 0.0894775390625, -0.0765380859375, 0.0267333984375, 0.041015625, 0.0406494140625, -0.0472412109375, 0.099609375, -0.0340576171875, 0.0775146484375, -0.00555419921875, -0.0450439453125, 0.00396728515625, -0.06060791015625, -0.1004638671875, 0.0318603515625, -0.0211181640625, 0.052978515625, -0.0191650390625, 0.056396484375, -0.0699462890625, 0.0220947265625, -0.035888671875, -0.0191650390625, -0.03668212890625, 0.052001953125, 0.063720703125, 0.0938720703125, 0.0380859375, -0.0765380859375, -0.00238037109375, 0.0654296875, -0.01776123046875, 0.045654296875, -0.00933837890625, -0.09027099609375, -0.10162353515625, -0.03106689453125, -0.05841064453125, -0.09429931640625, -0.0015869140625, -0.02294921875, 0.0595703125, -0.0396728515625, 0.01513671875, 0.0667724609375, 0.0384521484375, -0.01715087890625, -0.01275634765625, -0.08428955078125, 0.0850830078125, -0.0364990234375, 0.0701904296875, 0.0504150390625, 0.016357421875, -0.0828857421875, 0.0994873046875, 0.029541015625, -0.00555419921875, -0.0693359375, -0.0667724609375, -0.0765380859375, 0.023681640625, 0.053955078125, 0.036865234375, 0.0665283203125, 0.01531982421875, -0.059600830078125, 0.0523681640625, 0.0340576171875, -0.05718994140625, 0.0506591796875, -0.089111328125, -0.08111572265625, 0.0333251953125, 0.076171875, 0.0733642578125, -0.08447265625, 0.0882568359375, -0.0926513671875, 0.0992431640625, 0.08447265625, 0.04443359375, -0.01531982421875, -0.08013916015625, -0.09588623046875, -0.073974609375, -0.046844482421875, 0.0992431640625, -0.043060302734375, 0.0938720703125, 0.0621337890625, 0.02734375, -0.08050537109375, -0.008544921875, 0.02252197265625, -0.02728271484375, -0.0157470703125, 0.048828125, 0.046630859375, -0.026123046875, 0.0087890625, -0.035888671875, 0.048095703125, -0.0733642578125, 0.01336669921875, -0.03131103515625, 0.053466796875, 0.1007080078125, -0.02471923828125, -0.0205078125, -0.06439208984375, -0.053619384765625, -0.068603515625, -0.03326416015625, -0.0626220703125, -0.09686279296875, 0.0556640625, 0.0806884765625, 0.01873779296875, -0.05401611328125, 0.0501708984375, -0.05718994140625, -0.0386962890625, -0.07513427734375, 0.00439453125, -0.02850341796875, -0.094482421875, -0.0299072265625, 0.01995849609375, 0.044189453125, -0.02691650390625, 0.0699462890625, -0.07794189453125, -0.01776123046875, -0.081298828125, -0.05023193359375, -0.00396728515625, -0.05841064453125, -0.00518798828125, 0.00018310546875, 0.0267333984375, -0.051239013671875, 0.0302734375, 0.0916748046875, 0.0594482421875, -0.0340576171875, 0.03125, -0.0516357421875, 0.03271484375, -0.10125732421875, 0.0887451171875, -0.0418701171875, -0.043853759765625, 0.0887451171875, 0.06591796875, 0.0787353515625, -0.0753173828125, 0.01617431640625, -0.081298828125, 0.0926513671875, -0.0072021484375, -0.05023193359375, 0.00738525390625, -0.06378173828125, 0.075927734375, -0.037841796875, 0.0274658203125, 0.07568359375, -0.08807373046875, -0.00958251953125, -0.09906005859375, 0.09423828125, 0.049072265625, 0.01953125, -0.062744140625, -0.002197265625, -0.0267333984375, 0.043701171875, 0.035888671875, 0.0496826171875, 0.0386962890625, -0.05938720703125, -0.01495361328125, 0.08447265625, -0.01055908203125, -0.03326416015625, 0.0037841796875, -0.08013916015625, 0.022705078125, -0.0765380859375, -0.05718994140625, -0.02154541015625, 0.082275390625, -0.0809326171875, -0.043060302734375, 0.0655517578125, -0.07891845703125, 0.01373291015625, 0.00421142578125, -0.01153564453125, 0.0821533203125, 0.0928955078125, -0.0693359375, -0.03326416015625, -0.03228759765625, -0.094482421875, -0.0601806640625, -0.0135498046875, 0.0635986328125, 0.088134765625, 0.038330078125, -0.0828857421875, 0.09033203125, -0.0797119140625, -0.006591796875, -0.03826904296875, 0.00140380859375, 0.08984375, 0.095703125, 0.0931396484375, 0.01019287109375, 0.0689697265625, -0.10125732421875, -0.045654296875, -0.07415771484375, -0.01019287109375, 0.0654296875, -0.046051025390625, -0.091064453125, -0.0614013671875, 0.0418701171875, 0.05859375, -0.06494140625, -0.02789306640625, -0.0047607421875, -0.05999755859375, -0.0809326171875, 0.060546875, -0.071533203125, -0.0242919921875, 0.0462646484375, 0.06201171875, -0.08349609375, -0.0205078125, 0.08056640625, -0.01116943359375, -0.09906005859375, -0.0679931640625, -0.08331298828125, 0.00018310546875, 0.02154541015625, -0.087890625, 0.09765625, -0.060394287109375, -0.056793212890625, -0.0330810546875, -0.0821533203125, -0.09844970703125, 0.021728515625, 0.0692138671875, -0.03704833984375, -0.068603515625, -0.07275390625], [0.0797119140625, -0.0787353515625, 0.099609375, 0.0145263671875, 0.038330078125, 0.0743408203125, -0.0693359375, -0.0406494140625, 0.047607421875, 0.00201416015625, -0.03228759765625, 0.0015869140625, 0.0535888671875, -0.05242919921875, 0.098876953125, -0.07177734375, 0.033447265625, 0.0513916015625, -0.0050048828125, -0.02191162109375, -0.05718994140625, 0.094482421875, -0.0050048828125, -0.022705078125, -0.0677490234375, -0.0869140625, -0.01055908203125, -0.0733642578125, 0.0799560546875, 0.0025634765625, -0.01318359375, -0.056793212890625, 0.0645751953125, -0.04962158203125, 0.0352783203125, 0.01776123046875, 0.0279541015625, 0.0384521484375, 0.026123046875, 0.048095703125, -0.10125732421875, -0.07574462890625, 0.072509765625, 0.0731201171875, -0.037841796875, -0.03924560546875, -0.01397705078125, 0.0599365234375, 0.01953125, -0.0689697265625, -0.0755615234375, 0.0504150390625, 0.055419921875, -0.08770751953125, -0.05938720703125, -0.0059814453125, -0.02789306640625, -0.09130859375, 0.04443359375, -0.04486083984375, 0.0791015625, -0.03387451171875, 0.048828125, 0.0340576171875, 0.0589599609375, -0.08447265625, 0.076171875, -0.07952880859375, -0.04644775390625, 0.03369140625, 0.0888671875, -0.06915283203125, 0.0377197265625, 0.0333251953125, 0.0692138671875, 0.0211181640625, -0.03350830078125, 0.0125732421875, -0.01318359375, 0.0970458984375, -0.08428955078125, 0.0887451171875, 0.04638671875, 0.077392578125, 0.0667724609375, -0.00634765625, -0.08392333984375, 0.046875, -0.09246826171875, -0.02508544921875, -0.061981201171875, 0.0458984375, -0.05859375, 0.0723876953125, 0.0255126953125, -0.098876953125, 0.05615234375, 0.08154296875, 0.0179443359375, -0.00360107421875, -0.00677490234375, 0.0938720703125, -0.0888671875, -0.06695556640625, -0.04205322265625, -0.01275634765625, 0.0570068359375, 0.087890625, 0.1002197265625, -0.01318359375, -0.0191650390625, -0.07196044921875, 0.0343017578125, -0.0169677734375, -0.02294921875, -0.02349853515625, 0.0, 0.06201171875, -0.08111572265625, -0.055023193359375, 0.0888671875, 0.0380859375, -0.00799560546875, 0.092041015625, 0.0416259765625, 0.00238037109375, 0.0711669921875, -0.042266845703125, -0.0570068359375, 0.0478515625, 0.06201171875, -0.0693359375, 0.0721435546875, -0.0667724609375, -0.01593017578125, -0.08831787109375, -0.10162353515625, -0.03326416015625, -0.036865234375, -0.043853759765625, -0.020751953125, -0.04443359375, 0.00518798828125, 0.0791015625, 0.09326171875, 0.0718994140625, 0.01531982421875, 0.09521484375, -0.00836181640625, 0.0556640625, 0.05224609375, 0.08984375, 0.0697021484375, 0.087646484375, -0.02032470703125, -0.02752685546875, 0.01556396484375, -0.037841796875, 0.0623779296875, 0.0279541015625, 0.0450439453125, -0.0645751953125, -0.095458984375, 0.02130126953125, 0.031494140625, 0.0869140625, 0.0633544921875, 0.0831298828125, 0.048828125, 0.0693359375, -0.066162109375, -0.00360107421875, 0.003173828125, -0.048248291015625, 0.0806884765625, -0.03985595703125, 0.0833740234375, 0.065185546875, -0.05938720703125, -0.00555419921875, -0.04205322265625, 0.01776123046875, -0.0255126953125, 0.0736083984375, 0.038330078125, 0.0498046875, -0.0169677734375, 0.00238037109375, 0.02490234375, 0.0733642578125, -0.02252197265625, -0.10125732421875, 0.08349609375, 0.0595703125, 0.04638671875, 0.01873779296875, 0.0545654296875, -0.0986328125, -0.01531982421875, -0.08154296875, 0.072509765625, 0.0447998046875, 0.0673828125, 0.0576171875, -0.075927734375, -0.078125, 0.1002197265625, -0.03570556640625, -0.01373291015625, -0.03106689453125, -0.0966796875, 0.012939453125, -0.05859375, 0.02093505859375, -0.0755615234375, -0.0340576171875, -0.02374267578125, -0.03271484375, -0.08050537109375, -0.10125732421875, 0.028076171875, 0.00140380859375, -0.09405517578125, -0.1004638671875, 0.0743408203125, -0.090087890625, 0.0506591796875, 0.039306640625, -0.0601806640625, 0.093505859375, 0.0872802734375, -0.06396484375, -0.09765625, 0.00799560546875, -0.00201416015625, -0.098876953125, -0.056793212890625, 0.0919189453125, 0.0556640625, 0.0595703125, 0.0037841796875, 0.08935546875, 0.00439453125, 0.0970458984375, -0.073974609375, 0.099609375, -0.09765625, 0.0189208984375, -0.04583740234375, 0.0277099609375, -0.048431396484375, -0.01019287109375, 0.021728515625, 0.0621337890625, 0.10107421875, 0.00079345703125, -0.00018310546875, -0.10028076171875, -0.050811767578125, -0.02032470703125, -0.0103759765625, -0.0614013671875, -0.10125732421875, 0.060546875, -0.093505859375, -0.078125, 0.0654296875, 0.01953125, 0.074951171875, 0.1002197265625, -0.09649658203125, 0.05224609375, -0.053009033203125, -0.0277099609375, -0.0711669921875, 0.0941162109375, -0.06695556640625, -0.042449951171875, -0.027099609375, -0.0721435546875, -0.07275390625, -0.09228515625, 0.069580078125, 0.0264892578125, 0.062744140625, -0.0755615234375, -0.083740234375, 0.080078125, -0.0787353515625, 0.0252685546875, 0.0697021484375, -0.09649658203125, -0.06817626953125, -0.0906982421875, 0.0833740234375, -0.06915283203125, -0.0992431640625, 0.00518798828125, -0.058197021484375, 0.0853271484375, -0.0009765625, 0.046630859375, -0.0853271484375, 0.02392578125, 0.0267333984375, 0.0679931640625, 0.034423828125, -0.0091552734375, 0.01995849609375, -0.058013916015625, -0.0330810546875, -0.0242919921875, 0.0, -0.0777587890625, -0.03729248046875, 0.0478515625, -0.0576171875, 0.087890625, 0.0914306640625, -0.0526123046875], [0.0745849609375, 0.0421142578125, -0.0948486328125, -0.03167724609375, -0.01531982421875, 0.01318359375, -0.0548095703125, -0.050018310546875, 0.080322265625, -0.04205322265625, -0.055023193359375, 0.003173828125, -0.06536865234375, -0.041046142578125, -0.07037353515625, -0.018310546875, 0.058349609375, 0.0302734375, 0.0408935546875, 0.088134765625, -0.01055908203125, 0.05322265625, -0.0201416015625, -0.0972900390625, -0.09130859375, -0.0938720703125, -0.08612060546875, -0.049835205078125, 0.0731201171875, -0.0665283203125, -0.00897216796875, -0.055999755859375, -0.02032470703125, 0.0784912109375, 0.081298828125, -0.00341796875, -0.057403564453125, 0.0733642578125, 0.01953125, 0.01513671875, -0.05340576171875, 0.0635986328125, 0.0701904296875, 0.0765380859375, -0.02728271484375, -0.0797119140625, -0.0863037109375, 0.09423828125, 0.0201416015625, 0.0223388671875, 0.02093505859375, -0.0223388671875, 0.00518798828125, -0.0526123046875, -0.0765380859375, 0.0570068359375, -0.087890625, 0.01214599609375, 0.00933837890625, 0.01776123046875, 0.0689697265625, 0.09765625, 0.035888671875, -0.0277099609375, -0.08868408203125, -0.01416015625, -0.0069580078125, 0.08544921875, 0.084716796875, 0.0311279296875, 0.078369140625, -0.05322265625, -0.04266357421875, 0.080322265625, -0.0677490234375, -0.04205322265625, -0.0797119140625, 0.0081787109375, 0.02392578125, 0.01751708984375, -0.041046142578125, -0.0775146484375, -0.03704833984375, -0.0665283203125, -0.02093505859375, 0.0595703125, -0.09149169921875, 0.0821533203125, 0.065185546875, -0.0059814453125, -0.057403564453125, -0.0318603515625, 0.03564453125, 0.0960693359375, -0.01513671875, 0.0545654296875, -0.0916748046875, 0.01513671875, 0.1011962890625, -0.0267333984375, 0.029541015625, -0.0733642578125, 0.07470703125, -0.0733642578125, 0.0677490234375, -0.042266845703125, -0.032470703125, 0.0458984375, 0.00177001953125, 0.095703125, -0.0853271484375, -0.02728271484375, -0.00555419921875, 0.01873779296875, -0.048248291015625, 0.0670166015625, -0.00994873046875, -0.078125, 0.0811767578125, 0.0850830078125, -0.0775146484375, 0.00836181640625, -0.0201416015625, -0.01531982421875, 0.0872802734375, 0.100830078125, 0.00897216796875, 0.0849609375, 0.00396728515625, 0.0009765625, -0.0701904296875, -0.00799560546875, -0.02130126953125, 0.0406494140625, 0.0321044921875, 0.003173828125, 0.0103759765625, -0.047027587890625, 0.0616455078125, 0.023681640625, -0.0302734375, -0.09967041015625, 0.0673828125, -0.048248291015625, 0.048583984375, -0.03228759765625, 0.0621337890625, -0.07177734375, -0.0687255859375, -0.029296875, -0.00897216796875, 0.009765625, 0.01055908203125, -0.05621337890625, -0.095458984375, -0.00421142578125, -0.0308837890625, 0.0872802734375, 0.0081787109375, 0.0284423828125, -0.0831298828125, -0.10186767578125, 0.01275634765625, -0.09649658203125, 0.04638671875, -0.07373046875, -0.0679931640625, -0.08551025390625, 0.095703125, 0.0372314453125, -0.048431396484375, 0.008544921875, 0.0469970703125, -0.03271484375, 0.0816650390625, -0.0755615234375, -0.045257568359375, 0.030517578125, -0.03167724609375, -0.1004638671875, 0.00836181640625, -0.0245361328125, 0.01531982421875, 0.08984375, -0.011962890625, -0.00555419921875, 0.0352783203125, 0.04248046875, 0.090087890625, -0.08551025390625, 0.0733642578125, -0.057403564453125, -0.0472412109375, 0.043701171875, 0.0687255859375, 0.0633544921875, 0.0947265625, -0.059600830078125, 0.0963134765625, 0.01715087890625, -0.06396484375, -0.02532958984375, -0.091064453125, 0.04541015625, -0.0819091796875, 0.0654296875, -0.0679931640625, -0.043060302734375, 0.02093505859375, -0.0384521484375, -0.0396728515625, 0.0714111328125, -0.02349853515625, 0.0135498046875, -0.00933837890625, -0.0220947265625, -0.018310546875, 0.053466796875, 0.040283203125, -0.02410888671875, 0.08154296875, -0.047637939453125, 0.057373046875, 0.0677490234375, -0.10162353515625, -0.02374267578125, -0.061798095703125, -0.08392333984375, 0.048095703125, 0.04541015625, 0.0135498046875, -0.036865234375, -0.0699462890625, -0.03948974609375, 0.0753173828125, -0.0374755859375, -0.0948486328125, 0.0736083984375, -0.01214599609375, 0.076171875, 0.00238037109375, 0.056640625, 0.017333984375, -0.0721435546875, 0.00299072265625, 0.0516357421875, -0.08648681640625, -0.02972412109375, -0.07452392578125, 0.0743408203125, -0.00518798828125, -0.01812744140625, 0.0550537109375, 0.0687255859375, 0.00201416015625, -0.02508544921875, 0.0279541015625, 0.0828857421875, 0.0478515625, 0.00042724609375, -0.091064453125, 0.0731201171875, 0.0330810546875, 0.01654052734375, -0.043060302734375, -0.06597900390625, 0.064208984375, -0.049224853515625, 0.0693359375, -0.07574462890625, -0.09808349609375, -0.09149169921875, 0.0384521484375, -0.043853759765625, 0.0875244140625, -0.053619384765625, -0.0872802734375, 0.070556640625, -0.0633544921875, -0.07135009765625, -0.0677490234375, 0.048583984375, -0.02532958984375, -0.06817626953125, -0.083740234375, 0.0025634765625, -0.02252197265625, 0.1004638671875, -0.074951171875, -0.0277099609375, 0.0491943359375, 0.01318359375, -0.09326171875, 0.0123291015625, 0.0643310546875, -0.012939453125, 0.0950927734375, -0.0733642578125, -0.1014404296875, 0.096923828125, 0.0107421875, 0.0843505859375, -0.08807373046875, -0.02252197265625, 0.01751708984375, 0.05859375, -0.0863037109375, 0.01495361328125, 0.0452880859375, 0.04345703125, 0.09033203125, -0.085693359375, 0.0135498046875, 0.0321044921875, -0.10028076171875, 0.0909423828125, -0.0006103515625, -0.090087890625, 0.066162109375, 0.067138671875], [0.06103515625, -0.08270263671875, -0.07037353515625, 0.00775146484375, -0.10125732421875, 0.029541015625, -0.04644775390625, 0.0970458984375, 0.043212890625, 0.01318359375, -0.04425048828125, -0.0841064453125, 0.0283203125, 0.1007080078125, 0.0421142578125, -0.0570068359375, -0.0147705078125, -0.05780029296875, -0.06695556640625, 0.012939453125, -0.0648193359375, 0.01776123046875, -0.046844482421875, -0.03924560546875, 0.035888671875, -0.02410888671875, 0.063720703125, 0.0267333984375, 0.052001953125, -0.08770751953125, 0.049072265625, 0.01751708984375, 0.0557861328125, -0.00018310546875, -0.089111328125, -0.0948486328125, 0.03662109375, 0.0926513671875, 0.0277099609375, 0.028076171875, -0.05340576171875, -0.066162109375, -0.05780029296875, -0.050628662109375, 0.007568359375, -0.07037353515625, 0.072509765625, 0.098876953125, -0.05938720703125, -0.07952880859375, 0.0838623046875, -0.07672119140625, 0.0723876953125, 0.0343017578125, -0.01812744140625, 0.0245361328125, -0.08709716796875, -0.0623779296875, 0.06640625, 0.0828857421875, 0.060546875, 0.01556396484375, -0.07891845703125, -0.05242919921875, 0.0743408203125, -0.02294921875, -0.0283203125, 0.0416259765625, -0.0841064453125, -0.0135498046875, -0.02752685546875, 0.09423828125, -0.078125, -0.0673828125, 0.0771484375, 0.0460205078125, -0.0472412109375, 0.01593017578125, -0.090087890625, 0.0394287109375, -0.0191650390625, 0.0323486328125, 0.046630859375, -0.0753173828125, 0.0308837890625, -0.05322265625, -0.081298828125, 0.01531982421875, 0.0941162109375, 0.06396484375, -0.09625244140625, 0.0621337890625, -0.07293701171875, -0.0850830078125, 0.0556640625, 0.081298828125, -0.02313232421875, -0.05841064453125, 0.00140380859375, 0.028076171875, 0.00396728515625, -0.04364013671875, 0.095703125, 0.07568359375, -0.0384521484375, 0.09130859375, 0.02587890625, -0.03070068359375, -0.09967041015625, 0.0765380859375, -0.0791015625, -0.03485107421875, -0.0352783203125, -0.03387451171875, 0.096435546875, 0.0972900390625, -0.0645751953125, -0.099853515625, 0.00018310546875, -0.0938720703125, -0.10107421875, 0.00518798828125, 0.02734375, -0.0069580078125, -0.1014404296875, 0.0478515625, -0.0191650390625, -0.0380859375, -0.0211181640625, -0.00994873046875, 0.0872802734375, 0.034912109375, -0.07080078125, -0.07733154296875, -0.10003662109375, -0.05718994140625, -0.00677490234375, 0.00042724609375, -0.02032470703125, -0.0916748046875, -0.0362548828125, 0.03271484375, -0.0799560546875, 0.0616455078125, 0.095703125, 0.0960693359375, 0.07275390625, -0.0478515625, -0.03887939453125, 0.0350341796875, -0.00958251953125, 0.087890625, -0.05999755859375, 0.033447265625, -0.01416015625, -0.02728271484375, -0.008544921875, -0.02191162109375, -0.078125, -0.0386962890625, -0.00140380859375, -0.00518798828125, -0.03765869140625, 0.01336669921875, -0.10107421875, -0.046051025390625, 0.07568359375, -0.043243408203125, -0.09429931640625, -0.04962158203125, -0.08111572265625, 0.0721435546875, -0.05938720703125, -0.01715087890625, -0.0633544921875, -0.0819091796875, -0.09130859375, -0.06158447265625, 0.00518798828125, -0.0396728515625, 0.024658203125, -0.01116943359375, 0.0982666015625, 0.00079345703125, 0.0252685546875, -0.07354736328125, -0.01373291015625, 0.1016845703125, -0.0478515625, 0.0211181640625, -0.05181884765625, -0.084716796875, 0.0791015625, 0.074951171875, 0.0960693359375, -0.02532958984375, 0.072998046875, 0.00079345703125, -0.06060791015625, -0.04742431640625, -0.10186767578125, 0.0015869140625, 0.0113525390625, -0.01934814453125, -0.0072021484375, -0.09906005859375, -0.09466552734375, 0.0523681640625, -0.0205078125, 0.06591796875, 0.08251953125, 0.038818359375, -0.006591796875, -0.03765869140625, 0.0538330078125, -0.059783935546875, 0.0980224609375, 0.0135498046875, 0.0623779296875, 0.05517578125, -0.045440673828125, -0.0872802734375, -0.02130126953125, -0.0277099609375, 0.099853515625, -0.09429931640625, -0.01751708984375, -0.060394287109375, 0.071533203125, -0.00396728515625, 0.00579833984375, -0.00457763671875, 0.1011962890625, 0.097412109375, 0.0179443359375, -0.0087890625, 0.00177001953125, -0.01177978515625, 0.09326171875, 0.0797119140625, 0.0654296875, -0.042449951171875, -0.07470703125, 0.01971435546875, -0.07354736328125, -0.060791015625, -0.08489990234375, -0.0242919921875, -0.02911376953125, -0.07470703125, 0.0838623046875, -0.0233154296875, -0.0711669921875, -0.02410888671875, 0.0697021484375, 0.06640625, 0.0572509765625, -0.08392333984375, 0.0821533203125, -0.06158447265625, -0.0673828125, 0.017333984375, 0.0906982421875, 0.0430908203125, 0.0189208984375, -0.093505859375, -0.0592041015625, -0.0189208984375, -0.01812744140625, -0.09844970703125, 0.05322265625, 0.00579833984375, 0.0950927734375, 0.01617431640625, 0.080078125, -0.02850341796875, 0.08544921875, -0.0318603515625, -0.0906982421875, -0.04443359375, 0.08251953125, 0.0806884765625, 0.00079345703125, -0.02490234375, -0.0633544921875, -0.0626220703125, -0.0657958984375, 0.00457763671875, -0.07373046875, -0.04803466796875, -0.0806884765625, 0.0869140625, 0.047607421875, -0.06219482421875, 0.09130859375, -0.00616455078125, -0.08612060546875, 0.071533203125, 0.01434326171875, 0.0809326171875, 0.0230712890625, 0.0107421875, 0.080078125, 0.0869140625, -0.02532958984375, -0.056610107421875, 0.090087890625, -0.03546142578125, -0.10162353515625, -0.05462646484375, -0.0223388671875, -0.08050537109375, -0.02294921875, 0.033935546875, 0.022705078125, 0.053466796875, -0.09906005859375, 0.072509765625, 0.0592041015625, -0.10205078125], [0.086669921875, -0.00421142578125, -0.046234130859375, -0.050628662109375, 0.041259765625, 0.0191650390625, 0.0777587890625, -0.02374267578125, 0.0283203125, -0.06756591796875, 0.0394287109375, -0.02093505859375, 0.01055908203125, -0.01513671875, -0.07794189453125, 0.0904541015625, 0.0211181640625, -0.071533203125, -0.05718994140625, 0.0849609375, -0.090087890625, 0.01751708984375, -0.058197021484375, 0.00933837890625, -0.0771484375, 0.0545654296875, -0.07952880859375, 0.0928955078125, -0.01934814453125, -0.0667724609375, -0.055206298828125, -0.00457763671875, -0.0390625, -0.07037353515625, -0.098876953125, -0.0205078125, -0.053802490234375, -0.02569580078125, -0.0859375, -0.0245361328125, -0.08392333984375, 0.02252197265625, -0.046051025390625, 0.0380859375, 0.01397705078125, 0.0416259765625, 0.01397705078125, 0.00579833984375, -0.0791015625, 0.00836181640625, 0.0914306640625, -0.09967041015625, -0.04962158203125, -0.03326416015625, -0.06536865234375, 0.0242919921875, -0.061798095703125, -0.031494140625, -0.060394287109375, -0.01318359375, 0.01751708984375, -0.0123291015625, 0.0767822265625, 0.0009765625, 0.0992431640625, -0.0343017578125, -0.00177001953125, -0.10003662109375, 0.0579833984375, 0.09033203125, 0.0919189453125, -0.09649658203125, -0.0982666015625, -0.044647216796875, 0.03125, 0.0966796875, -0.09368896484375, 0.0179443359375, -0.09368896484375, -0.01336669921875, 0.0843505859375, 0.0518798828125, -0.07135009765625, 0.008544921875, 0.09765625, -0.0245361328125, -0.062744140625, -0.0592041015625, 0.0914306640625, -0.02569580078125, -0.0743408203125, 0.0545654296875, -0.02349853515625, -0.00616455078125, 0.0355224609375, -0.040863037109375, -0.046844482421875, -0.0362548828125, -0.02972412109375, 0.062744140625, 0.0765380859375, 0.0594482421875, 0.0440673828125, -0.03448486328125, -0.09210205078125, 0.029052734375, -0.01654052734375, 0.0806884765625, 0.08349609375, -0.04443359375, 0.0125732421875, -0.053009033203125, 0.0904541015625, -0.0679931640625, -0.09307861328125, -0.044036865234375, -0.056793212890625, -0.02728271484375, -0.01495361328125, 0.0670166015625, 0.053466796875, -0.0289306640625, -0.0223388671875, 0.095703125, -0.0687255859375, 0.0679931640625, 0.00457763671875, -0.02630615234375, -0.087890625, -0.0888671875, 0.0460205078125, -0.0709228515625, -0.0765380859375, 0.0233154296875, -0.00933837890625, 0.00140380859375, -0.06298828125, 0.060546875, 0.029052734375, 0.0972900390625, -0.0028076171875, -0.0928955078125, 0.056396484375, 0.0157470703125, 0.0438232421875, -0.042266845703125, -0.00396728515625, 0.0430908203125, -0.0743408203125, -0.0255126953125, -0.07135009765625, 0.08251953125, 0.0223388671875, 0.00018310546875, -0.066162109375, -0.055206298828125, 0.01934814453125, 0.0789794921875, -0.01531982421875, 0.0283203125, -0.04962158203125, 0.0289306640625, -0.01971435546875, 0.02032470703125, -0.029296875, 0.04345703125, 0.0504150390625, -0.00341796875, 0.0703125, -0.05242919921875, -0.029296875, -0.0570068359375, -0.03887939453125, -0.09808349609375, -0.054412841796875, -0.0592041015625, 0.0277099609375, 0.0882568359375, -0.02191162109375, -0.02490234375, -0.061187744140625, 0.095458984375, 0.0308837890625, 0.068359375, -0.09228515625, -0.050018310546875, -0.07275390625, 0.069580078125, 0.093505859375, 0.0, 0.00933837890625, -0.078125, 0.077392578125, -0.08111572265625, 0.0885009765625, -0.043060302734375, -0.017333984375, 0.026123046875, 0.0157470703125, 0.01513671875, 0.05859375, -0.087890625, 0.1007080078125, 0.0743408203125, 0.0528564453125, 0.060546875, -0.067138671875, 0.0799560546875, -0.07794189453125, 0.060791015625, -0.084716796875, -0.05023193359375, 0.0284423828125, 0.095703125, 0.0885009765625, -0.02508544921875, -0.07080078125, -0.055206298828125, 0.0582275390625, -0.010986328125, 0.0264892578125, 0.0667724609375, 0.02130126953125, 0.0665283203125, 0.055419921875, -0.0919189453125, -0.00018310546875, 0.0755615234375, -0.076904296875, -0.06158447265625, 0.0494384765625, 0.0904541015625, 0.0931396484375, 0.058349609375, -0.03985595703125, 0.0380859375, 0.0604248046875, -0.0755615234375, 0.0645751953125, 0.056640625, 0.00677490234375, -0.0264892578125, -0.008544921875, 0.0501708984375, -0.06976318359375, -0.0699462890625, 0.070556640625, 0.03369140625, -0.032470703125, 0.095458984375, -0.08349609375, -0.07257080078125, 0.025146484375, -0.00677490234375, -0.06219482421875, -0.0723876953125, -0.10028076171875, 0.0318603515625, 0.0992431640625, -0.00634765625, -0.030517578125, 0.0283203125, 0.0986328125, 0.0693359375, 0.0887451171875, 0.0736083984375, 0.056396484375, -0.03070068359375, 0.0875244140625, -0.042449951171875, -0.09527587890625, -0.00799560546875, 0.00579833984375, -0.08233642578125, -0.068359375, 0.04541015625, 0.01812744140625, -0.0665283203125, 0.0828857421875, -0.0966796875, 0.0992431640625, 0.008544921875, -0.089111328125, 0.053955078125, 0.048095703125, -0.03106689453125, 0.01715087890625, 0.0191650390625, -0.07177734375, -0.053802490234375, -0.076171875, -0.051239013671875, -0.05938720703125, -0.03448486328125, 0.1014404296875, -0.08013916015625, -0.08551025390625, -0.0169677734375, -0.061798095703125, -0.08154296875, -0.0087890625, 0.0399169921875, -0.0875244140625, -0.07891845703125, 0.0723876953125, -0.087890625, 0.0919189453125, -0.027099609375, 0.08349609375, 0.0960693359375, -0.0633544921875, 0.00634765625, 0.0321044921875, -0.093505859375, -0.09649658203125, -0.0771484375, -0.06060791015625, 0.0849609375, -0.0352783203125, 0.08544921875], [-0.02947998046875, 0.01776123046875, -0.0201416015625, -0.0380859375, 0.077392578125, 0.0550537109375, -0.021728515625, -0.055419921875, -0.0308837890625, -0.090087890625, 0.0321044921875, -0.053619384765625, 0.0286865234375, -0.095703125, 0.0799560546875, 0.09228515625, -0.0828857421875, 0.0594482421875, 0.0556640625, -0.03228759765625, 0.02032470703125, 0.05322265625, -0.0289306640625, -0.053009033203125, 0.087890625, 0.064208984375, -0.094482421875, 0.06640625, -0.0655517578125, 0.06396484375, -0.02294921875, 0.0931396484375, 0.070556640625, 0.0526123046875, 0.0731201171875, 0.069580078125, -0.048431396484375, 0.0009765625, 0.0, -0.0894775390625, 0.050048828125, -0.0986328125, 0.06298828125, -0.021728515625, -0.0828857421875, 0.0438232421875, 0.0311279296875, -0.03326416015625, 0.02294921875, 0.0087890625, 0.01416015625, -0.08392333984375, 0.07568359375, -0.03546142578125, -0.06915283203125, 0.0941162109375, -0.02789306640625, -0.0755615234375, -0.01434326171875, -0.0516357421875, -0.061981201171875, -0.06695556640625, 0.00201416015625, 0.06494140625, 0.0936279296875, 0.051025390625, -0.03546142578125, -0.050018310546875, 0.0885009765625, 0.057373046875, -0.03009033203125, -0.0308837890625, 0.00897216796875, -0.0147705078125, -0.07196044921875, -0.04364013671875, 0.0665283203125, 0.094482421875, -0.05340576171875, -0.040069580078125, 0.0113525390625, -0.0384521484375, 0.00201416015625, -0.00177001953125, -0.03729248046875, -0.021728515625, -0.07257080078125, -0.0633544921875, 0.029052734375, -0.047027587890625, 0.0523681640625, 0.0711669921875, -0.04425048828125, 0.033447265625, 0.0906982421875, -0.03326416015625, -0.07672119140625, 0.065185546875, -0.0418701171875, 0.0623779296875, 0.06103515625, -0.02593994140625, -0.087890625, -0.02471923828125, 0.00341796875, -0.07275390625, 0.075927734375, 0.06103515625, 0.066162109375, 0.01751708984375, -0.03228759765625, -0.01153564453125, -0.041046142578125, -0.02728271484375, -0.053009033203125, -0.0821533203125, -0.0233154296875, 0.0751953125, -0.00933837890625, -0.05999755859375, -0.0103759765625, 0.090087890625, -0.0614013671875, 0.0438232421875, -0.009765625, -0.01116943359375, -0.045440673828125, 0.0352783203125, 0.0462646484375, 0.0223388671875, 0.01531982421875, 0.0679931640625, -0.0787353515625, -0.0828857421875, 0.0472412109375, 0.01434326171875, -0.00897216796875, -0.0050048828125, 0.0789794921875, 0.08154296875, -0.05560302734375, 0.012939453125, 0.0399169921875, 0.04248046875, -0.07196044921875, 0.032470703125, -0.091064453125, 0.046630859375, -0.02532958984375, 0.00299072265625, 0.092529296875, -0.07373046875, -0.03924560546875, -0.045654296875, -0.0091552734375, 0.0723876953125, 0.05615234375, -0.08489990234375, 0.0821533203125, -0.01416015625, -0.00238037109375, 0.0364990234375, 0.075927734375, -0.03985595703125, -0.0396728515625, 0.0626220703125, -0.008544921875, 0.01751708984375, 0.0692138671875, -0.01055908203125, -0.061798095703125, -0.00518798828125, -0.099853515625, -0.08551025390625, 0.00738525390625, -0.076904296875, -0.0406494140625, 0.0374755859375, -0.0791015625, -0.06378173828125, -0.03924560546875, -0.095703125, 0.07275390625, -0.02294921875, 0.01318359375, 0.0277099609375, 0.007568359375, -0.0286865234375, -0.032470703125, 0.0621337890625, 0.01275634765625, 0.038330078125, -0.0169677734375, 0.003173828125, 0.033935546875, 0.04345703125, -0.046234130859375, 0.0897216796875, -0.059600830078125, 0.01715087890625, -0.042449951171875, 0.05859375, 0.09912109375, 0.01812744140625, -0.02392578125, -0.0318603515625, 0.00457763671875, -0.01715087890625, -0.067138671875, -0.0743408203125, -0.05462646484375, 0.0762939453125, -0.043853759765625, 0.0147705078125, 0.0513916015625, 0.082275390625, 0.048095703125, -0.00677490234375, -0.0723876953125, -0.07177734375, -0.08929443359375, 0.0655517578125, -0.074951171875, -0.0655517578125, -0.050628662109375, 0.05078125, 0.093505859375, 0.0655517578125, -0.045440673828125, 0.0528564453125, -0.0374755859375, 0.06103515625, -0.08990478515625, -0.0223388671875, 0.01275634765625, -0.10186767578125, 0.02252197265625, 0.0418701171875, 0.01434326171875, -0.0516357421875, 0.099853515625, -0.07080078125, -0.05181884765625, 0.024169921875, -0.07196044921875, 0.01617431640625, 0.0205078125, -0.049224853515625, 0.0809326171875, 0.086669921875, -0.0633544921875, -0.05401611328125, -0.02911376953125, 0.024169921875, -0.07354736328125, 0.0709228515625, -0.059600830078125, 0.0963134765625, 0.0806884765625, -0.0869140625, 0.098876953125, 0.0567626953125, 0.009765625, 0.043212890625, 0.00396728515625, 0.0321044921875, 0.0091552734375, -0.0478515625, 0.087890625, -0.061187744140625, 0.0223388671875, -0.062744140625, -0.02392578125, 0.01531982421875, -0.0733642578125, -0.0037841796875, -0.0087890625, -0.0966796875, 0.095458984375, 0.09423828125, -0.0277099609375, 0.0528564453125, 0.0426025390625, -0.06817626953125, -0.0966796875, -0.02093505859375, 0.04248046875, -0.06597900390625, 0.04638671875, 0.0654296875, 0.034423828125, -0.0970458984375, -0.01654052734375, -0.08111572265625, 0.043212890625, -0.049835205078125, 0.08056640625, -0.01934814453125, 0.0306396484375, 0.0970458984375, 0.0655517578125, -0.07293701171875, -0.03228759765625, 0.0745849609375, -0.07635498046875, 0.00799560546875, -0.046844482421875, 0.0394287109375, 0.00421142578125, -0.064208984375, 0.0941162109375, 0.007568359375, -0.05181884765625, -0.059600830078125, -0.078125, -0.03466796875, -0.05023193359375, -0.07080078125, -0.09844970703125, 0.0926513671875], [0.057373046875, 0.0560302734375, 0.0416259765625, 0.0775146484375, 0.00042724609375, 0.0350341796875, -0.0775146484375, -0.0047607421875, 0.0833740234375, 0.0692138671875, -0.021728515625, 0.0582275390625, -0.00537109375, -0.01177978515625, -0.0087890625, -0.084716796875, 0.028076171875, 0.01055908203125, -0.0472412109375, 0.048095703125, 0.0863037109375, 0.0169677734375, -0.0777587890625, -0.06396484375, -0.055816650390625, -0.048248291015625, 0.002197265625, -0.03924560546875, -0.03387451171875, 0.068359375, 0.0960693359375, -0.04425048828125, -0.0362548828125, -0.00958251953125, 0.00201416015625, -0.07952880859375, -0.0850830078125, 0.0699462890625, -0.0037841796875, 0.0670166015625, 0.0418701171875, 0.031494140625, -0.099853515625, 0.0960693359375, -0.0626220703125, -0.09246826171875, -0.0264892578125, -0.00341796875, -0.03570556640625, -0.051239013671875, -0.049041748046875, 0.084716796875, 0.0831298828125, 0.0223388671875, 0.0926513671875, 0.09228515625, 0.0966796875, -0.02252197265625, -0.09326171875, -0.09307861328125, 0.060546875, -0.09765625, 0.037109375, 0.0980224609375, -0.0189208984375, -0.00738525390625, -0.02374267578125, 0.070556640625, -0.03546142578125, -0.0211181640625, -0.0799560546875, 0.027099609375, 0.0283203125, -0.04266357421875, -0.08392333984375, 0.00537109375, -0.01953125, 0.06396484375, 0.05419921875, 0.08984375, -0.01715087890625, 0.0147705078125, -0.0709228515625, 0.0428466796875, -0.056396484375, -0.06396484375, -0.08050537109375, 0.0308837890625, -0.00579833984375, -0.07373046875, -0.09307861328125, -0.0753173828125, -0.0283203125, -0.0777587890625, 0.0386962890625, 0.01318359375, 0.033447265625, -0.06695556640625, 0.00958251953125, 0.0645751953125, 0.0404052734375, 0.01953125, 0.0595703125, 0.0894775390625, 0.029296875, -0.0255126953125, -0.0970458984375, -0.09649658203125, -0.047637939453125, 0.0408935546875, 0.0648193359375, -0.04962158203125, -0.050811767578125, 0.0072021484375, -0.02252197265625, -0.02392578125, 0.0135498046875, 0.0037841796875, -0.00677490234375, -0.049041748046875, 0.077880859375, -0.03448486328125, -0.0872802734375, -0.0147705078125, 0.00140380859375, 0.092529296875, -0.0677490234375, 0.024169921875, -0.058990478515625, 0.0421142578125, -0.03326416015625, -0.03289794921875, 0.0301513671875, 0.012939453125, 0.012939453125, 0.0980224609375, -0.09765625, 0.058837890625, -0.09466552734375, 0.0699462890625, 0.022705078125, 0.0887451171875, -0.0321044921875, -0.0711669921875, -0.08270263671875, 0.1002197265625, -0.007568359375, -0.09228515625, -0.0526123046875, 0.08935546875, 0.046630859375, 0.064208984375, 0.0355224609375, -0.048431396484375, -0.083740234375, -0.0986328125, -0.060394287109375, 0.0941162109375, 0.0828857421875, 0.0906982421875, 0.0069580078125, -0.083740234375, -0.10205078125, 0.0950927734375, 0.01513671875, -0.0689697265625, -0.0255126953125, 0.020751953125, 0.0015869140625, 0.034912109375, 0.02685546875, 0.01336669921875, 0.0306396484375, -0.0721435546875, 0.0538330078125, 0.07275390625, 0.03466796875, 0.0970458984375, 0.1004638671875, 0.0496826171875, -0.0283203125, 0.05859375, -0.09765625, 0.0784912109375, 0.0887451171875, 0.01373291015625, 0.0408935546875, -0.0721435546875, 0.1004638671875, 0.017333984375, -0.02850341796875, 0.01416015625, 0.001220703125, 0.0538330078125, 0.0145263671875, -0.068603515625, -0.02508544921875, 0.0966796875, 0.082763671875, 0.0775146484375, -0.064208984375, 0.0966796875, -0.07733154296875, -0.008544921875, -0.0340576171875, -0.0390625, 0.006591796875, 0.067626953125, 0.09033203125, -0.022705078125, -0.10064697265625, 0.082763671875, -0.0645751953125, 0.02154541015625, 0.0711669921875, 0.0599365234375, 0.050048828125, 0.0321044921875, 0.0380859375, 0.0572509765625, 0.06201171875, -0.0994873046875, 0.057373046875, 0.0255126953125, 0.097900390625, -0.0859375, -0.0223388671875, -0.08050537109375, -0.0428466796875, 0.0853271484375, 0.0333251953125, -0.08807373046875, -0.0277099609375, -0.068359375, -0.06060791015625, -0.02911376953125, -0.07275390625, -0.01715087890625, -0.035888671875, -0.053009033203125, 0.0703125, 0.0670166015625, 0.0386962890625, -0.050018310546875, -0.09967041015625, 0.0538330078125, 0.075927734375, 0.035888671875, 0.06640625, 0.0821533203125, -0.06756591796875, 0.082763671875, -0.00140380859375, -0.0364990234375, 0.0811767578125, -0.071533203125, -0.0396728515625, -0.04742431640625, 0.09765625, -0.00616455078125, 0.0526123046875, 0.01953125, -0.01495361328125, 0.0015869140625, 0.092529296875, -0.0592041015625, -0.09844970703125, -0.0888671875, -0.01318359375, -0.069580078125, -0.0289306640625, -0.01751708984375, 0.012939453125, 0.097900390625, 0.042236328125, -0.0526123046875, -0.081298828125, -0.00738525390625, 0.01495361328125, 0.03271484375, -0.10064697265625, 0.0167236328125, 0.0535888671875, -0.0450439453125, -0.10107421875, 0.1016845703125, -0.01495361328125, -0.08050537109375, -0.08251953125, 0.0850830078125, 0.037109375, -0.03228759765625, -0.0673828125, 0.0189208984375, 0.05224609375, 0.095703125, 0.0765380859375, 0.01617431640625, -0.043853759765625, 0.0665283203125, 0.0355224609375, -0.055206298828125, 0.01214599609375, -0.0277099609375, -0.03704833984375, -0.0526123046875, 0.00799560546875, 0.0972900390625, -0.00616455078125, -0.02789306640625, 0.0311279296875, -0.01373291015625, 0.05224609375, 0.0526123046875, -0.0264892578125, 0.041259765625, 0.059814453125, -0.05242919921875, 0.0787353515625, -0.04046630859375], [0.0885009765625, 0.0614013671875, 0.0784912109375, -0.01995849609375, 0.077880859375, -0.07080078125, -0.0233154296875, -0.06494140625, 0.01971435546875, 0.078369140625, 0.00018310546875, 0.0374755859375, 0.0518798828125, -0.0330810546875, 0.0416259765625, 0.0191650390625, -0.00775146484375, 0.01751708984375, -0.053009033203125, 0.025146484375, 0.00421142578125, -0.03704833984375, 0.0418701171875, -0.08050537109375, 0.0621337890625, 0.073974609375, 0.0245361328125, 0.0828857421875, 0.0267333984375, 0.01776123046875, 0.0928955078125, 0.03173828125, -0.07635498046875, -0.061187744140625, 0.06494140625, 0.0179443359375, 0.0364990234375, -0.09307861328125, -0.0648193359375, 0.01971435546875, -0.08489990234375, 0.04541015625, -0.01556396484375, 0.0941162109375, -0.0494384765625, -0.09307861328125, -0.02374267578125, 0.024169921875, 0.067626953125, -0.00360107421875, 0.0743408203125, -0.0755615234375, -0.0926513671875, 0.080322265625, -0.036865234375, -0.042449951171875, 0.01953125, -0.042449951171875, -0.00634765625, 0.069580078125, 0.065185546875, 0.0938720703125, -0.0888671875, -0.0380859375, -0.0283203125, 0.0399169921875, 