[[[[-0.02319467067718506, 0.03572468459606171, -0.021187694743275642, -0.018416279926896095, -0.03545262664556503, 0.03615671396255493, 0.009133458137512207, -0.03419364616274834, 0.027035638689994812, -0.008076610043644905, -0.0313066765666008, 0.018226362764835358, 0.005366649478673935, -0.02746995911002159, 0.021202493458986282, -0.006877908483147621, -0.037560347467660904, 0.02689189463853836, 0.02448664978146553, 0.02247513085603714, -0.026536915451288223, -0.01980377733707428, 0.027535758912563324, -0.024703579023480415, -0.003986213356256485, -0.034927502274513245, 0.0229046568274498, -0.03132661432027817, -0.023519083857536316, -0.009999750182032585, 0.009348064661026001, 0.012488223612308502], [-0.0010729022324085236, -0.02880013734102249, -0.008164942264556885, 0.027822457253932953, 0.006483696401119232, 0.025798581540584564, -0.0036561675369739532, 0.005913853645324707, -0.010971086099743843, 0.023297738283872604, 0.018232617527246475, 0.01642359048128128, 0.012498363852500916, -0.011072807013988495, -0.03038831427693367, 0.016671840101480484, -0.008123831823468208, 0.02224886789917946, 0.013441652059555054, 0.03681617230176926, 0.03570164740085602, -0.005707286298274994, -0.029278330504894257, 0.031302064657211304, -0.008407240733504295, 0.024020489305257797, 0.028017684817314148, 0.02286822348833084, -0.025409379974007607, 0.007049359381198883, -0.019343318417668343, -0.019768662750720978], [0.012525931000709534, -0.012984801083803177, -0.02315542846918106, -0.013991467654705048, 0.010076642036437988, -0.002869807183742523, 0.01573348417878151, -0.018246131017804146, 0.023902706801891327, -0.006295304745435715, 0.01965806633234024, 0.001858305186033249, -0.027640528976917267, -0.016423329710960388, -0.017769888043403625, 0.036854878067970276, -0.003745630383491516, 0.03763269633054733, -0.023706067353487015, 0.028706222772598267, -0.012330709025263786, -0.029143378138542175, -0.022629529237747192, 0.013975448906421661, -0.00374545156955719, 0.007112767547369003, -0.012110728770494461, -0.0021910332143306732, 0.0349263921380043, 0.016350820660591125, -0.03021978959441185, -0.0015192627906799316]], [[0.011193320155143738, -0.019430268555879593, -0.0017095841467380524, 0.019165974110364914, -0.03077279031276703, -0.03195706009864807, 0.0011908747255802155, 0.011174105107784271, -0.025019105523824692, -0.013739081099629402, -0.030136778950691223, -0.03427591174840927, -0.0201033316552639, -0.034731023013591766, 0.03135412931442261, -0.02486257255077362, 0.0036024823784828186, 0.006620865315198898, 0.01769036054611206, -0.0020697936415672302, 0.001157321035861969, 0.028844282031059265, 0.014068499207496643, -0.011286325752735138, -0.007738547399640083, -0.0076717715710401535, 0.004974115639925003, -0.01457415334880352, 0.02085094153881073, -0.028840001672506332, 0.021045446395874023, 0.007359348237514496], [-0.031308066099882126, -0.03266257420182228, -0.009102774783968925, -0.001519523561000824, 0.0003506094217300415, 0.034523844718933105, -0.030971502885222435, 0.02228151634335518, 0.003146924078464508, -0.02809031680226326, 0.001498989760875702, 0.006623413413763046, 0.026952460408210754, -0.035514019429683685, -0.007432343438267708, -0.014583153650164604, -0.010275999084115028, -0.013740014284849167, 0.018452506512403488, -0.0043958984315395355, 0.022557459771633148, 0.0032690726220607758, -0.004680618643760681, -0.028247274458408356, 0.022979337722063065, 0.037397488951683044, -0.03125446289777756, 0.03465986251831055, 0.03195247799158096, 0.017342980951070786, -0.021046172827482224, 0.000988941639661789], [0.022483080625534058, -0.013330643996596336, -0.0005360841751098633, -0.03687385097146034, -0.030964072793722153, -0.027705760672688484, 0.022861696779727936, 0.009709089994430542, 0.013053812086582184, -0.03332312032580376, 0.006028883159160614, -0.017983730882406235, -0.008502671495079994, 0.02154446765780449, 0.00144876167178154, 0.030722320079803467, -0.0027434341609477997, -0.010535350069403648, -0.0036794282495975494, 0.024407576769590378, 0.013946086168289185, 0.02700401097536087, -0.021254487335681915, 0.027662940323352814, -0.028883354738354683, 0.006219707429409027, 0.005282733589410782, -0.018122585490345955, 0.018838223069906235, -0.007506487891077995, 0.024476338177919388, -0.02579132467508316]], [[-0.023653443902730942, -0.027229562401771545, -0.00799410231411457, 0.027937881648540497, -0.00755198672413826, -0.007121868431568146, -0.024117734283208847, -0.024217238649725914, -0.010527579113841057, 0.010915122926235199, -0.03079473227262497, -0.010328622534871101, 0.02192048728466034, 0.01208437979221344, 0.0005032308399677277, 0.009432259947061539, -0.017555605620145798, -0.0005556568503379822, 0.033788636326789856, 0.025370478630065918, -0.02342788130044937, -0.00393492728471756, -0.0127797182649374, -0.010313412174582481, -0.01576988399028778, 0.007377278059720993, -0.01599488966166973, 0.009407363831996918, -0.005370177328586578, 0.01599637046456337, 0.013085447251796722, 0.020829971879720688], [-0.020453885197639465, 0.006030604243278503, -0.014495773240923882, -0.017266038805246353, 0.0022241659462451935, -0.02539210394024849, -0.02313634753227234, -0.03562402352690697, -0.01898977719247341, 0.008275583386421204, 0.01944207027554512, 0.027589716017246246, -0.035659193992614746, -0.013946730643510818, -0.03607548028230667, -0.013463513925671577, -0.014613127335906029, -0.01612233929336071, 0.02708200365304947, -0.014979833737015724, 0.03139260411262512, 0.037079401314258575, -0.015514364466071129, 0.025627747178077698, -0.020128700882196426, -0.001912444829940796, -0.018434030935168266, 0.018792077898979187, -0.0026062466204166412, -0.0240328386425972, -0.012457018718123436, -0.006312128156423569], [-0.02544834464788437, 0.02692912518978119, -0.020957598462700844, 0.006879623979330063, 0.030525438487529755, -0.012455718591809273, 0.026881679892539978, -0.021528959274291992, 0.029755137860774994, -0.01668848656117916, -0.029536379501223564, 0.005274828523397446, 0.0024426840245723724, 0.00955251231789589, 0.03218743950128555, 0.0019062869250774384, -0.03746369853615761, -0.013488991186022758, 0.010473214089870453, -0.027948420494794846, 0.012354794889688492, -0.02031143195927143, -0.0338093601167202, -0.032483361661434174, -0.01116270013153553, 0.02442634478211403, -0.017997244372963905, 0.006320197135210037, -0.011631477624177933, -0.017583344131708145, -0.014688760042190552, 0.017088647931814194]], [[0.035618193447589874, -0.001639489084482193, -0.035142168402671814, 0.018078844994306564, -0.022946413606405258, 0.015750911086797714, -0.021114295348525047, 0.024451039731502533, -0.03605448082089424, -0.03540399670600891, -0.02566622570157051, 0.03373914211988449, 0.01932677999138832, -0.006413742899894714, 0.021832220256328583, -0.012614594772458076, 0.0012629367411136627, 0.014385931193828583, 0.032518647611141205, -0.015404602512717247, -0.006204206496477127, 0.010803170502185822, 0.007924579083919525, 0.005731087177991867, -0.014992190524935722, -0.025162484496831894, -0.0018862932920455933, 0.01114564761519432, -0.0028046555817127228, 0.015522856265306473, -0.026120340451598167, -0.014217935502529144], [0.020137622952461243, 0.0051607415080070496, 0.006249554455280304, -0.03313997760415077, 0.017583943903446198, -0.019406728446483612, -0.028281472623348236, -0.02483273297548294, 0.016713730990886688, -0.027550222352147102, 0.033264920115470886, -0.02139134332537651, 0.015638824552297592, -0.0005324669182300568, -0.027976930141448975, 0.00502212718129158, -0.022253355011343956, -0.031006518751382828, 0.024697646498680115, -0.029408078640699387, 0.0060418397188186646, 0.016904249787330627, 0.00592619925737381, 0.0003421083092689514, 0.023872148245573044, -0.017909713089466095, 0.03669579327106476, -0.030210932716727257, -0.025212202221155167, 0.01598760485649109, -0.007179068401455879, 0.03575102239847183], [0.018408887088298798, -0.03560449555516243, -0.020720047876238823, 0.009052161127328873, -0.010737203061580658, 0.020588144659996033, -0.027288341894745827, 0.016184385865926743, -0.023466190323233604, -0.020097650587558746, 0.019586876034736633, -0.022393260151147842, 0.0025565922260284424, -0.023943664506077766, -0.0240255706012249, 0.006193835288286209, -0.031084172427654266, -0.01790270395576954, -0.00046448037028312683, -0.012923400849103928, -0.019437169656157494, -0.03610721230506897, 0.03303396701812744, -0.029032710939645767, 0.03204807639122009, -0.03622553497552872, 0.008516896516084671, -0.01667575165629387, 0.012348424643278122, 0.002589099109172821, 0.011057112365961075, 0.03239893168210983]], [[0.030471429228782654, 0.02651151269674301, 0.004490762948989868, 0.020977307111024857, 0.02322852984070778, 0.005478773266077042, -0.01084858924150467, -0.03256233409047127, 0.032925017178058624, 0.011704418808221817, -0.004602007567882538, 0.021920543164014816, 0.0021755285561084747, -0.008327290415763855, -0.004823915660381317, -0.0010819211602210999, 0.021581415086984634, 0.03453975170850754, -0.01966342329978943, -0.02204452082514763, 0.01223037764430046, -0.006250344216823578, -0.014786971732974052, 0.022310618311166763, 0.027128390967845917, -0.02033175714313984, 0.00850662961602211, 0.028434857726097107, 9.67755913734436e-05, -0.018605004996061325, 0.00023321062326431274, -0.012260181829333305], [0.013935316354036331, -0.02349095791578293, 0.008120778948068619, -0.013041697442531586, -0.004317428916692734, -0.021189328283071518, -0.02734508365392685, 0.03332502394914627, 0.014337766915559769, -0.016813620924949646, 0.008638150990009308, 0.01521686464548111, -0.00020974129438400269, -0.008721314370632172, -0.031329765915870667, -0.008722247555851936, -0.022367890924215317, -0.01676516979932785, -0.024820080026984215, -0.005107417702674866, -0.012037122622132301, 0.03750542551279068, 0.019426949322223663, -0.033850014209747314, -0.030563540756702423, -0.02404329553246498, -0.00815647840499878, -0.02902781032025814, -0.03320111706852913, -0.022324707359075546, 0.03471718728542328, 0.008339513093233109], [0.03016941249370575, -0.006254605948925018, -0.02983950451016426, -0.002557661384344101, 0.020641963928937912, -0.017878087237477303, -0.009408682584762573, -0.0063639916479587555, 0.022955693304538727, -0.0184406079351902, 0.02911035716533661, 0.03353773057460785, -0.027653146535158157, -0.0336068794131279, -0.0012847967445850372, -0.013887492939829826, -0.03195427730679512, -0.0365678071975708, 0.012796193361282349, 0.0013764873147010803, 0.03129419684410095, 0.029930323362350464, -0.0072320252656936646, 0.01575106382369995, -0.006682462990283966, -0.0089944489300251, 0.00014629587531089783, 0.03575871139764786, 0.03540504723787308, -0.02263108268380165, -0.031000740826129913, -0.003737345337867737]], [[-0.008021267130970955, 0.01624569669365883, 0.02031528204679489, -0.0032493025064468384, 0.03406786918640137, 0.033051297068595886, -0.011174814775586128, 0.0320720449090004, -0.008379476144909859, 0.003251533955335617, -0.01778743974864483, 0.009099651128053665, -0.020862482488155365, 0.022799544036388397, -0.032185379415750504, -0.03135467693209648, -0.028114303946495056, -0.008500535041093826, 0.009031135588884354, -0.021352071315050125, -0.027357853949069977, 0.01274007186293602, -0.03295974060893059, -0.006059933453798294, -0.013961143791675568, 0.012535199522972107, 0.011377673596143723, 0.02630535513162613, 0.031425148248672485, 0.021785251796245575, 0.03597419708967209, -0.02254495769739151], [-0.033722374588251114, -0.016111992299556732, 0.022454041987657547, -0.006777452304959297, -0.004575282335281372, -0.022715367376804352, -0.014807818457484245, 0.012937571853399277, 0.032356277108192444, -0.02162407524883747, -0.01619729958474636, 0.0312424898147583, -0.006550310179591179, 0.02232987806200981, 0.005890287458896637, -0.012258592993021011, 0.03176051378250122, -0.02539592608809471, -0.004738572984933853, -0.02030191943049431, -0.03116421028971672, -0.01842854730784893, -0.02005578763782978, -0.01504487730562687, 0.03109443187713623, 0.02926841378211975, 0.02124892547726631, -0.01571519486606121, -0.00599125400185585, 0.003519609570503235, 0.001827191561460495, 0.011456634849309921], [0.016461022198200226, -0.01817842200398445, 0.00315050408244133, -0.012141069397330284, -0.012529898434877396, 0.03404467552900314, 0.027184635400772095, 0.01312936469912529, 0.00915403664112091, -0.03233452886343002, 0.034455716609954834, 0.018800288438796997, 0.03744814544916153, -0.022810086607933044, 0.016012974083423615, 0.030585959553718567, 0.024862632155418396, 0.02892424911260605, -0.024924950674176216, 0.005744475871324539, 0.007252037525177002, -0.0027289390563964844, -0.013285622000694275, -0.020275454968214035, 0.02314594015479088, 0.019932571798563004, 0.01542413979768753, -0.013346770778298378, -0.026195192709565163, 0.024642538279294968, 0.033447280526161194, 0.024123109877109528]], [[-0.01561514288187027, 0.02565649151802063, -0.013814417645335197, 0.017425544559955597, -0.001065775752067566, -0.00397113710641861, 0.03485465794801712, 0.02384714037179947, 0.008967965841293335, 0.021304626017808914, 0.023803595453500748, -0.0046485550701618195, 0.021357141435146332, -0.03410303592681885, -0.019275501370429993, -0.0014327093958854675, 0.015325956046581268, -0.019610943272709846, -0.00021727010607719421, 0.014700058847665787, -0.028045887127518654, -0.029227834194898605, 0.029410213232040405, -0.021450230851769447, -0.0022624582052230835, 0.031692326068878174, 0.019815687090158463, -0.017997020855545998, 0.006313897669315338, 0.030233189463615417, 0.02176573872566223, 0.02385033294558525], [0.01335299015045166, -0.023520052433013916, -0.0010612457990646362, 0.0007369965314865112, -0.017823578789830208, -0.020441321656107903, 0.003975875675678253, 0.016187213361263275, 0.022987425327301025, 0.036787644028663635, -0.011795379221439362, -0.028623655438423157, 0.015116382390260696, 0.01382763683795929, 0.027226246893405914, -0.014842234551906586, 0.003512062132358551, -0.020096322521567345, -0.021293336525559425, -0.020501572638750076, 0.02666284888982773, 0.0005296207964420319, -0.016670627519488335, 0.021678566932678223, 0.008500248193740845, -0.008928284049034119, -0.013754956424236298, -0.029434693977236748, 0.011447831988334656, 0.03751929849386215, 0.009472418576478958, -0.0006599612534046173], [-0.03026067651808262, 0.03436800837516785, -0.03705459460616112, -0.026925349608063698, 0.005943700671195984, 0.011104565113782883, 0.009853322058916092, -0.03059123456478119, 0.03319982439279556, -0.007280413061380386, 0.02129804715514183, -0.020151549950242043, 0.024119198322296143, -0.01369706355035305, -0.01897776871919632, 0.012857630848884583, -0.03443063423037529, 0.02479977160692215, -0.013693401589989662, -0.00817422941327095, -0.03751587122678757, -0.015809467062354088, -0.0013548843562602997, -0.010134192183613777, 0.007502835243940353, -0.018876945599913597, -0.013023300096392632, 0.012891847640275955, 0.028317280113697052, 0.03557845950126648, -0.0012482665479183197, 0.018490146845579147]], [[0.018327776342630386, -0.025468789041042328, 0.0128440260887146, -0.014337282627820969, -0.003474324941635132, 0.009551648050546646, -0.005839411169290543, 0.023276351392269135, 0.0329962894320488, -0.00328749418258667, -0.00021437183022499084, -0.009370893239974976, 0.008268699049949646, 0.031304799020290375, -0.0074959974735975266, -0.005361445248126984, -0.010441849008202553, 0.03292926400899887, -0.017822179943323135, 0.004760686308145523, 0.010743234306573868, -0.01464889757335186, 0.013408735394477844, -0.007686382159590721, -0.030375320464372635, 0.021735381335020065, 0.007189612835645676, -0.0018954724073410034, 0.01684880629181862, 0.0281120166182518, -0.022749099880456924, 0.03720720112323761], [-0.018350733444094658, -0.02413574606180191, -0.02693330869078636, 0.026332199573516846, 0.02171073853969574, 0.010424241423606873, 0.018307406455278397, -0.000400736927986145, 0.029022805392742157, 0.028419196605682373, 0.003513973206281662, -0.014085505157709122, -0.020521746948361397, 0.012657832354307175, 0.03164360672235489, 0.033151812851428986, 0.034613460302352905, -0.027223872020840645, -0.020715245977044106, -0.027512675151228905, -0.002008862793445587, 0.024112556129693985, 0.02625828981399536, 0.03341073542833328, -0.012442139908671379, 0.0031163953244686127, 0.0008349381387233734, 0.013244960457086563, -0.00011763349175453186, -0.031213389709591866, -0.010660061612725258, 0.0022509098052978516], [-0.02028275839984417, 0.029354579746723175, 0.012845747172832489, -0.0023099519312381744, 0.0322168692946434, 0.0164303220808506, -0.03688971698284149, 0.031669653952121735, -0.005266103893518448, 0.0034355036914348602, -0.020835768431425095, 0.019404269754886627, 0.013052340596914291, -0.00713479146361351, 0.021906353533267975, 0.03510303050279617, -0.014714883640408516, -0.0212425347417593, -0.023021087050437927, -0.009883366525173187, 0.016622472554445267, -0.019737619906663895, 0.005923796445131302, 0.0026511959731578827, 0.023849770426750183, -0.01938692294061184, 0.022654198110103607, 0.024372443556785583, 0.016695082187652588, 0.02439429610967636, -0.0010901950299739838, 0.030453994870185852]], [[0.029160112142562866, 0.03397368639707565, 0.019926462322473526, -0.02545529045164585, -0.011966623365879059, -0.01231316477060318, 0.03306847810745239, -0.002801179885864258, 0.003938786685466766, -0.008058428764343262, -0.011496525257825851, -0.024729128926992416, 0.02295582741498947, 0.009966842830181122, 0.004481207579374313, 0.017497971653938293, 0.025746338069438934, 0.026482127606868744, 0.03276078402996063, 0.02410915493965149, 0.008944723755121231, -0.0063861943781375885, -0.028909236192703247, -0.005149871110916138, 0.03341051936149597, -0.03721309453248978, -0.030182044953107834, 0.02201363816857338, 0.00888150930404663, 0.008378028869628906, 0.007833108305931091, -0.03608890622854233], [0.012389391660690308, -0.03688480705022812, 0.004200056195259094, 0.011145416647195816, -0.01914692111313343, -0.01687648333609104, -0.010694064199924469, 0.007705334573984146, -0.025719478726387024, 0.007332347333431244, -0.02318664826452732, -0.001288820058107376, -0.004437055438756943, 0.03166584670543671, 0.03178432583808899, -0.002293825149536133, 0.01174934208393097, 0.034316763281822205, 0.0031348280608654022, 0.000906631350517273, -0.004763349890708923, -0.035995494574308395, -0.012784365564584732, -0.03417635336518288, 0.005413923412561417, 0.006574772298336029, 0.01716069132089615, 0.0061268433928489685, -0.020590972155332565, -0.011105507612228394, 0.024762332439422607, -0.0025480426847934723], [-0.01548648253083229, -0.024499453604221344, -0.03437500447034836, -0.0037994198501110077, -0.034847281873226166, -0.012255102396011353, -0.03180062398314476, -0.03384055569767952, -0.036765702068805695, -0.031049765646457672, 0.009918220341205597, 0.01494751125574112, 0.032043226063251495, -0.008941251784563065, 0.005046803504228592, -0.03704614192247391, 0.029078714549541473, -0.02200096845626831, -0.010162943974137306, -0.02360730618238449, -0.010214464738965034, 0.02740677446126938, 0.0012957826256752014, -0.008286844938993454, -0.02155078388750553, -0.0007661506533622742, 0.003273092210292816, 0.007485058158636093, -0.0194829273968935, 0.002786938101053238, -0.010862337425351143, 0.0328536331653595]], [[-0.027006806805729866, -0.014244794845581055, 0.03728239983320236, 0.01770462840795517, -0.014941783621907234, -0.029712188988924026, -0.02329847402870655, 0.024024367332458496, -0.03262796998023987, 0.0005441606044769287, -0.012846268713474274, -0.021584518253803253, 0.02425196021795273, -0.004869416356086731, 0.03737331181764603, -0.013404052704572678, -0.012120706960558891, -0.013766029849648476, 0.027981922030448914, -0.015116725116968155, -0.020702214911580086, -0.017101462930440903, 0.01712387055158615, -0.008845362812280655, 0.0010247305035591125, -0.025325659662485123, 0.0073237232863903046, -0.021290017291903496, 0.02660156786441803, -0.020319409668445587, 0.011081475764513016, -0.005760163068771362], [0.006421227008104324, -0.007363583892583847, -0.02253793179988861, 0.026917733252048492, -0.0009898468852043152, 0.008899226784706116, 0.03306566923856735, 0.007214847952127457, -0.016254957765340805, -0.0006749927997589111, -0.006809607148170471, -0.020048517733812332, -0.005683407187461853, -0.030062709003686905, -0.019448673352599144, 0.022148359566926956, 0.0362335741519928, -0.02480608969926834, 0.002048250287771225, 0.012943178415298462, -0.008032592013478279, 0.012207496911287308, -0.03580920398235321, -0.012596853077411652, 0.010395318269729614, -0.0025845132768154144, 0.005515970289707184, 0.031407423317432404, 0.005276478826999664, 0.022472329437732697, 0.02049410715699196, 0.0071000345051288605], [0.03133349120616913, -0.03412378579378128, -0.004345636814832687, -0.015623211860656738, 0.008215267211198807, -0.020252328366041183, -0.022899622097611427, 0.0156601220369339, -0.010027382522821426, -0.0023868121206760406, -0.00029997527599334717, -0.01721545122563839, 0.025137275457382202, -0.01494632475078106, -0.0031588971614837646, 0.03507290035486221, 0.004047174006700516, 0.01757698878645897, -0.03180061653256416, -0.0017388872802257538, -0.02725449949502945, -0.028990667313337326, -0.03444195166230202, 0.0368494912981987, 0.023787766695022583, -0.01510801911354065, -0.021374309435486794, 0.017899420112371445, -0.004552073776721954, 0.008033230900764465, -0.010859079658985138, -0.03303559124469757]], [[0.003555048257112503, 0.03396620601415634, 0.01639745756983757, -0.03028576821088791, -0.028260797262191772, 0.003379594534635544, 0.016552746295928955, 0.0056332871317863464, -0.03331753611564636, -0.030501019209623337, 0.0046507082879543304, 0.01590508595108986, -0.014017079025506973, 0.0053741708397865295, -0.029780922457575798, 0.008082091808319092, 0.027900516986846924, 0.03353313356637955, -0.031525254249572754, -0.0002247840166091919, 0.004017051309347153, 0.008333615958690643, 0.001897960901260376, -0.0023067742586135864, 0.008438166230916977, -0.0047766417264938354, 0.026494815945625305, 0.029364772140979767, 0.013881336897611618, -0.018556302413344383, -0.009833650663495064, -0.026795215904712677], [0.02812173217535019, 0.026733972132205963, -0.010014854371547699, 0.02306177467107773, -0.0312906838953495, 0.020037606358528137, 0.03338741511106491, 0.0024246759712696075, -0.01999751850962639, -0.013587778434157372, 0.03398144990205765, -0.003709256649017334, 0.018980201333761215, 0.019218318164348602, -0.01671837829053402, 0.010083947330713272, -0.0066089387983083725, -0.02991015836596489, -0.003357160836458206, 0.020621493458747864, 0.0028190314769744873, -0.01687144860625267, -0.030937857925891876, 0.017770513892173767, -0.032957836985588074, 0.010420527309179306, 0.01568421721458435, 0.013577617704868317, -0.021525101736187935, 0.011139843612909317, -0.004750508815050125, 0.027130208909511566], [-0.020105818286538124, -0.030147558078169823, -0.01950189843773842, 0.02060486376285553, -0.025234412401914597, 0.009994924068450928, -0.024994220584630966, -0.013250136747956276, 0.03580218553543091, 0.00013465434312820435, -0.023882325738668442, 0.006546478718519211, -0.000863395631313324, -0.00966271199285984, -0.008357139304280281, -0.03333842009305954, 0.02361394092440605, 0.026259489357471466, -0.028931625187397003, -0.033146679401397705, -0.023470327258110046, 0.026179306209087372, -0.0012211166322231293, -0.00938454270362854, -0.019388925284147263, -0.012486660853028297, -0.026644594967365265, -0.02888346277177334, -0.004922110587358475, -0.026456177234649658, -0.02665281668305397, -0.024928908795118332]]], [[[0.03553413599729538, 0.020052071660757065, 0.013608328998088837, -0.0003643743693828583, 0.006957974284887314, -0.008897153660655022, -0.0022041723132133484, -0.01751694455742836, 0.003169924020767212, 0.009723655879497528, 0.018891368061304092, -0.01084478385746479, -0.007085515186190605, 0.015628792345523834, -0.025732114911079407, -0.0046694353222846985, 0.02476375922560692, 0.009475089609622955, 0.03597962111234665, 0.00100751593708992, -0.03363461792469025, -0.014392931014299393, 0.006762851029634476, 0.016714081168174744, -0.013412728905677795, -0.030679190531373024, 0.0274883434176445, 0.028055846691131592, -0.002766810357570648, -0.002892419695854187, -0.016463523730635643, -0.009815845638513565], [-0.034877434372901917, -0.03125044330954552, -0.014224683865904808, 0.014738593250513077, 0.0016684047877788544, -0.0016357116401195526, -0.011670101433992386, -0.02553403005003929, 0.03321107476949692, 0.020797431468963623, 0.009478949010372162, 0.009789235889911652, -0.007537223398685455, -0.009190075099468231, -0.007924867793917656, -0.02812071144580841, 0.01208622008562088, 0.00687793642282486, -0.016157517209649086, 0.012439277023077011, 0.010090228170156479, 0.035958901047706604, -0.004304561764001846, -0.010035593062639236, 0.011851798743009567, 0.0294635072350502, -0.037429336458444595, 0.03096891939640045, -0.006284527480602264, 0.014179546386003494, 0.025098420679569244, 0.02586190402507782], [-0.032401446253061295, -0.0035266876220703125, -0.026926346123218536, 0.00612504780292511, -0.007013093680143356, -0.017803557217121124, -0.00826842151582241, -0.01783529855310917, 0.03524935990571976, -0.020834269002079964, 0.004121903330087662, -0.0034001916646957397, -0.02243729680776596, -0.01415303535759449, -0.02272411622107029, -0.0005292817950248718, -0.026002852246165276, 0.022544007748365402, 0.0344456285238266, -0.01957162655889988, 0.016286134719848633, -0.017616933211684227, -0.008878128603100777, -0.02737198770046234, -0.020599104464054108, -0.03374694660305977, -0.004996433854103088, -0.03429201990365982, 0.019762426614761353, -0.03158286213874817, -0.019726097583770752, -0.00991627387702465]], [[-0.0017080940306186676, -0.00350203737616539, 0.0036506466567516327, 0.01777254417538643, 0.02666115015745163, 0.03166379779577255, 0.03301592171192169, -0.012724500149488449, 0.023714520037174225, 0.0061479657888412476, -0.03646877035498619, -0.026125069707632065, 0.01981072500348091, -0.03487769514322281, -0.03381169214844704, -0.03322644904255867, -0.015998471528291702, 0.02596280723810196, -0.03327823057770729, -0.03231562674045563, 0.013533215969800949, 0.030105113983154297, 0.002087995409965515, 0.018527306616306305, -0.01395883783698082, -0.02806100808084011, 0.03357577323913574, -0.03381729498505592, 0.007986392825841904, 0.010163374245166779, 0.007587101310491562, -0.03434731811285019], [0.004611816257238388, -0.007253903895616531, -0.0184440016746521, -0.0064530763775110245, -0.01758607104420662, 0.029507368803024292, -0.0202256478369236, -0.0032592788338661194, 0.03286443650722504, -0.02585356868803501, -0.02961011976003647, 0.028269141912460327, -0.03535047546029091, -0.022760264575481415, 0.010501310229301453, 0.0367918536067009, 0.0006804317235946655, 0.0034700632095336914, -0.03412687033414841, 0.030922792851924896, -0.03141249716281891, -0.010128797963261604, -0.004652019590139389, -0.03212685137987137, -0.0076437462121248245, -0.023353924974799156, 0.02397257089614868, -0.018956823274493217, -0.013184985145926476, -0.03562990948557854, 0.019520312547683716, -0.033374279737472534], [-0.005356248468160629, 0.002398516982793808, 0.01530710980296135, -0.013481874018907547, -0.00614529475569725, 0.014016333967447281, -0.02139461785554886, 0.017442692071199417, -0.03224235400557518, -0.03607802093029022, 0.01852685958147049, 0.01130339503288269, -0.03273563086986542, -0.009005533531308174, 0.02881508320569992, -9.366124868392944e-05, 0.032534174621105194, 0.03399527817964554, -0.004172831773757935, 0.016966916620731354, 0.011563461273908615, -0.019955528900027275, 0.03127771615982056, -0.0071049705147743225, 0.032269664108753204, -0.0035681836307048798, -0.0070841871201992035, 0.0049190521240234375, -0.020126143470406532, 0.035495825111866, 0.026468105614185333, -0.00012953951954841614]], [[-0.015342457219958305, -0.01793038845062256, 0.012549228966236115, -0.026224806904792786, -0.014880562201142311, -0.024277247488498688, 0.021160680800676346, -0.03479975461959839, 0.023908287286758423, 0.034687116742134094, -0.005247104912996292, 0.028030045330524445, 0.03509648144245148, -0.019518662244081497, 0.021200723946094513, -0.013380773365497589, -0.013337571173906326, -0.009668176993727684, -0.004423949867486954, -0.029549526050686836, 0.004229098558425903, 0.0172891728579998, -0.005724750459194183, -0.03339679539203644, -7.834285497665405e-06, -0.02948381006717682, -0.008877957239747047, 0.0294395312666893, 0.01768134906888008, 0.011286154389381409, -0.013618666678667068, -0.004187934100627899], [-0.030897144228219986, 0.01427266001701355, -0.032950274646282196, 0.00045469775795936584, 0.0017263032495975494, -0.003961294889450073, -0.004296105355024338, 0.0063792988657951355, 0.006784696131944656, -0.025972582399845123, -0.017340702936053276, -0.00046513602137565613, 0.0310848206281662, 0.02208257094025612, 0.03180249035358429, 0.006047584116458893, -0.01192033477127552, 0.02138226106762886, -0.020759137347340584, -0.03162698447704315, 0.02274646982550621, 0.0347929373383522, 0.023381080478429794, -0.030095024034380913, 0.0018987767398357391, -0.015015928074717522, -0.00861169770359993, 0.02066725119948387, -0.0020071007311344147, 0.02965741604566574, 0.02115478739142418, 0.006192218512296677], [0.02886360138654709, -0.00040284544229507446, 0.00337403267621994, -0.021685780957341194, 0.021406274288892746, 0.026828698813915253, -0.004867851734161377, -0.032193489372730255, 0.02956511080265045, 0.01889185979962349, -0.021436339244246483, -0.01963100954890251, 0.007616732269525528, -0.03175821155309677, 0.016541555523872375, -0.024618001654744148, -0.03162239119410515, 0.02819104492664337, -0.010297618806362152, -0.03594124689698219, 0.0029722824692726135, 0.01912705972790718, 0.03635548800230026, -0.02231925167143345, -0.0025947056710720062, -0.013992436230182648, -0.03504931554198265, 0.012221351265907288, 0.008162789046764374, 0.02336489036679268, -0.004602059721946716, 0.02077643945813179]], [[-0.015295173972845078, -0.02184976451098919, 0.004616193473339081, 0.030996985733509064, 0.02710563689470291, 0.024803783744573593, 0.015570182353258133, -0.005731455981731415, -0.003198329359292984, -0.0025169737637043, 0.025638960301876068, -0.023491129279136658, 0.029424287378787994, -0.014036992564797401, 0.034170255064964294, -0.010639503598213196, -0.015880929306149483, -0.029589246958494186, -0.026681730523705482, 0.024705257266759872, -0.0026310235261917114, -0.01853759214282036, -0.024922609329223633, -0.009689697995781898, -0.036670148372650146, 0.01404610276222229, -0.015623068436980247, 0.006577402353286743, 0.031061746180057526, -0.013097355142235756, 0.00854305550456047, 0.037115007638931274], [-0.023437509313225746, 0.022161774337291718, 0.005873434245586395, 0.0028854943811893463, 0.012013610452413559, 0.02724377065896988, -0.01799578219652176, -0.0026963092386722565, 0.012928910553455353, -0.02736053802073002, 0.03460606932640076, -0.023204676806926727, 0.03746750205755234, 0.0223243311047554, -0.0319516584277153, -0.02230050414800644, 0.0339614599943161, -0.004619423300027847, 0.0026888884603977203, -0.010990899056196213, 0.01123238354921341, 0.034567758440971375, -0.010793380439281464, -0.026023179292678833, 0.0003478527069091797, 0.0068284980952739716, -0.027875620871782303, -0.015762578696012497, 0.02895747870206833, 0.016152996569871902, -0.008664330467581749, 0.025400109589099884], [0.016556844115257263, 0.008730404078960419, -0.0059318989515304565, -0.014710083603858948, -0.016794901341199875, 0.03486504405736923, 0.03646915405988693, -0.016534248366951942, 0.018482785671949387, 0.023475084453821182, 0.014994576573371887, 0.019448664039373398, 0.03184458613395691, -0.0068893153220415115, 0.03599704056978226, 0.003393620252609253, -0.013705732300877571, 0.0008109398186206818, -0.03193134814500809, 0.019815128296613693, -0.013633519411087036, 0.0007185079157352448, -0.014264672994613647, -0.00261109322309494, 0.01729363575577736, 0.025288552045822144, 0.02358761802315712, 0.034045346081256866, 0.014980345964431763, -0.011720661073923111, -6.156042218208313e-05, -0.0017706342041492462]], [[0.006899204105138779, -0.026269257068634033, -0.03590158373117447, -0.024685585871338844, 0.03596579283475876, 0.03736516088247299, -0.032638028264045715, -0.022725310176610947, -0.025063276290893555, 0.007449205964803696, 0.009518228471279144, 0.03608684986829758, 0.004784781485795975, 0.002607341855764389, 0.002969391644001007, 0.020225487649440765, 0.021696846932172775, 0.029231123626232147, 0.0011601485311985016, 0.020894672721624374, 0.003059893846511841, 0.03706243634223938, -0.0352996364235878, -0.005434710532426834, 0.0057376474142074585, 0.03364395350217819, 0.002858642488718033, -0.009228242561221123, -0.03573654964566231, -0.010158268734812737, 0.007209841161966324, -0.022889599204063416], [0.027259327471256256, 0.023577433079481125, 0.019082073122262955, 0.00856151431798935, 0.031048834323883057, 0.0277857705950737, -0.03252401575446129, 0.025915347039699554, 0.02097320556640625, 0.0364307165145874, 0.03322604298591614, -0.027902141213417053, 0.01644086465239525, 0.005016472190618515, 0.026087872684001923, -0.0269639752805233, 0.024254292249679565, 0.01514088362455368, 0.01955815777182579, 0.03745053708553314, 0.020496170967817307, -0.028293194249272346, -0.016788098961114883, -0.011902844533324242, 0.025402307510375977, 0.020507335662841797, -0.02787058800458908, -0.008521515876054764, -0.03622554615139961, 0.009727515280246735, 0.012886572629213333, 0.020512834191322327], [-0.017248673364520073, -0.02804163284599781, 0.02395319566130638, 0.029929518699645996, 0.0331774577498436, 0.001364775002002716, -0.03094533458352089, 0.01537320390343666, -0.003335908055305481, -0.03659973666071892, -0.03666821867227554, -0.02911774069070816, -0.022040076553821564, 0.009792163968086243, -0.0077798739075660706, -0.03101656213402748, -0.0228603333234787, 0.02671339362859726, -0.004238557070493698, -0.012789040803909302, -0.014010697603225708, 0.008763160556554794, 0.03662717342376709, -0.028762375935912132, -0.035595133900642395, -0.026378892362117767, 0.032031066715717316, -0.028871886432170868, -0.0039989762008190155, 0.017568644136190414, 0.0014219395816326141, -0.02313760481774807]], [[0.02743043750524521, 0.012025825679302216, 0.024588756263256073, -0.010003475472331047, 0.015459299087524414, -0.025206878781318665, 0.02030128240585327, -0.01266469620168209, 0.0302746519446373, 0.0272197425365448, 0.012798964977264404, -0.010515248402953148, 0.01921723410487175, 0.030946001410484314, -0.00246284157037735, -7.592141628265381e-06, -0.025064075365662575, -0.02540975622832775, 0.021151144057512283, -0.024175848811864853, -0.029353469610214233, 0.013230662792921066, 0.02631964534521103, 0.03527849167585373, 0.013976015150547028, -0.0069069210439920425, -0.016368461772799492, 0.011551078408956528, -0.015100553631782532, 0.004079166799783707, 0.010777521878480911, 0.0019782520830631256], [0.030096590518951416, -0.02911004051566124, 0.035593777894973755, 0.00034485384821891785, 0.0016648322343826294, 0.024882018566131592, -0.032746732234954834, 0.010266568511724472, -0.0003763735294342041, 0.023667827248573303, -0.036580342799425125, -0.01571821980178356, -0.00014113634824752808, 0.015524037182331085, 0.025675274431705475, -0.014786846935749054, 0.0015859045088291168, -0.0019221194088459015, 0.033421486616134644, 0.014158923178911209, 0.02072089910507202, -0.027636192739009857, 0.017331261187791824, -0.030951840803027153, -0.014842279255390167, 0.0021360591053962708, -0.006032131612300873, 0.03713320940732956, 0.0037446171045303345, 0.02841198444366455, 0.025749385356903076, 0.031100846827030182], [-0.016274046152830124, -0.01736145094037056, 0.034513428807258606, -0.020976848900318146, -0.034183766692876816, 0.012673068791627884, -0.028430694714188576, -0.013664264231920242, 0.02237878367304802, -0.025042833760380745, -0.019097724929451942, -0.014228390529751778, -0.007029946893453598, 0.030776306986808777, -0.031310226768255234, -0.030598361045122147, 0.022661764174699783, 0.031283557415008545, -0.031570494174957275, 0.02113320305943489, 0.014384135603904724, -0.032373249530792236, -0.016127418726682663, 0.016178186982870102, -0.026164906099438667, -0.015960125252604485, -0.002261616289615631, -0.020282257348299026, -0.006690170615911484, 0.002309691160917282, -0.008511591702699661, 0.0115891732275486]], [[0.024733927100896835, -0.011979958042502403, 0.01176854595541954, -0.013843340799212456, 0.024868443608283997, -0.036054059863090515, 0.033220842480659485, -0.01300748810172081, -0.0023505836725234985, 0.017995845526456833, 0.012521721422672272, 0.03374379873275757, -0.01229989156126976, 0.027937449514865875, 0.0026669204235076904, 0.0012020394206047058, -0.022500600665807724, -0.024924995377659798, 0.021922212094068527, 0.005501806735992432, -0.018427884206175804, 0.023304928094148636, -0.022781630977988243, 0.016031421720981598, -0.003295373171567917, -0.006936598569154739, 0.028570041060447693, 0.03575505316257477, -0.011854832991957664, 0.019589774310588837, 0.03489551693201065, -0.02450868859887123], [-0.017751570791006088, 0.021894697099924088, -0.009565602988004684, 0.03638654202222824, -0.005122646689414978, 0.014028027653694153, 0.00818035751581192, 0.03538820892572403, -0.03496663644909859, 0.03530549257993698, -0.03256811201572418, -0.015308903530240059, 0.0326547771692276, 0.0011315643787384033, 0.03251541405916214, -0.02295648120343685, 0.021329358220100403, -0.022986866533756256, 0.01454426720738411, 0.014014780521392822, -0.002090848982334137, -0.011309443041682243, -0.018661003559827805, -0.01409824937582016, 0.026073969900608063, -0.012563290074467659, -0.014095943421125412, -0.0015674009919166565, 0.006576471030712128, 0.02501130849123001, -0.03698182478547096, 0.0031876936554908752], [0.036599673330783844, 0.005544263869524002, 0.00537080317735672, -0.0068503487855196, 0.028979867696762085, 0.02190633863210678, -0.01214325986802578, -0.018577193841338158, 0.01604991778731346, -0.026884518563747406, -0.03268061950802803, 0.03421752154827118, 0.00908568874001503, -0.013411123305559158, -0.010306546464562416, 0.0193939246237278, -0.011783624067902565, 0.01119811087846756, 0.0057917870581150055, -0.017753761261701584, 0.018080174922943115, -0.036026645451784134, -0.0011522769927978516, -0.025280341506004333, -0.033524345606565475, 0.003714669495820999, 0.027019135653972626, 0.023638993501663208, 0.012809142470359802, 0.003008142113685608, 6.904825568199158e-05, 0.013035036623477936]], [[-0.018820220604538918, -0.01123407855629921, -0.00654914416372776, 0.026451177895069122, -0.010491009801626205, -0.01149284653365612, 0.02517181634902954, 0.008240025490522385, 0.033142417669296265, 0.03204961121082306, -0.02101890929043293, -0.014403734356164932, 0.0085005983710289, 0.008890118449926376, -0.028569137677550316, -0.024753913283348083, -0.028276564553380013, -0.0036044418811798096, 0.011303778737783432, -0.017735382542014122, -0.029483791440725327, 0.01568756252527237, -0.029547560960054398, 0.014776133000850677, -0.014077654108405113, -0.023021049797534943, -0.022020846605300903, 0.011184971779584885, -0.026846960186958313, -0.02400292083621025, 0.03472062200307846, -0.019601698964834213], [-0.012266293168067932, 0.0019049681723117828, -0.008416008204221725, 0.028177939355373383, 0.019467994570732117, 0.032699160277843475, -0.007933948189020157, 0.03323417156934738, 0.0021681971848011017, 0.013634461909532547, 0.003125816583633423, 0.0219736248254776, -0.030847974121570587, -0.009999705478549004, -0.01759546808898449, -0.03175988048315048, -0.0043641142547130585, 0.0037094801664352417, 0.01011161133646965, -0.01508757658302784, -0.03207937628030777, 0.015368178486824036, -0.008903058245778084, 0.010029911994934082, -0.02199351042509079, 0.0318935364484787, 0.027094393968582153, -0.01030266098678112, -0.024931466206908226, -0.0025097765028476715, 0.011931631714105606, -0.028768882155418396], [0.03495769202709198, 0.014960665255784988, -0.03246399760246277, -0.011830989271402359, -0.0367024727165699, -0.03177043795585632, 0.008306551724672318, 0.029316432774066925, -0.03299553692340851, -0.002486102283000946, 0.005911938846111298, 0.036347970366477966, 0.012474339455366135, -0.03214317560195923, -0.01579873450100422, 0.035906270146369934, -0.026159673929214478, 0.028314366936683655, 0.030984140932559967, 0.029838629066944122, -0.022552307695150375, -0.03509289398789406, -0.023332027718424797, 0.022612594068050385, 0.012677665799856186, 0.011531855911016464, -0.011626649647951126, 0.013789065182209015, -0.024939317256212234, -0.005105201154947281, 0.033416226506233215, -0.008593004196882248]], [[-0.036840565502643585, 0.03276055306196213, 0.03305508941411972, 0.02017378807067871, -0.017723025754094124, 0.021757207810878754, 0.03533591330051422, -0.011264778673648834, 0.012346763163805008, -0.0035302527248859406, -0.010816920548677444, -0.00648239441215992, 0.03664401173591614, -0.0068013593554496765, 0.008778560906648636, -0.014445079490542412, -0.02217302843928337, 0.027766257524490356, 0.018925271928310394, 0.024593252688646317, -0.016627103090286255, -0.03499103710055351, -0.030350254848599434, -0.0027352385222911835, -0.021147320047020912, -0.020686205476522446, -0.002730492502450943, 0.009585607796907425, 0.007338270545005798, 0.032301753759384155, 0.0011324025690555573, 0.02522881329059601], [0.001953795552253723, 0.02320007234811783, -0.00658503919839859, 0.03614012151956558, -0.010244231671094894, 0.029242783784866333, -0.022958770394325256, -0.036748599261045456, -0.0010656341910362244, -0.030177423730492592, -0.00937054306268692, -0.009019128978252411, -0.022776246070861816, 0.008574500679969788, -0.014835916459560394, -0.015899550169706345, -0.0363326333463192, 0.005233697593212128, 0.03181857615709305, 0.0015998519957065582, -0.012763069942593575, 0.01362917572259903, -0.029320985078811646, -0.02737116441130638, 0.030448995530605316, -0.002546444535255432, -0.01592804305255413, 0.018382888287305832, -0.007631164044141769, 0.036266207695007324, -0.01242135651409626, -0.01315220445394516], [-0.00656161829829216, -0.02281239442527294, -0.023243911564350128, -0.012506959959864616, 0.019842445850372314, -0.027082279324531555, 0.021531231701374054, -0.02631421573460102, 0.003711394965648651, 0.0055353082716465, 0.009790349751710892, 0.026297345757484436, 0.00854010134935379, 0.0015373118221759796, -0.012324893847107887, -0.03025144152343273, 0.003038950264453888, 0.014553450047969818, 0.0032255277037620544, 0.02100491151213646, -0.03149549663066864, 0.012933649122714996, -0.03399238735437393, -0.025457434356212616, -0.006504559889435768, -0.005888994783163071, -0.031012173742055893, -0.018165985122323036, -0.02656710520386696, -0.0020020753145217896, -0.0018815025687217712, 0.024466287344694138]], [[0.025413304567337036, -0.01765313558280468, 0.014790114015340805, -0.01545608788728714, -0.006309043616056442, -0.006719067692756653, 9.653344750404358e-05, 0.0011536329984664917, -0.033086903393268585, 0.025409109890460968, -0.011754564940929413, 0.00037880241870880127, -0.03558005765080452, 0.024142976850271225, 0.03183232247829437, -0.01944451965391636, -0.035489026457071304, 0.024886280298233032, -0.021252648904919624, 0.03612837195396423, -0.016022277995944023, -0.022013092413544655, 0.0032067634165287018, -0.021794386208057404, -0.0323861725628376, 0.02811979502439499, -0.0013664700090885162, 0.032556042075157166, -0.01753510721027851, 0.030849583446979523, -0.033653706312179565, 0.02525775134563446], [0.027533285319805145, -0.03324491158127785, 0.0340256467461586, 0.029585838317871094, -6.987154483795166e-05, -0.018626470118761063, -0.01940823718905449, -0.01613694056868553, 0.021925415843725204, -0.004254065454006195, -0.03357892483472824, 0.0007132329046726227, 0.035048387944698334, 0.037414535880088806, -0.004019536077976227, -0.007950354367494583, -0.025428341701626778, -0.02264248952269554, 0.013511355966329575, -0.03218793496489525, 0.030644290149211884, -0.027191968634724617, 0.021081872284412384, -0.007318329066038132, 0.034175582230091095, 0.00014022737741470337, 0.03056836873292923, 0.019256241619586945, 0.0026631057262420654, 0.015267137438058853, -0.03079123981297016, -0.020229965448379517], [-0.010097630321979523, 0.01722671464085579, -0.008870670571923256, -0.00804625079035759, -0.03150910139083862, 0.01497311145067215, -0.008564215153455734, -0.03260892629623413, 0.00777570903301239, -0.02776734158396721, 0.012409195303916931, -0.004125278443098068, 0.02470315620303154, -0.02806936204433441, 0.026857197284698486, 0.009535718709230423, 0.0031449683010578156, -0.016411205753684044, 0.016787156462669373, -0.009910423308610916, -0.01641654595732689, -0.010654641315340996, 0.009880296885967255, 0.03567850589752197, 0.028623521327972412, -0.017185397446155548, 0.01667294278740883, 0.006383940577507019, -0.023199625313282013, -0.0007718577980995178, -0.026547998189926147, 0.023972462862730026]], [[0.011636782437562943, -0.023395663127303123, 0.01772434264421463, 0.016348350793123245, -0.022720687091350555, -0.0007705949246883392, -0.03750787675380707, 0.013761453330516815, 0.01364477351307869, 0.03343339264392853, 0.0182560496032238, -0.0024014487862586975, 0.028702475130558014, -0.03255350515246391, 0.0018221735954284668, -0.025722384452819824, 0.019693952053785324, 0.002826247364282608, -0.008393008261919022, 0.02250901609659195, 0.008301526308059692, -0.0049918219447135925, -0.003636155277490616, 0.008866623044013977, 0.022526517510414124, -0.026294339448213577, -0.0365767627954483, -0.01043417677283287, 0.034167513251304626, -0.03155769780278206, -0.02820328250527382, 0.0006264597177505493], [0.008895207196474075, -0.0015545301139354706, 0.010044064372777939, 0.021102916449308395, 0.011327739804983139, 0.03476794809103012, 0.03421679139137268, 0.02657773345708847, 0.02931976318359375, 0.008142020553350449, -0.033626738935709, -0.012258736416697502, 0.033287204802036285, 0.03485005348920822, 0.008167039602994919, -0.015102554112672806, 0.0228414423763752, 0.011028960347175598, 0.0041794367134571075, -0.020552007481455803, -0.02898697927594185, -0.00567670539021492, 0.0209510400891304, -0.0060982853174209595, 0.036612145602703094, -0.01772444322705269, -0.010587327182292938, 0.0016996227204799652, 0.015759985893964767, 0.037318624556064606, -0.030317150056362152, -0.02125045843422413], [0.019379135221242905, -0.013153450563549995, 0.03031662106513977, 0.032005950808525085, 0.022170964628458023, 0.029990024864673615, 0.0016757883131504059, 0.03537840396165848, 0.01697142794728279, -0.01977037638425827, -0.008504601195454597, 0.03670583665370941, 0.037639178335666656, -0.013504201546311378, -0.0023692958056926727, 0.02900536358356476, -0.0026392340660095215, -0.0008334293961524963, 0.03741833567619324, 0.02180994674563408, 0.0281670019030571, 0.02349686250090599, -0.02127677947282791, 0.027126438915729523, 0.029375888407230377, 0.012281127274036407, 0.016492735594511032, 0.013144522905349731, 0.031025096774101257, -0.025938060134649277, 0.03412167727947235, 0.029955007135868073]]], [[[0.03170565515756607, 0.027088508009910583, 0.030212119221687317, -0.034979648888111115, -0.01583453267812729, -0.01941911317408085, -0.033922191709280014, 0.006981737911701202, -0.017700014635920525, 0.026516452431678772, 0.027461059391498566, -0.033935196697711945, -0.01225137896835804, 0.03642783313989639, -0.031715866178274155, -0.0016330443322658539, -0.029163705185055733, -0.028526823967695236, 0.01423252746462822, 0.0043372176587581635, -0.014055326581001282, -0.018059732392430305, 0.03346528857946396, 0.01505289226770401, -0.030589018017053604, -0.017958611249923706, 0.007567171007394791, -0.02372734434902668, -0.006729593500494957, 0.0358550101518631, -0.015789616852998734, -0.028513919562101364], [0.025270789861679077, 0.02968980371952057, -0.016502229496836662, 0.00966724380850792, -0.019507212564349174, -0.0030383728444576263, 0.0175628662109375, 0.030677825212478638, 0.030124634504318237, 0.005494225770235062, 0.008934106677770615, -0.030184496194124222, 0.009581811726093292, 0.009431209415197372, 0.003014843910932541, 0.020797062665224075, -0.013869833201169968, 0.026703841984272003, 0.004708625376224518, -0.02696252055466175, 0.004618849605321884, 0.019289538264274597, 0.02736569195985794, 0.001871362328529358, -0.03699219971895218, -0.007108533754944801, 0.012207496911287308, -0.03137965127825737, -0.015880245715379715, -0.007185108959674835, -0.02780238538980484, -0.023983687162399292], [-0.035207465291023254, -0.022805403918027878, -0.02007378078997135, -0.011456267908215523, 0.008141681551933289, 0.01956794038414955, -0.024503204971551895, -0.004328388720750809, -0.019113367423415184, 0.00490211695432663, 0.017020758241415024, -0.019423779100179672, -0.010330650955438614, -0.012471862137317657, -0.027440469712018967, 0.0038263164460659027, 0.03614748269319534, 0.0065804533660411835, -0.007571414113044739, 0.0011026151478290558, 0.003107517957687378, 0.013480789959430695, 0.020631887018680573, 0.035799212753772736, -0.007881047204136848, 0.023993056267499924, -0.0008983053267002106, 0.03531777113676071, -0.02118297480046749, -0.023683739826083183, 0.02597721666097641, 0.01875748112797737]], [[-0.014856215566396713, 0.02219613641500473, 0.032902367413043976, 0.003146763890981674, -0.005356922745704651, -0.030021248385310173, -0.009740391746163368, 0.025522716343402863, -0.030355405062437057, 0.002760026603937149, 0.028468787670135498, 0.02553883194923401, 0.026346057653427124, 0.01182427629828453, -0.0024378038942813873, -0.0188335832208395, -0.015982838347554207, 0.01093408465385437, 0.020214233547449112, -0.011913755908608437, -0.008486554026603699, 0.034229665994644165, -0.02844187617301941, 0.03737732768058777, -0.004698935896158218, 0.02184455841779709, 0.00030998140573501587, 0.006302032619714737, 0.01838703453540802, 0.035847701132297516, 0.0054945312440395355, 0.02816331386566162], [-0.037034109234809875, 0.014246921986341476, 0.01589168980717659, 0.03326161950826645, 0.027432240545749664, 0.028082527220249176, 0.015942715108394623, -0.021381353959441185, 0.0253714919090271, 0.0059722550213336945, 0.019440121948719025, -0.015221226960420609, 0.01865280792117119, 0.02381610870361328, 0.011423315852880478, -0.009804502129554749, 0.02928457409143448, -0.02801050990819931, -0.0369715578854084, 0.0001998506486415863, 0.02591811865568161, -0.003580346703529358, 0.018416479229927063, 0.03393981605768204, -0.0016807802021503448, -0.03721994161605835, -0.01358315534889698, -0.026077598333358765, 0.024201057851314545, -9.334832429885864e-05, -0.02825099788606167, -0.011373903602361679], [0.015777967870235443, -0.0032559670507907867, 0.029596425592899323, 0.022282492369413376, -0.02008194662630558, 0.012635942548513412, 0.0008621662855148315, -0.025549348443746567, 0.000189855694770813, 0.012847013771533966, -0.03334494307637215, 0.003787960857152939, 0.004969332367181778, -0.014287315309047699, 0.00128922238945961, 8.038058876991272e-05, 0.014178305864334106, 0.026401042938232422, 0.03593131899833679, 0.020594194531440735, -0.01775512471795082, 0.025792159140110016, -0.03395908325910568, -0.03261109068989754, 0.0038984231650829315, 0.013059977442026138, 0.02290186658501625, 0.010550219565629959, 0.007536496967077255, 0.00508633628487587, -0.008311191573739052, -0.03035515546798706]], [[-0.016022978350520134, 0.005610764026641846, 0.010498404502868652, 0.024576757103204727, 0.013238973915576935, -0.004323594272136688, -0.033516861498355865, 0.0368800088763237, -0.028527192771434784, -0.015642451122403145, 0.005990847945213318, -0.008070480078458786, -0.0273213479667902, 0.026845157146453857, 0.03327145427465439, -0.0020106472074985504, 0.02613026648759842, -0.005851268768310547, 0.03382587432861328, -0.017636066302657127, -0.004627581685781479, -0.035084404051303864, -0.0028308480978012085, -0.01961873285472393, -0.018241222947835922, 0.020273685455322266, -0.015532644465565681, -0.0020084939897060394, 0.009756196290254593, -0.017844408750534058, 0.03617602586746216, -0.02645278349518776], [0.02017667517066002, 0.009726624935865402, -0.008307816460728645, 0.020726725459098816, 0.017227619886398315, -0.01006503775715828, -0.01410386711359024, -0.03595748171210289, -0.036106567829847336, -0.015272684395313263, 0.004979085177183151, -0.002327278256416321, 0.027745097875595093, 0.006947815418243408, -0.026142874732613564, 0.019189253449440002, -0.004557549953460693, -0.032279122620821, 0.03090628981590271, 0.013792000710964203, -0.024705920368433, 0.02632613480091095, -0.014020569622516632, 0.003723740577697754, -0.014495693147182465, 0.000867702066898346, -0.006700392812490463, 0.024344131350517273, -0.019041674211621284, -0.0324188731610775, 0.02004992589354515, -0.0002132132649421692], [0.0002535991370677948, 0.025223128497600555, 0.013351965695619583, -0.03644654154777527, -0.03051770105957985, -0.02498798444867134, -0.03638734668493271, -0.0271037258207798, -0.009308865293860435, -0.02306330017745495, -0.008694024756550789, -0.007775027304887772, -0.010539082810282707, 0.006299261003732681, 0.010740235447883606, 0.0019369088113307953, -0.00438757985830307, 0.03503284603357315, 0.018764320760965347, -0.00814414769411087, -0.016338229179382324, 0.023304350674152374, -0.03558555245399475, -0.011813445016741753, -0.03191611170768738, -0.005353827029466629, -0.014808492735028267, 0.026881970465183258, -0.012594349682331085, -0.03700612857937813, 0.013496115803718567, 0.027039900422096252]], [[-0.021333029493689537, -0.016885610297322273, 0.037597328424453735, 0.01406598836183548, 0.0060121528804302216, 0.019511304795742035, -0.03597361594438553, -0.020716223865747452, 0.035569511353969574, 0.017062615603208542, -0.0006377510726451874, -0.013917574658989906, -0.010082187131047249, 0.01743159070611, -0.014615640044212341, 0.009980574250221252, -0.02817482501268387, 0.03434673696756363, -0.033945247530937195, 0.010228652507066727, 0.004009172320365906, 0.030257560312747955, -0.008039986714720726, -0.029513029381632805, 0.015922952443361282, 0.0292268767952919, -0.03344146907329559, -0.033236682415008545, 0.021532703191041946, -0.016661716625094414, 0.03657356649637222, -0.011991534382104874], [0.010800641030073166, 0.03125820308923721, -0.00019600987434387207, 0.01784888654947281, -0.035994213074445724, -0.02687552571296692, -0.036797814071178436, 0.03754023462533951, 0.015986356884241104, 0.015970740467309952, 0.021808315068483353, -0.002111785113811493, -0.03060806170105934, 0.009184762835502625, 0.02925083041191101, -0.010717101395130157, 0.007532484829425812, -0.01989109441637993, -0.030039697885513306, -0.0320475809276104, 0.003011748194694519, 0.016375157982110977, 0.006001781672239304, -0.018163606524467468, 0.009203895926475525, -0.005368050187826157, 0.023503389209508896, 0.009693294763565063, 0.0056626684963703156, -0.03185068070888519, 0.0017038583755493164, -0.036359384655952454], [0.006048437207937241, -0.03495580703020096, 0.021595504134893417, 0.007578656077384949, 0.027913376688957214, 0.013718225061893463, 0.035367824137210846, 0.008509445935487747, 0.005180761218070984, -0.03248439356684685, -0.00625794380903244, -0.03711686655879021, -0.03637801483273506, -0.0197722427546978, -0.018372926861047745, 0.0062556192278862, -0.012915818020701408, 0.00376775860786438, -0.03047308325767517, 0.022427450865507126, -0.03465494140982628, -0.021153664216399193, -0.010720627382397652, 0.011540677398443222, -0.022014448419213295, 0.0258343443274498, -0.03346246853470802, -0.009725997224450111, -0.028851836919784546, -0.01414915919303894, -0.014609016478061676, -0.03340587019920349]], [[0.029166609048843384, 0.019900653511285782, -0.030141141265630722, 0.014707840979099274, 0.0021251365542411804, -0.011411746963858604, 0.01270507276058197, 0.012810248881578445, -0.0374540239572525, -0.013487761840224266, -0.004008766263723373, 0.021041840314865112, -0.004614155739545822, -0.02166970819234848, 0.035476334393024445, -0.016103072091937065, -0.027280516922473907, 0.017558906227350235, 0.013560757040977478, -0.024298228323459625, -0.0012410692870616913, 0.02046036347746849, 0.015039931982755661, 0.01868729665875435, 0.018566686660051346, 0.03752410411834717, 0.00531889870762825, 0.02001309022307396, 0.0002624988555908203, 0.027590356767177582, 0.007668729871511459, 0.024008870124816895], [-0.013572333380579948, -0.03202668949961662, -0.01576222851872444, 0.025843583047389984, -0.02052977867424488, -0.010135367512702942, -0.025225266814231873, 0.02830420434474945, -0.034479785710573196, 0.013855312019586563, -0.0317688025534153, 0.0181334987282753, 0.015101935714483261, -0.008728154003620148, -0.013363013043999672, 0.02739669382572174, 0.0058872513473033905, -0.010762995108962059, 0.03641600161790848, 0.023659832775592804, 0.018732428550720215, 0.02351602166891098, 0.005638439208269119, 0.01908896490931511, 0.021537888795137405, -0.013688690960407257, -0.02362891659140587, 0.025321252644062042, 0.010826781392097473, 0.026754744350910187, -0.019508585333824158, 0.006483741104602814], [-0.018710818141698837, -0.025092775002121925, 0.014070045202970505, -0.026494119316339493, -0.014280665665864944, -0.02329060435295105, -0.03481905162334442, 0.03752816468477249, -0.012552646920084953, -0.01024634949862957, -0.023288557305932045, 0.029587969183921814, -0.01734049618244171, 0.02200276404619217, 0.032453104853630066, 0.021447807550430298, 0.005709834396839142, 0.021511003375053406, 0.02262580394744873, -0.023690372705459595, 1.3064593076705933e-05, 0.023038502782583237, -0.02981894463300705, -0.03493821620941162, 0.03253307193517685, 0.0032563917338848114, 0.031217068433761597, -0.03486715257167816, -0.006756884977221489, 0.014949806034564972, 0.01621854305267334, 0.027504511177539825]], [[-0.0004888437688350677, 0.0008156001567840576, -0.020962534472346306, -0.007647227495908737, -0.03192887455224991, 0.006591510027647018, -0.0072214361280202866, -0.007756693288683891, -0.017216142266988754, -0.009267780929803848, 0.02021191641688347, -0.015012715011835098, -0.0017359070479869843, 0.03500864654779434, 0.023875325918197632, -0.01952129229903221, -0.016321402043104172, 0.016111094504594803, -0.0017586201429367065, 0.015598118305206299, -0.02026960253715515, -0.00948338396847248, -0.006653215736150742, -0.03426719084382057, -0.028041165322065353, -0.012900777161121368, 0.0014732815325260162, -0.014343509450554848, -0.013507576659321785, -0.018585002049803734, -0.019564609974622726, 0.019073110073804855], [-0.03154747560620308, -0.036733727902173996, -0.000675056129693985, 0.012013088911771774, 0.018479008227586746, 0.005013924092054367, 0.02338462322950363, 0.03643675148487091, -0.004800654947757721, -0.02982403337955475, -0.004562798887491226, -0.004324529320001602, -0.023236554116010666, 0.010242920368909836, -0.033348605036735535, -0.019546814262866974, 0.005978778004646301, -0.029849449172616005, -0.03070700913667679, 0.030540436506271362, -0.0005817003548145294, 0.011642936617136002, 0.025755591690540314, -0.029303457587957382, 0.00763532891869545, 0.0191754512488842, -0.021097460761666298, -0.013936689123511314, -0.03084639459848404, 0.004679396748542786, 0.020063873380422592, 0.023709703236818314], [-0.03177645057439804, -0.014411631971597672, 0.00020837783813476562, 0.037365786731243134, -0.02848423272371292, -0.026613015681505203, 0.021885130554437637, 0.019702665507793427, -0.007850579917430878, 0.012850631028413773, 0.031151756644248962, 0.028757169842720032, -0.029376622289419174, 0.031174443662166595, -0.018256990239024162, 0.013970799744129181, -0.013607313856482506, 0.003261551260948181, -0.0038413740694522858, 0.03236380219459534, 0.012523464858531952, -0.0021701082587242126, -0.013264963403344154, 0.028013594448566437, 0.0006134659051895142, -0.007848238572478294, -0.007357994094491005, 0.011487569659948349, -0.022788647562265396, 0.0340462401509285, -0.03201652318239212, -0.0065378546714782715]], [[-0.010491583496332169, -0.03622045740485191, -0.004885148257017136, 0.007766015827655792, 0.023907750844955444, -0.03286805376410484, 0.005660001188516617, -0.036606315523386, 0.0012216940522193909, -0.011527244001626968, -0.010693904012441635, 0.025986194610595703, 0.013290602713823318, -0.007914027199149132, 0.03513864427804947, 0.023108169436454773, 0.0029902383685112, -0.0010298825800418854, -0.006190352141857147, -0.0024199821054935455, -0.005421865731477737, 0.01714274287223816, -7.94827938079834e-05, 0.018628470599651337, 0.03271659463644028, -0.004470571875572205, -0.02047547698020935, -0.003431428223848343, 0.000886969268321991, -0.0214033592492342, 0.018687333911657333, -0.02801654115319252], [0.007025469094514847, -0.034053292125463486, -0.034042973071336746, 0.023713845759630203, 0.037564679980278015, 0.002572629600763321, -0.02432817593216896, 0.03435555100440979, 0.006990343332290649, 0.03583112359046936, -0.014806527644395828, 0.024935998022556305, -0.027327299118041992, -0.03255772963166237, -0.023632874712347984, 0.016844511032104492, 0.02312297746539116, -0.012891381978988647, 0.021099336445331573, -0.021353112533688545, -0.02415776625275612, 0.028614476323127747, 0.02374374121427536, -0.01541086658835411, -0.027899760752916336, 0.018797408789396286, -0.019458124414086342, 0.022436238825321198, 0.01844753697514534, -0.013716617599129677, 0.035886719822883606, 0.005891274660825729], [-0.013877728953957558, -0.02279447391629219, -0.033822156488895416, 0.02512962371110916, 0.012392871081829071, 0.023670807480812073, -0.018739400431513786, 0.017076462507247925, -0.007820596918463707, -0.02764924243092537, 0.02779245376586914, -0.036442339420318604, 0.013736944645643234, -0.03174415975809097, -0.03184683248400688, -0.014363288879394531, -0.009198574349284172, 0.019126631319522858, -0.013551019132137299, 0.010585926473140717, -0.014554956927895546, 0.003961149603128433, -0.0004975832998752594, 0.013370875269174576, -0.03337029367685318, 0.011354297399520874, 0.036969639360904694, -0.01836945302784443, 0.014957066625356674, 0.030484363436698914, 0.007966220378875732, 0.016406234353780746]], [[0.0030022524297237396, -0.004870221018791199, -0.0011365748941898346, 0.01653977856040001, 0.017589159309864044, -0.03069784678518772, 0.014470268040895462, 0.010842271149158478, 0.00742112472653389, -0.026365645229816437, -0.004753828048706055, 0.008082512766122818, -0.0276394784450531, -0.004150915890932083, -0.026745107024908066, 0.001647215336561203, 0.024062220007181168, -0.016117718070745468, -0.03702625632286072, -0.03439803048968315, -0.008094405755400658, 0.012950439006090164, 0.01842658221721649, -0.006933528929948807, -0.0025537051260471344, 0.00021157413721084595, -0.009668456390500069, -0.024148453027009964, 0.02570854127407074, -0.03523882105946541, 0.037532150745391846, -0.033692166209220886], [-0.016101043671369553, 0.016008708626031876, -0.00034888461232185364, 0.0010381825268268585, 0.03166988492012024, 0.006530962884426117, 0.00884610041975975, 0.019787326455116272, 0.006854359060525894, -0.009451499208807945, -0.0320359505712986, 0.024821840226650238, -0.03370031714439392, -0.004119571298360825, 0.010537412017583847, -0.004570804536342621, 0.01837189495563507, -0.0005474165081977844, -0.022006649523973465, -0.023279286921024323, -0.011676212772727013, -0.007731521502137184, -0.0014583021402359009, -0.0218383576720953, 0.020251959562301636, 0.022974152117967606, 0.005229353904724121, 0.03731882572174072, 0.015692923218011856, 0.023699238896369934, 0.01589095965027809, -0.03734418749809265], [-0.016231616958975792, -0.0011696256697177887, -0.0018007904291152954, 0.019930005073547363, 0.02774752676486969, -0.002532515674829483, -0.020420098677277565, -0.0067836809903383255, -0.03357459977269173, -0.009279528632760048, 0.03649090230464935, 0.013556025922298431, -0.0036440975964069366, -0.010687289759516716, -0.034081194549798965, 0.012751512229442596, 0.015794865787029266, -0.007009880617260933, -0.025498222559690475, -0.017644932493567467, -0.017085794359445572, -0.011583322659134865, -0.008394991979002953, 0.0043035633862018585, 0.009908322244882584, 0.017619669437408447, -0.003076937049627304, 0.0008842572569847107, -0.03086034022271633, 0.03688344359397888, 0.033776476979255676, -0.01969122514128685]], [[0.009601112455129623, -0.02289765700697899, 0.025851011276245117, 0.010356280952692032, -0.03017929010093212, -0.03622248396277428, 0.02763313055038452, 0.006997309625148773, -0.03393511474132538, -0.0073964037001132965, 0.00213487446308136, 0.020743336528539658, 0.03443194180727005, -5.1449984312057495e-05, 0.0027678050100803375, 0.01904357597231865, 0.030389554798603058, 0.009540539234876633, -0.01365361176431179, -0.013858560472726822, 0.003231871873140335, -0.0067108385264873505, 0.035452842712402344, 0.012394174933433533, -0.012738509103655815, 0.035207293927669525, 0.013429645448923111, -0.021697869524359703, -0.016587501391768456, -0.007906641811132431, 0.025715366005897522, 0.013410218060016632], [0.028658606112003326, -0.03205317258834839, 0.008735287934541702, 0.026890531182289124, -0.007967054843902588, -0.02309727668762207, -0.007670067250728607, 0.0028929412364959717, 0.018741067498922348, -0.02097555622458458, 0.037389613687992096, 0.027845144271850586, -0.03078027442097664, 0.031660452485084534, -0.025356996804475784, 0.021300293505191803, 0.024998657405376434, -0.02196860872209072, -0.02028961479663849, 0.023892782628536224, -0.031399745494127274, -0.019330468028783798, -0.021856054663658142, -0.0035261400043964386, 0.0005122199654579163, 0.013326264917850494, 0.024848196655511856, 0.012692578136920929, -0.02644624188542366, -0.021770792081952095, 0.013264253735542297, 0.020058274269104004], [-0.01281692460179329, -0.0077704768627882, 0.029295846819877625, -0.033170633018016815, 0.013795420527458191, 0.002768721431493759, -0.035491377115249634, 0.011650916188955307, 0.013337887823581696, 0.02121651917695999, -0.028775792568922043, -0.02547001838684082, -0.0008811801671981812, -0.023221369832754135, 0.007961597293615341, -0.008526982739567757, 0.02550157904624939, -0.012993820011615753, 0.032972052693367004, -0.02941286936402321, -0.028798209503293037, 0.02387368306517601, -0.01018764078617096, -0.0113495122641325, 0.0034772418439388275, -0.02553706243634224, -0.019702378660440445, -0.003623116761445999, -0.03625904396176338, 0.027873225510120392, -0.01118290051817894, 0.020147006958723068]], [[0.02797003835439682, -0.023876573890447617, 0.026501499116420746, 0.03730839490890503, 0.027632705867290497, 0.0012838654220104218, -0.027994824573397636, 0.0015928223729133606, -0.006195180118083954, -0.01856192946434021, -0.0008605681359767914, -0.0045919269323349, 0.037630289793014526, -0.021534478291869164, -0.025213511660695076, 0.021192315965890884, 0.034692175686359406, -0.015534618869423866, -0.026941467076539993, -0.005390342324972153, -0.014580326154828072, -0.010396009311079979, -0.015137499198317528, -0.016962669789791107, 6.50361180305481e-05, -0.028067145496606827, -0.02272823452949524, -0.0158061645925045, 0.008189782500267029, -0.028927776962518692, -0.0001739002764225006, 0.03443358093500137], [0.006097093224525452, 0.0018658414483070374, -0.03445079177618027, -0.02046278677880764, 0.03048834204673767, -0.0345587395131588, -0.004671651870012283, -0.013254974037408829, -0.010084716603159904, -0.032445330172777176, -0.01748911663889885, 0.008074887096881866, -0.008505551144480705, 0.004386134445667267, -0.022552989423274994, -0.004025116562843323, -0.012911312282085419, 0.019748173654079437, 0.019843164831399918, -0.03124391846358776, -0.016709260642528534, -0.023887764662504196, 0.009149935096502304, -0.007680727168917656, -0.03254053741693497, -0.008775481954216957, 0.012780856341123581, 0.021609816700220108, -0.023107659071683884, -0.02865104377269745, -0.0015767067670822144, 0.029698990285396576], [-0.008789114654064178, 0.027542144060134888, 0.011830352246761322, -0.021866455674171448, -0.030542585998773575, -0.028576137498021126, 0.027957141399383545, -0.01761705055832863, 0.0358581468462944, 0.0025018341839313507, -0.007750716060400009, 0.01684943586587906, -0.01978146843612194, 0.03398081660270691, 0.03534184396266937, 0.019551299512386322, -0.023788951337337494, 0.026098527014255524, -0.02640475519001484, 0.016981419175863266, -0.028975868597626686, 0.0223315991461277, -0.020508762449026108, 0.008903298527002335, 0.03303517401218414, -0.027873307466506958, 0.012251172214746475, 0.02712104469537735, -0.021888595074415207, 0.010421521961688995, 0.025607526302337646, -0.009030533954501152]], [[-0.00969611294567585, -0.022778436541557312, 0.006250135600566864, 0.011478506028652191, -0.00967993400990963, 0.005464017391204834, -0.012903038412332535, -0.027149036526679993, 0.0019663870334625244, 0.019191045314073563, -0.018616823479533195, -0.03382965922355652, -0.010304437950253487, 0.02553693950176239, -0.014130143448710442, 0.011694584041833878, 0.005928929895162582, -0.026347007602453232, -0.02817341685295105, 0.036903902888298035, 0.0074232518672943115, -0.018604690209031105, 0.007668826729059219, 0.035092711448669434, -0.028474541381001472, -0.002696562558412552, -0.015544122084975243, -0.019327174872159958, 0.004308346658945084, 0.016508888453245163, -0.01953740045428276, 0.02224823087453842], [-0.003941372036933899, 0.011272408068180084, 0.01159295067191124, -0.03232138976454735, 0.020394574850797653, -0.010992927476763725, -0.017551647499203682, -0.029609929770231247, 0.022177409380674362, 0.032640986144542694, 0.03236708790063858, -0.02220088243484497, 0.0027030594646930695, -0.032024383544921875, -0.022284090518951416, -0.018698666244745255, -0.03497498482465744, -0.021391503512859344, -0.0010033994913101196, -0.004441961646080017, -0.030907122418284416, -0.0012366510927677155, -0.013356201350688934, -0.0007880739867687225, 0.007718149572610855, -0.0216066837310791, 0.034432463347911835, -0.03313397243618965, -0.016123183071613312, -0.021566525101661682, -0.021123314276337624, 0.015554405748844147], [0.027690812945365906, 0.020917825400829315, -0.021248646080493927, 0.025018610060214996, -0.01442708633840084, -0.02741914615035057, -0.022592386230826378, -0.03298556059598923, -0.006918426603078842, -0.0072906967252492905, 0.017974182963371277, 0.03420557081699371, 0.008999969810247421, -0.025016585364937782, -0.03171003982424736, 0.029580943286418915, -0.027379292994737625, -0.015063885599374771, -0.024582214653491974, 0.021747585386037827, -0.025321245193481445, -0.002283487468957901, -0.013220487162470818, -0.010306233540177345, 0.03354281187057495, -0.010716212913393974, -0.017344078049063683, 0.010881289839744568, -0.008588839322328568, -0.029290983453392982, 0.026828482747077942, 0.03045472502708435]]], [[[-0.02320639044046402, 0.024051468819379807, -0.017665931954979897, 0.03479199856519699, 0.021916065365076065, 0.01655777171254158, 0.0018069818615913391, -0.00242035835981369, -0.03079347498714924, -0.020022457465529442, 0.03443572670221329, -0.020218227058649063, 0.028806857764720917, 0.010115515440702438, -0.032180674374103546, 0.020398490130901337, -0.003913812339305878, -0.02667928859591484, -0.01768859103322029, -0.0353044830262661, -0.03446776047348976, -0.0046949125826358795, 0.01880476623773575, 0.017293408513069153, 0.001298312097787857, -0.0013123489916324615, 0.030674278736114502, 0.026759207248687744, 0.012707807123661041, -0.03202349692583084, -0.015391446650028229, 0.030216515064239502], [0.016945190727710724, -0.005352534353733063, -0.012904250994324684, -0.01697107031941414, -0.035082921385765076, -0.037438973784446716, 0.032872214913368225, 0.022381629794836044, -0.02905251644551754, 0.016368478536605835, -0.0017463266849517822, -0.02265668474137783, -0.0034455806016921997, -0.0056309886276721954, 0.01622309908270836, -0.03159034252166748, 0.01766759157180786, 0.03156539052724838, -0.03665829449892044, 0.016065631061792374, 0.024331316351890564, -0.019484147429466248, 0.023888636380434036, -0.02257932908833027, 0.001775544136762619, 0.0027352385222911835, 0.035931214690208435, -0.014159919694066048, 0.03145022690296173, -0.010334322229027748, 0.02717655897140503, 0.006866350769996643], [-0.01669876091182232, -0.015509258955717087, -0.029457470402121544, 0.023767683655023575, 0.00012376904487609863, 0.01232723519206047, 0.01826471835374832, -0.010085668414831161, -0.00275469571352005, 0.007670614868402481, 0.010797671973705292, 0.029757849872112274, -0.026842869818210602, 0.03616136312484741, 0.031329914927482605, -0.03191249445080757, -0.035203058272600174, -0.03517110273241997, 0.0045423731207847595, -0.017448509112000465, -0.003656931221485138, -0.0203997902572155, 0.027987591922283173, -0.0318363755941391, -0.035186897963285446, 0.007870431989431381, -0.03224315494298935, 0.030942633748054504, 0.023570764809846878, 0.022857505828142166, 0.006541155278682709, -0.025531865656375885]], [[-0.028143424540758133, 0.024607431143522263, -0.03148108720779419, 0.02765107899904251, 0.036311984062194824, -0.030741488561034203, -0.021309956908226013, 0.0223168283700943, 0.009833361953496933, -0.03673578426241875, 0.03126945346593857, 0.012151200324296951, 0.03220918029546738, -0.023888465017080307, 0.01413009688258171, -0.006483973935246468, 0.017997801303863525, 0.03643741458654404, -0.02530735358595848, 0.018499694764614105, -0.03396718576550484, -0.023044319823384285, -0.005434941500425339, 0.017104584723711014, 0.014138579368591309, 0.01841946691274643, -0.0012443698942661285, -0.024496538564562798, 0.009971778839826584, -0.029610279947519302, 0.012516535818576813, 0.028850987553596497], [-0.006388481706380844, 0.019461460411548615, -0.02008817531168461, 0.0364832878112793, -0.01639017090201378, 0.02237629145383835, 0.007943909615278244, -0.00900196097791195, 0.015131980180740356, -0.01391690969467163, -0.03579732030630112, -0.010186402127146721, 0.005231250077486038, 0.022562842816114426, -0.00978843867778778, 0.024809975177049637, 0.022739283740520477, 0.010725457221269608, 0.014538589864969254, -0.030506115406751633, -0.003997378051280975, -0.01818416640162468, -0.03150135651230812, -0.02937714383006096, 0.023434925824403763, -0.006929285824298859, -0.005620911717414856, 0.020276065915822983, -0.021825121715664864, -0.00437173992395401, -0.03463888540863991, 0.0006130822002887726], [-0.002870336174964905, 0.020447880029678345, 0.0011727213859558105, -0.02975037507712841, 0.01936763897538185, -0.011027263477444649, -0.022351467981934547, 0.02553226798772812, 0.00815645232796669, -0.009355943650007248, -0.02360488474369049, -0.0077987369149923325, -0.006120380014181137, 0.028900839388370514, 0.0015150979161262512, -0.007958026602864265, 0.02590208500623703, -0.011629045009613037, -0.03204009681940079, 0.03119868040084839, -0.005767788738012314, -0.014819305390119553, 0.016474246978759766, 0.03506749868392944, -0.008359938859939575, 0.007302571088075638, 0.03427690267562866, 0.009688090533018112, 0.02772759646177292, 0.009937487542629242, 0.036953285336494446, 0.018577247858047485]], [[0.022751495242118835, -0.01779330149292946, -0.027241632342338562, 0.014676932245492935, 0.011614281684160233, -0.011964002624154091, -0.016595443710684776, 0.022144347429275513, 0.01778356358408928, -0.01769096963107586, 0.01358797401189804, 0.031181268393993378, -0.006406771019101143, -0.021139997988939285, 0.029840722680091858, 0.0008154287934303284, -0.009792450815439224, -0.021554598584771156, -0.010426817461848259, 0.013699933886528015, 0.003386683762073517, 0.034355439245700836, -0.008111527189612389, 0.00650859996676445, -0.0001934729516506195, 0.027506664395332336, 0.026363059878349304, -0.01652613654732704, 0.023669954389333725, 0.01301029697060585, -0.013490229845046997, 0.03725604712963104], [-0.026057548820972443, 0.020549673587083817, 0.005379393696784973, -0.03553024306893349, -0.027635566890239716, -0.006690125912427902, 0.028691917657852173, 0.023514803498983383, -0.03515664488077164, 0.0009514205157756805, 0.006174217909574509, 0.01814708486199379, -0.006890157237648964, -0.007861949503421783, 0.03356175124645233, -0.016996296122670174, -0.0008243769407272339, 0.01336744800209999, 0.018360640853643417, -0.014609446749091148, 0.02170058712363243, -0.021540159359574318, -0.0354977585375309, -0.023789696395397186, 0.027304790914058685, 0.011619172990322113, -0.02188500575721264, -0.023357020691037178, 0.027425669133663177, 0.017619751393795013, 0.030356787145137787, -0.0288798026740551], [0.007174421101808548, 0.014340639114379883, 0.01933828368782997, -0.021347351372241974, -0.005992859601974487, -0.028532102704048157, -0.03707659989595413, -0.021262438967823982, 0.0032813213765621185, -0.03200708329677582, -0.009080223739147186, -0.0026974231004714966, 0.02438005432486534, 0.037310950458049774, -0.03466642647981644, -0.03234972804784775, 0.0007252581417560577, 0.0018323399126529694, -0.03270508348941803, -0.008192455396056175, 0.015075873583555222, 0.031076498329639435, 0.018209904432296753, -0.026621846482157707, -0.029356565326452255, -0.018640128895640373, -0.015681838616728783, 0.02333104982972145, -0.0029755830764770508, -0.004717733711004257, 0.028462447226047516, 0.026161901652812958]], [[-0.03297276422381401, -0.0318441316485405, -0.0007650293409824371, -0.010801026597619057, -0.01333548128604889, 0.0010194815695285797, 0.025283686816692352, -0.022119488567113876, 0.004852518439292908, -0.01760542020201683, 0.02773532271385193, -0.017299098894000053, -0.0020574741065502167, -0.008808650076389313, -0.03377031534910202, -0.025433778762817383, 0.029203511774539948, 0.03402093052864075, 0.03369531035423279, -0.0064710695296525955, 0.005315005779266357, -0.003980256617069244, 0.02378120645880699, 0.019868042320013046, -0.03196192532777786, 0.008849069476127625, 0.02529391646385193, 0.027332104742527008, -0.003360975533723831, -0.028497964143753052, -0.02257164567708969, 0.03576022386550903], [-0.03238888457417488, -0.029908588156104088, -0.010735766962170601, 0.01814771443605423, -0.01906883716583252, 0.023694347590208054, -0.0014447607100009918, 0.013369150459766388, -0.032560717314481735, 0.026339642703533173, 0.014929652214050293, -0.020152626559138298, -0.025155799463391304, -0.0367286317050457, 0.007823370397090912, -0.026258863508701324, -0.028726650401949883, 0.03589032590389252, -0.02504078671336174, 0.027179531753063202, 0.013552777469158173, 0.02718549221754074, -0.028774220496416092, -0.008558498695492744, 0.012785594910383224, -0.031725261360406876, 0.024657219648361206, -0.005933918058872223, -0.022575119510293007, 4.750862717628479e-05, -0.03338296711444855, -0.027267467230558395], [-0.011930061504244804, 0.032103389501571655, -0.024986324831843376, -0.016928469762206078, 0.03250055015087128, -0.015818405896425247, 0.03033125400543213, 0.019692804664373398, 0.022760245949029922, -0.0265374556183815, -0.00882662646472454, 0.022579651325941086, 0.035664625465869904, 0.02245495840907097, -0.01943287067115307, -0.015376783907413483, 0.011979769915342331, -0.025341767817735672, 0.03141888976097107, 0.009077873080968857, -0.02782272920012474, 0.02239026501774788, 0.0072515420615673065, -0.021219920367002487, -0.009208489209413528, -0.020129499956965446, -0.02361750230193138, -0.03326595574617386, 0.0009606555104255676, 0.007996238768100739, 0.03513459861278534, 0.008427925407886505]], [[-0.019528130069375038, -0.011490009725093842, 0.00354820117354393, 0.011371023952960968, 0.018735434859991074, 0.018456365913152695, -0.005787137895822525, -0.028550874441862106, 0.026809029281139374, -0.0030660852789878845, 0.02580905705690384, -0.028834257274866104, 0.036717548966407776, 0.026014231145381927, -0.026179227977991104, 0.005830410867929459, 0.0039614178240299225, 0.00232807919383049, 0.013016391545534134, -0.026264751330018044, -0.01872941106557846, 0.0015221275389194489, -0.03028385527431965, -0.037252895534038544, 0.029016315937042236, -0.005968071520328522, 0.023626521229743958, -0.031971193850040436, -0.013346044346690178, -0.03735354170203209, -0.021043561398983, -0.027659490704536438], [-5.924701690673828e-05, 0.03166484832763672, -0.02104080654680729, -0.016907714307308197, -0.013113193213939667, 0.028680935502052307, 0.019849877804517746, 0.016487807035446167, 0.024676978588104248, -0.002269227057695389, -0.02072167955338955, -0.012962689623236656, 0.037157341837882996, 0.02520255744457245, -0.020533081144094467, 0.018092434853315353, 0.02456304430961609, 0.031560830771923065, -0.02403372898697853, -0.027796711772680283, -0.025481700897216797, -0.010427795350551605, -0.002421911805868149, 0.032446324825286865, -0.012268133461475372, 0.027477003633975983, 0.017342980951070786, -0.0034163445234298706, 0.02699817717075348, -0.0017234422266483307, 0.009558208286762238, -0.033173296600580215], [-0.0055661872029304504, 0.017259128391742706, 0.001012418419122696, 0.029621563851833344, -0.01904665306210518, 0.03060273826122284, -0.02992803417146206, -0.029677890241146088, 0.023514442145824432, 0.03682408481836319, 0.029382959008216858, -0.036055002361536026, 0.03657706081867218, -0.012341989204287529, 0.0373351126909256, -0.011918073520064354, 0.03054586797952652, 0.02498762309551239, -0.01346193440258503, 0.02594325691461563, -0.019406378269195557, 0.0008822493255138397, 0.0032605640590190887, 0.0007455460727214813, -0.005141884088516235, 0.021363593637943268, -8.537992835044861e-05, 0.026081383228302002, -0.028411652892827988, 0.029434949159622192, -0.02821788378059864, -0.015184937044978142]], [[0.004353530704975128, -0.010641081258654594, -0.029583368450403214, 0.024930737912654877, -0.02272549830377102, 0.006327591836452484, -0.026125356554985046, -0.008201321586966515, -0.0016688257455825806, -0.005569625645875931, 0.0029184184968471527, 0.019105147570371628, -0.014128832146525383, -0.014363477006554604, -0.03601004183292389, -0.035670213401317596, -0.022972814738750458, 0.03413970768451691, 0.0003509111702442169, 0.02346234768629074, 0.015660203993320465, 0.0292416512966156, 0.002684418112039566, -0.014766314998269081, -0.02345292642712593, 0.008022040128707886, 0.026345863938331604, 0.03763457387685776, 0.009974982589483261, -0.028474954888224602, -0.0044821761548519135, 0.007337793707847595], [-0.022950056940317154, 0.00825205072760582, 0.026388294994831085, 0.0041219741106033325, 0.0077453963458538055, 0.021002575755119324, 0.02301609516143799, -0.021324746310710907, 0.018643680959939957, -0.011830585077404976, -0.036352500319480896, -0.020412461832165718, -0.003905259072780609, -0.018193354830145836, 0.00954359769821167, -0.02501986175775528, 0.0068975165486335754, 0.011054635047912598, -0.00804385356605053, -0.005233097821474075, 0.025856271386146545, 0.024650927633047104, -0.031426332890987396, -0.02245817892253399, -0.03296646475791931, -0.0032836347818374634, 0.015249054878950119, 0.026014961302280426, 0.027227938175201416, 0.027603261172771454, 0.017219848930835724, 0.03203246742486954], [-0.0281694158911705, 0.01167803630232811, -0.018464937806129456, -0.026037804782390594, 0.012861065566539764, 0.006005082279443741, -0.023766212165355682, -0.0014129653573036194, -0.014646420255303383, -0.029953207820653915, -0.016330627724528313, 0.00439506396651268, 0.022424202412366867, 0.030052602291107178, 0.012481339275836945, -0.021453676745295525, 0.0032704882323741913, 0.01675674319267273, 0.034385696053504944, 0.011155035346746445, 0.0016275160014629364, -0.03746223449707031, -0.004570353776216507, -0.0022245272994041443, -0.005673635751008987, 0.006889089941978455, -0.017229488119482994, -0.031232763081789017, -0.012062080204486847, -0.022823944687843323, 0.024272680282592773, 0.01702810823917389]], [[0.0349641889333725, -0.0043052248656749725, -0.031020160764455795, -0.027404125779867172, -0.0033514797687530518, 0.022085189819335938, -0.02168423868715763, -0.029002271592617035, -0.01053200289607048, 0.012287121266126633, -0.011262239888310432, -0.030650965869426727, 0.035134799778461456, 0.03343064337968826, -0.009637441486120224, -0.010114779695868492, -0.01842064969241619, -0.02422453463077545, -0.03246205672621727, -0.023496262729167938, -0.022184595465660095, 0.03566780686378479, 0.020804554224014282, -0.03240721672773361, -0.005991954356431961, -0.016021937131881714, 0.02447149157524109, 0.029454141855239868, 0.010616600513458252, -0.01444464735686779, -0.0029954425990581512, 0.004924990236759186], [0.01621513068675995, 0.018881790339946747, -0.033084139227867126, -0.02206624671816826, -0.0007808059453964233, 0.004483655095100403, 0.021769456565380096, 0.026898756623268127, 0.006728839129209518, 0.01824863627552986, 0.002556242048740387, -0.012468909844756126, 0.021491501480340958, 0.01401493325829506, -0.0008704029023647308, -0.037364523857831955, -0.025779057294130325, 0.03379569202661514, 0.03668196499347687, 0.018014099448919296, 0.021244008094072342, 0.030508384108543396, -0.032479189336299896, 0.006742723286151886, 0.0036731548607349396, 0.014842208474874496, -0.003498062491416931, 0.028538279235363007, -0.03470083326101303, -0.0028574764728546143, 0.01176678016781807, -0.018556984141469002], [-0.0357176847755909, 0.03409329801797867, 0.013163439929485321, -0.022321879863739014, -0.02830285020172596, 0.027065761387348175, -0.020600099116563797, 7.317587733268738e-05, 3.1113624572753906e-05, 0.022412080317735672, -0.02051403932273388, 0.010402783751487732, -0.017725825309753418, -0.001903478056192398, 0.020103994756937027, -0.0066581424325704575, -0.03508956357836723, 0.025732286274433136, -0.022329319268465042, -0.022816263139247894, 0.019158337265253067, -0.03290655091404915, 0.018840286880731583, -0.019038980826735497, 0.00518094003200531, -0.01255803182721138, 0.00238095223903656, -0.020782874897122383, 0.034057050943374634, -0.02960956282913685, 0.03387512266635895, 0.020616628229618073]], [[0.0046676769852638245, 0.017235632985830307, 0.010021936148405075, 0.017713412642478943, 0.030753083527088165, 0.009895335882902145, -0.003446802496910095, 0.010321229696273804, 0.036507487297058105, 0.015546754002571106, -0.010461287572979927, 0.01633507013320923, 0.035482436418533325, -0.007720464840531349, 0.03536726534366608, -0.014174187555909157, 0.013808287680149078, 0.005147501826286316, -0.019851079210639, 0.034076713025569916, -0.02361324056982994, 0.0034018345177173615, 0.01608957350254059, 0.00889640673995018, 0.01566893234848976, 0.009647194296121597, -0.012606680393218994, 0.032597318291664124, 0.002532355487346649, 0.02434983104467392, 0.013424225151538849, 0.015916787087917328], [-0.013262629508972168, -0.02108454704284668, 0.0016205981373786926, -0.019655076786875725, -0.010049162432551384, -0.007306661456823349, -0.020197881385684013, -0.01618056371808052, -0.008207594975829124, -0.029539961367845535, 0.036866240203380585, -0.015872735530138016, 0.029064014554023743, 0.02002350613474846, -0.002861209213733673, 0.003227323293685913, -0.032383374869823456, 0.020982205867767334, 0.0074169449508190155, 0.03226572275161743, -0.006213925778865814, 0.015663988888263702, -0.023590678349137306, -0.01402166485786438, -0.030512290075421333, 0.03504091501235962, 0.004988968372344971, 0.031393326818943024, -0.012085305526852608, 0.00887533649802208, 0.013111427426338196, -0.014387186616659164], [-0.028647301718592644, 0.011735010892152786, 0.015314675867557526, -0.02883468009531498, 0.009517494589090347, 0.014195546507835388, -0.0275091752409935, -0.01578023098409176, -0.016205662861466408, -0.024835793301463127, -0.02818932756781578, 0.035552024841308594, 0.010553531348705292, -0.0035850033164024353, 0.02072042226791382, 0.034155599772930145, 0.02129625529050827, 0.029033787548542023, 0.029467366635799408, -0.007636198773980141, 0.018488135188817978, -0.03739078342914581, 0.02982354909181595, -0.0006285533308982849, 0.035475797951221466, -0.016114549711346626, -0.019475901499390602, -0.021024510264396667, -0.012689635157585144, 0.003112517297267914, -0.01882682554423809, 0.009094249457120895]], [[0.032073214650154114, -0.018571648746728897, 0.025390222668647766, 0.026944808661937714, 0.03349478542804718, 0.003920163959264755, 0.003133777529001236, 0.029847465455532074, 0.025688663125038147, -0.021426349878311157, 0.028535671532154083, 0.004963632673025131, 0.015565633773803711, 0.028934389352798462, 0.015480585396289825, -0.015785183757543564, 0.022401094436645508, 0.02114269882440567, 0.013660673052072525, 0.018438231199979782, 0.025857292115688324, 0.023784436285495758, -0.0033525489270687103, 0.014131102710962296, 0.021058011800050735, -0.002131115645170212, -0.006974460557103157, -0.02953067235648632, -0.0049194470047950745, -0.00833173282444477, 0.03192216157913208, -0.01019308716058731], [0.03749249130487442, -0.020598987117409706, -0.028801441192626953, -0.034621987491846085, 0.011834703385829926, -0.005904626101255417, -0.01009432040154934, 0.004415471106767654, -0.03269251063466072, -0.022652287036180496, 0.034341223537921906, 0.010681305080652237, -0.02095632441341877, 0.000796537846326828, 0.01626497507095337, 0.016086623072624207, 0.03165612369775772, -0.030557842925190926, 0.013681180775165558, 0.016852200031280518, 0.031142331659793854, 0.026079125702381134, 0.010943185538053513, 0.030336566269397736, -0.013587580993771553, -0.03413326293230057, -0.03633315488696098, -0.027900606393814087, -0.022511566057801247, -0.017751608043909073, -0.026680000126361847, -0.008078843355178833], [-0.00720277801156044, 0.03082732856273651, 0.026579871773719788, 0.03321297466754913, -0.01240960881114006, -0.011982345953583717, 0.026611097157001495, 0.001046597957611084, -0.03161479905247688, -0.0020588189363479614, -0.025753337889909744, 0.03247736394405365, -0.004850361496210098, 0.03370404988527298, 0.011616408824920654, -0.01735326647758484, -0.022575873881578445, -0.030732909217476845, 0.0320684015750885, 0.016949307173490524, 0.022615600377321243, -0.011885084211826324, 0.037334077060222626, -0.004376228898763657, 0.005350001156330109, -0.03514139726758003, -0.0247228741645813, -0.02555653639137745, -0.035875700414180756, 0.015369363129138947, 0.02026936039328575, 0.02620585262775421]], [[0.003998249769210815, 0.01000349223613739, -0.002402365207672119, -0.013842245563864708, 0.027872346341609955, -0.025739841163158417, 0.030025862157344818, 0.024350028485059738, 0.032998278737068176, -0.00011178851127624512, 0.02654465287923813, -0.01454337127506733, 0.011557888239622116, -0.026867233216762543, -0.021969245746731758, -0.011911638081073761, -0.014500314369797707, -0.032670434564352036, -0.005821339786052704, -0.02840433642268181, 0.002749446779489517, 0.02284509688615799, 0.01918419823050499, 0.010874532163143158, 0.013022150844335556, 0.01862381398677826, -0.020992886275053024, 0.014056671410799026, -0.037504978477954865, 0.03440147638320923, 0.027608439326286316, 0.016202766448259354], [-0.022511251270771027, -0.013956880196928978, 0.007548421621322632, -0.0222134031355381, 0.025158241391181946, -0.021629586815834045, -0.025340251624584198, -0.030184270814061165, 0.023618947714567184, -0.03623349592089653, 0.028851233422756195, 0.003913767635822296, 0.0347234308719635, -0.023185480386018753, 0.035946063697338104, 0.001346547156572342, -0.025567691773176193, 0.0017442628741264343, -0.00540652871131897, 0.014275219291448593, 0.03661970794200897, -0.025125332176685333, -0.03670324385166168, 0.006955329328775406, -0.016171105206012726, -0.01057986170053482, 0.014736618846654892, 0.01961546763777733, -0.029860882088541985, -0.02750154584646225, -0.02348199486732483, 0.03439920395612717], [0.031713806092739105, 0.01881261169910431, 0.009992949664592743, -0.03367239981889725, 0.005541913211345673, -0.015172148123383522, 0.03384295105934143, -0.03656057268381119, -0.024449422955513, -0.01866292394697666, 0.01736444979906082, -0.02422378957271576, -0.03213471174240112, 0.01980665698647499, 0.025208614766597748, 0.02547156810760498, -0.020416364073753357, -0.015514956787228584, -0.035369984805583954, -3.524124622344971e-05, -0.027872517704963684, 0.02603732794523239, 0.015818387269973755, -0.03514953702688217, -0.03670559450984001, -0.010745298117399216, 0.036992788314819336, 0.031108058989048004, 0.0007837601006031036, 0.0022144466638565063, -0.02611653506755829, 0.028624236583709717]], [[-0.035449881106615067, -0.00038716942071914673, 0.03331714868545532, 0.019561342895030975, 0.03644018620252609, -0.02414790540933609, -0.004092253744602203, 0.012498792260885239, 0.007001794874668121, -0.0054411329329013824, 0.03249730169773102, 0.01439492404460907, 0.0033600032329559326, -0.006557660177350044, 0.009783565998077393, -0.0071328431367874146, -0.0026553981006145477, 0.02794167399406433, -0.03449035808444023, 0.037249088287353516, -0.031446121633052826, -0.005146678537130356, -0.0019887685775756836, 0.010816559195518494, -0.0013030432164669037, -0.03593840077519417, 0.027919135987758636, 0.006574898958206177, 0.007133454084396362, 0.02795472741127014, 0.02806052565574646, -0.02586282044649124], [0.035302892327308655, -0.035209279507398605, 0.010814648121595383, -0.011197904124855995, -0.017697807401418686, 0.03608997166156769, 0.023215401917696, -0.035656437277793884, -0.019551320001482964, 0.019149020314216614, 0.029540158808231354, 0.011831510812044144, 0.03143593668937683, 0.031958214938640594, 0.0012585856020450592, -0.02541142702102661, -0.0017150230705738068, -0.006469534710049629, 0.025513775646686554, 0.006358157843351364, -0.007491555064916611, 0.0035385601222515106, -0.009280435740947723, 0.021284714341163635, 0.016746781766414642, 0.024360474199056625, 0.011311765760183334, -0.004575595259666443, -0.021188493818044662, -0.023315344005823135, -0.016331803053617477, -0.035945527255535126], [0.02057068422436714, -0.017833756282925606, -0.017188116908073425, 0.02747831493616104, 0.03297800570726395, -0.014266099780797958, 0.02799268066883087, -0.016472740098834038, 0.01514250785112381, -0.03480682894587517, -0.02580602467060089, 0.004448998719453812, -0.010456880554556847, -0.007521249353885651, 0.011859957128763199, 0.0370565801858902, -0.01856130175292492, -0.024183880537748337, 0.014382701367139816, -0.02893316000699997, -0.00744081474840641, -0.019104572013020515, -0.016372868791222572, 0.018700838088989258, 0.033485278487205505, -0.008970353752374649, -0.019245725125074387, -0.034018151462078094, 0.031570643186569214, -0.005051132291555405, -0.02045905403792858, 0.026634052395820618]]], [[[0.010005827993154526, -0.00920933298766613, 0.028213590383529663, -0.025998275727033615, -0.0355246439576149, 0.02897455543279648, -0.026489919051527977, -0.03596508130431175, -0.028576146811246872, 0.014619138091802597, 0.011752493679523468, 0.0033246278762817383, -0.01933176815509796, -0.006193850189447403, -0.002969454973936081, -0.03050820715725422, 0.010231111198663712, 0.01233455166220665, 0.02702511101961136, -0.030883386731147766, 0.028636783361434937, -0.016125014051795006, -0.012443935498595238, -0.03119727224111557, 0.018835917115211487, -0.02080547995865345, 0.024045366793870926, -0.0060857608914375305, 0.0376153439283371, -0.00944601558148861, -0.016599813476204872, 0.011958654969930649], [0.01774163544178009, 0.02375553920865059, -0.004155278205871582, 0.023696016520261765, -0.022556032985448837, -0.004432540386915207, 0.0002362169325351715, 0.012489639222621918, -0.0344143807888031, -0.006261218339204788, -0.023762371391057968, 0.006659846752882004, -0.02016344852745533, 0.0057944804430007935, -0.005423851311206818, -0.00019348040223121643, -0.014436185359954834, 0.01006704568862915, 0.030979633331298828, 0.0336381196975708, -0.025892488658428192, 0.03152661770582199, 0.020014014095067978, -0.012717140838503838, 0.001840982586145401, 0.03181682527065277, 0.01913493126630783, -0.005140442401170731, 0.027254275977611542, -0.01664457656443119, 0.029685787856578827, -0.029836103320121765], [-0.005111768841743469, 0.022382430732250214, -0.004472322762012482, -0.012125372886657715, -0.027953309938311577, 0.03533822298049927, 0.021817728877067566, 0.008743219077587128, 0.024382054805755615, 0.027007311582565308, 0.013038501143455505, 0.01622311770915985, 0.025338634848594666, 0.02692870795726776, -0.034065283834934235, 0.0030939504504203796, 0.02589011937379837, -0.0040564462542533875, 0.01614871621131897, -0.009135916829109192, 0.025318831205368042, -0.0063849203288555145, 0.03283657133579254, -0.031243784353137016, 0.017700742930173874, -0.005187097936868668, 0.03761968016624451, 0.008917737752199173, 0.03174921125173569, -0.0020478367805480957, 0.03690508008003235, 0.029005497694015503]], [[0.035676583647727966, -0.010555900633335114, 0.003227073699235916, 0.003249209374189377, 0.028517410159111023, 0.011144544929265976, -0.011362012475728989, 0.034200675785541534, -0.005837481468915939, 0.003529723733663559, -0.0002750903367996216, -0.023363158106803894, 0.0159149132668972, 0.030934922397136688, -0.03164185583591461, 0.02914147824048996, 0.003757476806640625, -0.0006495155394077301, -0.013350637629628181, -0.02339407429099083, 0.013508044183254242, -0.034905433654785156, 0.01219991222023964, -0.019071117043495178, 0.024214867502450943, 0.0009591393172740936, 0.024081945419311523, 0.027983881533145905, 0.007673908025026321, 0.005956873297691345, -0.02069452404975891, 0.03528343141078949], [0.024318672716617584, -0.005293618887662888, 0.03261342644691467, -0.02295719087123871, -0.024831146001815796, 0.009112440049648285, -0.0009751468896865845, -0.026818234473466873, -0.01873321644961834, 0.031304582953453064, 0.019590061157941818, 0.004182189702987671, -0.032223545014858246, -0.02090168185532093, 0.025429122149944305, 0.02584248036146164, -0.03678398206830025, -0.02402421459555626, 0.006500065326690674, -0.029320023953914642, 0.007289029657840729, 0.01492081955075264, -0.026035374030470848, -0.013342445716261864, 0.024651717394590378, 0.03530110418796539, 0.01922651380300522, 0.026417076587677002, 0.012710671871900558, 0.0010440945625305176, -0.009946202859282494, -0.017772624269127846], [-0.0343477688729763, -0.01618087664246559, 0.004654943943023682, 0.005053788423538208, -0.026399146765470505, -0.01604950614273548, -0.03662406653165817, -0.010663589462637901, -0.021144332364201546, 0.007537491619586945, -0.02920789271593094, -0.004096675664186478, -0.026203647255897522, -0.0323466882109642, -0.02415471524000168, 0.008330900222063065, -0.03578175976872444, -0.03170672804117203, 0.029473312199115753, 0.01792829856276512, 0.012609496712684631, 0.021360963582992554, -0.025063689798116684, 0.03169246017932892, -0.02837669849395752, 0.001554090529680252, -0.02116325870156288, 0.0001154877245426178, 0.021676134318113327, -0.03538680449128151, -0.0062829554080963135, -0.0018487386405467987]], [[0.03684622049331665, 0.014552857726812363, -0.03719799220561981, 0.0109795480966568, -0.014139709994196892, -0.03754286468029022, -0.02202475816011429, -0.011432988569140434, -0.03503817692399025, 0.001650337129831314, 0.018222108483314514, -0.0234626904129982, 0.008775942027568817, -0.03222692757844925, -0.006634406745433807, -0.011739274486899376, 0.024880535900592804, 0.006755124777555466, -0.02382552996277809, -0.01930818520486355, 0.018727418035268784, 0.03287398815155029, 0.017832104116678238, -0.01421298272907734, -0.011414052918553352, 0.03439784049987793, 0.008016850799322128, 0.014139082282781601, 0.013432849198579788, -0.03433629125356674, -0.02473655715584755, -0.012758878991007805], [-0.02878200262784958, 0.012415830045938492, -0.02694248966872692, -0.0007951743900775909, 0.017488155514001846, 0.013578604906797409, 0.005085967481136322, 0.01036999374628067, -0.02943587861955166, -0.023512333631515503, 0.004657268524169922, -0.005455482751131058, 0.034022144973278046, -0.03127691522240639, -0.010332688689231873, -0.0370730385184288, -0.01874430850148201, 0.035480156540870667, 0.013232305645942688, -0.03681184723973274, 0.023279782384634018, -0.003360167145729065, 0.0022459663450717926, -0.025498535484075546, -0.006428048014640808, 